{"learner":{"attributes":{"best_iteration":"99","best_ntree_limit":"100","scikit_learn":"{\"use_label_encoder\": null, \"n_estimators\": 100, \"objective\": \"binary:logistic\", \"max_depth\": null, \"max_leaves\": null, \"max_bin\": null, \"grow_policy\": null, \"learning_rate\": null, \"verbosity\": null, \"booster\": \"gbtree\", \"tree_method\": null, \"gamma\": null, \"min_child_weight\": null, \"max_delta_step\": null, \"subsample\": null, \"sampling_method\": null, \"colsample_bytree\": null, \"colsample_bylevel\": null, \"colsample_bynode\": null, \"reg_alpha\": null, \"reg_lambda\": null, \"scale_pos_weight\": null, \"base_score\": null, \"missing\": NaN, \"num_parallel_tree\": null, \"random_state\": null, \"n_jobs\": null, \"monotone_constraints\": null, \"interaction_constraints\": null, \"importance_type\": null, \"gpu_id\": null, \"validate_parameters\": null, \"predictor\": null, \"enable_categorical\": false, \"feature_types\": null, \"max_cat_to_onehot\": null, \"max_cat_threshold\": null, \"eval_metric\": null, \"early_stopping_rounds\": null, \"callbacks\": null, \"classes_\": [0.0, 1.0], \"n_classes_\": 2, \"_estimator_type\": \"classifier\"}"},"feature_names":[],"feature_types":[],"gradient_booster":{"model":{"gbtree_model_param":{"num_parallel_tree":"1","num_trees":"200","size_leaf_vector":"0"},"tree_info":[0,1,0,1,0,1,0,1,0,1,0,1,0,1,0,1,0,1,0,1,0,1,0,1,0,1,0,1,0,1,0,1,0,1,0,1,0,1,0,1,0,1,0,1,0,1,0,1,0,1,0,1,0,1,0,1,0,1,0,1,0,1,0,1,0,1,0,1,0,1,0,1,0,1,0,1,0,1,0,1,0,1,0,1,0,1,0,1,0,1,0,1,0,1,0,1,0,1,0,1,0,1,0,1,0,1,0,1,0,1,0,1,0,1,0,1,0,1,0,1,0,1,0,1,0,1,0,1,0,1,0,1,0,1,0,1,0,1,0,1,0,1,0,1,0,1,0,1,0,1,0,1,0,1,0,1,0,1,0,1,0,1,0,1,0,1,0,1,0,1,0,1,0,1,0,1,0,1,0,1,0,1,0,1,0,1,0,1,0,1,0,1,0,1,0,1,0,1,0,1],"trees":[{"base_weights":[-0E0,-1.6986674E0,5.841207E-1,-1.9033676E0,-1.0786918E0,7.6981825E-1,-1.8149894E0,-1.9623157E0,-1.68366E0,-1.4217759E0,-1.8380514E-1,-1.9130354E-1,9.970505E-1,-1.0758696E0,-1.9023217E0,-1.9866195E0,-1.8918241E0,-1.8074428E0,-1.1989708E0,-9.41655E-1,-1.5798858E0,4.477736E-1,-7.2036767E-1,1.2543301E-1,-1.053327E0,1.2210035E0,3.8977936E-2,-8.0395776E-1,-1.4693233E0,-1.7330073E0,-1.967554E0,-1.9915845E0,-1.9485208E0,-1.5632555E0,-1.9186811E0,-1.4947368E0,-1.8520056E0,-4.7106814E-1,-1.4089521E0,-1.5390362E-1,-1.4577129E0,-1.7479117E0,-1.3955919E0,9.290683E-1,-3.826892E-1,-1.56926E0,-5.9988564E-1,-7.734128E-1,4.5255268E-1,-1.4272805E0,-7.457554E-1,8.7126994E-1,1.4744425E0,-3.4945428E-1,7.6932E-1,-1.2473254E0,-5.0844616E-1,-9.5681065E-1,-1.5562509E0,-1.8467861E0,-1.6661878E0,-1.968133E0,8.5714287E-1,-1.9968529E0,-1.9787457E0,-1.9800849E0,-1.897223E0,-1.7259438E0,-1.0764573E0,-1.9467162E0,-1.7717339E0,-7.5751007E-1,-1.7064645E0,-1.9118513E0,-1.7805597E0,3.2513E-1,-1.0850723E0,-1.1574683E0,-1.5407959E0,-8.0254394E-1,2.9887974E-1,-1.1320716E0,-1.6771901E0,-6.1187214E-1,-1.7555805E0,-1.5562005E0,-1.1885052E0,4.324409E-1,1.1958902E0,-8.1570613E-1,2.580192E-1,-1.250867E0,-1.7879518E0,-4.2922005E-1,-1.4306022E0,-4.2951396E-1,-1.1476752E0,5.934965E-1,-1.17027014E-1,-1.1979487E0,-1.6152767E0,-3.3282593E-1,-1.11626E0,-2.849253E-2,1.0188701E0,1.5270282E0,5.530871E-1,-1.155157E-2,-8.4924227E-1,1.2138641E0,1.9498374E-1,-1.7419355E0,-1.0478426E0,-3.6439055E-1,-1.5105673E0,-1.2533333E0,-4.628821E-1,-1.6476386E0,-1.347806E0,-1.9572837E0,-1.8171593E0,-1.5269862E0,-1.7813647E0,-1.8926796E0,-1.9912817E0,1.2727273E0,-4E-1],"categories":[],"categories_nodes":[],"categories_segments":[],"categories_sizes":[],"default_left":[1,1,1,1,1,1,1,1,1,1,1,1,1,1,1,1,1,1,1,1,1,1,1,1,1,1,1,1,1,1,1,1,1,1,1,1,1,1,1,1,1,1,1,1,1,1,1,1,1,1,1,1,1,1,1,1,1,1,1,1,1,1,1,0,0,0,0,0,0,0,0,0,0,0,0,0,0,0,0,0,0,0,0,0,0,0,0,0,0,0,0,0,0,0,0,0,0,0,0,0,0,0,0,0,0,0,0,0,0,0,0,0,0,0,0,0,0,0,0,0,0,0,0,0,0,0,0],"id":0,"left_children":[1,3,5,7,9,11,13,15,17,19,21,23,25,27,29,31,33,35,37,39,41,43,45,47,49,51,53,55,57,59,61,63,65,67,69,71,73,75,77,79,81,83,85,87,89,91,93,95,97,99,101,103,105,107,109,111,113,115,117,119,121,123,125,-1,-1,-1,-1,-1,-1,-1,-1,-1,-1,-1,-1,-1,-1,-1,-1,-1,-1,-1,-1,-1,-1,-1,-1,-1,-1,-1,-1,-1,-1,-1,-1,-1,-1,-1,-1,-1,-1,-1,-1,-1,-1,-1,-1,-1,-1,-1,-1,-1,-1,-1,-1,-1,-1,-1,-1,-1,-1,-1,-1,-1,-1,-1,-1],"loss_changes":[8.84529E5,2.894675E4,2.9553044E5,2.2176875E3,1.7384133E4,1.344669E5,3.0741406E3,2.27875E2,2.1747188E3,3.105625E3,5.3184746E3,3.2144945E4,1.0684497E5,5.3783496E2,4.6732812E2,1.5125E1,3.030625E2,3.9995312E2,1.1279883E3,4.1228574E3,9.509844E2,2.881774E3,8.6689844E2,2.5315684E4,3.6375117E3,3.5773812E4,2.6765771E4,3.900027E2,9.018652E1,8.710156E1,5.1992188E1,2.09375E0,1.5082031E1,2.0613135E2,1.2861719E2,5.621968E2,1.0475E2,8.093085E2,1.882207E2,1.1795663E3,4.3605566E2,1.3920703E2,4.8669727E2,6.0429663E2,7.34241E2,7.1153564E1,1.0530913E3,2.9563896E3,5.0676855E3,6.1354297E2,2.6556133E3,2.2522875E4,1.1337781E4,1.040159E4,8.363334E3,1.1576013E2,2.5796436E2,4.350461E1,3.1263672E1,1.0780273E1,1.17259766E2,4.9945312E1,4.1662335E0,0E0,0E0,0E0,0E0,0E0,0E0,0E0,0E0,0E0,0E0,0E0,0E0,0E0,0E0,0E0,0E0,0E0,0E0,0E0,0E0,0E0,0E0,0E0,0E0,0E0,0E0,0E0,0E0,0E0,0E0,0E0,0E0,0E0,0E0,0E0,0E0,0E0,0E0,0E0,0E0,0E0,0E0,0E0,0E0,0E0,0E0,0E0,0E0,0E0,0E0,0E0,0E0,0E0,0E0,0E0,0E0,0E0,0E0,0E0,0E0,0E0,0E0,0E0,0E0],"parents":[2147483647,0,0,1,1,2,2,3,3,4,4,5,5,6,6,7,7,8,8,9,9,10,10,11,11,12,12,13,13,14,14,15,15,16,16,17,17,18,18,19,19,20,20,21,21,22,22,23,23,24,24,25,25,26,26,27,27,28,28,29,29,30,30,31,31,32,32,33,33,34,34,35,35,36,36,37,37,38,38,39,39,40,40,41,41,42,42,43,43,44,44,45,45,46,46,47,47,48,48,49,49,50,50,51,51,52,52,53,53,54,54,55,55,56,56,57,57,58,58,59,59,60,60,61,61,62,62],"right_children":[2,4,6,8,10,12,14,16,18,20,22,24,26,28,30,32,34,36,38,40,42,44,46,48,50,52,54,56,58,60,62,64,66,68,70,72,74,76,78,80,82,84,86,88,90,92,94,96,98,100,102,104,106,108,110,112,114,116,118,120,122,124,126,-1,-1,-1,-1,-1,-1,-1,-1,-1,-1,-1,-1,-1,-1,-1,-1,-1,-1,-1,-1,-1,-1,-1,-1,-1,-1,-1,-1,-1,-1,-1,-1,-1,-1,-1,-1,-1,-1,-1,-1,-1,-1,-1,-1,-1,-1,-1,-1,-1,-1,-1,-1,-1,-1,-1,-1,-1,-1,-1,-1,-1,-1,-1,-1],"split_conditions":[-5.069728E-1,-6.687877E-1,2.0163946E0,-7.7950937E-1,1.09349474E-1,-7.145762E-1,2.1657948E0,-8.8526857E-1,1.09349474E-1,-8.0584943E-1,-7.819829E-1,4.3798956E-1,9.545845E-1,4.3798956E-1,2.5242548E0,1.09349474E-1,-1.042083E0,-9.6608996E-1,-9.6521693E-1,-2.5080374E-1,-7.145762E-1,2.6579124E-1,-1.3431193E0,-2.6826894E-1,-1.508824E-1,1.09349474E-1,9.332751E-1,-7.145762E-1,8.31277E-1,-7.145762E-1,6.44446E0,-9.793425E-1,-9.829211E-1,1.09349474E-1,1.09349474E-1,-5.952004E-1,-7.145762E-1,-7.860541E-2,-8.01803E-1,-7.145762E-1,2.6579124E-1,-2.1449852E0,-5.745481E-1,-6.0272497E-1,9.332751E-1,-6.2401956E-1,1.1967202E0,-2.4040413E-1,1.0202503E0,9.545845E-1,5.174489E-1,-3.4240985E-1,6.9744277E-1,1.6433778E0,4.3575695E-1,2.1594231E-1,6.630927E-1,1.09349474E-1,3.484861E0,2.0513052E-1,2.6579124E-1,3.0110908E0,4.868933E0,-5.990559E-1,-5.9362376E-1,-5.940255E-1,-5.691669E-1,-5.1778316E-1,-3.229372E-1,-5.840149E-1,-5.315202E-1,-2.2725303E-1,-5.119394E-1,-5.735554E-1,-5.3416795E-1,9.7539E-2,-3.255217E-1,-3.472405E-1,-4.622388E-1,-2.4076319E-1,8.966392E-2,-3.3962148E-1,-5.03157E-1,-1.8356165E-1,-5.266742E-1,-4.6686018E-1,-3.5655156E-1,1.2973228E-1,3.5876706E-1,-2.4471185E-1,7.7405766E-2,-3.752601E-1,-5.363856E-1,-1.2876602E-1,-4.2918068E-1,-1.288542E-1,-3.4430256E-1,1.7804895E-1,-3.5108104E-2,-3.5938463E-1,-4.8458302E-1,-9.9847786E-2,-3.3487803E-1,-8.54776E-3,3.0566105E-1,4.5810848E-1,1.6592614E-1,-3.465471E-3,-2.547727E-1,3.6415923E-1,5.8495123E-2,-5.225807E-1,-3.143528E-1,-1.0931717E-1,-4.531702E-1,-3.7600002E-1,-1.3886464E-1,-4.9429157E-1,-4.0434182E-1,-5.8718514E-1,-5.4514784E-1,-4.5809588E-1,-5.344094E-1,-5.678039E-1,-5.973846E-1,3.818182E-1,-1.20000005E-1],"split_indices":[3,3,5,3,1,1,5,3,1,5,5,0,0,0,5,1,5,5,5,0,1,0,2,3,5,1,1,1,3,1,5,3,3,1,1,0,1,0,5,1,0,0,3,3,1,5,2,5,5,0,3,3,3,0,3,3,2,1,3,3,0,5,3,0,0,0,0,0,0,0,0,0,0,0,0,0,0,0,0,0,0,0,0,0,0,0,0,0,0,0,0,0,0,0,0,0,0,0,0,0,0,0,0,0,0,0,0,0,0,0,0,0,0,0,0,0,0,0,0,0,0,0,0,0,0,0,0],"split_type":[0,0,0,0,0,0,0,0,0,0,0,0,0,0,0,0,0,0,0,0,0,0,0,0,0,0,0,0,0,0,0,0,0,0,0,0,0,0,0,0,0,0,0,0,0,0,0,0,0,0,0,0,0,0,0,0,0,0,0,0,0,0,0,0,0,0,0,0,0,0,0,0,0,0,0,0,0,0,0,0,0,0,0,0,0,0,0,0,0,0,0,0,0,0,0,0,0,0,0,0,0,0,0,0,0,0,0,0,0,0,0,0,0,0,0,0,0,0,0,0,0,0,0,0,0,0,0],"sum_hessian":[8.914565E5,2.2810575E5,6.6335075E5,1.71484E5,5.662175E4,6.15695E5,4.765575E4,1.3520125E5,3.628275E4,4.09295E4,1.569225E4,1.1773075E5,4.9796425E5,5.03725E3,4.26185E4,1.00518E5,3.468325E4,2.88995E4,7.38325E3,1.014125E4,3.078825E4,7.208E3,8.48425E3,8.609675E4,3.1634E4,4.03617E5,9.434725E4,2.9805E3,2.05675E3,1.186075E4,3.075775E4,8.888325E4,1.163475E4,2.62525E3,3.2058E4,3.609E3,2.52905E4,1.65375E3,5.7295E3,4.0145E3,6.12675E3,1.61005E4,1.468775E4,4.56325E3,2.64475E3,1.053E3,7.43125E3,2.29725E4,6.312425E4,1.427475E4,1.735925E4,1.6959225E5,2.3402475E5,6.159075E4,3.27565E4,1.19075E3,1.78975E3,3E2,1.75675E3,4.3785E3,7.48225E3,3.075175E4,6E0,6.2913E4,2.597025E4,7.1795E3,4.45525E3,1.96575E3,6.595E2,2.69115E4,5.1465E3,8.0625E2,2.80275E3,1.37485E4,1.1542E4,7.2025E2,9.335E2,1.974E3,3.7555E3,1.65E3,2.3645E3,2.46925E3,3.6575E3,1.085E2,1.5992E4,8.2685E3,6.41925E3,1.59575E3,2.9675E3,1.578E3,1.06675E3,4.315E2,6.215E2,6.166E3,1.26525E3,1.1973E4,1.09995E4,5.06025E4,1.252175E4,6.43375E3,7.841E3,8.2105E3,9.14875E3,2.39E4,1.4569225E5,2.213885E5,1.263625E4,3.674725E4,2.48435E4,1.8464E4,1.42925E4,3.4E2,8.5075E2,1.566E3,2.2375E2,1.865E2,1.135E2,1.2165E3,5.4025E2,9.12E2,3.4665E3,3.39425E3,4.088E3,7.239E3,2.351275E4,4.5E0,1.5E0],"tree_param":{"num_deleted":"0","num_feature":"6","num_nodes":"127","size_leaf_vector":"0"}},{"base_weights":[-0E0,1.6986674E0,-5.841207E-1,1.9033676E0,1.0786918E0,-7.6981825E-1,1.8149894E0,1.9623157E0,1.68366E0,1.4217759E0,1.8380514E-1,1.9130354E-1,-9.970505E-1,1.0758696E0,1.9023217E0,1.9866195E0,1.8918241E0,1.8074428E0,1.1989708E0,9.41655E-1,1.5798858E0,-4.477736E-1,7.2036767E-1,-1.2543301E-1,1.053327E0,-1.2210035E0,-3.8977936E-2,8.0395776E-1,1.4693233E0,1.7330073E0,1.967554E0,1.9915845E0,1.9485208E0,1.5632555E0,1.9186811E0,1.4947368E0,1.8520056E0,4.7106814E-1,1.4089521E0,1.5390362E-1,1.4577129E0,1.7479117E0,1.3955919E0,-9.290683E-1,3.826892E-1,1.56926E0,5.9988564E-1,7.734128E-1,-4.5255268E-1,1.4272805E0,7.457554E-1,-8.7126994E-1,-1.4744425E0,3.4945428E-1,-7.6932E-1,1.2473254E0,5.0844616E-1,9.5681065E-1,1.5562509E0,1.8467861E0,1.6661878E0,1.968133E0,-8.5714287E-1,1.9968529E0,1.9787457E0,1.9800849E0,1.897223E0,1.7259438E0,1.0764573E0,1.9467162E0,1.7717339E0,7.5751007E-1,1.7064645E0,1.9118513E0,1.7805597E0,-3.2513E-1,1.0850723E0,1.1574683E0,1.5407959E0,8.0254394E-1,-2.9887974E-1,1.1320716E0,1.6771901E0,6.1187214E-1,1.7555805E0,1.5562005E0,1.1885052E0,-4.324409E-1,-1.1958902E0,8.1570613E-1,-2.580192E-1,1.250867E0,1.7879518E0,4.2922005E-1,1.4306022E0,4.2951396E-1,1.1476752E0,-5.934965E-1,1.17027014E-1,1.1979487E0,1.6152767E0,3.3282593E-1,1.11626E0,2.849253E-2,-1.0188701E0,-1.5270282E0,-5.530871E-1,1.155157E-2,8.4924227E-1,-1.2138641E0,-1.9498374E-1,1.7419355E0,1.0478426E0,3.6439055E-1,1.5105673E0,1.2533333E0,4.628821E-1,1.6476386E0,1.347806E0,1.9572837E0,1.8171593E0,1.5269862E0,1.7813647E0,1.8926796E0,1.9912817E0,-1.2727273E0,4E-1],"categories":[],"categories_nodes":[],"categories_segments":[],"categories_sizes":[],"default_left":[1,1,1,1,1,1,1,1,1,1,1,1,1,1,1,1,1,1,1,1,1,1,1,1,1,1,1,1,1,1,1,1,1,1,1,1,1,1,1,1,1,1,1,1,1,1,1,1,1,1,1,1,1,1,1,1,1,1,1,1,1,1,1,0,0,0,0,0,0,0,0,0,0,0,0,0,0,0,0,0,0,0,0,0,0,0,0,0,0,0,0,0,0,0,0,0,0,0,0,0,0,0,0,0,0,0,0,0,0,0,0,0,0,0,0,0,0,0,0,0,0,0,0,0,0,0,0],"id":1,"left_children":[1,3,5,7,9,11,13,15,17,19,21,23,25,27,29,31,33,35,37,39,41,43,45,47,49,51,53,55,57,59,61,63,65,67,69,71,73,75,77,79,81,83,85,87,89,91,93,95,97,99,101,103,105,107,109,111,113,115,117,119,121,123,125,-1,-1,-1,-1,-1,-1,-1,-1,-1,-1,-1,-1,-1,-1,-1,-1,-1,-1,-1,-1,-1,-1,-1,-1,-1,-1,-1,-1,-1,-1,-1,-1,-1,-1,-1,-1,-1,-1,-1,-1,-1,-1,-1,-1,-1,-1,-1,-1,-1,-1,-1,-1,-1,-1,-1,-1,-1,-1,-1,-1,-1,-1,-1,-1],"loss_changes":[8.84529E5,2.894675E4,2.9553044E5,2.2176875E3,1.7384133E4,1.344669E5,3.0741406E3,2.27875E2,2.1747188E3,3.105625E3,5.3184746E3,3.2144945E4,1.0684497E5,5.3783496E2,4.6732812E2,1.5125E1,3.030625E2,3.9995312E2,1.1279883E3,4.1228574E3,9.509844E2,2.881774E3,8.6689844E2,2.5315684E4,3.6375117E3,3.5773812E4,2.6765771E4,3.900027E2,9.018652E1,8.710156E1,5.1992188E1,2.09375E0,1.5082031E1,2.0613135E2,1.2861719E2,5.621968E2,1.0475E2,8.093085E2,1.882207E2,1.1795663E3,4.3605566E2,1.3920703E2,4.8669727E2,6.0429663E2,7.34241E2,7.1153564E1,1.0530913E3,2.9563896E3,5.0676855E3,6.1354297E2,2.6556133E3,2.2522875E4,1.1337781E4,1.040159E4,8.363334E3,1.1576013E2,2.5796436E2,4.350461E1,3.1263672E1,1.0780273E1,1.17259766E2,4.9945312E1,4.1662335E0,0E0,0E0,0E0,0E0,0E0,0E0,0E0,0E0,0E0,0E0,0E0,0E0,0E0,0E0,0E0,0E0,0E0,0E0,0E0,0E0,0E0,0E0,0E0,0E0,0E0,0E0,0E0,0E0,0E0,0E0,0E0,0E0,0E0,0E0,0E0,0E0,0E0,0E0,0E0,0E0,0E0,0E0,0E0,0E0,0E0,0E0,0E0,0E0,0E0,0E0,0E0,0E0,0E0,0E0,0E0,0E0,0E0,0E0,0E0,0E0,0E0,0E0,0E0,0E0],"parents":[2147483647,0,0,1,1,2,2,3,3,4,4,5,5,6,6,7,7,8,8,9,9,10,10,11,11,12,12,13,13,14,14,15,15,16,16,17,17,18,18,19,19,20,20,21,21,22,22,23,23,24,24,25,25,26,26,27,27,28,28,29,29,30,30,31,31,32,32,33,33,34,34,35,35,36,36,37,37,38,38,39,39,40,40,41,41,42,42,43,43,44,44,45,45,46,46,47,47,48,48,49,49,50,50,51,51,52,52,53,53,54,54,55,55,56,56,57,57,58,58,59,59,60,60,61,61,62,62],"right_children":[2,4,6,8,10,12,14,16,18,20,22,24,26,28,30,32,34,36,38,40,42,44,46,48,50,52,54,56,58,60,62,64,66,68,70,72,74,76,78,80,82,84,86,88,90,92,94,96,98,100,102,104,106,108,110,112,114,116,118,120,122,124,126,-1,-1,-1,-1,-1,-1,-1,-1,-1,-1,-1,-1,-1,-1,-1,-1,-1,-1,-1,-1,-1,-1,-1,-1,-1,-1,-1,-1,-1,-1,-1,-1,-1,-1,-1,-1,-1,-1,-1,-1,-1,-1,-1,-1,-1,-1,-1,-1,-1,-1,-1,-1,-1,-1,-1,-1,-1,-1,-1,-1,-1,-1,-1,-1],"split_conditions":[-5.069728E-1,-6.687877E-1,2.0163946E0,-7.7950937E-1,1.09349474E-1,-7.145762E-1,2.1657948E0,-8.8526857E-1,1.09349474E-1,-8.0584943E-1,-7.819829E-1,4.3798956E-1,9.545845E-1,4.3798956E-1,2.5242548E0,1.09349474E-1,-1.042083E0,-9.6608996E-1,-9.6521693E-1,-2.5080374E-1,-7.145762E-1,2.6579124E-1,-1.3431193E0,-2.6826894E-1,-1.508824E-1,1.09349474E-1,9.332751E-1,-7.145762E-1,8.31277E-1,-7.145762E-1,6.44446E0,-9.793425E-1,-9.829211E-1,1.09349474E-1,1.09349474E-1,-5.952004E-1,-7.145762E-1,-7.860541E-2,-8.01803E-1,-7.145762E-1,2.6579124E-1,-2.1449852E0,-5.745481E-1,-6.0272497E-1,9.332751E-1,-6.2401956E-1,1.1967202E0,-2.4040413E-1,1.0202503E0,9.545845E-1,5.174489E-1,-3.4240985E-1,6.9744277E-1,1.6433778E0,4.3575695E-1,2.1594231E-1,6.630927E-1,1.09349474E-1,3.484861E0,2.0513052E-1,2.6579124E-1,3.0110908E0,4.868933E0,5.990559E-1,5.9362376E-1,5.940255E-1,5.691669E-1,5.1778316E-1,3.229372E-1,5.840149E-1,5.315202E-1,2.2725303E-1,5.119394E-1,5.735554E-1,5.3416795E-1,-9.7539E-2,3.255217E-1,3.472405E-1,4.622388E-1,2.4076319E-1,-8.966392E-2,3.3962148E-1,5.03157E-1,1.8356165E-1,5.266742E-1,4.6686018E-1,3.5655156E-1,-1.2973228E-1,-3.5876706E-1,2.4471185E-1,-7.7405766E-2,3.752601E-1,5.363856E-1,1.2876602E-1,4.2918068E-1,1.288542E-1,3.4430256E-1,-1.7804895E-1,3.5108104E-2,3.5938463E-1,4.8458302E-1,9.9847786E-2,3.3487803E-1,8.54776E-3,-3.0566105E-1,-4.5810848E-1,-1.6592614E-1,3.465471E-3,2.547727E-1,-3.6415923E-1,-5.8495123E-2,5.225807E-1,3.143528E-1,1.0931717E-1,4.531702E-1,3.7600002E-1,1.3886464E-1,4.9429157E-1,4.0434182E-1,5.8718514E-1,5.4514784E-1,4.5809588E-1,5.344094E-1,5.678039E-1,5.973846E-1,-3.818182E-1,1.20000005E-1],"split_indices":[3,3,5,3,1,1,5,3,1,5,5,0,0,0,5,1,5,5,5,0,1,0,2,3,5,1,1,1,3,1,5,3,3,1,1,0,1,0,5,1,0,0,3,3,1,5,2,5,5,0,3,3,3,0,3,3,2,1,3,3,0,5,3,0,0,0,0,0,0,0,0,0,0,0,0,0,0,0,0,0,0,0,0,0,0,0,0,0,0,0,0,0,0,0,0,0,0,0,0,0,0,0,0,0,0,0,0,0,0,0,0,0,0,0,0,0,0,0,0,0,0,0,0,0,0,0,0],"split_type":[0,0,0,0,0,0,0,0,0,0,0,0,0,0,0,0,0,0,0,0,0,0,0,0,0,0,0,0,0,0,0,0,0,0,0,0,0,0,0,0,0,0,0,0,0,0,0,0,0,0,0,0,0,0,0,0,0,0,0,0,0,0,0,0,0,0,0,0,0,0,0,0,0,0,0,0,0,0,0,0,0,0,0,0,0,0,0,0,0,0,0,0,0,0,0,0,0,0,0,0,0,0,0,0,0,0,0,0,0,0,0,0,0,0,0,0,0,0,0,0,0,0,0,0,0,0,0],"sum_hessian":[8.914565E5,2.2810575E5,6.6335075E5,1.71484E5,5.662175E4,6.15695E5,4.765575E4,1.3520125E5,3.628275E4,4.09295E4,1.569225E4,1.1773075E5,4.9796425E5,5.03725E3,4.26185E4,1.00518E5,3.468325E4,2.88995E4,7.38325E3,1.014125E4,3.078825E4,7.208E3,8.48425E3,8.609675E4,3.1634E4,4.03617E5,9.434725E4,2.9805E3,2.05675E3,1.186075E4,3.075775E4,8.888325E4,1.163475E4,2.62525E3,3.2058E4,3.609E3,2.52905E4,1.65375E3,5.7295E3,4.0145E3,6.12675E3,1.61005E4,1.468775E4,4.56325E3,2.64475E3,1.053E3,7.43125E3,2.29725E4,6.312425E4,1.427475E4,1.735925E4,1.6959225E5,2.3402475E5,6.159075E4,3.27565E4,1.19075E3,1.78975E3,3E2,1.75675E3,4.3785E3,7.48225E3,3.075175E4,6E0,6.2913E4,2.597025E4,7.1795E3,4.45525E3,1.96575E3,6.595E2,2.69115E4,5.1465E3,8.0625E2,2.80275E3,1.37485E4,1.1542E4,7.2025E2,9.335E2,1.974E3,3.7555E3,1.65E3,2.3645E3,2.46925E3,3.6575E3,1.085E2,1.5992E4,8.2685E3,6.41925E3,1.59575E3,2.9675E3,1.578E3,1.06675E3,4.315E2,6.215E2,6.166E3,1.26525E3,1.1973E4,1.09995E4,5.06025E4,1.252175E4,6.43375E3,7.841E3,8.2105E3,9.14875E3,2.39E4,1.4569225E5,2.213885E5,1.263625E4,3.674725E4,2.48435E4,1.8464E4,1.42925E4,3.4E2,8.5075E2,1.566E3,2.2375E2,1.865E2,1.135E2,1.2165E3,5.4025E2,9.12E2,3.4665E3,3.39425E3,4.088E3,7.239E3,2.351275E4,4.5E0,1.5E0],"tree_param":{"num_deleted":"0","num_feature":"6","num_nodes":"127","size_leaf_vector":"0"}},{"base_weights":[-1.9865758E-3,-1.2452781E0,4.444416E-1,-1.4378695E0,-6.5588665E-1,5.852023E-1,-1.3581642E0,-1.5061417E0,-1.1960665E0,-9.5539343E-1,2.0628948E-2,8.0296093E-1,2.5125094E-2,-6.466195E-1,-1.4517703E0,-1.5326136E0,-1.4211597E0,-1.3288345E0,-7.3697805E-1,-5.003844E-1,-1.1279742E0,4.976918E-1,-4.445472E-1,1.1332885E-1,9.824506E-1,-5.744341E-1,4.96456E-1,-3.8068235E-1,-1.0608613E0,-1.2406572E0,-1.5063076E0,-1.5419852E0,-1.5046457E0,-1.0978212E0,-1.4564211E0,-1.0545793E0,-1.3890744E0,-2.032596E-1,-9.8923665E-1,9.8623395E-2,-1.0671023E0,-1.2877353E0,-9.6196043E-1,8.1417036E-1,-2.666822E-1,-3.4293324E-1,-1.3757658E0,-6.317192E-1,2.7114856E-1,7.475138E-1,1.164479E0,-3.781737E-1,-9.527632E-1,7.793302E-1,-2.4776895E-2,-1.2521542E0,-1.9578932E-1,-1.4974306E0,-9.9734163E-1,-1.4678988E0,-1.2003214E0,-1.4313347E0,-1.5387317E0,-1.5445169E0,-1.521135E0,-1.3380874E0,-1.517989E0,-7.2287357E-1,-1.3269922E0,-1.4701351E0,-1.1149315E0,-1.7689049E-1,-1.23107E0,-1.4564308E0,-1.3107673E0,3.373682E-1,-8.145522E-1,-1.0995713E0,-6.702283E-1,-4.5951986E-1,4.5265332E-1,-1.3957967E0,-8.5965663E-1,-1.2211082E0,-1.4193832E0,-8.363605E-1,-1.2977381E0,9.9454594E-1,4.922836E-1,-6.386914E-1,2.3875292E-1,-1.2116642E0,-1.9662891E-1,-9.6091694E-1,-1.6241814E0,-6.2035997E-3,-7.7333623E-1,5.0136584E-1,-8.7707944E-2,9.21832E-1,4.076298E-1,4.4064572E-1,1.2042309E0,-7.402086E-1,-8.929804E-2,-1.2234067E0,-7.8967685E-1,5.349543E-1,1.000357E0,1.6561179E-1,-4.721671E-1,-1.5171216E0,-9.5269394E-1,-1.2624416E0,-4.84804E-2,-1.6537818E0,-1.327504E0,-8.9226794E-1,-1.3726298E0,-1.4815575E0,-9.7637326E-1,-1.1425675E0,-1.457947E0,-1.4393842E0,-7.4771976E-1,-1.5393348E0,6.558153E-1],"categories":[],"categories_nodes":[],"categories_segments":[],"categories_sizes":[],"default_left":[1,1,1,1,1,1,1,1,1,1,1,1,1,1,1,1,1,1,1,1,1,1,1,1,1,1,1,1,1,1,1,1,1,1,1,1,1,1,1,1,1,1,1,1,1,1,1,1,1,1,1,1,1,1,1,1,1,1,1,1,1,1,1,0,0,0,0,0,0,0,0,0,0,0,0,0,0,0,0,0,0,0,0,0,0,0,0,0,0,0,0,0,0,0,0,0,0,0,0,0,0,0,0,0,0,0,0,0,0,0,0,0,0,0,0,0,0,0,0,0,0,0,0,0,0,0,0],"id":2,"left_children":[1,3,5,7,9,11,13,15,17,19,21,23,25,27,29,31,33,35,37,39,41,43,45,47,49,51,53,55,57,59,61,63,65,67,69,71,73,75,77,79,81,83,85,87,89,91,93,95,97,99,101,103,105,107,109,111,113,115,117,119,121,123,125,-1,-1,-1,-1,-1,-1,-1,-1,-1,-1,-1,-1,-1,-1,-1,-1,-1,-1,-1,-1,-1,-1,-1,-1,-1,-1,-1,-1,-1,-1,-1,-1,-1,-1,-1,-1,-1,-1,-1,-1,-1,-1,-1,-1,-1,-1,-1,-1,-1,-1,-1,-1,-1,-1,-1,-1,-1,-1,-1,-1,-1,-1,-1,-1],"loss_changes":[4.7453362E5,2.5639156E4,1.5961916E5,2.8087812E3,1.1272457E4,7.116566E4,3.0338984E3,2.9646875E2,2.284129E3,3.0274883E3,3.7889897E3,5.2007188E4,4.616344E4,5.833606E2,4.617578E2,2.421875E1,3.580703E2,4.789453E2,1.1323774E3,3.600423E3,7.402383E2,2.0393049E3,8.175244E2,1.020292E4,1.4256281E4,5.3381914E3,1.3485064E4,5.200134E2,5.5945557E1,7.40625E1,7.5578125E1,1.640625E0,5.451953E1,2.6593213E2,1.315586E2,8.116382E2,1.2383203E2,8.92955E2,2.0031396E2,1.01920917E3,3.704038E2,1.2320117E2,5.772803E2,3.4562817E2,4.6436322E2,9.905585E2,8.6052124E1,1.3435996E3,5.9155913E3,8.622766E3,5.404375E3,4.951129E3,1.0829629E3,3.201664E3,2.7406885E3,4.3381775E1,4.1866483E2,4.741516E0,7.019629E1,6.8950195E0,1.0294531E2,5.2158203E1,3.0554688E1,0E0,0E0,0E0,0E0,0E0,0E0,0E0,0E0,0E0,0E0,0E0,0E0,0E0,0E0,0E0,0E0,0E0,0E0,0E0,0E0,0E0,0E0,0E0,0E0,0E0,0E0,0E0,0E0,0E0,0E0,0E0,0E0,0E0,0E0,0E0,0E0,0E0,0E0,0E0,0E0,0E0,0E0,0E0,0E0,0E0,0E0,0E0,0E0,0E0,0E0,0E0,0E0,0E0,0E0,0E0,0E0,0E0,0E0,0E0,0E0,0E0,0E0,0E0,0E0],"parents":[2147483647,0,0,1,1,2,2,3,3,4,4,5,5,6,6,7,7,8,8,9,9,10,10,11,11,12,12,13,13,14,14,15,15,16,16,17,17,18,18,19,19,20,20,21,21,22,22,23,23,24,24,25,25,26,26,27,27,28,28,29,29,30,30,31,31,32,32,33,33,34,34,35,35,36,36,37,37,38,38,39,39,40,40,41,41,42,42,43,43,44,44,45,45,46,46,47,47,48,48,49,49,50,50,51,51,52,52,53,53,54,54,55,55,56,56,57,57,58,58,59,59,60,60,61,61,62,62],"right_children":[2,4,6,8,10,12,14,16,18,20,22,24,26,28,30,32,34,36,38,40,42,44,46,48,50,52,54,56,58,60,62,64,66,68,70,72,74,76,78,80,82,84,86,88,90,92,94,96,98,100,102,104,106,108,110,112,114,116,118,120,122,124,126,-1,-1,-1,-1,-1,-1,-1,-1,-1,-1,-1,-1,-1,-1,-1,-1,-1,-1,-1,-1,-1,-1,-1,-1,-1,-1,-1,-1,-1,-1,-1,-1,-1,-1,-1,-1,-1,-1,-1,-1,-1,-1,-1,-1,-1,-1,-1,-1,-1,-1,-1,-1,-1,-1,-1,-1,-1,-1,-1,-1,-1,-1,-1,-1],"split_conditions":[-4.723509E-1,-6.307335E-1,1.9730856E0,-7.513732E-1,1.09349474E-1,6.101879E-1,2.1370544E0,-8.554969E-1,1.09349474E-1,-7.640685E-1,-7.4836004E-1,-7.145762E-1,1.09349474E-1,1.111249E0,2.3829055E0,-9.40069E-1,-1.0179135E0,-9.1485965E-1,-9.0711796E-1,-7.860541E-2,-7.145762E-1,4.3798956E-1,1.4085541E0,-3.1865287E-1,1.09349474E-1,1.4711795E0,4.8310748E-1,1.4264584E-1,-6.8868446E-1,-6.079701E-1,2.9295688E0,1.09349474E-1,-1.0591795E0,-2.5080374E-1,9.332751E-1,-7.673987E-1,-7.145762E-1,9.359291E-2,9.332751E-1,-7.145762E-1,-7.145762E-1,-2.5080374E-1,9.359291E-2,-7.860541E-2,9.332751E-1,-1.2262474E0,-6.09885E-1,-7.1504545E-1,-2.5080374E-1,-7.860541E-2,-1.4435555E0,-1.7563722E-1,-2.00542E-1,9.332751E-1,2.1599727E0,-7.863509E-3,-6.49874E-1,-8.987944E-1,5.426413E-1,6.536517E0,6.092558E-1,8.667719E0,6.44446E0,-4.633551E-1,-4.5634052E-1,-4.0142626E-1,-4.5539674E-1,-2.1686208E-1,-3.9809766E-1,-4.4104055E-1,-3.3447945E-1,-5.306715E-2,-3.6932102E-1,-4.3692926E-1,-3.932302E-1,1.0121046E-1,-2.4436566E-1,-3.2987142E-1,-2.010685E-1,-1.3785596E-1,1.35796E-1,-4.1873902E-1,-2.57897E-1,-3.6633247E-1,-4.2581496E-1,-2.5090817E-1,-3.8932145E-1,2.983638E-1,1.476851E-1,-1.9160743E-1,7.162588E-2,-3.6349928E-1,-5.8988675E-2,-2.882751E-1,-4.8725444E-1,-1.86108E-3,-2.3200087E-1,1.5040976E-1,-2.6312385E-2,2.765496E-1,1.2228894E-1,1.3219373E-1,3.612693E-1,-2.220626E-1,-2.6789414E-2,-3.67022E-1,-2.3690306E-1,1.604863E-1,3.0010712E-1,4.9683537E-2,-1.4165014E-1,-4.5513648E-1,-2.858082E-1,-3.787325E-1,-1.454412E-2,-4.9613455E-1,-3.9825124E-1,-2.676804E-1,-4.1178894E-1,-4.4446728E-1,-2.9291198E-1,-3.4277028E-1,-4.3738413E-1,-4.318153E-1,-2.2431594E-1,-4.6180046E-1,1.967446E-1],"split_indices":[3,3,5,3,1,0,5,3,1,5,5,1,1,3,5,3,5,5,5,0,1,0,2,3,1,0,3,3,2,2,5,1,5,0,1,0,1,0,1,1,1,0,0,0,1,2,5,5,0,0,2,5,5,1,0,3,2,2,2,3,2,3,5,0,0,0,0,0,0,0,0,0,0,0,0,0,0,0,0,0,0,0,0,0,0,0,0,0,0,0,0,0,0,0,0,0,0,0,0,0,0,0,0,0,0,0,0,0,0,0,0,0,0,0,0,0,0,0,0,0,0,0,0,0,0,0,0],"split_type":[0,0,0,0,0,0,0,0,0,0,0,0,0,0,0,0,0,0,0,0,0,0,0,0,0,0,0,0,0,0,0,0,0,0,0,0,0,0,0,0,0,0,0,0,0,0,0,0,0,0,0,0,0,0,0,0,0,0,0,0,0,0,0,0,0,0,0,0,0,0,0,0,0,0,0,0,0,0,0,0,0,0,0,0,0,0,0,0,0,0,0,0,0,0,0,0,0,0,0,0,0,0,0,0,0,0,0,0,0,0,0,0,0,0,0,0,0,0,0,0,0,0,0,0,0,0,0],"sum_hessian":[8.549513E5,2.258798E5,6.290715E5,1.702477E5,5.5632094E4,5.835076E5,4.5563887E4,1.3275858E5,3.7489117E4,3.856028E4,1.707181E4,4.2015175E5,1.633559E5,5.2981323E3,4.0265758E4,1.0121345E5,3.1545129E4,2.9077912E4,8.411206E3,1.0604751E4,2.7955531E4,8.4281875E3,8.643624E3,8.676942E4,3.333823E5,7.189774E4,9.145816E4,3.2278315E3,2.070301E3,8.271324E3,3.1994432E4,7.577021E4,2.5443242E4,3.105019E3,2.844011E4,5.240028E3,2.3837885E4,2.7001484E3,5.7110576E3,5.1559043E3,5.4488467E3,1.4242594E4,1.37129375E4,5.9603296E3,2.4678577E3,7.7944653E3,8.491585E2,1.516662E4,7.16028E4,1.455421E5,1.8784023E5,4.7341215E4,2.4556527E4,5.928407E4,3.2174084E4,5.639493E2,2.663882E3,2.6009573E2,1.8102052E3,1.241521E3,7.0298027E3,9.673033E3,2.2321398E4,6.7500766E4,8.269443E3,1.8946411E3,2.3548602E4,1.1794573E3,1.9255616E3,2.7338904E4,1.1012045E3,8.776205E2,4.362407E3,1.28055205E4,1.1032363E4,1.4331326E3,1.2670159E3,4.241584E3,1.4694736E3,2.0009785E3,3.1549258E3,2.106075E3,3.3427717E3,9.463418E3,4.779176E3,9.982433E3,3.7305054E3,3.8184797E3,2.1418496E3,1.4214106E3,1.046447E3,1.1224227E3,6.6720425E3,3.1986264E2,5.292959E2,2.8000383E3,1.2366582E4,4.36193E4,2.7983498E4,9.620115E4,4.9340945E4,9.7795E3,1.7806073E5,2.1009451E4,2.6331766E4,9.231032E3,1.5325494E4,2.8156537E4,3.1127535E4,2.2569973E4,9.604111E3,2.9704913E2,2.6690018E2,3.223319E2,2.3415503E3,1.309109E2,1.2918481E2,1.4168822E3,3.9332306E2,1.2059945E3,3.552649E1,5.746909E3,1.2828934E3,9.559367E3,1.136659E2,2.2315564E4,5.834509E0],"tree_param":{"num_deleted":"0","num_feature":"6","num_nodes":"127","size_leaf_vector":"0"}},{"base_weights":[1.986509E-3,1.2452781E0,-4.4444165E-1,1.4378695E0,6.558866E-1,-5.852024E-1,1.3581642E0,1.5061417E0,1.1960665E0,9.5539343E-1,-2.0628951E-2,-8.02961E-1,-2.512515E-2,6.466195E-1,1.4517702E0,1.5326136E0,1.4211597E0,1.3288345E0,7.3697805E-1,5.003844E-1,1.1279742E0,-4.9769175E-1,4.4454715E-1,-1.1332884E-1,-9.8245066E-1,5.744341E-1,-4.964561E-1,3.8068238E-1,1.0608613E0,1.2406571E0,1.5063075E0,1.5419852E0,1.5046457E0,1.0978212E0,1.4564211E0,1.0545793E0,1.3890743E0,2.0325959E-1,9.8923665E-1,-9.862339E-2,1.0671022E0,1.2877352E0,9.619605E-1,-8.141703E-1,2.6668224E-1,3.4293318E-1,1.3757658E0,6.3171905E-1,-2.7114853E-1,-7.475138E-1,-1.1644791E0,3.7817374E-1,9.527631E-1,-7.7933025E-1,2.4776863E-2,1.2521542E0,1.9578934E-1,1.4974306E0,9.973417E-1,1.4678987E0,1.2003213E0,1.4313283E0,1.5387322E0,1.5445169E0,1.521135E0,1.3380874E0,1.517989E0,7.2287357E-1,1.3269922E0,1.4701351E0,1.1149315E0,1.7689048E-1,1.23107E0,1.4564308E0,1.3107673E0,-3.373682E-1,8.145521E-1,1.0995713E0,6.702283E-1,4.595198E-1,-4.526533E-1,1.3957967E0,8.5965663E-1,1.2211081E0,1.419383E0,8.363606E-1,1.2977381E0,-9.945458E-1,-4.9228355E-1,6.3869137E-1,-2.387528E-1,1.2116642E0,1.9662884E-1,9.609169E-1,1.6241813E0,6.203447E-3,7.733362E-1,-5.0136584E-1,8.7708E-2,-9.21832E-1,-4.076298E-1,-4.4064593E-1,-1.204231E0,7.402086E-1,8.929811E-2,1.2234064E0,7.896768E-1,-5.349544E-1,-1.0003572E0,-1.6561182E-1,4.7216707E-1,1.5171217E0,9.52694E-1,1.2624416E0,4.8480414E-2,1.6537818E0,1.327504E0,8.92268E-1,1.3726299E0,1.4815574E0,9.763731E-1,1.1425674E0,1.4579469E0,1.439378E0,7.4771976E-1,1.5393353E0,-6.5581536E-1],"categories":[],"categories_nodes":[],"categories_segments":[],"categories_sizes":[],"default_left":[1,1,1,1,1,1,1,1,1,1,1,1,1,1,1,1,1,1,1,1,1,1,1,1,1,1,1,1,1,1,1,1,1,1,1,1,1,1,1,1,1,1,1,1,1,1,1,1,1,1,1,1,1,1,1,1,1,1,1,1,1,1,1,0,0,0,0,0,0,0,0,0,0,0,0,0,0,0,0,0,0,0,0,0,0,0,0,0,0,0,0,0,0,0,0,0,0,0,0,0,0,0,0,0,0,0,0,0,0,0,0,0,0,0,0,0,0,0,0,0,0,0,0,0,0,0,0],"id":3,"left_children":[1,3,5,7,9,11,13,15,17,19,21,23,25,27,29,31,33,35,37,39,41,43,45,47,49,51,53,55,57,59,61,63,65,67,69,71,73,75,77,79,81,83,85,87,89,91,93,95,97,99,101,103,105,107,109,111,113,115,117,119,121,123,125,-1,-1,-1,-1,-1,-1,-1,-1,-1,-1,-1,-1,-1,-1,-1,-1,-1,-1,-1,-1,-1,-1,-1,-1,-1,-1,-1,-1,-1,-1,-1,-1,-1,-1,-1,-1,-1,-1,-1,-1,-1,-1,-1,-1,-1,-1,-1,-1,-1,-1,-1,-1,-1,-1,-1,-1,-1,-1,-1,-1,-1,-1,-1,-1],"loss_changes":[4.7453366E5,2.5639156E4,1.5961919E5,2.8087812E3,1.1272455E4,7.116566E4,3.0338984E3,2.9646875E2,2.284125E3,3.0274883E3,3.7889888E3,5.2007188E4,4.6163445E4,5.8336084E2,4.617422E2,2.421875E1,3.580703E2,4.7894922E2,1.1323774E3,3.600422E3,7.402383E2,2.0393044E3,8.175239E2,1.0202918E4,1.42563125E4,5.3381934E3,1.3485064E4,5.2001355E2,5.5945312E1,7.40625E1,7.558594E1,1.640625E0,5.451953E1,2.659319E2,1.315586E2,8.116382E2,1.2383594E2,8.92955E2,2.0031396E2,1.01920905E3,3.704048E2,1.23203125E2,5.772822E2,3.4562842E2,4.6436298E2,9.905586E2,8.6052246E1,1.3435991E3,5.9155903E3,8.622766E3,5.4043906E3,4.9511274E3,1.082959E3,3.201668E3,2.7406885E3,4.3381775E1,4.186648E2,4.741455E0,7.019629E1,6.8950195E0,1.0294531E2,5.215625E1,3.0554688E1,0E0,0E0,0E0,0E0,0E0,0E0,0E0,0E0,0E0,0E0,0E0,0E0,0E0,0E0,0E0,0E0,0E0,0E0,0E0,0E0,0E0,0E0,0E0,0E0,0E0,0E0,0E0,0E0,0E0,0E0,0E0,0E0,0E0,0E0,0E0,0E0,0E0,0E0,0E0,0E0,0E0,0E0,0E0,0E0,0E0,0E0,0E0,0E0,0E0,0E0,0E0,0E0,0E0,0E0,0E0,0E0,0E0,0E0,0E0,0E0,0E0,0E0,0E0,0E0],"parents":[2147483647,0,0,1,1,2,2,3,3,4,4,5,5,6,6,7,7,8,8,9,9,10,10,11,11,12,12,13,13,14,14,15,15,16,16,17,17,18,18,19,19,20,20,21,21,22,22,23,23,24,24,25,25,26,26,27,27,28,28,29,29,30,30,31,31,32,32,33,33,34,34,35,35,36,36,37,37,38,38,39,39,40,40,41,41,42,42,43,43,44,44,45,45,46,46,47,47,48,48,49,49,50,50,51,51,52,52,53,53,54,54,55,55,56,56,57,57,58,58,59,59,60,60,61,61,62,62],"right_children":[2,4,6,8,10,12,14,16,18,20,22,24,26,28,30,32,34,36,38,40,42,44,46,48,50,52,54,56,58,60,62,64,66,68,70,72,74,76,78,80,82,84,86,88,90,92,94,96,98,100,102,104,106,108,110,112,114,116,118,120,122,124,126,-1,-1,-1,-1,-1,-1,-1,-1,-1,-1,-1,-1,-1,-1,-1,-1,-1,-1,-1,-1,-1,-1,-1,-1,-1,-1,-1,-1,-1,-1,-1,-1,-1,-1,-1,-1,-1,-1,-1,-1,-1,-1,-1,-1,-1,-1,-1,-1,-1,-1,-1,-1,-1,-1,-1,-1,-1,-1,-1,-1,-1,-1,-1,-1],"split_conditions":[-4.723509E-1,-6.307335E-1,1.9730856E0,-7.513732E-1,1.09349474E-1,6.101879E-1,2.1370544E0,-8.554969E-1,1.09349474E-1,-7.640685E-1,-7.4836004E-1,-7.145762E-1,1.09349474E-1,1.111249E0,2.3829055E0,-9.40069E-1,-1.0179135E0,-9.1485965E-1,-9.0711796E-1,-7.860541E-2,-7.145762E-1,4.3798956E-1,1.4085541E0,-3.1865287E-1,1.09349474E-1,1.4711795E0,4.8310748E-1,1.4264584E-1,-6.8868446E-1,-6.079701E-1,2.9295E0,1.09349474E-1,-1.0591795E0,-2.5080374E-1,9.332751E-1,-7.673987E-1,-7.145762E-1,9.359291E-2,9.332751E-1,-7.145762E-1,-7.145762E-1,-2.5080374E-1,9.359291E-2,-7.860541E-2,9.332751E-1,-1.2262474E0,-6.09885E-1,-7.1504545E-1,-2.5080374E-1,-7.860541E-2,-1.4435555E0,-1.7563722E-1,-2.00542E-1,9.332751E-1,2.1599727E0,-7.863509E-3,-6.49874E-1,-8.987944E-1,5.426413E-1,6.536517E0,6.092558E-1,8.667719E0,6.44446E0,4.633551E-1,4.5634052E-1,4.0142626E-1,4.5539674E-1,2.1686208E-1,3.9809766E-1,4.4104055E-1,3.3447945E-1,5.3067144E-2,3.6932102E-1,4.3692926E-1,3.932302E-1,-1.0121046E-1,2.4436565E-1,3.2987142E-1,2.010685E-1,1.3785595E-1,-1.35796E-1,4.1873902E-1,2.57897E-1,3.6633244E-1,4.2581493E-1,2.509082E-1,3.8932145E-1,-2.9836375E-1,-1.4768507E-1,1.9160742E-1,-7.162584E-2,3.6349928E-1,5.8988653E-2,2.8827506E-1,4.872544E-1,1.8610342E-3,2.3200086E-1,-1.5040976E-1,2.63124E-2,-2.765496E-1,-1.2228894E-1,-1.3219379E-1,-3.6126933E-1,2.220626E-1,2.6789432E-2,3.6702195E-1,2.3690304E-1,-1.6048634E-1,-3.0010715E-1,-4.968355E-2,1.4165013E-1,4.551365E-1,2.858082E-1,3.787325E-1,1.4544125E-2,4.9613455E-1,3.9825124E-1,2.676804E-1,4.1178897E-1,4.4446722E-1,2.9291195E-1,3.4277022E-1,4.373841E-1,4.3181342E-1,2.2431594E-1,4.618006E-1,-1.9674462E-1],"split_indices":[3,3,5,3,1,0,5,3,1,5,5,1,1,3,5,3,5,5,5,0,1,0,2,3,1,0,3,3,2,2,5,1,5,0,1,0,1,0,1,1,1,0,0,0,1,2,5,5,0,0,2,5,5,1,0,3,2,2,2,3,2,3,5,0,0,0,0,0,0,0,0,0,0,0,0,0,0,0,0,0,0,0,0,0,0,0,0,0,0,0,0,0,0,0,0,0,0,0,0,0,0,0,0,0,0,0,0,0,0,0,0,0,0,0,0,0,0,0,0,0,0,0,0,0,0,0,0],"split_type":[0,0,0,0,0,0,0,0,0,0,0,0,0,0,0,0,0,0,0,0,0,0,0,0,0,0,0,0,0,0,0,0,0,0,0,0,0,0,0,0,0,0,0,0,0,0,0,0,0,0,0,0,0,0,0,0,0,0,0,0,0,0,0,0,0,0,0,0,0,0,0,0,0,0,0,0,0,0,0,0,0,0,0,0,0,0,0,0,0,0,0,0,0,0,0,0,0,0,0,0,0,0,0,0,0,0,0,0,0,0,0,0,0,0,0,0,0,0,0,0,0,0,0,0,0,0,0],"sum_hessian":[8.549513E5,2.258798E5,6.2907156E5,1.702477E5,5.5632094E4,5.835076E5,4.5563887E4,1.3275858E5,3.7489117E4,3.856028E4,1.707181E4,4.2015175E5,1.6335589E5,5.2981323E3,4.0265758E4,1.0121345E5,3.1545129E4,2.9077912E4,8.411206E3,1.0604751E4,2.7955531E4,8.4281875E3,8.643624E3,8.676942E4,3.3338234E5,7.189774E4,9.145816E4,3.2278313E3,2.070301E3,8.271324E3,3.1994432E4,7.577021E4,2.5443242E4,3.105019E3,2.844011E4,5.240028E3,2.3837885E4,2.7001484E3,5.711057E3,5.1559043E3,5.4488467E3,1.4242594E4,1.37129375E4,5.9603296E3,2.4678577E3,7.7944653E3,8.4915857E2,1.5166621E4,7.16028E4,1.455421E5,1.8784025E5,4.7341215E4,2.4556525E4,5.9284074E4,3.2174082E4,5.639493E2,2.663882E3,2.6009573E2,1.8102052E3,1.241521E3,7.0298027E3,9.672571E3,2.2321861E4,6.7500766E4,8.269443E3,1.8946412E3,2.3548602E4,1.1794573E3,1.9255618E3,2.7338904E4,1.1012045E3,8.776205E2,4.362407E3,1.28055205E4,1.1032363E4,1.4331326E3,1.2670159E3,4.2415835E3,1.4694735E3,2.0009785E3,3.1549255E3,2.106075E3,3.3427717E3,9.463418E3,4.779176E3,9.982432E3,3.7305051E3,3.81848E3,2.1418496E3,1.4214106E3,1.046447E3,1.1224227E3,6.6720425E3,3.1986264E2,5.292959E2,2.8000383E3,1.2366582E4,4.36193E4,2.7983496E4,9.620115E4,4.9340945E4,9.779501E3,1.7806073E5,2.1009451E4,2.6331766E4,9.231032E3,1.5325494E4,2.8156537E4,3.1127535E4,2.256997E4,9.604111E3,2.9704913E2,2.6690018E2,3.223319E2,2.34155E3,1.309109E2,1.2918481E2,1.4168822E3,3.9332306E2,1.2059945E3,3.5526485E1,5.746909E3,1.2828934E3,9.558905E3,1.1366589E2,2.2316025E4,5.8345094E0],"tree_param":{"num_deleted":"0","num_feature":"6","num_nodes":"127","size_leaf_vector":"0"}},{"base_weights":[-5.507648E-3,-1.1346155E0,3.0742326E-1,-1.277683E0,-7.8483254E-1,4.8259315E-1,-5.139766E-1,-1.3182936E0,-1.1458331E0,-9.6394163E-1,-3.0417138E-1,2.0493937E-1,8.2012796E-1,-2.7969116E-1,-1.2379032E0,-1.3289107E0,-1.2442063E0,-7.3114973E-1,-1.1946453E0,-6.708491E-1,-1.0539635E0,9.9274985E-2,-5.821618E-1,-3.649747E-1,3.7267017E-1,2.6538914E-1,8.9053786E-1,-5.412043E-1,7.620127E-3,-1.0025417E0,-1.3001487E0,-1.339077E0,-1.3015441E0,-1.3050623E0,-1.1330796E0,-9.584036E-1,-2.030951E-1,-1.2418232E0,-9.885999E-1,6.0646813E-2,-9.143227E-1,-1.162904E0,-9.3760204E-1,3.3117726E-1,-6.8404615E-1,-4.4437072E-1,-9.493834E-1,1.5629642E-1,-5.745489E-1,4.3396428E-1,-1.0847685E0,7.195139E-1,-2.034212E-1,9.528984E-1,2.654844E-1,-9.8977256E-1,-3.3069625E-1,7.181753E-2,-7.202191E-1,-6.0988903E-1,-1.097511E0,-1.2038244E0,-1.3312305E0,-1.1752942E0,-1.3123037E0,-1.3273125E0,-1.2557427E0,-6.179328E-1,-1.1848071E0,-3.1851673E-1,-1.0907351E0,5.271145E-1,-5.979157E-1,-1.2874188E0,-1.187835E0,-8.689207E-1,-1.1432762E0,-3.4450835E-1,3.8088074E-1,-1.1881489E0,-7.237752E-1,1.3627228E-1,-1.1683095E0,-8.783155E-1,-1.2765366E0,1.0567015E-1,7.514871E-1,-7.940114E-1,1.3834038E-1,-2.9100737E-1,-9.3936586E-1,-1.0272945E0,-1.2187415E-1,6.6902655E-1,-5.975037E-1,-3.588145E-1,-8.429122E-1,6.309217E-1,-2.8511692E-2,-6.104545E-1,-1.2573614E0,9.220619E-1,4.7533073E-2,-9.492729E-2,-1.5046687E0,9.908626E-1,1.6298358E-1,1.5225453E-2,7.0390093E-1,-1.2013537E0,-7.657804E-1,1.000322E-1,-5.9212565E-1,-6.394757E-1,1.513505E-1,-6.424324E-1,-1.5642734E0,-1.1209289E0,-4.9517134E-1,-1.1420889E0,-6.328574E-1,-1.2239983E0,-7.584677E-1,-1.3319774E0,4.0335542E-1],"categories":[],"categories_nodes":[],"categories_segments":[],"categories_sizes":[],"default_left":[1,1,1,1,1,1,1,1,1,1,1,1,1,1,1,1,1,1,1,1,1,1,1,1,1,1,1,1,1,1,1,0,1,1,1,1,1,1,1,1,1,1,1,1,1,1,1,1,1,1,1,1,1,1,1,1,1,1,1,1,1,1,1,0,0,0,0,0,0,0,0,0,0,0,0,0,0,0,0,0,0,0,0,0,0,0,0,0,0,0,0,0,0,0,0,0,0,0,0,0,0,0,0,0,0,0,0,0,0,0,0,0,0,0,0,0,0,0,0,0,0,0,0,0,0],"id":4,"left_children":[1,3,5,7,9,11,13,15,17,19,21,23,25,27,29,31,33,35,37,39,41,43,45,47,49,51,53,55,57,59,61,-1,63,65,67,69,71,73,75,77,79,81,83,85,87,89,91,93,95,97,99,101,103,105,107,109,111,113,115,117,119,121,123,-1,-1,-1,-1,-1,-1,-1,-1,-1,-1,-1,-1,-1,-1,-1,-1,-1,-1,-1,-1,-1,-1,-1,-1,-1,-1,-1,-1,-1,-1,-1,-1,-1,-1,-1,-1,-1,-1,-1,-1,-1,-1,-1,-1,-1,-1,-1,-1,-1,-1,-1,-1,-1,-1,-1,-1,-1,-1,-1,-1,-1,-1],"loss_changes":[2.789049E5,8.571031E3,8.892953E4,6.494219E2,4.28074E3,4.7741812E4,1.8425371E4,7.1453125E1,5.7873047E2,9.551367E2,1.5142455E3,2.6718676E4,8.980156E3,6.1669556E3,3.8783594E2,2.0875E1,7.74043E1,3.6198987E2,2.4779297E2,1.5166067E3,3.5020898E2,1.0008728E3,4.040437E2,6.9433105E3,1.9291814E4,5.513545E3,7.95225E3,4.0570068E3,1.8275133E3,2.0666016E2,6.128125E1,0E0,2.840625E1,6.5966797E0,1.0945557E2,1.7830371E2,2.6248373E2,4.9773438E1,8.744824E1,2.7614725E2,3.3248682E2,1.00646484E2,2.682461E2,4.0283475E2,1.1393103E2,4.4111523E2,1.4043018E2,7.0446646E3,2.6241719E3,1.8876691E4,7.1273145E2,1.7904185E3,1.7989062E3,5.5631094E3,2.0308373E3,6.4946387E2,3.2932488E3,2.0333542E3,2.0713501E2,6.305948E1,9.198584E1,4.520166E1,2.1095703E1,0E0,0E0,0E0,0E0,0E0,0E0,0E0,0E0,0E0,0E0,0E0,0E0,0E0,0E0,0E0,0E0,0E0,0E0,0E0,0E0,0E0,0E0,0E0,0E0,0E0,0E0,0E0,0E0,0E0,0E0,0E0,0E0,0E0,0E0,0E0,0E0,0E0,0E0,0E0,0E0,0E0,0E0,0E0,0E0,0E0,0E0,0E0,0E0,0E0,0E0,0E0,0E0,0E0,0E0,0E0,0E0,0E0,0E0,0E0,0E0,0E0,0E0],"parents":[2147483647,0,0,1,1,2,2,3,3,4,4,5,5,6,6,7,7,8,8,9,9,10,10,11,11,12,12,13,13,14,14,15,15,16,16,17,17,18,18,19,19,20,20,21,21,22,22,23,23,24,24,25,25,26,26,27,27,28,28,29,29,30,30,32,32,33,33,34,34,35,35,36,36,37,37,38,38,39,39,40,40,41,41,42,42,43,43,44,44,45,45,46,46,47,47,48,48,49,49,50,50,51,51,52,52,53,53,54,54,55,55,56,56,57,57,58,58,59,59,60,60,61,61,62,62],"right_children":[2,4,6,8,10,12,14,16,18,20,22,24,26,28,30,32,34,36,38,40,42,44,46,48,50,52,54,56,58,60,62,-1,64,66,68,70,72,74,76,78,80,82,84,86,88,90,92,94,96,98,100,102,104,106,108,110,112,114,116,118,120,122,124,-1,-1,-1,-1,-1,-1,-1,-1,-1,-1,-1,-1,-1,-1,-1,-1,-1,-1,-1,-1,-1,-1,-1,-1,-1,-1,-1,-1,-1,-1,-1,-1,-1,-1,-1,-1,-1,-1,-1,-1,-1,-1,-1,-1,-1,-1,-1,-1,-1,-1,-1,-1,-1,-1,-1,-1,-1,-1,-1,-1,-1,-1],"split_conditions":[-5.4565483E-1,-7.145612E-1,6.1113214E-1,-8.2352304E-1,1.09349474E-1,1.09349474E-1,2.1065545E0,1.09349474E-1,-1.0096183E0,-8.489144E-1,-8.3448887E-1,-3.040083E-1,-3.6957955E-1,1.09349474E-1,2.3944573E0,-9.262916E-1,-9.24214E-1,1.09349474E-1,1.09349474E-1,-5.952004E-1,-7.145762E-1,6.101879E-1,2.6579124E-1,-7.1283925E-1,1.9506633E0,-7.130562E-1,1.2989812E0,2.2561684E-1,1.1456186E0,-2.5080374E-1,2.8645053E0,-4.0172312E-1,-1.0461872E0,-9.93767E-1,-1.0675523E0,-7.673987E-1,-2.5080374E-1,-7.145762E-1,-7.860541E-2,-7.145762E-1,-7.145762E-1,-2.3171835E0,1.2971138E0,9.332751E-1,1.7572008E0,-3.0714405E-1,1.7572008E0,9.359291E-2,-2.2277145E-1,2.6579124E-1,2.2131433E0,6.101879E-1,1.4129804E0,1.4704872E0,-1.5025873E-1,-1.03908464E-1,9.686483E-1,-1.0913045E0,1.1970601E0,-5.6942374E-1,5.563711E0,7.0122843E0,6.1657867E0,-3.5258827E-1,-3.9369112E-1,-3.9819375E-1,-3.767228E-1,-1.8537985E-1,-3.5544214E-1,-9.555502E-2,-3.2722053E-1,1.5813436E-1,-1.7937472E-1,-3.8622567E-1,-3.563505E-1,-2.606762E-1,-3.429829E-1,-1.0335251E-1,1.1426423E-1,-3.5644466E-1,-2.1713257E-1,4.0881686E-2,-3.5049284E-1,-2.6349467E-1,-3.82961E-1,3.1701047E-2,2.2544613E-1,-2.3820344E-1,4.1502118E-2,-8.7302215E-2,-2.8180978E-1,-3.0818838E-1,-3.656225E-2,2.0070797E-1,-1.7925112E-1,-1.0764436E-1,-2.5287366E-1,1.8927653E-1,-8.553508E-3,-1.8313636E-1,-3.7720844E-1,2.766186E-1,1.4259922E-2,-2.8478188E-2,-4.5140064E-1,2.972588E-1,4.8895076E-2,4.567636E-3,2.1117029E-1,-3.604061E-1,-2.2973412E-1,3.0009663E-2,-1.776377E-1,-1.9184272E-1,4.540515E-2,-1.9272973E-1,-4.6928203E-1,-3.3627868E-1,-1.485514E-1,-3.426267E-1,-1.8985723E-1,-3.671995E-1,-2.2754031E-1,-3.9959323E-1,1.2100663E-1],"split_indices":[3,3,3,3,1,1,5,1,5,5,5,3,3,1,5,3,3,1,1,0,1,0,0,5,5,5,0,5,2,0,5,0,5,3,5,0,0,1,0,1,1,0,2,1,1,5,1,0,5,0,5,0,2,2,5,5,3,2,5,2,3,3,5,0,0,0,0,0,0,0,0,0,0,0,0,0,0,0,0,0,0,0,0,0,0,0,0,0,0,0,0,0,0,0,0,0,0,0,0,0,0,0,0,0,0,0,0,0,0,0,0,0,0,0,0,0,0,0,0,0,0,0,0,0,0],"split_type":[0,0,0,0,0,0,0,0,0,0,0,0,0,0,0,0,0,0,0,0,0,0,0,0,0,0,0,0,0,0,0,0,0,0,0,0,0,0,0,0,0,0,0,0,0,0,0,0,0,0,0,0,0,0,0,0,0,0,0,0,0,0,0,0,0,0,0,0,0,0,0,0,0,0,0,0,0,0,0,0,0,0,0,0,0,0,0,0,0,0,0,0,0,0,0,0,0,0,0,0,0,0,0,0,0,0,0,0,0,0,0,0,0,0,0,0,0,0,0,0,0,0,0,0,0],"sum_hessian":[7.8935275E5,1.7129362E5,6.180591E5,1.2156763E5,4.9725992E4,5.0942147E5,1.0863768E5,9.293431E4,2.863332E4,3.622605E4,1.3499941E4,2.7950456E5,2.299169E5,8.207652E4,2.6561152E4,8.127079E4,1.1663524E4,3.0171443E3,2.5616178E4,8.514168E3,2.7711883E4,5.50753E3,7.992412E3,6.3555426E4,2.1594914E5,2.589586E4,2.0402105E5,4.296685E4,3.910967E4,5.558925E3,2.1002229E4,5.9222746E4,2.2048043E4,7.52945E3,4.1340747E3,2.1087898E3,9.0835455E2,2.0839543E4,4.7766343E3,2.1263823E3,6.3877856E3,1.4307689E4,1.3404193E4,4.249918E3,1.2576115E3,5.8133154E3,2.1790967E3,1.8224967E4,4.5330457E4,2.0723439E5,8.714754E3,1.3153684E4,1.2742176E4,1.8551228E5,1.8508764E4,1.3722368E4,2.9244484E4,3.594052E4,3.1691506E3,1.0841036E3,4.4748213E3,5.1333604E3,1.5868867E4,1.7401167E3,2.0307926E4,5.1707715E3,2.3586787E3,3.784163E2,3.7556582E3,3.6195752E2,1.7468322E3,3.1866238E2,5.896922E2,1.1285535E4,9.554008E3,2.6967043E3,2.07993E3,9.3869E2,1.1876924E3,2.6189658E3,3.7688198E3,5.9182846E1,1.4248506E4,1.1411654E4,1.9925394E3,2.766741E3,1.483177E3,1.1093142E3,1.4829724E2,4.4394404E3,1.3738749E3,1.9913656E3,1.877312E2,1.0847011E4,7.377956E3,2.5130584E4,2.0199873E4,1.4533803E5,6.189636E4,2.326282E3,6.388472E3,1.0106896E4,3.046787E3,1.1762526E4,9.796495E2,1.7700495E5,8.507332E3,1.1783492E4,6.7252725E3,7.0544404E3,6.6679277E3,1.1045933E4,1.8198553E4,3.613811E3,3.232671E4,2.9033442E3,2.6580643E2,1.9713654E2,8.869671E2,4.0817673E3,3.9305402E2,4.909232E3,2.2412845E2,1.58622705E4,6.5971556E0],"tree_param":{"num_deleted":"0","num_feature":"6","num_nodes":"125","size_leaf_vector":"0"}},{"base_weights":[5.507657E-3,1.1346155E0,-3.0742323E-1,1.277683E0,7.8483254E-1,-4.8259315E-1,5.1397663E-1,1.3182936E0,1.1458331E0,9.6394163E-1,3.041714E-1,-2.0493938E-1,-8.2012796E-1,2.796912E-1,1.2379034E0,1.3289108E0,1.2442062E0,7.3114973E-1,1.1946453E0,6.70849E-1,1.0539635E0,-9.9274956E-2,5.8216184E-1,3.649747E-1,-3.7267023E-1,-2.6538914E-1,-8.9053786E-1,5.412043E-1,-7.6200846E-3,1.0025417E0,1.3001488E0,1.339077E0,1.3015442E0,1.3050622E0,1.1330795E0,9.584035E-1,2.030951E-1,1.2418232E0,9.8859996E-1,-6.0646854E-2,9.143227E-1,1.162904E0,9.3760204E-1,-3.3117726E-1,6.840462E-1,4.4437078E-1,9.4938344E-1,-1.5629639E-1,5.7454896E-1,-4.3396428E-1,1.084768E0,-7.195139E-1,2.0342124E-1,-9.528983E-1,-2.6548433E-1,9.897726E-1,3.3069628E-1,-7.1817495E-2,7.2021914E-1,6.098891E-1,1.097511E0,1.2038252E0,1.3312304E0,1.1752942E0,1.3123037E0,1.3273125E0,1.2557425E0,6.179328E-1,1.1848068E0,3.185166E-1,1.0907351E0,-5.271145E-1,5.9791565E-1,1.2874188E0,1.187835E0,8.6892074E-1,1.1432762E0,3.445083E-1,-3.8088074E-1,1.1881489E0,7.237752E-1,-1.3627231E-1,1.1683096E0,8.7831545E-1,1.2765366E0,-1.05670124E-1,-7.514871E-1,7.940115E-1,-1.3834035E-1,2.9100743E-1,9.3936586E-1,1.0272946E0,1.218742E-1,-6.690265E-1,5.975038E-1,3.5881454E-1,8.4291226E-1,-6.309217E-1,2.8511724E-2,6.1045456E-1,1.2573609E0,-9.22062E-1,-4.7533043E-2,9.492731E-2,1.5046687E0,-9.908626E-1,-1.6298358E-1,-1.5225378E-2,-7.039009E-1,1.2013537E0,7.657804E-1,-1.00032195E-1,5.9212565E-1,6.3947576E-1,-1.5135047E-1,6.4243245E-1,1.5642734E0,1.1209289E0,4.951714E-1,1.142089E0,6.3285744E-1,1.2239991E0,7.584684E-1,1.3319772E0,-4.0335548E-1],"categories":[],"categories_nodes":[],"categories_segments":[],"categories_sizes":[],"default_left":[1,1,1,1,1,1,1,1,1,1,1,1,1,1,1,1,1,1,1,1,1,1,1,1,1,1,1,1,1,1,1,0,1,1,1,1,1,1,1,1,1,1,1,1,1,1,1,1,1,1,1,1,1,1,1,1,1,1,1,1,1,1,1,0,0,0,0,0,0,0,0,0,0,0,0,0,0,0,0,0,0,0,0,0,0,0,0,0,0,0,0,0,0,0,0,0,0,0,0,0,0,0,0,0,0,0,0,0,0,0,0,0,0,0,0,0,0,0,0,0,0,0,0,0,0],"id":5,"left_children":[1,3,5,7,9,11,13,15,17,19,21,23,25,27,29,31,33,35,37,39,41,43,45,47,49,51,53,55,57,59,61,-1,63,65,67,69,71,73,75,77,79,81,83,85,87,89,91,93,95,97,99,101,103,105,107,109,111,113,115,117,119,121,123,-1,-1,-1,-1,-1,-1,-1,-1,-1,-1,-1,-1,-1,-1,-1,-1,-1,-1,-1,-1,-1,-1,-1,-1,-1,-1,-1,-1,-1,-1,-1,-1,-1,-1,-1,-1,-1,-1,-1,-1,-1,-1,-1,-1,-1,-1,-1,-1,-1,-1,-1,-1,-1,-1,-1,-1,-1,-1,-1,-1,-1,-1],"loss_changes":[2.7890488E5,8.571031E3,8.892955E4,6.494375E2,4.28074E3,4.7741797E4,1.842537E4,7.14375E1,5.787344E2,9.551367E2,1.5142455E3,2.671868E4,8.980156E3,6.166954E3,3.8783984E2,2.0875E1,7.740625E1,3.6198975E2,2.4779297E2,1.5166069E3,3.5020898E2,1.0008729E3,4.040437E2,6.9433115E3,1.929179E4,5.5135454E3,7.9522656E3,4.0570078E3,1.8275132E3,2.0665967E2,6.1277344E1,0E0,2.840625E1,6.598633E0,1.0945508E2,1.7830383E2,2.624837E2,4.9771484E1,8.7447754E1,2.7614722E2,3.3248633E2,1.0064453E2,2.6824707E2,4.0283478E2,1.1393109E2,4.4111523E2,1.4043018E2,7.0446636E3,2.62417E3,1.8876695E4,7.1273047E2,1.7904194E3,1.798906E3,5.5631094E3,2.0308373E3,6.4946484E2,3.2932495E3,2.0333542E3,2.0713501E2,6.305951E1,9.198584E1,4.5202637E1,2.109375E1,0E0,0E0,0E0,0E0,0E0,0E0,0E0,0E0,0E0,0E0,0E0,0E0,0E0,0E0,0E0,0E0,0E0,0E0,0E0,0E0,0E0,0E0,0E0,0E0,0E0,0E0,0E0,0E0,0E0,0E0,0E0,0E0,0E0,0E0,0E0,0E0,0E0,0E0,0E0,0E0,0E0,0E0,0E0,0E0,0E0,0E0,0E0,0E0,0E0,0E0,0E0,0E0,0E0,0E0,0E0,0E0,0E0,0E0,0E0,0E0,0E0,0E0],"parents":[2147483647,0,0,1,1,2,2,3,3,4,4,5,5,6,6,7,7,8,8,9,9,10,10,11,11,12,12,13,13,14,14,15,15,16,16,17,17,18,18,19,19,20,20,21,21,22,22,23,23,24,24,25,25,26,26,27,27,28,28,29,29,30,30,32,32,33,33,34,34,35,35,36,36,37,37,38,38,39,39,40,40,41,41,42,42,43,43,44,44,45,45,46,46,47,47,48,48,49,49,50,50,51,51,52,52,53,53,54,54,55,55,56,56,57,57,58,58,59,59,60,60,61,61,62,62],"right_children":[2,4,6,8,10,12,14,16,18,20,22,24,26,28,30,32,34,36,38,40,42,44,46,48,50,52,54,56,58,60,62,-1,64,66,68,70,72,74,76,78,80,82,84,86,88,90,92,94,96,98,100,102,104,106,108,110,112,114,116,118,120,122,124,-1,-1,-1,-1,-1,-1,-1,-1,-1,-1,-1,-1,-1,-1,-1,-1,-1,-1,-1,-1,-1,-1,-1,-1,-1,-1,-1,-1,-1,-1,-1,-1,-1,-1,-1,-1,-1,-1,-1,-1,-1,-1,-1,-1,-1,-1,-1,-1,-1,-1,-1,-1,-1,-1,-1,-1,-1,-1,-1,-1,-1,-1],"split_conditions":[-5.4565483E-1,-7.145612E-1,6.1113214E-1,-8.2352304E-1,1.09349474E-1,1.09349474E-1,2.1065545E0,1.09349474E-1,-1.0096183E0,-8.489144E-1,-8.3448887E-1,-3.040083E-1,-3.6957955E-1,1.09349474E-1,2.3944573E0,-9.262916E-1,-9.24214E-1,1.09349474E-1,1.09349474E-1,-5.952004E-1,-7.145762E-1,6.101879E-1,2.6579124E-1,-7.1283925E-1,1.9506633E0,-7.130562E-1,1.2989812E0,2.2561684E-1,1.1456186E0,-2.5080374E-1,2.8645053E0,4.0172312E-1,-1.0461872E0,-9.93767E-1,-1.0675523E0,-7.673987E-1,-2.5080374E-1,-7.145762E-1,-7.860541E-2,-7.145762E-1,-7.145762E-1,-2.3171835E0,1.2971138E0,9.332751E-1,1.7572008E0,-3.0714405E-1,1.7572008E0,9.359291E-2,-2.2277145E-1,2.6579124E-1,2.2131433E0,6.101879E-1,1.4129804E0,1.4704872E0,-1.5025873E-1,-1.03908464E-1,9.686483E-1,-1.0913045E0,1.1970601E0,-5.6942374E-1,5.563711E0,7.0122843E0,6.1657867E0,3.5258827E-1,3.9369112E-1,3.9819375E-1,3.7672278E-1,1.8537985E-1,3.5544205E-1,9.5554985E-2,3.2722053E-1,-1.5813436E-1,1.793747E-1,3.8622567E-1,3.563505E-1,2.6067623E-1,3.429829E-1,1.03352495E-1,-1.1426423E-1,3.5644466E-1,2.1713257E-1,-4.0881693E-2,3.504929E-1,2.6349464E-1,3.82961E-1,-3.170104E-2,-2.2544613E-1,2.3820345E-1,-4.1502107E-2,8.730223E-2,2.8180978E-1,3.081884E-1,3.656226E-2,-2.0070796E-1,1.7925113E-1,1.07644364E-1,2.528737E-1,-1.8927653E-1,8.553517E-3,1.8313637E-1,3.772083E-1,-2.766186E-1,-1.4259913E-2,2.8478194E-2,4.5140064E-1,-2.972588E-1,-4.8895076E-2,-4.5676134E-3,-2.1117027E-1,3.604061E-1,2.2973412E-1,-3.0009659E-2,1.776377E-1,1.9184273E-1,-4.5405142E-2,1.9272974E-1,4.6928203E-1,3.3627868E-1,1.4855142E-1,3.4262672E-1,1.8985724E-1,3.6719975E-1,2.2754052E-1,3.995932E-1,-1.21006645E-1],"split_indices":[3,3,3,3,1,1,5,1,5,5,5,3,3,1,5,3,3,1,1,0,1,0,0,5,5,5,0,5,2,0,5,0,5,3,5,0,0,1,0,1,1,0,2,1,1,5,1,0,5,0,5,0,2,2,5,5,3,2,5,2,3,3,5,0,0,0,0,0,0,0,0,0,0,0,0,0,0,0,0,0,0,0,0,0,0,0,0,0,0,0,0,0,0,0,0,0,0,0,0,0,0,0,0,0,0,0,0,0,0,0,0,0,0,0,0,0,0,0,0,0,0,0,0,0,0],"split_type":[0,0,0,0,0,0,0,0,0,0,0,0,0,0,0,0,0,0,0,0,0,0,0,0,0,0,0,0,0,0,0,0,0,0,0,0,0,0,0,0,0,0,0,0,0,0,0,0,0,0,0,0,0,0,0,0,0,0,0,0,0,0,0,0,0,0,0,0,0,0,0,0,0,0,0,0,0,0,0,0,0,0,0,0,0,0,0,0,0,0,0,0,0,0,0,0,0,0,0,0,0,0,0,0,0,0,0,0,0,0,0,0,0,0,0,0,0,0,0,0,0,0,0,0,0],"sum_hessian":[7.8935275E5,1.7129362E5,6.180591E5,1.2156763E5,4.9725992E4,5.0942147E5,1.0863768E5,9.293431E4,2.863332E4,3.622605E4,1.3499941E4,2.7950456E5,2.299169E5,8.207652E4,2.6561156E4,8.127079E4,1.1663524E4,3.017144E3,2.5616176E4,8.514168E3,2.7711883E4,5.50753E3,7.992412E3,6.3555426E4,2.1594914E5,2.589586E4,2.0402105E5,4.296685E4,3.910967E4,5.5589253E3,2.100223E4,5.9222746E4,2.2048041E4,7.52945E3,4.134074E3,2.1087896E3,9.0835455E2,2.0839541E4,4.7766343E3,2.1263826E3,6.3877856E3,1.430769E4,1.3404193E4,4.249918E3,1.2576115E3,5.8133154E3,2.1790967E3,1.8224967E4,4.5330457E4,2.0723439E5,8.71475E3,1.3153684E4,1.2742175E4,1.8551228E5,1.8508764E4,1.3722368E4,2.9244484E4,3.594052E4,3.1691506E3,1.0841038E3,4.474822E3,5.1333647E3,1.5868865E4,1.7401166E3,2.0307926E4,5.1707715E3,2.3586787E3,3.784163E2,3.7556582E3,3.6195752E2,1.746832E3,3.1866235E2,5.896922E2,1.1285534E4,9.554007E3,2.6967043E3,2.07993E3,9.3869E2,1.1876924E3,2.618966E3,3.7688198E3,5.9182846E1,1.4248507E4,1.1411653E4,1.9925393E3,2.7667412E3,1.483177E3,1.1093142E3,1.4829724E2,4.4394404E3,1.3738749E3,1.9913656E3,1.877312E2,1.0847012E4,7.377956E3,2.5130584E4,2.0199875E4,1.4533803E5,6.189636E4,2.326282E3,6.3884683E3,1.0106896E4,3.046787E3,1.1762525E4,9.7964954E2,1.7700495E5,8.507332E3,1.1783491E4,6.7252725E3,7.0544404E3,6.6679277E3,1.1045933E4,1.8198553E4,3.6138108E3,3.2326709E4,2.9033442E3,2.6580643E2,1.9713655E2,8.8696716E2,4.0817676E3,3.9305405E2,4.909236E3,2.2412856E2,1.5862269E4,6.597155E0],"tree_param":{"num_deleted":"0","num_feature":"6","num_nodes":"125","size_leaf_vector":"0"}},{"base_weights":[-8.018153E-3,-1.0161101E0,2.2723012E-1,-1.1628747E0,-7.1529585E-1,3.514268E-1,-5.545803E-1,-1.2052037E0,-1.0437167E0,-8.615736E-1,-3.3313942E-1,-1.5326715E-1,4.7711203E-1,-2.5647476E-1,-1.1103069E0,-1.2145545E0,-1.1383067E0,-1.1094018E0,-7.730316E-1,-1.0099152E0,-7.206527E-1,-1.836288E-2,-5.294564E-1,1.10929094E-1,-4.787925E-1,6.626778E-1,1.5270364E-1,-1.5256573E0,-1.3907236E-1,-9.5262E-1,-1.2100209E0,-1.2227632E0,-1.1827741E0,-1.1887467E0,-1.0406238E0,-9.10105E-1,-1.1387653E0,-2.4409448E-1,-8.85204E-1,3.0587998E-1,-1.0206856E0,-5.9897745E-1,-1.0098461E0,4.823986E-1,-2.9898283E-1,-1.190159E0,-4.470636E-1,-2.4323192E-1,4.3424278E-1,-6.82422E-1,1.02225296E-1,8.089829E-2,7.6157767E-1,-3.5589702E-2,5.4806614E-1,-1.7150301E0,-1.1358249E0,8.8633835E-2,-6.892221E-1,-7.694599E-1,-1.0157342E0,-1.1379328E0,-1.2290777E0,-1.2269962E0,-1.210231E0,-1.0629195E0,-1.19763E0,-1.2151022E0,-1.1457032E0,-6.078438E-1,-1.0959364E0,-3.8504404E-1,-1.0293908E0,-1.998891E-1,-1.1404649E0,8.895929E-2,-8.1908876E-1,-1.1332973E0,-8.3260024E-1,1.3543773E0,-4.8034787E-1,-9.467227E-1,-1.1144966E0,-1.5666487E-2,-7.472548E-1,-9.4308966E-1,-1.1598103E0,-1.3464997E0,5.213121E-1,-5.2749455E-1,1.02313936E-1,-1.1001964E0,-1.3308831E0,-3.4051794E-1,-1.0788091E0,-1.1818927E-2,-5.703422E-1,5.1909626E-1,-7.4040073E-1,-9.3724185E-1,-4.9145064E-1,3.3557004E-1,-3.2190636E-1,3.6272767E-1,-6.327344E-1,-4.047492E-2,8.1514037E-1,-2.905751E-1,2.584253E-1,6.685201E-1,2.8661218E-2,-1.6268277E0,-2.0279906E0,-1.0113403E0,-2.1197095E0,-9.658183E-1,1.7004511E-1,-1.1764424E0,-6.373846E-1,-1.1614279E0,-7.076304E-1,-1.0368305E0,-5.503984E-1,-1.1506023E0,-7.4753106E-1,-1.2297432E0,4.820697E-1],"categories":[],"categories_nodes":[],"categories_segments":[],"categories_sizes":[],"default_left":[1,1,1,1,1,1,1,1,1,1,1,1,1,1,1,1,1,1,1,1,1,1,1,1,1,1,1,1,1,1,1,1,1,1,1,1,1,1,1,1,1,1,1,1,1,1,1,1,1,1,1,1,1,1,1,1,1,1,1,1,1,1,1,0,0,0,0,0,0,0,0,0,0,0,0,0,0,0,0,0,0,0,0,0,0,0,0,0,0,0,0,0,0,0,0,0,0,0,0,0,0,0,0,0,0,0,0,0,0,0,0,0,0,0,0,0,0,0,0,0,0,0,0,0,0,0,0],"id":6,"left_children":[1,3,5,7,9,11,13,15,17,19,21,23,25,27,29,31,33,35,37,39,41,43,45,47,49,51,53,55,57,59,61,63,65,67,69,71,73,75,77,79,81,83,85,87,89,91,93,95,97,99,101,103,105,107,109,111,113,115,117,119,121,123,125,-1,-1,-1,-1,-1,-1,-1,-1,-1,-1,-1,-1,-1,-1,-1,-1,-1,-1,-1,-1,-1,-1,-1,-1,-1,-1,-1,-1,-1,-1,-1,-1,-1,-1,-1,-1,-1,-1,-1,-1,-1,-1,-1,-1,-1,-1,-1,-1,-1,-1,-1,-1,-1,-1,-1,-1,-1,-1,-1,-1,-1,-1,-1,-1],"loss_changes":[1.7177903E5,6.0497812E3,5.702518E4,4.633203E2,2.512041E3,3.2146762E4,1.3336941E4,4.1132812E1,4.2854883E2,6.7868945E2,7.6887537E2,8.69008E3,2.4425242E4,7.8076987E3,4.4080078E2,1.41015625E1,3.9905273E1,1.1268359E2,2.7979712E2,2.2466406E2,5.860078E2,6.718859E2,4.1662158E2,6.386836E3,5.355831E3,1.485068E4,1.0990955E4,3.2558203E2,6.0087124E3,1.2514551E2,2.225E1,1.03125E0,2.056836E1,4.8476562E0,6.759424E1,1.5621143E2,2.6791016E1,1.5846931E2,4.9866455E1,1.07241394E2,1.0790039E2,1.0150962E3,4.831543E1,1.2290878E2,2.8103845E2,9.284668E0,4.5834753E2,2.0150028E3,2.9066973E3,1.6307471E3,1.1628628E3,7.5428276E3,9.477117E3,7.4978374E3,2.9799385E3,7.907324E1,1.7588306E2,2.9123948E3,3.5387598E2,6.6935425E1,7.893262E1,1.7009766E1,1.6085938E1,0E0,0E0,0E0,0E0,0E0,0E0,0E0,0E0,0E0,0E0,0E0,0E0,0E0,0E0,0E0,0E0,0E0,0E0,0E0,0E0,0E0,0E0,0E0,0E0,0E0,0E0,0E0,0E0,0E0,0E0,0E0,0E0,0E0,0E0,0E0,0E0,0E0,0E0,0E0,0E0,0E0,0E0,0E0,0E0,0E0,0E0,0E0,0E0,0E0,0E0,0E0,0E0,0E0,0E0,0E0,0E0,0E0,0E0,0E0,0E0,0E0,0E0,0E0,0E0],"parents":[2147483647,0,0,1,1,2,2,3,3,4,4,5,5,6,6,7,7,8,8,9,9,10,10,11,11,12,12,13,13,14,14,15,15,16,16,17,17,18,18,19,19,20,20,21,21,22,22,23,23,24,24,25,25,26,26,27,27,28,28,29,29,30,30,31,31,32,32,33,33,34,34,35,35,36,36,37,37,38,38,39,39,40,40,41,41,42,42,43,43,44,44,45,45,46,46,47,47,48,48,49,49,50,50,51,51,52,52,53,53,54,54,55,55,56,56,57,57,58,58,59,59,60,60,61,61,62,62],"right_children":[2,4,6,8,10,12,14,16,18,20,22,24,26,28,30,32,34,36,38,40,42,44,46,48,50,52,54,56,58,60,62,64,66,68,70,72,74,76,78,80,82,84,86,88,90,92,94,96,98,100,102,104,106,108,110,112,114,116,118,120,122,124,126,-1,-1,-1,-1,-1,-1,-1,-1,-1,-1,-1,-1,-1,-1,-1,-1,-1,-1,-1,-1,-1,-1,-1,-1,-1,-1,-1,-1,-1,-1,-1,-1,-1,-1,-1,-1,-1,-1,-1,-1,-1,-1,-1,-1,-1,-1,-1,-1,-1,-1,-1,-1,-1,-1,-1,-1,-1,-1,-1,-1,-1,-1,-1,-1],"split_conditions":[-5.6788754E-1,-7.439311E-1,1.1207943E0,-8.554969E-1,1.09349474E-1,-7.145762E-1,2.1510615E0,1.09349474E-1,1.09349474E-1,-7.145762E-1,-8.64696E-1,-7.860541E-2,4.3798956E-1,-4.0803492E-2,2.681262E0,-9.262916E-1,-9.4345987E-1,-9.928519E-1,-1.0135458E0,-2.1449852E0,9.359291E-2,-2.5080374E-1,-1.4931469E0,-1.7018369E-1,2.6065433E-1,-3.8497236E-1,9.332751E-1,-1.24139115E-1,1.0950494E0,2.2550519E0,3.1394682E0,-9.980171E-1,-1.0263991E0,-1.0256058E0,-1.0627934E0,-7.673987E-1,-2.3171835E0,2.6579124E-1,-1.347946E0,-6.5354794E-1,-4.2300206E-1,-8.8739204E-1,7.823862E-1,-2.4839907E0,9.332751E-1,-6.0936165E-1,1.3620336E0,-1.5289572E-1,1.2940044E0,-3.975082E-1,6.061739E-1,-3.2868344E-1,-1.3840716E0,-1.2791994E-1,1.8155761E0,4.8530957E-1,7.163305E-1,-8.529743E-1,-8.313195E-1,1.769062E-1,5.968049E0,7.605755E0,6.548252E0,-3.6809886E-1,-3.630693E-1,-3.1887585E-1,-3.5928902E-1,-3.6453068E-1,-3.4371096E-1,-1.8235315E-1,-3.2878095E-1,-1.1551321E-1,-3.0881727E-1,-5.996673E-2,-3.4213948E-1,2.6687788E-2,-2.4572663E-1,-3.3998922E-1,-2.4978007E-1,4.063132E-1,-1.4410436E-1,-2.8401682E-1,-3.3434898E-1,-4.6999464E-3,-2.2417645E-1,-2.8292692E-1,-3.479431E-1,-4.0394992E-1,1.5639365E-1,-1.5824836E-1,3.0694181E-2,-3.3005893E-1,-3.9926496E-1,-1.0215539E-1,-3.2364276E-1,-3.5456782E-3,-1.7110266E-1,1.5572888E-1,-2.2212023E-1,-2.8117257E-1,-1.474352E-1,1.00671016E-1,-9.6571915E-2,1.0881831E-1,-1.8982033E-1,-1.2142477E-2,2.4454212E-1,-8.717253E-2,7.752759E-2,2.0055604E-1,8.598366E-3,-4.8804834E-1,-6.083972E-1,-3.034021E-1,-6.359129E-1,-2.897455E-1,5.1013533E-2,-3.5293272E-1,-1.9121538E-1,-3.4842837E-1,-2.1228912E-1,-3.1104916E-1,-1.6511953E-1,-3.4518072E-1,-2.2425933E-1,-3.6892298E-1,1.4462091E-1],"split_indices":[3,3,5,3,1,1,5,1,1,1,5,0,0,3,5,3,3,5,5,0,0,0,2,3,5,3,1,3,3,5,5,3,5,3,5,0,0,0,2,5,0,5,0,2,1,5,2,5,2,5,3,5,2,5,0,2,2,2,2,3,3,3,5,0,0,0,0,0,0,0,0,0,0,0,0,0,0,0,0,0,0,0,0,0,0,0,0,0,0,0,0,0,0,0,0,0,0,0,0,0,0,0,0,0,0,0,0,0,0,0,0,0,0,0,0,0,0,0,0,0,0,0,0,0,0,0,0],"split_type":[0,0,0,0,0,0,0,0,0,0,0,0,0,0,0,0,0,0,0,0,0,0,0,0,0,0,0,0,0,0,0,0,0,0,0,0,0,0,0,0,0,0,0,0,0,0,0,0,0,0,0,0,0,0,0,0,0,0,0,0,0,0,0,0,0,0,0,0,0,0,0,0,0,0,0,0,0,0,0,0,0,0,0,0,0,0,0,0,0,0,0,0,0,0,0,0,0,0,0,0,0,0,0,0,0,0,0,0,0,0,0,0,0,0,0,0,0,0,0,0,0,0,0,0,0,0,0],"sum_hessian":[7.243398E5,1.370493E5,5.872905E5,9.210782E4,4.4941484E4,5.0678438E5,8.050611E4,6.7957805E4,2.4150014E4,3.2500166E4,1.2441318E4,1.010428E5,4.057416E5,5.2399293E4,2.8106814E4,5.960852E4,8.349285E3,1.9431598E4,4.7184155E3,1.5830198E4,1.6669969E4,4.779275E3,7.6620435E3,5.577582E4,4.5266973E4,2.5810253E5,1.4763905E5,4.4356426E3,4.796365E4,1.089233E4,1.7214484E4,4.7342855E4,1.2265666E4,5.4987617E3,2.8505237E3,2.49943E3,1.6932168E4,8.261182E2,3.892297E3,1.2830165E2,1.5701896E4,1.173546E4,4.9345083E3,1.7161377E3,3.0631372E3,8.4805963E2,6.813984E3,2.6618215E4,2.9157607E4,3.3519285E4,1.1747689E4,3.7501477E4,2.2060106E5,1.000098E5,4.7629246E4,2.9831086E3,1.4525339E3,3.392357E4,1.4040079E4,2.7948242E3,8.097506E3,3.6119382E3,1.3602546E4,3.5316906E4,1.2025946E4,1.3606724E3,1.0904994E4,3.3936199E3,2.1051416E3,3.2439163E2,2.5261318E3,4.6349393E2,2.035936E3,3.0808533E1,1.690136E4,5.236499E2,3.024683E2,6.7732214E2,3.214975E3,5.467096E1,7.36307E1,8.785941E3,6.915955E3,2.3787522E3,9.356708E3,3.4195764E3,1.5149321E3,3.5053535E1,1.6810841E3,1.951547E3,1.1115903E3,5.2271497E2,3.2534464E2,5.831948E3,9.8203546E2,1.5590094E4,1.102812E4,2.7193754E4,1.9638538E3,1.4357567E4,1.9161717E4,7.5784556E3,4.1692344E3,2.6884633E4,1.0616846E4,1.380994E4,2.0679111E5,5.3559863E4,4.6449938E4,3.866277E4,8.966477E3,2.3320579E3,6.510508E2,1.2911951E3,1.6133888E2,2.430641E3,3.149293E4,1.3480515E3,1.2692027E4,3.783696E2,2.4164546E3,7.745145E3,3.5236072E2,3.49652E3,1.1541825E2,1.3597539E4,5.0075235E0],"tree_param":{"num_deleted":"0","num_feature":"6","num_nodes":"127","size_leaf_vector":"0"}},{"base_weights":[8.018184E-3,1.0161101E0,-2.272301E-1,1.1628747E0,7.152959E-1,-3.5142678E-1,5.545803E-1,1.2052037E0,1.0437167E0,8.6157364E-1,3.331394E-1,1.5326719E-1,-4.77112E-1,2.5647476E-1,1.1103069E0,1.2145545E0,1.1383067E0,1.1094018E0,7.730316E-1,1.0099152E0,7.206528E-1,1.8362852E-2,5.294563E-1,-1.1092904E-1,4.787925E-1,-6.6267776E-1,-1.5270361E-1,1.5256573E0,1.3907236E-1,9.526204E-1,1.2100208E0,1.2227632E0,1.1827741E0,1.1887466E0,1.0406237E0,9.1010505E-1,1.1387653E0,2.4409455E-1,8.8520396E-1,-3.0587992E-1,1.0206856E0,5.989775E-1,1.0098462E0,-4.823986E-1,2.989828E-1,1.1901588E0,4.4706357E-1,2.4323197E-1,-4.3424273E-1,6.8242204E-1,-1.0222528E-1,-8.089835E-2,-7.615776E-1,3.558971E-2,-5.4806614E-1,1.7150301E0,1.1358249E0,-8.8633835E-2,6.892221E-1,7.6945996E-1,1.0157347E0,1.1379322E0,1.2290776E0,1.2269963E0,1.2102305E0,1.0629195E0,1.1976302E0,1.215102E0,1.1457032E0,6.078438E-1,1.0959364E0,3.8504404E-1,1.0293908E0,1.9988905E-1,1.1404649E0,-8.8959225E-2,8.190888E-1,1.1332972E0,8.3260024E-1,-1.3543773E0,4.8034793E-1,9.467227E-1,1.1144966E0,1.5666518E-2,7.472549E-1,9.430897E-1,1.1598104E0,1.3464996E0,-5.213122E-1,5.2749455E-1,-1.0231398E-1,1.1001964E0,1.3308831E0,3.405179E-1,1.078809E0,1.1818934E-2,5.703423E-1,-5.190962E-1,7.404008E-1,9.3724185E-1,4.9145064E-1,-3.3557004E-1,3.219064E-1,-3.627277E-1,6.3273436E-1,4.0474907E-2,-8.151403E-1,2.9057506E-1,-2.584253E-1,-6.685201E-1,-2.86611E-2,1.6268277E0,2.0279906E0,1.0113403E0,2.1197093E0,9.658183E-1,-1.700451E-1,1.1764424E0,6.373846E-1,1.1614279E0,7.076304E-1,1.036831E0,5.503989E-1,1.1506017E0,7.475312E-1,1.2297431E0,-4.820695E-1],"categories":[],"categories_nodes":[],"categories_segments":[],"categories_sizes":[],"default_left":[1,1,1,1,1,1,1,1,1,1,1,1,1,1,1,1,1,1,1,1,1,1,1,1,1,1,1,1,1,1,1,1,1,1,1,1,1,1,1,1,1,1,1,1,1,1,1,1,1,1,1,1,1,1,1,1,1,1,1,1,1,1,1,0,0,0,0,0,0,0,0,0,0,0,0,0,0,0,0,0,0,0,0,0,0,0,0,0,0,0,0,0,0,0,0,0,0,0,0,0,0,0,0,0,0,0,0,0,0,0,0,0,0,0,0,0,0,0,0,0,0,0,0,0,0,0,0],"id":7,"left_children":[1,3,5,7,9,11,13,15,17,19,21,23,25,27,29,31,33,35,37,39,41,43,45,47,49,51,53,55,57,59,61,63,65,67,69,71,73,75,77,79,81,83,85,87,89,91,93,95,97,99,101,103,105,107,109,111,113,115,117,119,121,123,125,-1,-1,-1,-1,-1,-1,-1,-1,-1,-1,-1,-1,-1,-1,-1,-1,-1,-1,-1,-1,-1,-1,-1,-1,-1,-1,-1,-1,-1,-1,-1,-1,-1,-1,-1,-1,-1,-1,-1,-1,-1,-1,-1,-1,-1,-1,-1,-1,-1,-1,-1,-1,-1,-1,-1,-1,-1,-1,-1,-1,-1,-1,-1,-1],"loss_changes":[1.7177903E5,6.0497812E3,5.7025168E4,4.6332812E2,2.512041E3,3.2146766E4,1.3336936E4,4.1125E1,4.2854883E2,6.786914E2,7.6887537E2,8.690078E3,2.4425234E4,7.8076987E3,4.408047E2,1.41015625E1,3.990625E1,1.1268359E2,2.7979712E2,2.2466406E2,5.8600684E2,6.718859E2,4.1662183E2,6.3868364E3,5.35583E3,1.485068E4,1.0990953E4,3.2558203E2,6.008713E3,1.2514551E2,2.2251953E1,1.03125E0,2.0566406E1,4.847168E0,6.759448E1,1.5621143E2,2.6791016E1,1.5846933E2,4.9866455E1,1.0724141E2,1.0789844E2,1.0150962E3,4.8315918E1,1.2290875E2,2.8103854E2,9.28479E0,4.583473E2,2.0150038E3,2.9066973E3,1.6307471E3,1.1628629E3,7.542827E3,9.477117E3,7.497837E3,2.9799385E3,7.907324E1,1.7588293E2,2.9123943E3,3.538755E2,6.693567E1,7.893164E1,1.7009766E1,1.6085938E1,0E0,0E0,0E0,0E0,0E0,0E0,0E0,0E0,0E0,0E0,0E0,0E0,0E0,0E0,0E0,0E0,0E0,0E0,0E0,0E0,0E0,0E0,0E0,0E0,0E0,0E0,0E0,0E0,0E0,0E0,0E0,0E0,0E0,0E0,0E0,0E0,0E0,0E0,0E0,0E0,0E0,0E0,0E0,0E0,0E0,0E0,0E0,0E0,0E0,0E0,0E0,0E0,0E0,0E0,0E0,0E0,0E0,0E0,0E0,0E0,0E0,0E0,0E0,0E0],"parents":[2147483647,0,0,1,1,2,2,3,3,4,4,5,5,6,6,7,7,8,8,9,9,10,10,11,11,12,12,13,13,14,14,15,15,16,16,17,17,18,18,19,19,20,20,21,21,22,22,23,23,24,24,25,25,26,26,27,27,28,28,29,29,30,30,31,31,32,32,33,33,34,34,35,35,36,36,37,37,38,38,39,39,40,40,41,41,42,42,43,43,44,44,45,45,46,46,47,47,48,48,49,49,50,50,51,51,52,52,53,53,54,54,55,55,56,56,57,57,58,58,59,59,60,60,61,61,62,62],"right_children":[2,4,6,8,10,12,14,16,18,20,22,24,26,28,30,32,34,36,38,40,42,44,46,48,50,52,54,56,58,60,62,64,66,68,70,72,74,76,78,80,82,84,86,88,90,92,94,96,98,100,102,104,106,108,110,112,114,116,118,120,122,124,126,-1,-1,-1,-1,-1,-1,-1,-1,-1,-1,-1,-1,-1,-1,-1,-1,-1,-1,-1,-1,-1,-1,-1,-1,-1,-1,-1,-1,-1,-1,-1,-1,-1,-1,-1,-1,-1,-1,-1,-1,-1,-1,-1,-1,-1,-1,-1,-1,-1,-1,-1,-1,-1,-1,-1,-1,-1,-1,-1,-1,-1,-1,-1,-1],"split_conditions":[-5.6788754E-1,-7.439311E-1,1.1207943E0,-8.554969E-1,1.09349474E-1,-7.145762E-1,2.1510615E0,1.09349474E-1,1.09349474E-1,-7.145762E-1,-8.64696E-1,-7.860541E-2,4.3798956E-1,-4.0803492E-2,2.681262E0,-9.262916E-1,-9.4345987E-1,-9.928519E-1,-1.0135458E0,-2.1449852E0,9.359291E-2,-2.5080374E-1,-1.4931469E0,-1.7018369E-1,2.6065433E-1,-3.8497236E-1,9.332751E-1,-1.24139115E-1,1.0950494E0,2.2550519E0,3.1394682E0,-9.980159E-1,-1.0263991E0,-1.0256058E0,-1.0627934E0,-7.673987E-1,-2.3171835E0,2.6579124E-1,-1.347946E0,-6.5354794E-1,-4.2300206E-1,-8.8739204E-1,7.823862E-1,-2.4839907E0,9.332751E-1,-6.0936165E-1,1.3620336E0,-1.5289572E-1,1.2940044E0,-3.975082E-1,6.061739E-1,-3.2868344E-1,-1.3840716E0,-1.2791994E-1,1.8155761E0,4.8530957E-1,7.163305E-1,-8.529743E-1,-8.313195E-1,1.769062E-1,5.968049E0,7.605755E0,6.548252E0,3.680989E-1,3.6306915E-1,3.1887585E-1,3.5928905E-1,3.645306E-1,3.4371096E-1,1.8235315E-1,3.2878095E-1,1.1551321E-1,3.0881727E-1,5.9966717E-2,3.4213948E-1,-2.668777E-2,2.4572666E-1,3.399892E-1,2.4978007E-1,-4.063132E-1,1.4410439E-1,2.8401682E-1,3.3434898E-1,4.6999557E-3,2.2417648E-1,2.8292692E-1,3.4794313E-1,4.039499E-1,-1.5639366E-1,1.5824836E-1,-3.0694196E-2,3.3005893E-1,3.9926496E-1,1.0215538E-1,3.2364273E-1,3.5456803E-3,1.711027E-1,-1.5572886E-1,2.2212024E-1,2.8117257E-1,1.474352E-1,-1.00671016E-1,9.657192E-2,-1.08818315E-1,1.8982032E-1,1.2142473E-2,-2.445421E-1,8.717252E-2,-7.752759E-2,-2.0055604E-1,-8.59833E-3,4.8804834E-1,6.083972E-1,3.034021E-1,6.359128E-1,2.897455E-1,-5.101353E-2,3.5293272E-1,1.9121538E-1,3.4842837E-1,2.1228912E-1,3.110493E-1,1.6511968E-1,3.4518054E-1,2.2425936E-1,3.6892295E-1,-1.4462085E-1],"split_indices":[3,3,5,3,1,1,5,1,1,1,5,0,0,3,5,3,3,5,5,0,0,0,2,3,5,3,1,3,3,5,5,3,5,3,5,0,0,0,2,5,0,5,0,2,1,5,2,5,2,5,3,5,2,5,0,2,2,2,2,3,3,3,5,0,0,0,0,0,0,0,0,0,0,0,0,0,0,0,0,0,0,0,0,0,0,0,0,0,0,0,0,0,0,0,0,0,0,0,0,0,0,0,0,0,0,0,0,0,0,0,0,0,0,0,0,0,0,0,0,0,0,0,0,0,0,0,0],"split_type":[0,0,0,0,0,0,0,0,0,0,0,0,0,0,0,0,0,0,0,0,0,0,0,0,0,0,0,0,0,0,0,0,0,0,0,0,0,0,0,0,0,0,0,0,0,0,0,0,0,0,0,0,0,0,0,0,0,0,0,0,0,0,0,0,0,0,0,0,0,0,0,0,0,0,0,0,0,0,0,0,0,0,0,0,0,0,0,0,0,0,0,0,0,0,0,0,0,0,0,0,0,0,0,0,0,0,0,0,0,0,0,0,0,0,0,0,0,0,0,0,0,0,0,0,0,0,0],"sum_hessian":[7.243398E5,1.3704931E5,5.872905E5,9.210783E4,4.4941484E4,5.0678438E5,8.050611E4,6.795781E4,2.4150014E4,3.2500168E4,1.2441318E4,1.0104279E5,4.057416E5,5.2399293E4,2.8106812E4,5.9608527E4,8.349285E3,1.9431598E4,4.7184155E3,1.5830198E4,1.6669969E4,4.779275E3,7.6620435E3,5.577582E4,4.5266973E4,2.5810255E5,1.4763905E5,4.4356426E3,4.7963652E4,1.0892335E4,1.7214477E4,4.734286E4,1.2265668E4,5.498761E3,2.850524E3,2.49943E3,1.6932168E4,8.261182E2,3.892297E3,1.2830167E2,1.5701896E4,1.1735461E4,4.934509E3,1.7161377E3,3.0631372E3,8.4805963E2,6.8139834E3,2.6618213E4,2.9157605E4,3.3519285E4,1.1747689E4,3.7501477E4,2.2060106E5,1.000098E5,4.7629246E4,2.9831086E3,1.4525339E3,3.392357E4,1.4040079E4,2.7948242E3,8.0975107E3,3.6119343E3,1.3602543E4,3.5317215E4,1.2025643E4,1.3606725E3,1.0904996E4,3.3936196E3,2.1051416E3,3.2439166E2,2.526132E3,4.6349393E2,2.035936E3,3.080853E1,1.690136E4,5.236499E2,3.024683E2,6.7732214E2,3.214975E3,5.467096E1,7.36307E1,8.785941E3,6.915955E3,2.378752E3,9.356709E3,3.4195767E3,1.5149323E3,3.5053535E1,1.6810842E3,1.951547E3,1.1115903E3,5.2271497E2,3.2534464E2,5.831948E3,9.8203546E2,1.5590094E4,1.102812E4,2.7193752E4,1.9638538E3,1.4357567E4,1.9161717E4,7.5784556E3,4.1692344E3,2.6884633E4,1.0616845E4,1.3809941E4,2.0679112E5,5.3559863E4,4.6449938E4,3.866277E4,8.966476E3,2.3320579E3,6.510508E2,1.2911951E3,1.6133888E2,2.4306414E3,3.149293E4,1.3480515E3,1.2692027E4,3.7836963E2,2.4164546E3,7.74515E3,3.5236087E2,3.496516E3,1.1541826E2,1.3597535E4,5.007523E0],"tree_param":{"num_deleted":"0","num_feature":"6","num_nodes":"127","size_leaf_vector":"0"}},{"base_weights":[-9.473929E-3,-9.3399876E-1,1.67033E-1,-1.089955E0,-6.616619E-1,2.8892723E-1,-3.2688156E-1,-1.134828E0,-9.78919E-1,-7.900127E-1,-3.35788E-1,9.283637E-2,5.5417204E-1,-1.9959632E-1,-1.0297387E0,-1.1438403E0,-1.0684986E0,-1.0402751E0,-7.229386E-1,-5.9573346E-1,-8.979223E-1,1.7983076E-1,-4.2183536E-1,-4.2967853E-1,2.0221002E-1,6.055168E-1,-1.261481E-1,-6.619659E-1,-8.451773E-2,-8.549197E-1,-1.1367282E0,-1.1535838E0,-1.1207811E0,-1.1281226E0,-9.915904E-1,-7.947506E-1,-1.0651164E0,-3.649858E-1,-8.595118E-1,-2.0218569E-1,-8.274805E-1,-9.917757E-1,-7.890953E-1,4.601759E-1,-3.069967E-1,-2.311517E-1,-6.4462554E-1,-3.5747934E-2,-5.657926E-1,2.6306826E-1,-6.2776864E-1,-7.798577E-3,6.706003E-1,3.142347E-1,-4.635705E-1,-8.340658E-1,-1.6010663E-1,1.9526422E-1,-2.4354991E-1,-5.729278E-1,-9.2076194E-1,-1.1375875E0,2.926614E-1,-3.118828E-1,-1.153617E0,-1.0363096E0,-1.1337329E0,-1.1403584E0,-1.0887418E0,-7.1847355E-1,-1.0681633E0,-4.0410694E-1,-1.0010387E0,7.4160504E-3,-1.0674506E0,2.7966195E-1,-6.126929E-1,-7.170522E-1,-9.3753767E-1,-4.9255922E-1,3.294653E-2,-1.012666E0,-7.0381063E-1,-1.13134E0,-9.5659316E-1,-6.7554855E-1,-9.86529E-1,9.176758E-1,3.4459823E-1,-4.0531197E-1,5.250141E-1,1.0366224E-2,-5.310239E-1,-7.9534215E-1,-3.328137E-1,5.84535E-1,-3.737403E-1,-4.8677045E-1,-1.2032279E0,3.5538977E-1,-3.2812503E-1,-3.983427E-1,-9.81105E-1,4.5282263E-1,-2.8989148E-1,3.2841873E-1,7.435205E-1,6.787273E-1,2.1530467E-3,-1.1007053E0,-2.2035387E-1,-1.2118433E0,-7.2520715E-1,-4.011583E-1,1.9803844E-1,2.6482126E-1,-5.483843E-1,-3.4453756E-1,9.180629E-2,-3.699117E-1,-7.5536275E-1,-9.609567E-1,-4.7868952E-1,-1.062594E0,-1.1518373E0,6.030838E-1,-7.288802E-1],"categories":[],"categories_nodes":[],"categories_segments":[],"categories_sizes":[],"default_left":[1,1,1,1,1,1,1,1,1,1,1,1,1,1,1,1,1,1,1,1,1,1,1,1,1,1,1,1,1,1,1,1,1,1,1,1,1,1,1,1,1,1,1,1,1,1,1,1,1,1,1,1,1,1,1,1,1,1,1,1,1,1,1,0,0,0,0,0,0,0,0,0,0,0,0,0,0,0,0,0,0,0,0,0,0,0,0,0,0,0,0,0,0,0,0,0,0,0,0,0,0,0,0,0,0,0,0,0,0,0,0,0,0,0,0,0,0,0,0,0,0,0,0,0,0,0,0],"id":8,"left_children":[1,3,5,7,9,11,13,15,17,19,21,23,25,27,29,31,33,35,37,39,41,43,45,47,49,51,53,55,57,59,61,63,65,67,69,71,73,75,77,79,81,83,85,87,89,91,93,95,97,99,101,103,105,107,109,111,113,115,117,119,121,123,125,-1,-1,-1,-1,-1,-1,-1,-1,-1,-1,-1,-1,-1,-1,-1,-1,-1,-1,-1,-1,-1,-1,-1,-1,-1,-1,-1,-1,-1,-1,-1,-1,-1,-1,-1,-1,-1,-1,-1,-1,-1,-1,-1,-1,-1,-1,-1,-1,-1,-1,-1,-1,-1,-1,-1,-1,-1,-1,-1,-1,-1,-1,-1,-1],"loss_changes":[1.0864629E5,4.532492E3,3.365809E4,3.3702344E2,1.6254121E3,2.3321852E4,9.899849E3,2.7671875E1,3.0614648E2,5.84041E2,4.8743567E2,1.473349E4,6.657547E3,4.985302E3,3.1637695E2,8.261719E0,2.5458984E1,9.527344E1,1.8454199E2,9.082312E2,1.8229688E2,2.1464119E2,3.9977698E2,2.3926885E3,1.0768225E4,7.0738477E3,1.9876794E3,1.612565E3,3.3381543E3,1.191499E2,1.3258789E1,4.7265625E-1,1.2685547E1,3.28125E-1,5.2340332E1,1.16601685E2,3.583008E1,1.6720384E2,2.974292E1,2.5214317E2,1.4284521E2,4.6158203E1,1.8551855E2,5.244078E1,4.7241425E1,3.6748856E2,2.0373694E2,2.4028923E3,1.669959E3,1.0840732E4,1.1802344E3,2.209399E3,3.9973984E3,6.601065E2,1.173351E3,5.709043E2,4.1181613E2,1.4065736E3,1.6200249E3,4.5008575E1,9.236426E1,1.0015625E1,2.696776E0,0E0,0E0,0E0,0E0,0E0,0E0,0E0,0E0,0E0,0E0,0E0,0E0,0E0,0E0,0E0,0E0,0E0,0E0,0E0,0E0,0E0,0E0,0E0,0E0,0E0,0E0,0E0,0E0,0E0,0E0,0E0,0E0,0E0,0E0,0E0,0E0,0E0,0E0,0E0,0E0,0E0,0E0,0E0,0E0,0E0,0E0,0E0,0E0,0E0,0E0,0E0,0E0,0E0,0E0,0E0,0E0,0E0,0E0,0E0,0E0,0E0,0E0,0E0,0E0],"parents":[2147483647,0,0,1,1,2,2,3,3,4,4,5,5,6,6,7,7,8,8,9,9,10,10,11,11,12,12,13,13,14,14,15,15,16,16,17,17,18,18,19,19,20,20,21,21,22,22,23,23,24,24,25,25,26,26,27,27,28,28,29,29,30,30,31,31,32,32,33,33,34,34,35,35,36,36,37,37,38,38,39,39,40,40,41,41,42,42,43,43,44,44,45,45,46,46,47,47,48,48,49,49,50,50,51,51,52,52,53,53,54,54,55,55,56,56,57,57,58,58,59,59,60,60,61,61,62,62],"right_children":[2,4,6,8,10,12,14,16,18,20,22,24,26,28,30,32,34,36,38,40,42,44,46,48,50,52,54,56,58,60,62,64,66,68,70,72,74,76,78,80,82,84,86,88,90,92,94,96,98,100,102,104,106,108,110,112,114,116,118,120,122,124,126,-1,-1,-1,-1,-1,-1,-1,-1,-1,-1,-1,-1,-1,-1,-1,-1,-1,-1,-1,-1,-1,-1,-1,-1,-1,-1,-1,-1,-1,-1,-1,-1,-1,-1,-1,-1,-1,-1,-1,-1,-1,-1,-1,-1,-1,-1,-1,-1,-1,-1,-1,-1,-1,-1,-1,-1,-1,-1,-1,-1,-1,-1,-1,-1],"split_conditions":[-5.9271514E-1,-7.721501E-1,5.1461935E-1,-8.8526857E-1,1.09349474E-1,1.09349474E-1,2.2115989E0,1.09349474E-1,1.09349474E-1,-7.760658E-1,-1.0079896E0,-3.9046234E-1,1.3775313E0,-5.6934103E-2,2.8468022E0,-9.799259E-1,-9.93767E-1,-1.0310202E0,-9.779606E-1,-4.2300206E-1,-6.687745E-1,2.6579124E-1,-7.860541E-2,-7.737287E-1,1.318999E0,-1.2671406E0,-6.759726E-1,9.332751E-1,8.624024E-1,-4.2300206E-1,6.1657867E0,-1.7324051E0,-1.0264101E0,-1.0366609E0,-1.0214579E0,-4.2300206E-1,-2.3171835E0,-4.2300206E-1,-8.4593165E-1,-7.145762E-1,-7.145762E-1,-1.0695777E0,-2.9832807E-1,-7.673987E-1,1.7572008E0,-6.523415E-1,9.332751E-1,-4.2300206E-1,1.3734596E0,9.321147E-1,-2.6096475E-1,-7.015587E-1,-3.239801E-1,9.359291E-2,-2.3524871E-1,4.3798956E-1,1.7572008E0,9.703416E-1,9.332751E-1,2.4258394E0,5.968049E0,3.1967888E0,6.101879E-1,-9.356484E-2,-3.4608513E-1,-3.1089288E-1,-3.401199E-1,-3.4210753E-1,-3.2662255E-1,-2.1554208E-1,-3.20449E-1,-1.21232085E-1,-3.0031163E-1,2.2248153E-3,-3.202352E-1,8.389859E-2,-1.8380788E-1,-2.1511568E-1,-2.8126132E-1,-1.4776777E-1,9.88396E-3,-3.037998E-1,-2.111432E-1,-3.3940202E-1,-2.8697795E-1,-2.0266457E-1,-2.959587E-1,2.7530274E-1,1.0337947E-1,-1.21593595E-1,1.5750423E-1,3.1098672E-3,-1.5930718E-1,-2.3860265E-1,-9.984412E-2,1.753605E-1,-1.1212209E-1,-1.4603114E-1,-3.6096838E-1,1.0661694E-1,-9.843751E-2,-1.1950281E-1,-2.9433152E-1,1.358468E-1,-8.6967446E-2,9.852562E-2,2.2305615E-1,2.0361821E-1,6.45914E-4,-3.3021158E-1,-6.610616E-2,-3.63553E-1,-2.1756215E-1,-1.2034749E-1,5.9411537E-2,7.944638E-2,-1.645153E-1,-1.0336127E-1,2.7541889E-2,-1.10973515E-1,-2.2660883E-1,-2.88287E-1,-1.4360686E-1,-3.1877822E-1,-3.4555122E-1,1.8092515E-1,-2.1866408E-1],"split_indices":[3,3,3,3,1,1,5,1,1,5,5,3,2,5,5,3,3,5,5,0,3,0,0,5,2,2,5,1,3,0,5,4,5,3,5,0,0,0,5,1,1,2,5,0,1,5,1,0,2,5,5,5,3,0,3,0,1,2,1,5,3,5,0,0,0,0,0,0,0,0,0,0,0,0,0,0,0,0,0,0,0,0,0,0,0,0,0,0,0,0,0,0,0,0,0,0,0,0,0,0,0,0,0,0,0,0,0,0,0,0,0,0,0,0,0,0,0,0,0,0,0,0,0,0,0,0,0],"split_type":[0,0,0,0,0,0,0,0,0,0,0,0,0,0,0,0,0,0,0,0,0,0,0,0,0,0,0,0,0,0,0,0,0,0,0,0,0,0,0,0,0,0,0,0,0,0,0,0,0,0,0,0,0,0,0,0,0,0,0,0,0,0,0,0,0,0,0,0,0,0,0,0,0,0,0,0,0,0,0,0,0,0,0,0,0,0,0,0,0,0,0,0,0,0,0,0,0,0,0,0,0,0,0,0,0,0,0,0,0,0,0,0,0,0,0,0,0,0,0,0,0,0,0,0,0,0,0],"sum_hessian":[6.657839E5,1.06731445E5,5.5905244E5,6.786494E4,3.8866508E4,4.4839297E5,1.1065944E5,4.8325812E4,1.9539127E4,2.7882934E4,1.0983576E4,2.578042E5,1.9058878E5,9.369318E4,1.696626E4,4.2530766E4,5.7950464E3,1.5758823E4,3.7803032E3,9.959133E3,1.7923799E4,1.5706616E3,9.412914E3,4.4622844E4,2.1318134E5,1.7721427E5,1.3374509E4,1.8670994E4,7.502219E4,6.4447065E3,1.0521554E4,2.9863316E4,1.266745E4,3.2566382E3,2.5384082E3,1.4509586E3,1.4307865E4,1.04502E3,2.7352832E3,3.691752E3,6.2673813E3,9.619627E3,8.304173E3,9.967351E2,5.739265E2,5.073014E3,4.3399E3,1.1459355E4,3.316349E4,1.9861833E5,1.4563016E4,1.7001479E4,1.602128E5,5.8020723E3,7.5724365E3,1.390274E4,4.768254E3,2.7188973E4,4.7833215E4,1.2217693E3,5.222937E3,1.0515436E4,6.1180487E0,1.5466025E0,2.986177E4,1.6948334E3,1.0972617E4,2.4633074E3,7.9333093E2,5.5811884E2,1.9802894E3,5.0244577E2,9.485128E2,3.106659E1,1.4276799E4,2.9004935E2,7.549707E2,9.715746E2,1.7637086E3,1.6513472E3,2.0404048E3,2.5066658E3,3.7607156E3,1.9304886E3,7.6891377E3,5.2749194E3,3.0292537E3,1.9962083E2,7.9711426E2,5.137336E2,6.0192924E1,2.810442E3,2.2625723E3,2.9246821E3,1.4152178E3,4.0415608E3,7.417795E3,2.9507268E4,3.6562224E3,1.7179155E5,2.6826797E4,8.831036E3,5.731979E3,6.4571626E3,1.0544315E4,2.8145262E4,1.3206753E5,2.675765E3,3.1263074E3,2.0910796E3,5.481357E3,3.107724E3,1.0795016E4,2.8499548E3,1.9182992E3,2.4863969E4,2.3250037E3,3.676265E4,1.1070565E4,5.796996E2,6.4206964E2,4.7865537E3,4.363835E2,1.6910984E3,8.824337E3,5.0063663E0,1.1116828E0],"tree_param":{"num_deleted":"0","num_feature":"6","num_nodes":"127","size_leaf_vector":"0"}},{"base_weights":[9.47385E-3,9.339987E-1,-1.6703308E-1,1.089955E0,6.6166186E-1,-2.8892732E-1,3.2688156E-1,1.134828E0,9.789191E-1,7.9001266E-1,3.35788E-1,-9.283645E-2,-5.5417216E-1,1.995963E-1,1.0297388E0,1.1438403E0,1.0684986E0,1.0402751E0,7.2293866E-1,5.9573346E-1,8.979222E-1,-1.7983079E-1,4.218354E-1,4.296785E-1,-2.022101E-1,-6.055169E-1,1.2614803E-1,6.619659E-1,8.451772E-2,8.5491997E-1,1.1367282E0,1.1535839E0,1.1207807E0,1.1281224E0,9.915903E-1,7.947506E-1,1.0651165E0,3.649858E-1,8.5951185E-1,2.0218566E-1,8.2748044E-1,9.9177563E-1,7.890952E-1,-4.6017593E-1,3.0699667E-1,2.311517E-1,6.4462554E-1,3.5747916E-2,5.657926E-1,-2.6306832E-1,6.277686E-1,7.7985455E-3,-6.706004E-1,-3.1423473E-1,4.6357036E-1,8.3406585E-1,1.6010663E-1,-1.9526424E-1,2.435499E-1,5.7292825E-1,9.2076224E-1,1.1375875E0,-2.926614E-1,3.1188276E-1,1.153617E0,1.0363096E0,1.1337327E0,1.1403584E0,1.0887418E0,7.184735E-1,1.0681633E0,4.041069E-1,1.0010387E0,-7.4160714E-3,1.0674506E0,-2.796619E-1,6.126929E-1,7.1705234E-1,9.375377E-1,4.925592E-1,-3.2946587E-2,1.012666E0,7.0381063E-1,1.1313399E0,9.565931E-1,6.755485E-1,9.86529E-1,-9.176758E-1,-3.4459826E-1,4.0531197E-1,-5.250141E-1,-1.0366228E-2,5.310239E-1,7.9534215E-1,3.3281374E-1,-5.8453506E-1,3.7374026E-1,4.8677042E-1,1.2032279E0,-3.5538983E-1,3.2812488E-1,3.9834267E-1,9.8110497E-1,-4.5282263E-1,2.8989142E-1,-3.2841873E-1,-7.4352056E-1,-6.787274E-1,-2.1530462E-3,1.1007051E0,2.2035374E-1,1.2118433E0,7.252072E-1,4.011583E-1,-1.9803844E-1,-2.648213E-1,5.4838425E-1,3.4453753E-1,-9.180629E-2,3.6991188E-1,7.5536346E-1,9.6095693E-1,4.7869E-1,1.0626011E0,1.1518371E0,-6.030838E-1,7.288802E-1],"categories":[],"categories_nodes":[],"categories_segments":[],"categories_sizes":[],"default_left":[1,1,1,1,1,1,1,1,1,1,1,1,1,1,1,1,1,1,1,1,1,1,1,1,1,1,1,1,1,1,1,1,1,1,1,1,1,1,1,1,1,1,1,1,1,1,1,1,1,1,1,1,1,1,1,1,1,1,1,1,1,1,1,0,0,0,0,0,0,0,0,0,0,0,0,0,0,0,0,0,0,0,0,0,0,0,0,0,0,0,0,0,0,0,0,0,0,0,0,0,0,0,0,0,0,0,0,0,0,0,0,0,0,0,0,0,0,0,0,0,0,0,0,0,0,0,0],"id":9,"left_children":[1,3,5,7,9,11,13,15,17,19,21,23,25,27,29,31,33,35,37,39,41,43,45,47,49,51,53,55,57,59,61,63,65,67,69,71,73,75,77,79,81,83,85,87,89,91,93,95,97,99,101,103,105,107,109,111,113,115,117,119,121,123,125,-1,-1,-1,-1,-1,-1,-1,-1,-1,-1,-1,-1,-1,-1,-1,-1,-1,-1,-1,-1,-1,-1,-1,-1,-1,-1,-1,-1,-1,-1,-1,-1,-1,-1,-1,-1,-1,-1,-1,-1,-1,-1,-1,-1,-1,-1,-1,-1,-1,-1,-1,-1,-1,-1,-1,-1,-1,-1,-1,-1,-1,-1,-1,-1],"loss_changes":[1.0864629E5,4.532492E3,3.365811E4,3.3703125E2,1.6254121E3,2.3321855E4,9.899848E3,2.7664062E1,3.0614453E2,5.84041E2,4.8743567E2,1.4733493E4,6.657543E3,4.985303E3,3.1638086E2,8.265625E0,2.5458984E1,9.527539E1,1.8454187E2,9.082317E2,1.8229785E2,2.146412E2,3.997771E2,2.3926895E3,1.0768225E4,7.0738555E3,1.9876792E3,1.612565E3,3.338154E3,1.1915039E2,1.3258789E1,4.6875E-1,1.2683594E1,3.28125E-1,5.2339844E1,1.16601746E2,3.583008E1,1.672038E2,2.9743042E1,2.5214325E2,1.4284473E2,4.615625E1,1.8551904E2,5.244075E1,4.7241425E1,3.6748862E2,2.0373682E2,2.4028923E3,1.669959E3,1.084073E4,1.1802339E3,2.2093987E3,3.9973984E3,6.6010657E2,1.1733507E3,5.709043E2,4.1181616E2,1.4065739E3,1.6200247E3,4.5008667E1,9.236377E1,1.0014648E1,2.696776E0,0E0,0E0,0E0,0E0,0E0,0E0,0E0,0E0,0E0,0E0,0E0,0E0,0E0,0E0,0E0,0E0,0E0,0E0,0E0,0E0,0E0,0E0,0E0,0E0,0E0,0E0,0E0,0E0,0E0,0E0,0E0,0E0,0E0,0E0,0E0,0E0,0E0,0E0,0E0,0E0,0E0,0E0,0E0,0E0,0E0,0E0,0E0,0E0,0E0,0E0,0E0,0E0,0E0,0E0,0E0,0E0,0E0,0E0,0E0,0E0,0E0,0E0,0E0,0E0],"parents":[2147483647,0,0,1,1,2,2,3,3,4,4,5,5,6,6,7,7,8,8,9,9,10,10,11,11,12,12,13,13,14,14,15,15,16,16,17,17,18,18,19,19,20,20,21,21,22,22,23,23,24,24,25,25,26,26,27,27,28,28,29,29,30,30,31,31,32,32,33,33,34,34,35,35,36,36,37,37,38,38,39,39,40,40,41,41,42,42,43,43,44,44,45,45,46,46,47,47,48,48,49,49,50,50,51,51,52,52,53,53,54,54,55,55,56,56,57,57,58,58,59,59,60,60,61,61,62,62],"right_children":[2,4,6,8,10,12,14,16,18,20,22,24,26,28,30,32,34,36,38,40,42,44,46,48,50,52,54,56,58,60,62,64,66,68,70,72,74,76,78,80,82,84,86,88,90,92,94,96,98,100,102,104,106,108,110,112,114,116,118,120,122,124,126,-1,-1,-1,-1,-1,-1,-1,-1,-1,-1,-1,-1,-1,-1,-1,-1,-1,-1,-1,-1,-1,-1,-1,-1,-1,-1,-1,-1,-1,-1,-1,-1,-1,-1,-1,-1,-1,-1,-1,-1,-1,-1,-1,-1,-1,-1,-1,-1,-1,-1,-1,-1,-1,-1,-1,-1,-1,-1,-1,-1,-1,-1,-1,-1],"split_conditions":[-5.9271514E-1,-7.721501E-1,5.1461935E-1,-8.8526857E-1,1.09349474E-1,1.09349474E-1,2.2115989E0,1.09349474E-1,1.09349474E-1,-7.760658E-1,-1.0079896E0,-3.9046234E-1,1.3775313E0,-5.6934103E-2,2.8468022E0,-9.799241E-1,-9.93767E-1,-1.0310202E0,-9.779606E-1,-4.2300206E-1,-6.687745E-1,2.6579124E-1,-7.860541E-2,-7.737287E-1,1.318999E0,-1.2671406E0,-6.759726E-1,9.332751E-1,8.624024E-1,-4.2300206E-1,6.1657867E0,-1.7324051E0,-1.0264101E0,-1.0366609E0,-1.0214579E0,-4.2300206E-1,-2.3171835E0,-4.2300206E-1,-8.4593165E-1,-7.145762E-1,-7.145762E-1,-1.0695777E0,-2.9832807E-1,-7.673987E-1,1.7572008E0,-6.523415E-1,9.332751E-1,-4.2300206E-1,1.3734596E0,9.321147E-1,-2.6096475E-1,-7.015587E-1,-3.239801E-1,9.359291E-2,-2.3524871E-1,4.3798956E-1,1.7572008E0,9.703416E-1,9.332751E-1,2.4258394E0,5.968049E0,3.1968145E0,6.101879E-1,9.356483E-2,3.4608513E-1,3.1089288E-1,3.401198E-1,3.4210753E-1,3.2662255E-1,2.1554206E-1,3.20449E-1,1.2123207E-1,3.0031163E-1,-2.2248216E-3,3.202352E-1,-8.3898574E-2,1.8380788E-1,2.1511571E-1,2.8126132E-1,1.4776777E-1,-9.883977E-3,3.037998E-1,2.111432E-1,3.39402E-1,2.8697795E-1,2.0266455E-1,2.959587E-1,-2.7530274E-1,-1.0337948E-1,1.21593595E-1,-1.5750423E-1,-3.1098686E-3,1.5930718E-1,2.3860265E-1,9.984413E-2,-1.7536053E-1,1.1212208E-1,1.4603113E-1,3.6096838E-1,-1.0661695E-1,9.8437466E-2,1.19502805E-1,2.943315E-1,-1.358468E-1,8.696743E-2,-9.852562E-2,-2.2305618E-1,-2.0361823E-1,-6.459139E-4,3.3021155E-1,6.6106126E-2,3.63553E-1,2.1756217E-1,1.2034749E-1,-5.9411537E-2,-7.944639E-2,1.6451529E-1,1.03361264E-1,-2.7541889E-2,1.1097357E-1,2.2660905E-1,2.882871E-1,1.43607E-1,3.1878033E-1,3.4555113E-1,-1.8092515E-1,2.1866408E-1],"split_indices":[3,3,3,3,1,1,5,1,1,5,5,3,2,5,5,3,3,5,5,0,3,0,0,5,2,2,5,1,3,0,5,4,5,3,5,0,0,0,5,1,1,2,5,0,1,5,1,0,2,5,5,5,3,0,3,0,1,2,1,5,3,5,0,0,0,0,0,0,0,0,0,0,0,0,0,0,0,0,0,0,0,0,0,0,0,0,0,0,0,0,0,0,0,0,0,0,0,0,0,0,0,0,0,0,0,0,0,0,0,0,0,0,0,0,0,0,0,0,0,0,0,0,0,0,0,0,0],"split_type":[0,0,0,0,0,0,0,0,0,0,0,0,0,0,0,0,0,0,0,0,0,0,0,0,0,0,0,0,0,0,0,0,0,0,0,0,0,0,0,0,0,0,0,0,0,0,0,0,0,0,0,0,0,0,0,0,0,0,0,0,0,0,0,0,0,0,0,0,0,0,0,0,0,0,0,0,0,0,0,0,0,0,0,0,0,0,0,0,0,0,0,0,0,0,0,0,0,0,0,0,0,0,0,0,0,0,0,0,0,0,0,0,0,0,0,0,0,0,0,0,0,0,0,0,0,0,0],"sum_hessian":[6.657839E5,1.06731445E5,5.5905244E5,6.786494E4,3.8866508E4,4.48393E5,1.10659445E5,4.832581E4,1.9539127E4,2.7882932E4,1.0983576E4,2.578042E5,1.9058881E5,9.369318E4,1.6966262E4,4.2530766E4,5.795046E3,1.5758824E4,3.7803035E3,9.959133E3,1.7923799E4,1.5706616E3,9.412914E3,4.4622844E4,2.1318136E5,1.772143E5,1.337451E4,1.8670994E4,7.502219E4,6.4447095E3,1.0521552E4,2.9863434E4,1.266733E4,3.2566375E3,2.5384082E3,1.4509585E3,1.4307865E4,1.04502E3,2.7352834E3,3.691752E3,6.2673813E3,9.619626E3,8.304173E3,9.967351E2,5.739265E2,5.073014E3,4.3399E3,1.1459355E4,3.316349E4,1.9861834E5,1.4563016E4,1.7001479E4,1.6021281E5,5.8020723E3,7.572437E3,1.390274E4,4.768254E3,2.7188973E4,4.7833215E4,1.2217699E3,5.2229395E3,1.0515434E4,6.1180487E0,1.5466025E0,2.9861887E4,1.6948333E3,1.0972497E4,2.4633066E3,7.933308E2,5.5811884E2,1.9802894E3,5.0244574E2,9.4851276E2,3.106659E1,1.4276799E4,2.9004935E2,7.5497076E2,9.7157465E2,1.7637087E3,1.6513472E3,2.0404048E3,2.5066658E3,3.7607153E3,1.9304885E3,7.689137E3,5.274919E3,3.0292534E3,1.9962083E2,7.9711426E2,5.137336E2,6.0192924E1,2.810442E3,2.2625723E3,2.9246821E3,1.4152178E3,4.0415608E3,7.4177944E3,2.9507268E4,3.6562224E3,1.7179155E5,2.6826793E4,8.831036E3,5.731979E3,6.4571626E3,1.0544316E4,2.8145262E4,1.3206756E5,2.675765E3,3.1263074E3,2.0910798E3,5.4813574E3,3.107724E3,1.0795016E4,2.8499548E3,1.9182991E3,2.4863969E4,2.3250037E3,3.676265E4,1.1070564E4,5.796997E2,6.4207025E2,4.786556E3,4.363837E2,1.6912183E3,8.824215E3,5.0063663E0,1.1116828E0],"tree_param":{"num_deleted":"0","num_feature":"6","num_nodes":"127","size_leaf_vector":"0"}},{"base_weights":[-1.0076024E-2,-8.608071E-1,1.21889465E-1,-1.0417999E0,-6.0336214E-1,1.6410314E-1,-8.9144015E-1,-1.0826457E0,-9.2565995E-1,-8.7431145E-1,-4.6170512E-1,-3.661414E-1,2.285125E-1,-6.3206035E-1,-1.0390086E0,-1.0935775E0,-1.0029237E0,-5.5485946E-1,-9.681647E-1,6.1665374E-1,-8.8334155E-1,-1.3904679E-3,-5.40166E-1,-6.094877E-1,-4.8693065E-2,3.1905082E-1,-2.446621E-1,-1.0291504E0,-5.715426E-1,-9.133889E-1,-1.1088E0,-1.1047744E0,-1.0643946E0,-1.0707527E0,-9.099157E-1,9.059619E-2,-6.976994E-1,-1.0146906E0,-7.623377E-1,1.2365667E0,-1.3443054E-1,-8.27646E-1,-9.951977E-1,2.274947E-1,-4.7059363E-1,-6.0021573E-1,-1.05918735E-1,-1.3434097E-1,-7.405645E-1,2.1481605E-1,-3.4681442E-1,4.3644154E-1,-3.7818104E-2,-1.0500219E-1,-6.11269E-1,-4.402008E-1,-1.0504538E0,-3.8899118E-1,-7.6324683E-1,-9.3145937E-1,-3.1766006E-1,-1.1097085E0,2.0887092E-1,-2.677645E-1,-1.1048154E0,-9.615756E-1,-1.0808994E0,-1.0863764E0,-1.0212135E0,-6.3077646E-1,-9.96962E-1,-5.654956E-1,5.750092E-1,-7.788241E-1,7.6581225E-2,-1.0540496E0,-9.6568185E-1,-6.2647015E-1,-8.832154E-1,-1.3001405E-1,1.3359022E0,1.7041849E-1,-9.220908E-1,-5.7648087E-1,-9.186854E-1,-1.0221884E0,-8.771996E-1,2.888536E-1,-7.6185143E-1,-5.9775543E-1,1.845065E-2,-4.6467644E-1,-7.6538366E-1,-9.429779E-3,-7.209452E-1,4.7865662E-1,-3.5779774E-1,-1.1500229E0,-5.0507236E-1,6.199742E-1,-6.9541074E-2,-7.233298E-1,-1.7026031E-1,1.08566254E-1,5.421533E-1,-2.810906E-1,1.652043E-1,-2.3204274E-2,-9.2444205E-1,-7.762209E-2,-8.519089E-1,-1.0309049E0,-1.4955132E-1,-1.1402588E0,-9.313292E-1,-3.0217814E-1,-1.0189708E0,-8.390011E-1,-3.3562458E-1,-1.123532E0,-8.944265E-1,5.1793015E-1,-6.4511395E-1,-1.1714191E0,-1.0934674E0,-7.197576E-1,5.605042E-1],"categories":[],"categories_nodes":[],"categories_segments":[],"categories_sizes":[],"default_left":[1,1,1,1,1,1,1,1,1,1,1,1,1,1,1,1,1,1,1,1,1,1,1,1,1,1,1,1,1,1,1,1,1,1,1,1,1,1,1,1,1,1,1,1,1,1,1,1,1,1,1,1,1,1,1,1,1,1,1,1,1,1,1,0,0,0,0,0,0,0,0,0,0,0,0,0,0,0,0,0,0,0,0,0,0,0,0,0,0,0,0,0,0,0,0,0,0,0,0,0,0,0,0,0,0,0,0,0,0,0,0,0,0,0,0,0,0,0,0,0,0,0,0,0,0,0,0],"id":10,"left_children":[1,3,5,7,9,11,13,15,17,19,21,23,25,27,29,31,33,35,37,39,41,43,45,47,49,51,53,55,57,59,61,63,65,67,69,71,73,75,77,79,81,83,85,87,89,91,93,95,97,99,101,103,105,107,109,111,113,115,117,119,121,123,125,-1,-1,-1,-1,-1,-1,-1,-1,-1,-1,-1,-1,-1,-1,-1,-1,-1,-1,-1,-1,-1,-1,-1,-1,-1,-1,-1,-1,-1,-1,-1,-1,-1,-1,-1,-1,-1,-1,-1,-1,-1,-1,-1,-1,-1,-1,-1,-1,-1,-1,-1,-1,-1,-1,-1,-1,-1,-1,-1,-1,-1,-1,-1,-1],"loss_changes":[6.959036E4,3.878039E3,2.295493E4,2.3086719E2,1.3186025E3,1.7594297E4,8.2078906E2,3.0410156E1,2.0000293E2,1.593789E2,8.151196E2,4.3104937E3,1.9679443E4,1.8648804E2,1.18899414E2,9.2109375E0,2.6605469E1,1.2092346E2,1.0853223E2,3.350812E1,7.2231445E1,3.5318466E2,5.0275195E2,1.967126E3,1.9022974E3,1.615341E4,3.777461E3,1.2438843E1,2.3618774E2,5.235034E1,1.0750977E1,4.9414062E-1,1.3962891E1,8.432617E-1,4.4331177E1,7.6099815E1,6.74881E1,1.6933594E1,3.4074097E1,5.5125313E0,8.148507E0,1.7861523E2,1.1501953E1,1.344039E2,6.7066574E1,3.788667E2,1.3907794E2,9.3584283E2,2.3865576E3,1.4809392E3,7.551306E2,1.005641E4,4.7139414E3,3.5811506E3,2.613567E3,6.304303E0,9.546875E0,1.8910828E2,1.0646033E2,3.2753906E1,4.014428E1,7.5214844E0,2.6554115E0,0E0,0E0,0E0,0E0,0E0,0E0,0E0,0E0,0E0,0E0,0E0,0E0,0E0,0E0,0E0,0E0,0E0,0E0,0E0,0E0,0E0,0E0,0E0,0E0,0E0,0E0,0E0,0E0,0E0,0E0,0E0,0E0,0E0,0E0,0E0,0E0,0E0,0E0,0E0,0E0,0E0,0E0,0E0,0E0,0E0,0E0,0E0,0E0,0E0,0E0,0E0,0E0,0E0,0E0,0E0,0E0,0E0,0E0,0E0,0E0,0E0,0E0,0E0,0E0],"parents":[2147483647,0,0,1,1,2,2,3,3,4,4,5,5,6,6,7,7,8,8,9,9,10,10,11,11,12,12,13,13,14,14,15,15,16,16,17,17,18,18,19,19,20,20,21,21,22,22,23,23,24,24,25,25,26,26,27,27,28,28,29,29,30,30,31,31,32,32,33,33,34,34,35,35,36,36,37,37,38,38,39,39,40,40,41,41,42,42,43,43,44,44,45,45,46,46,47,47,48,48,49,49,50,50,51,51,52,52,53,53,54,54,55,55,56,56,57,57,58,58,59,59,60,60,61,61,62,62],"right_children":[2,4,6,8,10,12,14,16,18,20,22,24,26,28,30,32,34,36,38,40,42,44,46,48,50,52,54,56,58,60,62,64,66,68,70,72,74,76,78,80,82,84,86,88,90,92,94,96,98,100,102,104,106,108,110,112,114,116,118,120,122,124,126,-1,-1,-1,-1,-1,-1,-1,-1,-1,-1,-1,-1,-1,-1,-1,-1,-1,-1,-1,-1,-1,-1,-1,-1,-1,-1,-1,-1,-1,-1,-1,-1,-1,-1,-1,-1,-1,-1,-1,-1,-1,-1,-1,-1,-1,-1,-1,-1,-1,-1,-1,-1,-1,-1,-1,-1,-1,-1,-1,-1,-1,-1,-1,-1],"split_conditions":[-6.1166084E-1,-8.018992E-1,2.0657947E0,-8.94415E-1,-7.145762E-1,-1.151376E0,2.4275432E0,1.09349474E-1,-1.0428252E0,-2.3171835E0,-9.966756E-1,1.09349474E-1,9.793023E-1,1.8209809E-1,3.0761476E0,-9.799241E-1,-9.93767E-1,-7.673987E-1,1.09349474E-1,-6.1628735E-1,-2.5080374E-1,2.6579124E-1,9.332751E-1,-7.2738564E-1,2.6579124E-1,7.823862E-1,1.6460156E0,2.0759509E0,2.6579124E-1,7.6080866E0,6.1657867E0,-1.7324051E0,-1.0264101E0,-1.0366609E0,-1.0209284E0,-7.145762E-1,9.332751E-1,-7.145762E-1,-8.5344803E-1,-1.102376E0,7.063815E-1,-7.6276517E-1,-6.4389205E-1,2.2266343E0,9.332751E-1,-2.5080374E-1,1.3591839E0,-5.952004E-1,-1.6167431E0,-6.0382754E-1,-1.6589026E0,-7.145762E-1,1.09349474E-1,7.204865E-1,-7.384143E-1,-8.511233E-2,3.5736963E-2,6.997596E-1,4.796829E0,2.7759796E-1,1.9877744E0,6.1110806E-1,2.0375748E0,-8.032936E-2,-3.3144462E-1,-2.884727E-1,-3.2426983E-1,-3.2591295E-1,-3.0636406E-1,-1.8923295E-1,-2.9908863E-1,-1.6964869E-1,1.7250277E-1,-2.3364724E-1,2.2974368E-2,-3.162149E-1,-2.8970456E-1,-1.8794106E-1,-2.6496464E-1,-3.9004214E-2,4.007707E-1,5.112555E-2,-2.7662727E-1,-1.7294426E-1,-2.7560562E-1,-3.0665654E-1,-2.631599E-1,8.665608E-2,-2.2855544E-1,-1.7932664E-1,5.535195E-3,-1.3940294E-1,-2.296151E-1,-2.8289338E-3,-2.1628356E-1,1.4359699E-1,-1.0733933E-1,-3.4500688E-1,-1.5152171E-1,1.8599227E-1,-2.0862322E-2,-2.1699895E-1,-5.1078096E-2,3.2569878E-2,1.62646E-1,-8.4327176E-2,4.9561292E-2,-6.961283E-3,-2.7733263E-1,-2.328663E-2,-2.5557268E-1,-3.0927148E-1,-4.4865396E-2,-3.4207764E-1,-2.7939877E-1,-9.065345E-2,-3.0569127E-1,-2.5170034E-1,-1.0068738E-1,-3.3705962E-1,-2.6832798E-1,1.5537906E-1,-1.935342E-1,-3.5142577E-1,-3.280402E-1,-2.1592729E-1,1.6815126E-1],"split_indices":[3,3,5,3,1,2,5,1,5,0,5,1,2,3,5,3,3,0,1,5,0,0,1,5,0,0,2,5,0,3,5,4,5,3,5,1,1,1,5,5,2,5,3,2,1,0,2,0,2,5,2,1,1,5,5,3,3,2,3,3,0,3,3,0,0,0,0,0,0,0,0,0,0,0,0,0,0,0,0,0,0,0,0,0,0,0,0,0,0,0,0,0,0,0,0,0,0,0,0,0,0,0,0,0,0,0,0,0,0,0,0,0,0,0,0,0,0,0,0,0,0,0,0,0,0,0,0],"split_type":[0,0,0,0,0,0,0,0,0,0,0,0,0,0,0,0,0,0,0,0,0,0,0,0,0,0,0,0,0,0,0,0,0,0,0,0,0,0,0,0,0,0,0,0,0,0,0,0,0,0,0,0,0,0,0,0,0,0,0,0,0,0,0,0,0,0,0,0,0,0,0,0,0,0,0,0,0,0,0,0,0,0,0,0,0,0,0,0,0,0,0,0,0,0,0,0,0,0,0,0,0,0,0,0,0,0,0,0,0,0,0,0,0,0,0,0,0,0,0,0,0,0,0,0,0,0,0],"sum_hessian":[6.19862E5,8.324E4,5.36622E5,4.887566E4,3.436434E4,5.1516203E5,2.145998E4,3.6152645E4,1.2723015E4,1.1796275E4,2.2568064E4,5.5798758E4,4.5936325E5,7.783781E3,1.3676199E4,3.1781844E4,4.3708027E3,1.3098945E3,1.141312E4,7.060954E1,1.1725665E4,3.2866953E3,1.928137E4,3.1585416E4,2.4213342E4,3.8558488E5,7.3778375E4,1.0272734E3,6.7565073E3,4.8895044E3,8.786694E3,2.2942498E4,8.839346E3,2.5214475E3,1.8493553E3,2.3742046E2,1.0724741E3,9.305694E3,2.1074258E3,3.832848E1,3.2281063E1,7.8335664E3,3.892099E3,2.2094187E3,1.0772764E3,1.6938637E4,2.3427327E3,6.829794E3,2.4755621E4,1.2852931E4,1.1360411E4,2.9014312E5,9.544176E4,5.3426637E4,2.0351742E4,3.6617554E1,9.906559E2,3.4624236E3,3.2940837E3,4.745009E3,1.4449577E2,8.780798E3,5.8965735E0,1.4438381E0,2.2941053E4,1.2308446E3,7.6085015E3,1.9009854E3,6.2046204E2,4.415725E2,1.4077828E3,1.0076983E2,1.3665062E2,9.707578E2,1.0171625E2,5.149571E3,4.1561235E3,9.9510394E2,1.1123219E3,2.5763438E0,3.5752136E1,2.3838474E1,8.442591E0,2.0859758E3,5.7475903E3,3.1613208E3,7.307784E2,2.0810603E3,1.2835855E2,8.5479065E2,2.2248576E2,9.3058955E3,7.6327417E3,2.025911E3,3.1682147E2,1.8242579E3,5.005536E3,9.037655E3,1.5717967E4,5.300081E3,7.5528496E3,3.6255488E3,7.7348623E3,7.073955E4,2.194036E5,4.3416895E4,5.2024863E4,4.8578477E4,4.8481597E3,6.325511E3,1.402623E4,1.1235693E1,2.538186E1,5.5995105E2,4.3070483E2,3.0443792E3,4.180446E2,2.7975322E3,4.9655148E2,7.62246E2,3.9827627E3,4.051886E1,1.03976906E2,1.8146572E3,6.9661406E3,1.3319988E0,4.5645747E0],"tree_param":{"num_deleted":"0","num_feature":"6","num_nodes":"127","size_leaf_vector":"0"}},{"base_weights":[1.0076061E-2,8.608071E-1,-1.2188942E-1,1.0417999E0,6.033621E-1,-1.6410309E-1,8.914402E-1,1.0826457E0,9.2565995E-1,8.743114E-1,4.617051E-1,3.661415E-1,-2.2851245E-1,6.320604E-1,1.0390087E0,1.0935776E0,1.0029237E0,5.548594E-1,9.681647E-1,-6.1665374E-1,8.8334155E-1,1.3904637E-3,5.40166E-1,6.094877E-1,4.8693165E-2,-3.1905076E-1,2.4466214E-1,1.0291505E0,5.715427E-1,9.133889E-1,1.1088E0,1.1047744E0,1.0643947E0,1.0707527E0,9.099156E-1,-9.0596214E-2,6.9769937E-1,1.0146906E0,7.623376E-1,-1.2365665E0,1.3443051E-1,8.2764596E-1,9.951977E-1,-2.274947E-1,4.7059363E-1,6.002157E-1,1.0591873E-1,1.34341E-1,7.405646E-1,-2.148159E-1,3.4681445E-1,-4.364415E-1,3.7818145E-2,1.0500221E-1,6.11269E-1,4.4020075E-1,1.0504539E0,3.8899127E-1,7.6324683E-1,9.3145937E-1,3.176599E-1,1.1097085E0,-2.0887098E-1,2.677646E-1,1.1048154E0,9.615757E-1,1.0808995E0,1.0863764E0,1.0212135E0,6.3077646E-1,9.9696195E-1,5.6549555E-1,-5.750092E-1,7.7882403E-1,-7.658129E-2,1.0540496E0,9.6568185E-1,6.264701E-1,8.8321537E-1,1.3001414E-1,-1.3359022E0,-1.704185E-1,9.220908E-1,5.7648087E-1,9.186853E-1,1.0221884E0,8.771997E-1,-2.888536E-1,7.6185143E-1,5.977554E-1,-1.8450629E-2,4.6467638E-1,7.6538366E-1,9.429766E-3,7.209452E-1,-4.786566E-1,3.5779777E-1,1.150023E0,5.050724E-1,-6.199741E-1,6.954126E-2,7.2332984E-1,1.7026034E-1,-1.0856623E-1,-5.4215324E-1,2.8109062E-1,-1.6520427E-1,2.3204304E-2,9.2444205E-1,7.76221E-2,8.5190886E-1,1.0309049E0,1.4955124E-1,1.1402589E0,9.313293E-1,3.0217826E-1,1.0189708E0,8.390011E-1,3.356246E-1,1.1235318E0,8.9442664E-1,-5.179302E-1,6.451138E-1,1.1714163E0,1.093467E0,7.197575E-1,-5.605042E-1],"categories":[],"categories_nodes":[],"categories_segments":[],"categories_sizes":[],"default_left":[1,1,1,1,1,1,1,1,1,1,1,1,1,1,1,1,1,1,1,1,1,1,1,1,1,1,1,1,1,1,1,1,1,1,1,1,1,1,1,1,1,1,1,1,1,1,1,1,1,1,1,1,1,1,1,1,1,1,1,1,1,1,1,0,0,0,0,0,0,0,0,0,0,0,0,0,0,0,0,0,0,0,0,0,0,0,0,0,0,0,0,0,0,0,0,0,0,0,0,0,0,0,0,0,0,0,0,0,0,0,0,0,0,0,0,0,0,0,0,0,0,0,0,0,0,0,0],"id":11,"left_children":[1,3,5,7,9,11,13,15,17,19,21,23,25,27,29,31,33,35,37,39,41,43,45,47,49,51,53,55,57,59,61,63,65,67,69,71,73,75,77,79,81,83,85,87,89,91,93,95,97,99,101,103,105,107,109,111,113,115,117,119,121,123,125,-1,-1,-1,-1,-1,-1,-1,-1,-1,-1,-1,-1,-1,-1,-1,-1,-1,-1,-1,-1,-1,-1,-1,-1,-1,-1,-1,-1,-1,-1,-1,-1,-1,-1,-1,-1,-1,-1,-1,-1,-1,-1,-1,-1,-1,-1,-1,-1,-1,-1,-1,-1,-1,-1,-1,-1,-1,-1,-1,-1,-1,-1,-1,-1],"loss_changes":[6.959034E4,3.8780508E3,2.2954932E4,2.3085938E2,1.3186006E3,1.7594297E4,8.20791E2,3.0410156E1,2.000039E2,1.593789E2,8.151196E2,4.310493E3,1.9679443E4,1.864873E2,1.18896484E2,9.207031E0,2.6605469E1,1.2092346E2,1.0853125E2,3.3508118E1,7.2231445E1,3.5318463E2,5.0275098E2,1.967126E3,1.9022964E3,1.6153402E4,3.7774604E3,1.2439209E1,2.3618799E2,5.2351074E1,1.0751953E1,4.9414062E-1,1.3961914E1,8.430176E-1,4.4331177E1,7.6099815E1,6.748804E1,1.693457E1,3.4073975E1,5.512535E0,8.148506E0,1.7861572E2,1.1502197E1,1.344039E2,6.706659E1,3.7886816E2,1.3907794E2,9.358428E2,2.3865586E3,1.4809397E3,7.551306E2,1.0056414E4,4.7139414E3,3.581151E3,2.613567E3,6.3043046E0,9.546631E0,1.8910828E2,1.0645996E2,3.275293E1,4.0144268E1,7.5214844E0,2.655411E0,0E0,0E0,0E0,0E0,0E0,0E0,0E0,0E0,0E0,0E0,0E0,0E0,0E0,0E0,0E0,0E0,0E0,0E0,0E0,0E0,0E0,0E0,0E0,0E0,0E0,0E0,0E0,0E0,0E0,0E0,0E0,0E0,0E0,0E0,0E0,0E0,0E0,0E0,0E0,0E0,0E0,0E0,0E0,0E0,0E0,0E0,0E0,0E0,0E0,0E0,0E0,0E0,0E0,0E0,0E0,0E0,0E0,0E0,0E0,0E0,0E0,0E0,0E0,0E0],"parents":[2147483647,0,0,1,1,2,2,3,3,4,4,5,5,6,6,7,7,8,8,9,9,10,10,11,11,12,12,13,13,14,14,15,15,16,16,17,17,18,18,19,19,20,20,21,21,22,22,23,23,24,24,25,25,26,26,27,27,28,28,29,29,30,30,31,31,32,32,33,33,34,34,35,35,36,36,37,37,38,38,39,39,40,40,41,41,42,42,43,43,44,44,45,45,46,46,47,47,48,48,49,49,50,50,51,51,52,52,53,53,54,54,55,55,56,56,57,57,58,58,59,59,60,60,61,61,62,62],"right_children":[2,4,6,8,10,12,14,16,18,20,22,24,26,28,30,32,34,36,38,40,42,44,46,48,50,52,54,56,58,60,62,64,66,68,70,72,74,76,78,80,82,84,86,88,90,92,94,96,98,100,102,104,106,108,110,112,114,116,118,120,122,124,126,-1,-1,-1,-1,-1,-1,-1,-1,-1,-1,-1,-1,-1,-1,-1,-1,-1,-1,-1,-1,-1,-1,-1,-1,-1,-1,-1,-1,-1,-1,-1,-1,-1,-1,-1,-1,-1,-1,-1,-1,-1,-1,-1,-1,-1,-1,-1,-1,-1,-1,-1,-1,-1,-1,-1,-1,-1,-1,-1,-1,-1,-1,-1,-1],"split_conditions":[-6.1166084E-1,-8.018992E-1,2.0657947E0,-8.94415E-1,-7.145762E-1,-1.151376E0,2.4275432E0,1.09349474E-1,-1.0428252E0,-2.3171835E0,-9.966756E-1,1.09349474E-1,9.793023E-1,1.8209809E-1,3.0761476E0,-9.799241E-1,-9.93767E-1,-7.673987E-1,1.09349474E-1,-6.1628735E-1,-2.5080374E-1,2.6579124E-1,9.332751E-1,-7.2738564E-1,2.6579124E-1,7.823862E-1,1.6460156E0,2.0759509E0,2.6579124E-1,7.6080866E0,6.1657867E0,-1.7324051E0,-1.0264101E0,-1.0366609E0,-1.0209284E0,-7.145762E-1,9.332751E-1,-7.145762E-1,-8.5344803E-1,-1.102376E0,7.063815E-1,-7.6276517E-1,-6.4389205E-1,2.2266343E0,9.332751E-1,-2.5080374E-1,1.3591839E0,-5.952004E-1,-1.6167431E0,-6.0382754E-1,-1.6589026E0,-7.145762E-1,1.09349474E-1,7.204865E-1,-7.384143E-1,-8.511233E-2,3.5736963E-2,6.997596E-1,4.796829E0,2.7759796E-1,1.9877744E0,6.111294E-1,2.0375748E0,8.032938E-2,3.3144462E-1,2.884727E-1,3.2426986E-1,3.2591295E-1,3.0636406E-1,1.8923295E-1,2.990886E-1,1.6964868E-1,-1.7250277E-1,2.3364721E-1,-2.2974389E-2,3.162149E-1,2.8970456E-1,1.8794103E-1,2.649646E-1,3.9004244E-2,-4.007707E-1,-5.1125553E-2,2.7662727E-1,1.7294426E-1,2.7560562E-1,3.0665654E-1,2.6315993E-1,-8.665608E-2,2.2855544E-1,1.7932662E-1,-5.535189E-3,1.3940293E-1,2.296151E-1,2.8289298E-3,2.1628356E-1,-1.4359698E-1,1.0733934E-1,3.450069E-1,1.5152173E-1,-1.8599223E-1,2.0862378E-2,2.1699896E-1,5.1078103E-2,-3.256987E-2,-1.6264598E-1,8.432719E-2,-4.9561284E-2,6.9612917E-3,2.7733263E-1,2.3286631E-2,2.5557268E-1,3.0927148E-1,4.4865374E-2,3.4207767E-1,2.793988E-1,9.065348E-2,3.0569127E-1,2.5170034E-1,1.00687385E-1,3.3705956E-1,2.68328E-1,-1.5537907E-1,1.9353415E-1,3.514249E-1,3.2804012E-1,2.1592726E-1,-1.6815126E-1],"split_indices":[3,3,5,3,1,2,5,1,5,0,5,1,2,3,5,3,3,0,1,5,0,0,1,5,0,0,2,5,0,3,5,4,5,3,5,1,1,1,5,5,2,5,3,2,1,0,2,0,2,5,2,1,1,5,5,3,3,2,3,3,0,3,3,0,0,0,0,0,0,0,0,0,0,0,0,0,0,0,0,0,0,0,0,0,0,0,0,0,0,0,0,0,0,0,0,0,0,0,0,0,0,0,0,0,0,0,0,0,0,0,0,0,0,0,0,0,0,0,0,0,0,0,0,0,0,0,0],"split_type":[0,0,0,0,0,0,0,0,0,0,0,0,0,0,0,0,0,0,0,0,0,0,0,0,0,0,0,0,0,0,0,0,0,0,0,0,0,0,0,0,0,0,0,0,0,0,0,0,0,0,0,0,0,0,0,0,0,0,0,0,0,0,0,0,0,0,0,0,0,0,0,0,0,0,0,0,0,0,0,0,0,0,0,0,0,0,0,0,0,0,0,0,0,0,0,0,0,0,0,0,0,0,0,0,0,0,0,0,0,0,0,0,0,0,0,0,0,0,0,0,0,0,0,0,0,0,0],"sum_hessian":[6.19862E5,8.324E4,5.36622E5,4.887566E4,3.4364336E4,5.15162E5,2.145998E4,3.6152645E4,1.2723016E4,1.1796274E4,2.2568064E4,5.5798758E4,4.5936325E5,7.7837812E3,1.3676199E4,3.1781842E4,4.3708027E3,1.3098944E3,1.1413121E4,7.060954E1,1.1725664E4,3.286695E3,1.928137E4,3.1585416E4,2.4213342E4,3.8558488E5,7.3778375E4,1.0272737E3,6.756508E3,4.889504E3,8.786696E3,2.2942494E4,8.839349E3,2.5214475E3,1.8493552E3,2.3742046E2,1.072474E3,9.305695E3,2.1074255E3,3.832848E1,3.2281063E1,7.8335654E3,3.892099E3,2.2094187E3,1.0772764E3,1.6938637E4,2.3427324E3,6.829794E3,2.4755621E4,1.285293E4,1.1360411E4,2.9014312E5,9.544176E4,5.3426633E4,2.0351742E4,3.6617554E1,9.9065607E2,3.462424E3,3.2940837E3,4.7450083E3,1.4449574E2,8.7808E3,5.896574E0,1.4438385E0,2.2941049E4,1.2308446E3,7.608504E3,1.9009855E3,6.20462E2,4.4157254E2,1.4077827E3,1.0076984E2,1.3665062E2,9.7075775E2,1.0171625E2,5.1495713E3,4.156124E3,9.9510394E2,1.1123218E3,2.5763438E0,3.5752136E1,2.3838472E1,8.442591E0,2.0859758E3,5.7475894E3,3.1613208E3,7.3077844E2,2.0810603E3,1.2835855E2,8.547906E2,2.2248576E2,9.305895E3,7.632741E3,2.025911E3,3.1682147E2,1.8242579E3,5.005536E3,9.037655E3,1.5717966E4,5.300081E3,7.552849E3,3.6255488E3,7.7348623E3,7.073954E4,2.1940358E5,4.3416895E4,5.2024863E4,4.8578477E4,4.8481597E3,6.325511E3,1.402623E4,1.1235693E1,2.538186E1,5.599512E2,4.3070493E2,3.0443794E3,4.1804465E2,2.7975325E3,4.9655148E2,7.6224445E2,3.9827637E3,4.051886E1,1.0397688E2,1.8147513E3,6.966048E3,1.3319988E0,4.564575E0],"tree_param":{"num_deleted":"0","num_feature":"6","num_nodes":"127","size_leaf_vector":"0"}},{"base_weights":[-1.0149157E-2,-5.7022583E-1,1.3523842E-1,-9.285239E-1,-3.3947098E-1,2.2305275E-1,-3.4141693E-1,-1.0284691E0,-7.4226934E-1,-2.201939E-1,-7.2860205E-1,4.223761E-1,3.5260484E-2,-2.1341087E-1,-9.17614E-1,-1.0554178E0,-9.4342595E-1,-8.385374E-1,-4.4166374E-1,5.343457E-2,-4.5482153E-1,-1.0899667E0,-6.455547E-1,2.9681215E-1,6.492054E-1,-8.1717566E-2,3.907198E-1,-9.9616456E-1,-1.118526E-1,-7.445978E-1,-1.057428E0,-1.0645543E0,-9.849093E-1,-6.2007946E-1,-9.7779936E-1,-5.7457215E-1,-8.962328E-1,-2.3208752E-1,-6.205789E-1,-6.033373E-1,1.6336246E-1,-5.6299144E-1,6.760933E-2,-1.2488061E0,-9.935125E-1,-4.9256614E-1,-9.987407E-1,-3.1739143E-1,3.600989E-1,5.8898985E-2,6.8111473E-1,-1.9490665E-1,3.1612995E-1,5.679319E-1,1.2542386E-1,-1.3453386E0,-7.6811254E-1,4.51035E-2,-4.1760382E-1,-1.0036068E0,-6.9035167E-1,-9.593011E-1,-1.0736188E0,-1.073562E0,-1.0422982E0,-1.0412477E0,-9.0423036E-1,-1.8418673E-1,-8.44779E-1,-1.0071915E0,-8.3010346E-1,-2.2056441E-1,-8.063935E-1,-9.6222275E-1,-8.2150126E-1,1.9648369E-1,-4.131665E-1,-5.239986E-1,-9.4892E-1,-1.3920534E-1,-8.9490783E-1,2.8773534E-1,-5.5147713E-1,-3.676712E-1,-7.235322E-1,1.7037687E-1,-6.20322E-1,-1.1693919E0,-1.496745E0,-8.623197E-1,-1.1264569E0,-4.2462698E-1,-1.0590842E0,-8.9107454E-1,-1.1501876E0,3.6460433E-2,-7.127173E-1,4.4770345E-1,-1.268891E-1,4.2907578E-1,-7.331596E-1,7.3300976E-1,2.9308107E-1,-4.9299147E-2,-5.2848595E-1,5.262334E-1,7.593343E-2,6.216404E-1,2.1621868E-2,-3.018038E-1,3.2646963E-1,-1.7664396E0,-1.2657919E0,-1.4866458E0,-6.422411E-1,1.2215729E-1,-5.2542144E-1,-3.7044114E-1,-8.3168685E-1,-1.1001877E0,-9.1535366E-1,-5.65856E-1,-8.10674E-1,-9.783629E-1,-4.7473317E-1,-1.0747614E0,1.4645442E-1],"categories":[],"categories_nodes":[],"categories_segments":[],"categories_sizes":[],"default_left":[1,1,1,1,1,1,1,1,1,1,1,1,1,1,1,1,1,1,1,1,1,1,1,1,1,1,1,1,1,1,1,1,1,1,1,1,1,1,1,1,1,1,1,1,1,1,1,1,1,1,1,1,1,1,1,1,1,1,1,1,1,1,1,0,0,0,0,0,0,0,0,0,0,0,0,0,0,0,0,0,0,0,0,0,0,0,0,0,0,0,0,0,0,0,0,0,0,0,0,0,0,0,0,0,0,0,0,0,0,0,0,0,0,0,0,0,0,0,0,0,0,0,0,0,0,0,0],"id":12,"left_children":[1,3,5,7,9,11,13,15,17,19,21,23,25,27,29,31,33,35,37,39,41,43,45,47,49,51,53,55,57,59,61,63,65,67,69,71,73,75,77,79,81,83,85,87,89,91,93,95,97,99,101,103,105,107,109,111,113,115,117,119,121,123,125,-1,-1,-1,-1,-1,-1,-1,-1,-1,-1,-1,-1,-1,-1,-1,-1,-1,-1,-1,-1,-1,-1,-1,-1,-1,-1,-1,-1,-1,-1,-1,-1,-1,-1,-1,-1,-1,-1,-1,-1,-1,-1,-1,-1,-1,-1,-1,-1,-1,-1,-1,-1,-1,-1,-1,-1,-1,-1,-1,-1,-1,-1,-1,-1],"loss_changes":[4.7535914E4,9.946738E3,1.9399527E4,8.765586E2,3.396498E3,1.4649393E4,5.3178037E3,6.9291016E1,4.760127E2,3.5961406E3,5.145293E2,5.407164E3,8.379147E3,4.6898564E3,3.1624707E2,1.39453125E1,8.1520996E1,1.893623E2,1.4966113E2,1.8670254E3,1.7041919E3,4.7890137E1,7.539595E2,4.750449E3,1.2741914E3,6.827741E3,2.3457202E3,5.384863E2,2.5061558E3,8.1653564E1,1.048291E1,3.0136719E0,1.12578125E1,6.9656006E1,2.8151855E1,1.8357495E2,4.9657227E1,1.4299402E2,6.782971E1,5.0163733E2,