{"learner":{"attributes":{"best_iteration":"99","best_ntree_limit":"100","scikit_learn":"{\"use_label_encoder\": null, \"n_estimators\": 100, \"objective\": \"binary:logistic\", \"max_depth\": null, \"max_leaves\": null, \"max_bin\": null, \"grow_policy\": null, \"learning_rate\": null, \"verbosity\": null, \"booster\": \"gbtree\", \"tree_method\": null, \"gamma\": null, \"min_child_weight\": null, \"max_delta_step\": null, \"subsample\": null, \"sampling_method\": null, \"colsample_bytree\": null, \"colsample_bylevel\": null, \"colsample_bynode\": null, \"reg_alpha\": null, \"reg_lambda\": null, \"scale_pos_weight\": null, \"base_score\": null, \"missing\": NaN, \"num_parallel_tree\": null, \"random_state\": null, \"n_jobs\": null, \"monotone_constraints\": null, \"interaction_constraints\": null, \"importance_type\": null, \"gpu_id\": null, \"validate_parameters\": null, \"predictor\": null, \"enable_categorical\": false, \"feature_types\": null, \"max_cat_to_onehot\": null, \"max_cat_threshold\": null, \"eval_metric\": null, \"early_stopping_rounds\": null, \"callbacks\": null, \"classes_\": [0.0, 1.0], \"n_classes_\": 2, \"_estimator_type\": \"classifier\"}"},"feature_names":[],"feature_types":[],"gradient_booster":{"model":{"gbtree_model_param":{"num_parallel_tree":"1","num_trees":"200","size_leaf_vector":"0"},"tree_info":[0,1,0,1,0,1,0,1,0,1,0,1,0,1,0,1,0,1,0,1,0,1,0,1,0,1,0,1,0,1,0,1,0,1,0,1,0,1,0,1,0,1,0,1,0,1,0,1,0,1,0,1,0,1,0,1,0,1,0,1,0,1,0,1,0,1,0,1,0,1,0,1,0,1,0,1,0,1,0,1,0,1,0,1,0,1,0,1,0,1,0,1,0,1,0,1,0,1,0,1,0,1,0,1,0,1,0,1,0,1,0,1,0,1,0,1,0,1,0,1,0,1,0,1,0,1,0,1,0,1,0,1,0,1,0,1,0,1,0,1,0,1,0,1,0,1,0,1,0,1,0,1,0,1,0,1,0,1,0,1,0,1,0,1,0,1,0,1,0,1,0,1,0,1,0,1,0,1,0,1,0,1,0,1,0,1,0,1,0,1,0,1,0,1,0,1,0,1,0,1],"trees":[{"base_weights":[-0E0,-1.4182504E0,1.020609E0,-1.8507518E0,-7.507623E-1,1.2763305E0,-7.945918E-1,-1.9192572E0,-1.0305965E0,-4.5516035E-1,-1.9259825E0,-4.2841527E-1,1.4095374E0,-5.710452E-1,-1.860832E0,-1.9575922E0,-1.6373883E0,-1.4650258E0,1.3572559E-1,-1.3595443E0,-9.141428E-2,-1.4943854E0,-1.966178E0,-1.0694288E0,4.86869E-1,1.5808717E0,3.765104E-1,-9.8736274E-1,9.4847485E-2,-1.625202E0,-1.9455565E0,-1.9716929E0,-1.726687E0,-1.75645E0,-1.2012666E0,-8.121248E-1,-1.7005645E0,-2.6320592E-1,8.333575E-1,-1.583225E0,-1.2270758E0,-4.727345E-1,3.0603555E-1,-1.8013344E0,-1.2870432E0,-1.9668382E0,8.5714287E-1,-1.4656333E0,-4.5951173E-1,-4.4837582E-1,9.098598E-1,1.6149058E0,-1.4422361E0,-4.448999E-1,9.166304E-1,1.7153086E-1,-1.3536289E0,5.644935E-1,-5.449904E-1,5.503356E-1,-1.6525482E0,-1.9611015E0,-1.6100886E0,-1.9862231E0,-1.889973E0,-1.8308754E0,-1.0537785E0,-1.844238E0,-1.4841535E0,-1.7639471E0,-1.1060565E0,-1.2528987E0,-9.193481E-3,-1.8163433E0,-1.3549074E0,-6.9479305E-1,4.439099E-1,1.1167219E0,1.6932753E-1,-1.6325382E0,-7.380608E-1,-1.0943424E0,-1.4734955E0,-2.750544E-1,-1.0073379E0,-9.3421054E-1,4.109335E-1,-1.6277778E0,-1.8366857E0,-1.1182424E0,-1.6310188E0,-1.8825711E0,-1.9852527E0,1.1666666E0,-5E-1,-1.693743E0,-1.0771354E0,-1.3286188E0,4.238164E-2,-1.1349144E0,-3.3402923E-2,1.1574491E0,7.442078E-2,1.2500575E0,1.7228818E0,-7.95854E-1,-1.8971102E0,-1.0760427E-1,-1.0667065E0,1.0036228E0,-1.8113123E0,8.333023E-1,-1.2823132E0,-1.6173021E0,-9.911483E-1,1.34955E-1,8.986561E-1,-8.9202887E-1,9.011079E-2,1.2E0,-1.9178082E-1,-1.8492736E0,-1.3918595E0,-4.7619048E-1,-1.9628534E0,-1.1264368E0,-1.8693361E0],"categories":[],"categories_nodes":[],"categories_segments":[],"categories_sizes":[],"default_left":[1,1,1,1,1,1,1,1,1,1,1,1,1,1,1,1,1,1,1,1,1,1,1,1,1,1,1,1,1,1,1,1,1,1,1,1,1,1,1,1,1,1,1,1,1,1,1,1,1,1,1,1,1,1,1,1,1,1,1,1,1,1,1,0,0,0,0,0,0,0,0,0,0,0,0,0,0,0,0,0,0,0,0,0,0,0,0,0,0,0,0,0,0,0,0,0,0,0,0,0,0,0,0,0,0,0,0,0,0,0,0,0,0,0,0,0,0,0,0,0,0,0,0,0,0,0,0],"id":0,"left_children":[1,3,5,7,9,11,13,15,17,19,21,23,25,27,29,31,33,35,37,39,41,43,45,47,49,51,53,55,57,59,61,63,65,67,69,71,73,75,77,79,81,83,85,87,89,91,93,95,97,99,101,103,105,107,109,111,113,115,117,119,121,123,125,-1,-1,-1,-1,-1,-1,-1,-1,-1,-1,-1,-1,-1,-1,-1,-1,-1,-1,-1,-1,-1,-1,-1,-1,-1,-1,-1,-1,-1,-1,-1,-1,-1,-1,-1,-1,-1,-1,-1,-1,-1,-1,-1,-1,-1,-1,-1,-1,-1,-1,-1,-1,-1,-1,-1,-1,-1,-1,-1,-1,-1,-1,-1,-1],"loss_changes":[1.2903676E6,1.07695875E5,2.4063625E5,1.27168125E4,5.095615E4,1.0318531E5,1.5256949E4,2.254375E3,8.843363E3,3.8555938E4,5.0848438E2,1.9322629E4,7.459444E4,1.4670863E4,2.1832812E2,5.95375E2,1.2969844E3,1.954207E3,1.3187003E3,9.941914E2,1.2668152E4,1.5779297E2,5.19375E1,4.6798203E3,5.3668193E3,3.719675E4,2.6601602E4,1.3821824E4,6.118132E3,1.7583301E2,3.9371094E1,2.020625E2,7.406836E2,4.670078E2,2.8565527E2,1.1938188E3,3.714922E2,9.203562E2,3.2415588E2,5.197969E2,6.891328E2,4.5079727E3,5.325119E3,3.2177734E0,8.556128E1,3.8101562E1,3.52381E0,1.0386641E3,3.32771E3,1.2037144E3,1.932061E3,1.4080625E4,1.1819307E3,4.988638E3,8.586102E3,7.52551E3,2.3632188E3,1.6852034E3,1.8996372E3,1.8189352E1,1.4635498E2,1.9328125E1,4.3879517E1,0E0,0E0,0E0,0E0,0E0,0E0,0E0,0E0,0E0,0E0,0E0,0E0,0E0,0E0,0E0,0E0,0E0,0E0,0E0,0E0,0E0,0E0,0E0,0E0,0E0,0E0,0E0,0E0,0E0,0E0,0E0,0E0,0E0,0E0,0E0,0E0,0E0,0E0,0E0,0E0,0E0,0E0,0E0,0E0,0E0,0E0,0E0,0E0,0E0,0E0,0E0,0E0,0E0,0E0,0E0,0E0,0E0,0E0,0E0,0E0,0E0,0E0,0E0,0E0],"parents":[2147483647,0,0,1,1,2,2,3,3,4,4,5,5,6,6,7,7,8,8,9,9,10,10,11,11,12,12,13,13,14,14,15,15,16,16,17,17,18,18,19,19,20,20,21,21,22,22,23,23,24,24,25,25,26,26,27,27,28,28,29,29,30,30,31,31,32,32,33,33,34,34,35,35,36,36,37,37,38,38,39,39,40,40,41,41,42,42,43,43,44,44,45,45,46,46,47,47,48,48,49,49,50,50,51,51,52,52,53,53,54,54,55,55,56,56,57,57,58,58,59,59,60,60,61,61,62,62],"right_children":[2,4,6,8,10,12,14,16,18,20,22,24,26,28,30,32,34,36,38,40,42,44,46,48,50,52,54,56,58,60,62,64,66,68,70,72,74,76,78,80,82,84,86,88,90,92,94,96,98,100,102,104,106,108,110,112,114,116,118,120,122,124,126,-1,-1,-1,-1,-1,-1,-1,-1,-1,-1,-1,-1,-1,-1,-1,-1,-1,-1,-1,-1,-1,-1,-1,-1,-1,-1,-1,-1,-1,-1,-1,-1,-1,-1,-1,-1,-1,-1,-1,-1,-1,-1,-1,-1,-1,-1,-1,-1,-1,-1,-1,-1,-1,-1,-1,-1,-1,-1,-1,-1,-1,-1,-1,-1],"split_conditions":[-1.8661928E-1,-3.844722E-1,9.3882763E-1,-3.29341E-1,1.9829835E0,-7.597046E-1,2.0219326E0,-5.305124E-1,-4.8336482E-1,-3.170895E-1,2.136822E0,1.09349474E-1,9.545845E-1,2.5033317E0,2.3864486E0,-4.3875E-1,1.09349474E-1,9.078454E-2,-1.0588089E-1,-1.5723577E-1,1.09349474E-1,-3.1534082E-1,7.292515E0,1.6256699E-1,1.0153147E-1,2.1648288E0,1.09349474E-1,2.8280082E-1,1.9877744E0,7.46668E-1,2.3605337E0,-6.693278E-1,-4.1923264E-1,9.835631E-3,-1.3348806E0,1.09349474E-1,1.09349474E-1,1.09349474E-1,9.359291E-2,-2.7441418E-1,9.8652804E-1,4.3798956E-1,-1.2651073E0,2.0134952E0,9.6080625E-1,2.3647473E0,1.5177091E1,1.958904E-1,-8.5947907E-1,-8.702493E-1,9.545845E-1,-4.7687238E-1,2.7283883E0,1.4602935E-1,2.0114427E0,1.4757177E-1,1.09349474E-1,1.09349474E-1,9.332751E-1,1.2490777E-1,2.6649833E0,5.680529E-1,2.901321E0,-5.95867E-1,-5.669919E-1,-5.4926264E-1,-3.1613356E-1,-5.532714E-1,-4.4524607E-1,-5.2918416E-1,-3.3181694E-1,-3.7586963E-1,-2.7580443E-3,-5.4490304E-1,-4.0647224E-1,-2.0843792E-1,1.3317297E-1,3.3501658E-1,5.079826E-2,-4.8976147E-1,-2.2141825E-1,-3.283027E-1,-4.4204867E-1,-8.251632E-2,-3.022014E-1,-2.802632E-1,1.23280056E-1,-4.8833337E-1,-5.510057E-1,-3.3547273E-1,-4.8930565E-1,-5.6477135E-1,-5.9557587E-1,3.5E-1,-1.5E-1,-5.081229E-1,-3.2314065E-1,-3.9858565E-1,1.2714493E-2,-3.4047434E-1,-1.0020877E-2,3.4723476E-1,2.2326235E-2,3.7501726E-1,5.1686454E-1,-2.387562E-1,-5.691331E-1,-3.2281283E-2,-3.2001197E-1,3.0108684E-1,-5.4339373E-1,2.499907E-1,-3.8469398E-1,-4.8519063E-1,-2.973445E-1,4.0486503E-2,2.6959684E-1,-2.6760867E-1,2.703324E-2,3.6E-1,-5.7534248E-2,-5.547821E-1,-4.1755787E-1,-1.4285715E-1,-5.8885604E-1,-3.3793107E-1,-5.6080085E-1],"split_indices":[6,3,6,6,5,17,5,3,17,19,5,1,0,10,5,6,1,7,17,3,1,19,12,19,6,5,1,15,0,3,8,3,17,19,9,1,1,1,0,6,5,0,9,5,3,5,5,6,17,17,0,17,5,8,5,8,1,1,1,17,10,3,5,0,0,0,0,0,0,0,0,0,0,0,0,0,0,0,0,0,0,0,0,0,0,0,0,0,0,0,0,0,0,0,0,0,0,0,0,0,0,0,0,0,0,0,0,0,0,0,0,0,0,0,0,0,0,0,0,0,0,0,0,0,0,0,0],"split_type":[0,0,0,0,0,0,0,0,0,0,0,0,0,0,0,0,0,0,0,0,0,0,0,0,0,0,0,0,0,0,0,0,0,0,0,0,0,0,0,0,0,0,0,0,0,0,0,0,0,0,0,0,0,0,0,0,0,0,0,0,0,0,0,0,0,0,0,0,0,0,0,0,0,0,0,0,0,0,0,0,0,0,0,0,0,0,0,0,0,0,0,0,0,0,0,0,0,0,0,0,0,0,0,0,0,0,0,0,0,0,0,0,0,0,0,0,0,0,0,0,0,0,0,0,0,0,0],"sum_hessian":[8.914565E5,3.7305475E5,5.1840175E5,2.263735E5,1.4668125E5,4.5438875E5,6.4013E4,2.089215E5,1.7452E4,1.1720275E5,2.94785E4,3.2932E4,4.2145675E5,5.29195E4,1.10935E4,1.83904E5,2.50175E4,1.27155E4,4.7365E3,3.361725E4,8.35855E4,2.51475E3,2.696375E4,1.936775E4,1.356425E4,3.6149925E5,5.99575E4,3.25615E4,2.0358E4,2.93925E3,8.15425E3,1.7331275E5,1.059125E4,1.965E4,5.3675E3,3.37225E3,9.34325E3,3.01375E3,1.72275E3,1.249975E4,2.11175E4,4.265825E4,4.092725E4,1.01075E3,1.504E3,2.695775E4,6E0,1.174E4,7.62775E3,4.22425E3,9.34E3,3.5747525E5,4.024E3,2.378525E4,3.617225E4,7.81975E3,2.474175E4,1.17405E4,8.6175E3,3.625E1,2.903E3,7.7885E3,3.6575E2,1.4712925E5,2.61835E4,9.16975E3,1.4215E3,1.4855E4,4.795E3,7.7425E2,4.59325E3,2.17675E3,1.1955E3,6.99575E3,2.3475E3,1.8715E3,1.14225E3,1.207E3,5.1575E2,1.180975E4,6.9E2,1.372825E4,7.38925E3,3.114375E4,1.15145E4,3.191E3,3.773625E4,1.79E2,8.3175E2,1.01175E3,4.9225E2,4.853E3,2.210475E4,5E0,1E0,7.39475E3,4.34525E3,2.79175E3,4.836E3,1.59075E3,2.6335E3,7.2045E3,2.1355E3,8.163725E4,2.75838E5,1.66325E3,2.36075E3,1.542125E4,8.364E3,3.5055E4,1.11725E3,5.374E3,2.44575E3,1.4321E4,1.042075E4,5.13775E3,6.60275E3,5.57225E3,3.04525E3,1.9E1,1.725E1,1.651E3,1.252E3,9.5E0,7.779E3,1.295E2,2.3625E2],"tree_param":{"num_deleted":"0","num_feature":"20","num_nodes":"127","size_leaf_vector":"0"}},{"base_weights":[-0E0,1.4182504E0,-1.020609E0,1.8507518E0,7.507623E-1,-1.2763305E0,7.945918E-1,1.9192572E0,1.0305965E0,4.5516035E-1,1.9259825E0,4.2841527E-1,-1.4095374E0,5.710452E-1,1.860832E0,1.9575922E0,1.6373883E0,1.4650258E0,-1.3572559E-1,1.3595443E0,9.141428E-2,1.4943854E0,1.966178E0,1.0694288E0,-4.86869E-1,-1.5808717E0,-3.765104E-1,9.8736274E-1,-9.4847485E-2,1.625202E0,1.9455565E0,1.9716929E0,1.726687E0,1.75645E0,1.2012666E0,8.121248E-1,1.7005645E0,2.6320592E-1,-8.333575E-1,1.583225E0,1.2270758E0,4.727345E-1,-3.0603555E-1,1.8013344E0,1.2870432E0,1.9668382E0,-8.5714287E-1,1.4656333E0,4.5951173E-1,4.4837582E-1,-9.098598E-1,-1.6149058E0,1.4422361E0,4.448999E-1,-9.166304E-1,-1.7153086E-1,1.3536289E0,-5.644935E-1,5.449904E-1,-5.503356E-1,1.6525482E0,1.9611015E0,1.6100886E0,1.9862231E0,1.889973E0,1.8308754E0,1.0537785E0,1.844238E0,1.4841535E0,1.7639471E0,1.1060565E0,1.2528987E0,9.193481E-3,1.8163433E0,1.3549074E0,6.9479305E-1,-4.439099E-1,-1.1167219E0,-1.6932753E-1,1.6325382E0,7.380608E-1,1.0943424E0,1.4734955E0,2.750544E-1,1.0073379E0,9.3421054E-1,-4.109335E-1,1.6277778E0,1.8366857E0,1.1182424E0,1.6310188E0,1.8825711E0,1.9852527E0,-1.1666666E0,5E-1,1.693743E0,1.0771354E0,1.3286188E0,-4.238164E-2,1.1349144E0,3.3402923E-2,-1.1574491E0,-7.442078E-2,-1.2500575E0,-1.7228818E0,7.95854E-1,1.8971102E0,1.0760427E-1,1.0667065E0,-1.0036228E0,1.8113123E0,-8.333023E-1,1.2823132E0,1.6173021E0,9.911483E-1,-1.34955E-1,-8.986561E-1,8.9202887E-1,-9.011079E-2,-1.2E0,1.9178082E-1,1.8492736E0,1.3918595E0,4.7619048E-1,1.9628534E0,1.1264368E0,1.8693361E0],"categories":[],"categories_nodes":[],"categories_segments":[],"categories_sizes":[],"default_left":[1,1,1,1,1,1,1,1,1,1,1,1,1,1,1,1,1,1,1,1,1,1,1,1,1,1,1,1,1,1,1,1,1,1,1,1,1,1,1,1,1,1,1,1,1,1,1,1,1,1,1,1,1,1,1,1,1,1,1,1,1,1,1,0,0,0,0,0,0,0,0,0,0,0,0,0,0,0,0,0,0,0,0,0,0,0,0,0,0,0,0,0,0,0,0,0,0,0,0,0,0,0,0,0,0,0,0,0,0,0,0,0,0,0,0,0,0,0,0,0,0,0,0,0,0,0,0],"id":1,"left_children":[1,3,5,7,9,11,13,15,17,19,21,23,25,27,29,31,33,35,37,39,41,43,45,47,49,51,53,55,57,59,61,63,65,67,69,71,73,75,77,79,81,83,85,87,89,91,93,95,97,99,101,103,105,107,109,111,113,115,117,119,121,123,125,-1,-1,-1,-1,-1,-1,-1,-1,-1,-1,-1,-1,-1,-1,-1,-1,-1,-1,-1,-1,-1,-1,-1,-1,-1,-1,-1,-1,-1,-1,-1,-1,-1,-1,-1,-1,-1,-1,-1,-1,-1,-1,-1,-1,-1,-1,-1,-1,-1,-1,-1,-1,-1,-1,-1,-1,-1,-1,-1,-1,-1,-1,-1,-1],"loss_changes":[1.2903676E6,1.07695875E5,2.4063625E5,1.27168125E4,5.095615E4,1.0318531E5,1.5256949E4,2.254375E3,8.843363E3,3.8555938E4,5.0848438E2,1.9322629E4,7.459444E4,1.4670863E4,2.1832812E2,5.95375E2,1.2969844E3,1.954207E3,1.3187003E3,9.941914E2,1.2668152E4,1.5779297E2,5.19375E1,4.6798203E3,5.3668193E3,3.719675E4,2.6601602E4,1.3821824E4,6.118132E3,1.7583301E2,3.9371094E1,2.020625E2,7.406836E2,4.670078E2,2.8565527E2,1.1938188E3,3.714922E2,9.203562E2,3.2415588E2,5.197969E2,6.891328E2,4.5079727E3,5.325119E3,3.2177734E0,8.556128E1,3.8101562E1,3.52381E0,1.0386641E3,3.32771E3,1.2037144E3,1.932061E3,1.4080625E4,1.1819307E3,4.988638E3,8.586102E3,7.52551E3,2.3632188E3,1.6852034E3,1.8996372E3,1.8189352E1,1.4635498E2,1.9328125E1,4.3879517E1,0E0,0E0,0E0,0E0,0E0,0E0,0E0,0E0,0E0,0E0,0E0,0E0,0E0,0E0,0E0,0E0,0E0,0E0,0E0,0E0,0E0,0E0,0E0,0E0,0E0,0E0,0E0,0E0,0E0,0E0,0E0,0E0,0E0,0E0,0E0,0E0,0E0,0E0,0E0,0E0,0E0,0E0,0E0,0E0,0E0,0E0,0E0,0E0,0E0,0E0,0E0,0E0,0E0,0E0,0E0,0E0,0E0,0E0,0E0,0E0,0E0,0E0,0E0,0E0],"parents":[2147483647,0,0,1,1,2,2,3,3,4,4,5,5,6,6,7,7,8,8,9,9,10,10,11,11,12,12,13,13,14,14,15,15,16,16,17,17,18,18,19,19,20,20,21,21,22,22,23,23,24,24,25,25,26,26,27,27,28,28,29,29,30,30,31,31,32,32,33,33,34,34,35,35,36,36,37,37,38,38,39,39,40,40,41,41,42,42,43,43,44,44,45,45,46,46,47,47,48,48,49,49,50,50,51,51,52,52,53,53,54,54,55,55,56,56,57,57,58,58,59,59,60,60,61,61,62,62],"right_children":[2,4,6,8,10,12,14,16,18,20,22,24,26,28,30,32,34,36,38,40,42,44,46,48,50,52,54,56,58,60,62,64,66,68,70,72,74,76,78,80,82,84,86,88,90,92,94,96,98,100,102,104,106,108,110,112,114,116,118,120,122,124,126,-1,-1,-1,-1,-1,-1,-1,-1,-1,-1,-1,-1,-1,-1,-1,-1,-1,-1,-1,-1,-1,-1,-1,-1,-1,-1,-1,-1,-1,-1,-1,-1,-1,-1,-1,-1,-1,-1,-1,-1,-1,-1,-1,-1,-1,-1,-1,-1,-1,-1,-1,-1,-1,-1,-1,-1,-1,-1,-1,-1,-1,-1,-1,-1],"split_conditions":[-1.8661928E-1,-3.844722E-1,9.3882763E-1,-3.29341E-1,1.9829835E0,-7.597046E-1,2.0219326E0,-5.305124E-1,-4.8336482E-1,-3.170895E-1,2.136822E0,1.09349474E-1,9.545845E-1,2.5033317E0,2.3864486E0,-4.3875E-1,1.09349474E-1,9.078454E-2,-1.0588089E-1,-1.5723577E-1,1.09349474E-1,-3.1534082E-1,7.292515E0,1.6256699E-1,1.0153147E-1,2.1648288E0,1.09349474E-1,2.8280082E-1,1.9877744E0,7.46668E-1,2.3605337E0,-6.693278E-1,-4.1923264E-1,9.835631E-3,-1.3348806E0,1.09349474E-1,1.09349474E-1,1.09349474E-1,9.359291E-2,-2.7441418E-1,9.8652804E-1,4.3798956E-1,-1.2651073E0,2.0134952E0,9.6080625E-1,2.3647473E0,1.5177091E1,1.958904E-1,-8.5947907E-1,-8.702493E-1,9.545845E-1,-4.7687238E-1,2.7283883E0,1.4602935E-1,2.0114427E0,1.4757177E-1,1.09349474E-1,1.09349474E-1,9.332751E-1,1.2490777E-1,2.6649833E0,5.680529E-1,2.901321E0,5.95867E-1,5.669919E-1,5.4926264E-1,3.1613356E-1,5.532714E-1,4.4524607E-1,5.2918416E-1,3.3181694E-1,3.7586963E-1,2.7580443E-3,5.4490304E-1,4.0647224E-1,2.0843792E-1,-1.3317297E-1,-3.3501658E-1,-5.079826E-2,4.8976147E-1,2.2141825E-1,3.283027E-1,4.4204867E-1,8.251632E-2,3.022014E-1,2.802632E-1,-1.23280056E-1,4.8833337E-1,5.510057E-1,3.3547273E-1,4.8930565E-1,5.6477135E-1,5.9557587E-1,-3.5E-1,1.5E-1,5.081229E-1,3.2314065E-1,3.9858565E-1,-1.2714493E-2,3.4047434E-1,1.0020877E-2,-3.4723476E-1,-2.2326235E-2,-3.7501726E-1,-5.1686454E-1,2.387562E-1,5.691331E-1,3.2281283E-2,3.2001197E-1,-3.0108684E-1,5.4339373E-1,-2.499907E-1,3.8469398E-1,4.8519063E-1,2.973445E-1,-4.0486503E-2,-2.6959684E-1,2.6760867E-1,-2.703324E-2,-3.6E-1,5.7534248E-2,5.547821E-1,4.1755787E-1,1.4285715E-1,5.8885604E-1,3.3793107E-1,5.6080085E-1],"split_indices":[6,3,6,6,5,17,5,3,17,19,5,1,0,10,5,6,1,7,17,3,1,19,12,19,6,5,1,15,0,3,8,3,17,19,9,1,1,1,0,6,5,0,9,5,3,5,5,6,17,17,0,17,5,8,5,8,1,1,1,17,10,3,5,0,0,0,0,0,0,0,0,0,0,0,0,0,0,0,0,0,0,0,0,0,0,0,0,0,0,0,0,0,0,0,0,0,0,0,0,0,0,0,0,0,0,0,0,0,0,0,0,0,0,0,0,0,0,0,0,0,0,0,0,0,0,0,0],"split_type":[0,0,0,0,0,0,0,0,0,0,0,0,0,0,0,0,0,0,0,0,0,0,0,0,0,0,0,0,0,0,0,0,0,0,0,0,0,0,0,0,0,0,0,0,0,0,0,0,0,0,0,0,0,0,0,0,0,0,0,0,0,0,0,0,0,0,0,0,0,0,0,0,0,0,0,0,0,0,0,0,0,0,0,0,0,0,0,0,0,0,0,0,0,0,0,0,0,0,0,0,0,0,0,0,0,0,0,0,0,0,0,0,0,0,0,0,0,0,0,0,0,0,0,0,0,0,0],"sum_hessian":[8.914565E5,3.7305475E5,5.1840175E5,2.263735E5,1.4668125E5,4.5438875E5,6.4013E4,2.089215E5,1.7452E4,1.1720275E5,2.94785E4,3.2932E4,4.2145675E5,5.29195E4,1.10935E4,1.83904E5,2.50175E4,1.27155E4,4.7365E3,3.361725E4,8.35855E4,2.51475E3,2.696375E4,1.936775E4,1.356425E4,3.6149925E5,5.99575E4,3.25615E4,2.0358E4,2.93925E3,8.15425E3,1.7331275E5,1.059125E4,1.965E4,5.3675E3,3.37225E3,9.34325E3,3.01375E3,1.72275E3,1.249975E4,2.11175E4,4.265825E4,4.092725E4,1.01075E3,1.504E3,2.695775E4,6E0,1.174E4,7.62775E3,4.22425E3,9.34E3,3.5747525E5,4.024E3,2.378525E4,3.617225E4,7.81975E3,2.474175E4,1.17405E4,8.6175E3,3.625E1,2.903E3,7.7885E3,3.6575E2,1.4712925E5,2.61835E4,9.16975E3,1.4215E3,1.4855E4,4.795E3,7.7425E2,4.59325E3,2.17675E3,1.1955E3,6.99575E3,2.3475E3,1.8715E3,1.14225E3,1.207E3,5.1575E2,1.180975E4,6.9E2,1.372825E4,7.38925E3,3.114375E4,1.15145E4,3.191E3,3.773625E4,1.79E2,8.3175E2,1.01175E3,4.9225E2,4.853E3,2.210475E4,5E0,1E0,7.39475E3,4.34525E3,2.79175E3,4.836E3,1.59075E3,2.6335E3,7.2045E3,2.1355E3,8.163725E4,2.75838E5,1.66325E3,2.36075E3,1.542125E4,8.364E3,3.5055E4,1.11725E3,5.374E3,2.44575E3,1.4321E4,1.042075E4,5.13775E3,6.60275E3,5.57225E3,3.04525E3,1.9E1,1.725E1,1.651E3,1.252E3,9.5E0,7.779E3,1.295E2,2.3625E2],"tree_param":{"num_deleted":"0","num_feature":"20","num_nodes":"127","size_leaf_vector":"0"}},{"base_weights":[-1.2552062E-3,-1.0415289E0,7.8018993E-1,-1.3813542E0,-5.0202405E-1,1.000144E0,-4.8530835E-1,-1.4626362E0,-6.164024E-1,-2.594316E-1,-1.4749585E0,-4.000298E-2,1.1208729E0,7.57113E-1,-6.678164E-1,-1.5049787E0,-1.2030011E0,-1.1146309E0,1.6332944E-1,-9.6156114E-1,1.6308752E-3,-1.0236177E0,-1.5159334E0,-5.9677655E-1,6.1125594E-1,1.2945567E0,5.428595E-1,1.205894E0,-8.5918146E-1,-1.0234216E0,-2.0045337E-1,-1.5198069E0,-1.2523148E0,-1.3171712E0,-8.23427E-1,-6.410572E-1,-1.3579825E0,7.061733E-1,-2.4271214E-1,-8.776158E-1,-1.2308471E0,9.966442E-2,-1.0094078E0,-1.1697739E0,-5.918253E-1,-1.3832338E0,-1.5301801E0,-9.7844476E-1,1.9241553E-2,-1.705498E-1,8.445179E-1,1.3152853E0,-1.0847403E0,-6.0018137E-2,9.175613E-1,1.4150769E0,3.226761E-1,-1.2382872E0,-1.367123E-1,-1.6878498E-1,-1.167732E0,1.4733486E-1,-1.0634793E0,-1.5326318E0,-1.4288819E0,-1.3631303E0,-5.476572E-1,-1.4017795E0,-1.059781E0,-7.1768E-1,-1.5355529E0,-1.0094314E0,1.5154993E-3,-1.4060802E0,-7.6891285E-1,8.393663E-1,-2.7185228E-1,-7.905018E-1,4.4204956E-1,-9.301748E-1,-1.01838574E-1,-1.3805668E0,-1.0419935E0,-7.3847646E-1,2.2117394E-1,-7.032927E-1,-1.3455523E0,-1.2680066E0,-9.0240085E-1,-2.765289E-1,-1.0851568E0,-1.4926776E0,-1.3031117E0,-1.5307578E0,6.454041E-1,-3.9961103E-1,-1.1763655E0,5.768563E-1,-5.5786556E-1,-5.395389E-1,4.217534E-1,1.1130407E0,2.5933078E-1,9.5182693E-1,1.3846109E0,-1.440194E0,-3.976494E-1,-3.671903E-1,6.2042457E-1,1.0625813E0,-6.8992963E-3,7.4796754E-1,1.5188167E0,-4.2478114E-1,9.053349E-1,-8.5628283E-1,-1.6032138E0,5.157517E-1,-7.290859E-1,4.580519E-1,-1.2453828E0,-1.2750487E0,-6.7381436E-1,3.7245008E-1,-5.324973E-1,-6.632154E-1,-1.4090126E0],"categories":[],"categories_nodes":[],"categories_segments":[],"categories_sizes":[],"default_left":[1,1,1,1,1,1,1,1,1,1,1,1,1,1,1,1,1,1,1,1,1,1,1,1,1,1,1,1,1,1,1,1,1,1,1,1,1,1,1,1,1,1,1,1,1,1,1,1,1,1,1,1,1,1,1,1,1,1,1,1,1,1,1,0,0,0,0,0,0,0,0,0,0,0,0,0,0,0,0,0,0,0,0,0,0,0,0,0,0,0,0,0,0,0,0,0,0,0,0,0,0,0,0,0,0,0,0,0,0,0,0,0,0,0,0,0,0,0,0,0,0,0,0,0,0,0,0],"id":2,"left_children":[1,3,5,7,9,11,13,15,17,19,21,23,25,27,29,31,33,35,37,39,41,43,45,47,49,51,53,55,57,59,61,63,65,67,69,71,73,75,77,79,81,83,85,87,89,91,93,95,97,99,101,103,105,107,109,111,113,115,117,119,121,123,125,-1,-1,-1,-1,-1,-1,-1,-1,-1,-1,-1,-1,-1,-1,-1,-1,-1,-1,-1,-1,-1,-1,-1,-1,-1,-1,-1,-1,-1,-1,-1,-1,-1,-1,-1,-1,-1,-1,-1,-1,-1,-1,-1,-1,-1,-1,-1,-1,-1,-1,-1,-1,-1,-1,-1,-1,-1,-1,-1,-1,-1,-1,-1,-1],"loss_changes":[6.869612E5,6.645834E4,1.3432212E5,1.3827594E4,3.3064934E4,5.1625156E4,1.6202955E4,2.208375E3,8.2998125E3,2.055404E4,5.155117E2,1.5503616E4,3.6978906E4,6.6399287E3,1.0354354E4,6.4565625E2,1.2207539E3,1.5013672E3,1.8362322E3,6.859531E2,8.1020146E3,1.4635645E2,4.6339844E1,5.41946E3,3.5938628E3,1.397075E4,1.9226758E4,1.3231064E3,5.4476794E2,4.3635117E3,8.080929E3,1.8825E2,7.479072E2,4.705078E2,4.900537E2,1.0477919E3,2.4285547E2,4.6459497E2,1.7881696E3,9.4477344E2,2.0271582E2,7.589184E3,7.425449E2,4.4551025E1,9.166954E1,1.9935547E1,3.0058594E1,1.6300293E3,2.8382805E3,9.901195E2,2.3846982E3,7.0739062E3,5.970217E2,6.8190522E3,7.0369414E3,3.9968945E2,5.9838965E2,1.8051514E2,2.6545648E2,3.4507317E3,1.603625E3,2.937083E3,1.0685986E3,0E0,0E0,0E0,0E0,0E0,0E0,0E0,0E0,0E0,0E0,0E0,0E0,0E0,0E0,0E0,0E0,0E0,0E0,0E0,0E0,0E0,0E0,0E0,0E0,0E0,0E0,0E0,0E0,0E0,0E0,0E0,0E0,0E0,0E0,0E0,0E0,0E0,0E0,0E0,0E0,0E0,0E0,0E0,0E0,0E0,0E0,0E0,0E0,0E0,0E0,0E0,0E0,0E0,0E0,0E0,0E0,0E0,0E0,0E0,0E0,0E0,0E0,0E0,0E0],"parents":[2147483647,0,0,1,1,2,2,3,3,4,4,5,5,6,6,7,7,8,8,9,9,10,10,11,11,12,12,13,13,14,14,15,15,16,16,17,17,18,18,19,19,20,20,21,21,22,22,23,23,24,24,25,25,26,26,27,27,28,28,29,29,30,30,31,31,32,32,33,33,34,34,35,35,36,36,37,37,38,38,39,39,40,40,41,41,42,42,43,43,44,44,45,45,46,46,47,47,48,48,49,49,50,50,51,51,52,52,53,53,54,54,55,55,56,56,57,57,58,58,59,59,60,60,61,61,62,62],"right_children":[2,4,6,8,10,12,14,16,18,20,22,24,26,28,30,32,34,36,38,40,42,44,46,48,50,52,54,56,58,60,62,64,66,68,70,72,74,76,78,80,82,84,86,88,90,92,94,96,98,100,102,104,106,108,110,112,114,116,118,120,122,124,126,-1,-1,-1,-1,-1,-1,-1,-1,-1,-1,-1,-1,-1,-1,-1,-1,-1,-1,-1,-1,-1,-1,-1,-1,-1,-1,-1,-1,-1,-1,-1,-1,-1,-1,-1,-1,-1,-1,-1,-1,-1,-1,-1,-1,-1,-1,-1,-1,-1,-1,-1,-1,-1,-1,-1,-1,-1,-1,-1,-1,-1,-1,-1,-1],"split_conditions":[-1.4239994E-1,-3.4285784E-1,8.300724E-1,-3.0905524E-1,1.9513944E0,-7.062226E-1,2.9761434E-1,-5.184933E-1,-5.647963E-1,-3.170895E-1,2.1069047E0,1.09349474E-1,6.101879E-1,2.838181E-1,2.3626895E0,-4.13496E-1,1.09349474E-1,4.9537146E-1,-2.5080374E-1,4.3798956E-1,1.18613E0,1.09349474E-1,2.2384853E0,2.6721913E-1,-8.4161997E-1,2.251639E0,1.09349474E-1,4.3798956E-1,1.09349474E-1,1.5191738E-1,1.2448399E0,-6.359104E-1,-3.9942533E-1,2.4655247E-2,1.3714035E0,1.09349474E-1,9.332751E-1,2.574969E-1,1.09349474E-1,-2.9583523E-1,2.4486868E-1,-1.0447893E0,1.532023E0,-1.1254046E-1,9.2830837E-1,-3.1580657E-1,7.292515E0,-4.2300206E-1,-7.860541E-2,9.332751E-1,6.101879E-1,-7.145762E-1,-6.093465E-1,3.1435484E-1,1.8155761E0,-7.145762E-1,1.09349474E-1,6.545137E-1,2.6579124E-1,1.1922467E0,9.332751E-1,2.5043695E0,2.1828024E0,-4.5978954E-1,-4.286646E-1,-4.0893912E-1,-1.6429716E-1,-4.2053387E-1,-3.179343E-1,-2.15304E-1,-4.6066588E-1,-3.028294E-1,4.5464982E-4,-4.218241E-1,-2.3067386E-1,2.518099E-1,-8.155569E-2,-2.3715053E-1,1.3261488E-1,-2.7905247E-1,-3.0551573E-2,-4.1417006E-1,-3.1259805E-1,-2.2154294E-1,6.635219E-2,-2.1098782E-1,-4.0366572E-1,-3.80402E-1,-2.7072027E-1,-8.295867E-2,-3.2554704E-1,-4.478033E-1,-3.909335E-1,-4.5922735E-1,1.9362123E-1,-1.19883314E-1,-3.5290965E-1,1.730569E-1,-1.6735968E-1,-1.6186169E-1,1.2652603E-1,3.3391222E-1,7.779924E-2,2.855481E-1,4.1538328E-1,-4.3205822E-1,-1.1929483E-1,-1.10157095E-1,1.8612738E-1,3.187744E-1,-2.069789E-3,2.2439027E-1,4.5564502E-1,-1.2743434E-1,2.7160048E-1,-2.5688487E-1,-4.8096415E-1,1.5472552E-1,-2.1872579E-1,1.3741557E-1,-3.7361485E-1,-3.8251463E-1,-2.0214431E-1,1.1173503E-1,-1.597492E-1,-1.9896463E-1,-4.2270377E-1],"split_indices":[6,3,6,6,5,17,3,3,17,19,5,1,0,8,10,6,1,7,0,0,9,1,5,19,17,5,1,0,1,15,5,3,17,19,9,1,1,7,1,6,5,9,9,19,3,19,12,0,0,1,0,1,8,19,0,1,1,8,0,6,1,0,5,0,0,0,0,0,0,0,0,0,0,0,0,0,0,0,0,0,0,0,0,0,0,0,0,0,0,0,0,0,0,0,0,0,0,0,0,0,0,0,0,0,0,0,0,0,0,0,0,0,0,0,0,0,0,0,0,0,0,0,0,0,0,0,0],"split_type":[0,0,0,0,0,0,0,0,0,0,0,0,0,0,0,0,0,0,0,0,0,0,0,0,0,0,0,0,0,0,0,0,0,0,0,0,0,0,0,0,0,0,0,0,0,0,0,0,0,0,0,0,0,0,0,0,0,0,0,0,0,0,0,0,0,0,0,0,0,0,0,0,0,0,0,0,0,0,0,0,0,0,0,0,0,0,0,0,0,0,0,0,0,0,0,0,0,0,0,0,0,0,0,0,0,0,0,0,0,0,0,0,0,0,0,0,0,0,0,0,0,0,0,0,0,0,0],"sum_hessian":[8.4505506E5,3.6249497E5,4.825601E5,2.2240448E5,1.400905E5,4.111066E5,7.1453516E4,2.0104138E5,2.1363113E4,1.1213252E5,2.7957969E4,4.2754355E4,3.6835225E5,9.151519E3,6.2302E4,1.7284778E5,2.8193586E4,1.3034178E4,8.328935E3,3.0391543E4,8.174098E4,2.3290715E3,2.5628898E4,2.3049223E4,1.9705133E4,2.832414E5,8.511081E4,7.1629146E3,1.9886042E3,3.538058E4,2.6921422E4,1.6326136E5,9.58643E3,2.167239E4,6.521196E3,4.4255264E3,8.608651E3,3.5637534E3,4.765181E3,2.3172248E4,7.219296E3,7.451652E4,7.224459E3,1.7388008E3,5.902709E2,2.494274E3,2.3134623E4,1.4231303E4,8.81792E3,4.5282896E3,1.5176843E4,2.8079556E5,2.4458604E3,3.2622914E4,5.24879E4,5.7908076E3,1.3721066E3,1.3037601E3,6.848441E2,5.1114766E3,3.0269102E4,1.9189238E4,7.732184E3,1.4306614E5,2.0195213E4,8.282912E3,1.3035177E3,1.6307432E4,5.364958E3,5.679784E3,8.4141156E2,2.8125671E3,1.6129595E3,7.95753E3,6.511216E2,3.1367192E3,4.2703436E2,2.6472795E3,2.1179016E3,2.1701752E4,1.4704952E3,4.023348E3,3.1959482E3,9.434529E3,6.5081992E4,3.782742E3,3.4417173E3,1.2688751E3,4.6992572E2,3.6106726E2,2.292036E2,1.0467802E3,1.4474938E3,2.312878E4,5.844344E0,3.6269739E3,1.0604328E4,4.4846978E3,4.3332227E3,2.7901743E3,1.7381154E3,1.0402555E4,4.7742876E3,4.4981676E4,2.3581389E5,1.6112263E3,8.346341E2,2.2476715E4,1.01462E4,4.537049E4,7.1174097E3,7.8042456E2,5.0103833E3,6.0117145E2,7.7093506E2,6.386104E2,6.651497E2,3.259543E2,3.5888977E2,3.2308977E3,1.880579E3,2.486495E4,5.4041533E3,1.4416052E4,4.773186E3,3.58373E3,4.148454E3],"tree_param":{"num_deleted":"0","num_feature":"20","num_nodes":"127","size_leaf_vector":"0"}},{"base_weights":[1.2552455E-3,1.0415289E0,-7.801899E-1,1.3813541E0,5.020241E-1,-1.000144E0,4.8530838E-1,1.4626362E0,6.164024E-1,2.5943166E-1,1.4749587E0,4.0002957E-2,-1.1208727E0,-7.571129E-1,6.678164E-1,1.5049787E0,1.203001E0,1.1146309E0,-1.6332938E-1,9.6156126E-1,-1.6308283E-3,1.0236177E0,1.5159335E0,5.967765E-1,-6.1125594E-1,-1.2945566E0,-5.4285944E-1,-1.205894E0,8.5918146E-1,1.0234218E0,2.0045343E-1,1.5198069E0,1.2523149E0,1.3171711E0,8.2342696E-1,6.410572E-1,1.3579825E0,-7.0617324E-1,2.4271221E-1,8.776159E-1,1.2308472E0,-9.9664375E-2,1.0094078E0,1.1697739E0,5.918253E-1,1.3832337E0,1.5301802E0,9.784447E-1,-1.9241571E-2,1.7054969E-1,-8.445178E-1,-1.3152852E0,1.0847404E0,6.0018066E-2,-9.175612E-1,-1.4150767E0,-3.2267603E-1,1.2382872E0,1.3671234E-1,1.6878505E-1,1.167732E0,-1.473348E-1,1.0634794E0,1.5326318E0,1.4288819E0,1.3631305E0,5.47657E-1,1.4017794E0,1.059781E0,7.1767986E-1,1.5355529E0,1.0094312E0,-1.5154477E-3,1.4060801E0,7.689129E-1,-8.3936626E-1,2.718523E-1,7.9050183E-1,-4.4204944E-1,9.3017495E-1,1.0183866E-1,1.380567E0,1.0419936E0,7.3847646E-1,-2.211739E-1,7.032928E-1,1.3455524E0,1.2680064E0,9.0240085E-1,2.7652887E-1,1.0851568E0,1.4926776E0,1.3031117E0,1.5307578E0,-6.454041E-1,3.9961103E-1,1.1763655E0,-5.768563E-1,5.578655E-1,5.395388E-1,-4.2175353E-1,-1.1130407E0,-2.5933075E-1,-9.518269E-1,-1.3846109E0,1.4401941E0,3.976495E-1,3.671902E-1,-6.204246E-1,-1.0625812E0,6.89945E-3,-7.479675E-1,-1.5188167E0,4.2478114E-1,-9.053348E-1,8.562828E-1,1.6032138E0,-5.1575166E-1,7.29086E-1,-4.5805183E-1,1.2453829E0,1.2750487E0,6.7381454E-1,-3.7245E-1,5.3249735E-1,6.6321546E-1,1.4090127E0],"categories":[],"categories_nodes":[],"categories_segments":[],"categories_sizes":[],"default_left":[1,1,1,1,1,1,1,1,1,1,1,1,1,1,1,1,1,1,1,1,1,1,1,1,1,1,1,1,1,1,1,1,1,1,1,1,1,1,1,1,1,1,1,1,1,1,1,1,1,1,1,1,1,1,1,1,1,1,1,1,1,1,1,0,0,0,0,0,0,0,0,0,0,0,0,0,0,0,0,0,0,0,0,0,0,0,0,0,0,0,0,0,0,0,0,0,0,0,0,0,0,0,0,0,0,0,0,0,0,0,0,0,0,0,0,0,0,0,0,0,0,0,0,0,0,0,0],"id":3,"left_children":[1,3,5,7,9,11,13,15,17,19,21,23,25,27,29,31,33,35,37,39,41,43,45,47,49,51,53,55,57,59,61,63,65,67,69,71,73,75,77,79,81,83,85,87,89,91,93,95,97,99,101,103,105,107,109,111,113,115,117,119,121,123,125,-1,-1,-1,-1,-1,-1,-1,-1,-1,-1,-1,-1,-1,-1,-1,-1,-1,-1,-1,-1,-1,-1,-1,-1,-1,-1,-1,-1,-1,-1,-1,-1,-1,-1,-1,-1,-1,-1,-1,-1,-1,-1,-1,-1,-1,-1,-1,-1,-1,-1,-1,-1,-1,-1,-1,-1,-1,-1,-1,-1,-1,-1,-1,-1],"loss_changes":[6.8696106E5,6.645834E4,1.343221E5,1.3827594E4,3.3064934E4,5.1625188E4,1.6202951E4,2.208375E3,8.2998125E3,2.0554041E4,5.155117E2,1.5503616E4,3.6978875E4,6.6399297E3,1.0354352E4,6.456875E2,1.2207578E3,1.5013662E3,1.8362322E3,6.859551E2,8.1020146E3,1.4635645E2,4.6339844E1,5.41946E3,3.5938618E3,1.397075E4,1.9226748E4,1.3231045E3,5.447678E2,4.3635117E3,8.0809297E3,1.881875E2,7.479082E2,4.705039E2,4.900542E2,1.0477915E3,2.4285547E2,4.645951E2,1.7881694E3,9.4477344E2,2.027168E2,7.5891836E3,7.425454E2,4.455127E1,9.1669525E1,1.9935547E1,3.00625E1,1.6300283E3,2.8382803E3,9.9011957E2,2.3846982E3,7.0739375E3,5.970217E2,6.8190522E3,7.0369453E3,3.9968945E2,5.983896E2,1.8051514E2,2.6545648E2,3.4507317E3,1.603625E3,2.9370828E3,1.0686006E3,0E0,0E0,0E0,0E0,0E0,0E0,0E0,0E0,0E0,0E0,0E0,0E0,0E0,0E0,0E0,0E0,0E0,0E0,0E0,0E0,0E0,0E0,0E0,0E0,0E0,0E0,0E0,0E0,0E0,0E0,0E0,0E0,0E0,0E0,0E0,0E0,0E0,0E0,0E0,0E0,0E0,0E0,0E0,0E0,0E0,0E0,0E0,0E0,0E0,0E0,0E0,0E0,0E0,0E0,0E0,0E0,0E0,0E0,0E0,0E0,0E0,0E0,0E0,0E0],"parents":[2147483647,0,0,1,1,2,2,3,3,4,4,5,5,6,6,7,7,8,8,9,9,10,10,11,11,12,12,13,13,14,14,15,15,16,16,17,17,18,18,19,19,20,20,21,21,22,22,23,23,24,24,25,25,26,26,27,27,28,28,29,29,30,30,31,31,32,32,33,33,34,34,35,35,36,36,37,37,38,38,39,39,40,40,41,41,42,42,43,43,44,44,45,45,46,46,47,47,48,48,49,49,50,50,51,51,52,52,53,53,54,54,55,55,56,56,57,57,58,58,59,59,60,60,61,61,62,62],"right_children":[2,4,6,8,10,12,14,16,18,20,22,24,26,28,30,32,34,36,38,40,42,44,46,48,50,52,54,56,58,60,62,64,66,68,70,72,74,76,78,80,82,84,86,88,90,92,94,96,98,100,102,104,106,108,110,112,114,116,118,120,122,124,126,-1,-1,-1,-1,-1,-1,-1,-1,-1,-1,-1,-1,-1,-1,-1,-1,-1,-1,-1,-1,-1,-1,-1,-1,-1,-1,-1,-1,-1,-1,-1,-1,-1,-1,-1,-1,-1,-1,-1,-1,-1,-1,-1,-1,-1,-1,-1,-1,-1,-1,-1,-1,-1,-1,-1,-1,-1,-1,-1,-1,-1,-1,-1,-1],"split_conditions":[-1.4239994E-1,-3.4285784E-1,8.300724E-1,-3.0905524E-1,1.9513944E0,-7.062226E-1,2.9761434E-1,-5.184933E-1,-5.647963E-1,-3.170895E-1,2.1069047E0,1.09349474E-1,6.101879E-1,2.838181E-1,2.3626895E0,-4.13496E-1,1.09349474E-1,4.9537146E-1,-2.5080374E-1,4.3798956E-1,1.18613E0,1.09349474E-1,2.2384853E0,2.6721913E-1,-8.4161997E-1,2.251639E0,1.09349474E-1,4.3798956E-1,1.09349474E-1,1.5191738E-1,1.2448399E0,-6.359104E-1,-3.9942533E-1,2.4655247E-2,1.3714035E0,1.09349474E-1,9.332751E-1,2.574969E-1,1.09349474E-1,-2.9583523E-1,2.4486868E-1,-1.0447893E0,1.532023E0,-1.1254046E-1,9.2830837E-1,-3.1580657E-1,7.292515E0,-4.2300206E-1,-7.860541E-2,9.332751E-1,6.101879E-1,-7.145762E-1,-6.093465E-1,3.1435484E-1,1.8155761E0,-7.145762E-1,1.09349474E-1,6.545137E-1,2.6579124E-1,1.1922467E0,9.332751E-1,2.5043695E0,2.1828024E0,4.5978954E-1,4.286646E-1,4.0893915E-1,1.642971E-1,4.2053384E-1,3.179343E-1,2.1530397E-1,4.6066588E-1,3.0282938E-1,-4.5463434E-4,4.2182407E-1,2.3067388E-1,-2.518099E-1,8.1555694E-2,2.3715056E-1,-1.3261484E-1,2.790525E-1,3.05516E-2,4.1417012E-1,3.125981E-1,2.2154294E-1,-6.635217E-2,2.1098785E-1,4.0366575E-1,3.8040194E-1,2.7072027E-1,8.295866E-2,3.2554704E-1,4.478033E-1,3.909335E-1,4.5922735E-1,-1.9362123E-1,1.19883314E-1,3.5290965E-1,-1.730569E-1,1.6735965E-1,1.6186164E-1,-1.2652606E-1,-3.3391222E-1,-7.779923E-2,-2.8554806E-1,-4.1538328E-1,4.3205824E-1,1.1929485E-1,1.10157065E-1,-1.861274E-1,-3.1877437E-1,2.069835E-3,-2.2439025E-1,-4.5564502E-1,1.2743434E-1,-2.7160046E-1,2.5688484E-1,4.8096415E-1,-1.547255E-1,2.187258E-1,-1.3741556E-1,3.7361488E-1,3.8251463E-1,2.0214437E-1,-1.11735E-1,1.5974921E-1,1.9896464E-1,4.2270383E-1],"split_indices":[6,3,6,6,5,17,3,3,17,19,5,1,0,8,10,6,1,7,0,0,9,1,5,19,17,5,1,0,1,15,5,3,17,19,9,1,1,7,1,6,5,9,9,19,3,19,12,0,0,1,0,1,8,19,0,1,1,8,0,6,1,0,5,0,0,0,0,0,0,0,0,0,0,0,0,0,0,0,0,0,0,0,0,0,0,0,0,0,0,0,0,0,0,0,0,0,0,0,0,0,0,0,0,0,0,0,0,0,0,0,0,0,0,0,0,0,0,0,0,0,0,0,0,0,0,0,0],"split_type":[0,0,0,0,0,0,0,0,0,0,0,0,0,0,0,0,0,0,0,0,0,0,0,0,0,0,0,0,0,0,0,0,0,0,0,0,0,0,0,0,0,0,0,0,0,0,0,0,0,0,0,0,0,0,0,0,0,0,0,0,0,0,0,0,0,0,0,0,0,0,0,0,0,0,0,0,0,0,0,0,0,0,0,0,0,0,0,0,0,0,0,0,0,0,0,0,0,0,0,0,0,0,0,0,0,0,0,0,0,0,0,0,0,0,0,0,0,0,0,0,0,0,0,0,0,0,0],"sum_hessian":[8.4505506E5,3.6249497E5,4.825601E5,2.2240448E5,1.4009048E5,4.111066E5,7.1453516E4,2.0104136E5,2.1363113E4,1.1213252E5,2.7957969E4,4.2754355E4,3.6835222E5,9.151519E3,6.2302E4,1.7284778E5,2.8193584E4,1.3034178E4,8.328935E3,3.0391543E4,8.174098E4,2.3290715E3,2.5628898E4,2.3049223E4,1.9705133E4,2.832414E5,8.511081E4,7.162914E3,1.9886042E3,3.538058E4,2.6921422E4,1.6326134E5,9.58643E3,2.1672389E4,6.521196E3,4.4255264E3,8.608651E3,3.5637534E3,4.765181E3,2.3172246E4,7.219296E3,7.451652E4,7.224459E3,1.7388008E3,5.902708E2,2.494274E3,2.3134623E4,1.4231303E4,8.81792E3,4.5282896E3,1.5176843E4,2.8079556E5,2.4458604E3,3.2622914E4,5.24879E4,5.7908076E3,1.3721066E3,1.3037601E3,6.848441E2,5.1114766E3,3.0269102E4,1.9189238E4,7.732184E3,1.4306614E5,2.0195215E4,8.282912E3,1.3035177E3,1.6307432E4,5.364958E3,5.679784E3,8.414115E2,2.8125671E3,1.6129595E3,7.95753E3,6.5112164E2,3.136719E3,4.2703436E2,2.6472795E3,2.1179019E3,2.1701752E4,1.4704951E3,4.0233477E3,3.195948E3,9.434529E3,6.5081992E4,3.782742E3,3.4417173E3,1.268875E3,4.6992572E2,3.6106723E2,2.292036E2,1.0467802E3,1.4474938E3,2.312878E4,5.844344E0,3.626974E3,1.0604329E4,4.4846978E3,4.3332227E3,2.7901743E3,1.7381152E3,1.0402556E4,4.774288E3,4.498167E4,2.3581388E5,1.6112263E3,8.3463416E2,2.2476715E4,1.0146199E4,4.537049E4,7.1174097E3,7.804245E2,5.0103833E3,6.0117145E2,7.7093506E2,6.386104E2,6.651497E2,3.259543E2,3.5888977E2,3.2308977E3,1.880579E3,2.486495E4,5.4041533E3,1.4416053E4,4.7731855E3,3.58373E3,4.148454E3],"tree_param":{"num_deleted":"0","num_feature":"20","num_nodes":"127","size_leaf_vector":"0"}},{"base_weights":[-2.9513976E-3,-8.253569E-1,6.319233E-1,-1.1960306E0,-4.1418648E-1,8.380751E-1,-3.1291765E-1,-1.2897003E0,-5.9872687E-1,-2.1242179E-1,-1.1144985E0,2.4019085E-1,1.0134219E0,-1.11691624E-1,-1.2771312E0,-1.3170797E0,-1.1523434E0,-7.117633E-2,-1.0930321E0,-4.873371E-1,2.553438E-1,-8.168027E-1,-1.3124098E0,-8.1877226E-1,4.604686E-1,1.1762029E0,6.952498E-1,6.93301E-1,-3.881134E-1,-5.731338E-1,-1.3300294E0,-1.3292592E0,-1.1650399E0,-1.2174411E0,-8.954108E-1,3.3222508E-1,-6.6565347E-1,-8.224445E-1,-1.2369182E0,-7.355584E-1,-5.746999E-2,4.251305E-1,-2.655561E-1,-1.3146206E0,-6.988235E-1,-1.2422047E0,-1.3392899E0,-1.00336345E-2,-1.0776488E0,7.920546E-1,3.2396533E-2,-5.1250464E-1,1.1834565E0,8.4707004E-1,-1.5688977E-1,8.6659807E-1,-4.9087852E-2,-6.963043E-1,7.339868E-2,8.9751475E-2,-1.2582195E0,-1.1737092E0,-1.4342709E0,-1.3391156E0,-1.2878631E0,-1.2533289E0,-8.101587E-1,-1.2756565E0,-1.0608807E0,-4.346059E-1,-9.433341E-1,-4.2385107E-1,6.0263157E-1,-9.110557E-1,4.995598E-1,-1.1085808E0,-4.5469275E-1,-1.2497002E0,-4.570351E-1,-9.89101E-1,-5.066715E-1,2.2439341E-1,-5.022568E-1,5.202406E-1,-7.3999596E-1,-6.079629E-1,1.3624167E-1,-1.3191166E0,1.1375467E0,-5.658753E-1,-1.1984856E0,-1.274241E0,-1.1182029E0,-1.339978E0,5.7718515E-1,-1.0355644E0,3.1979248E-1,-7.917635E-1,-1.2519295E0,-3.5839978E-1,9.1795576E-1,-3.225842E-1,7.5965077E-1,-1.136587E0,3.1142848E-2,4.8597E-1,1.1988358E0,-1.2454605E-2,9.5131224E-1,7.6830643E-1,-1.0099264E0,-5.435899E-1,9.4630104E-1,1.5012006E-1,-7.044968E-1,3.4199277E-1,-8.3589476E-1,2.6202387E-1,-7.344173E-1,4.971094E-1,-9.80797E-1,-7.614644E-1,-1.3374676E0,-1.2517184E0,-6.7713714E-1,-1.5851026E0,-1.3525044E0],"categories":[],"categories_nodes":[],"categories_segments":[],"categories_sizes":[],"default_left":[1,1,1,1,1,1,1,1,1,1,1,1,1,1,1,1,1,1,1,1,1,1,1,1,1,1,1,1,1,1,1,1,1,1,1,1,1,1,1,1,1,1,1,1,1,1,1,1,1,1,1,1,1,1,1,1,1,1,1,1,1,1,1,0,0,0,0,0,0,0,0,0,0,0,0,0,0,0,0,0,0,0,0,0,0,0,0,0,0,0,0,0,0,0,0,0,0,0,0,0,0,0,0,0,0,0,0,0,0,0,0,0,0,0,0,0,0,0,0,0,0,0,0,0,0,0,0],"id":4,"left_children":[1,3,5,7,9,11,13,15,17,19,21,23,25,27,29,31,33,35,37,39,41,43,45,47,49,51,53,55,57,59,61,63,65,67,69,71,73,75,77,79,81,83,85,87,89,91,93,95,97,99,101,103,105,107,109,111,113,115,117,119,121,123,125,-1,-1,-1,-1,-1,-1,-1,-1,-1,-1,-1,-1,-1,-1,-1,-1,-1,-1,-1,-1,-1,-1,-1,-1,-1,-1,-1,-1,-1,-1,-1,-1,-1,-1,-1,-1,-1,-1,-1,-1,-1,-1,-1,-1,-1,-1,-1,-1,-1,-1,-1,-1,-1,-1,-1,-1,-1,-1,-1,-1,-1,-1,-1,-1],"loss_changes":[3.9789988E5,5.060042E4,8.377028E4,9.768E3,2.2240914E4,3.701186E4,1.4945645E4,5.660781E2,6.1726396E3,1.5714611E4,2.0731836E3,1.8676043E4,1.4137656E4,1.4181584E4,4.945332E2,2.3148438E2,4.1860547E2,2.7464436E3,4.7477246E2,8.212436E3,4.000795E3,8.249492E2,3.8242188E1,2.8863809E3,9.407394E3,2.2127031E3,1.195348E4,2.095914E3,6.74783E3,4.2303546E2,1.9988086E2,4.5796875E1,2.9166113E2,1.8108984E2,1.1169043E2,1.3951636E3,1.324303E3,4.462251E2,7.89375E1,2.8310234E3,3.5324402E3,3.7809243E3,1.5300165E3,3.1189453E1,7.5460156E2,2.1887695E1,2.0921875E1,1.1314211E3,5.193506E2,5.409799E3,7.4688955E3,2.6232663E2,1.9283125E3,7.026629E3,1.102861E4,1.4850146E3,4.027661E2,4.123129E3,2.894785E3,2.0730157E2,1.701294E1,1.9106445E2,8.932324E1,0E0,0E0,0E0,0E0,0E0,0E0,0E0,0E0,0E0,0E0,0E0,0E0,0E0,0E0,0E0,0E0,0E0,0E0,0E0,0E0,0E0,0E0,0E0,0E0,0E0,0E0,0E0,0E0,0E0,0E0,0E0,0E0,0E0,0E0,0E0,0E0,0E0,0E0,0E0,0E0,0E0,0E0,0E0,0E0,0E0,0E0,0E0,0E0,0E0,0E0,0E0,0E0,0E0,0E0,0E0,0E0,0E0,0E0,0E0,0E0,0E0,0E0,0E0,0E0],"parents":[2147483647,0,0,1,1,2,2,3,3,4,4,5,5,6,6,7,7,8,8,9,9,10,10,11,11,12,12,13,13,14,14,15,15,16,16,17,17,18,18,19,19,20,20,21,21,22,22,23,23,24,24,25,25,26,26,27,27,28,28,29,29,30,30,31,31,32,32,33,33,34,34,35,35,36,36,37,37,38,38,39,39,40,40,41,41,42,42,43,43,44,44,45,45,46,46,47,47,48,48,49,49,50,50,51,51,52,52,53,53,54,54,55,55,56,56,57,57,58,58,59,59,60,60,61,61,62,62],"right_children":[2,4,6,8,10,12,14,16,18,20,22,24,26,28,30,32,34,36,38,40,42,44,46,48,50,52,54,56,58,60,62,64,66,68,70,72,74,76,78,80,82,84,86,88,90,92,94,96,98,100,102,104,106,108,110,112,114,116,118,120,122,124,126,-1,-1,-1,-1,-1,-1,-1,-1,-1,-1,-1,-1,-1,-1,-1,-1,-1,-1,-1,-1,-1,-1,-1,-1,-1,-1,-1,-1,-1,-1,-1,-1,-1,-1,-1,-1,-1,-1,-1,-1,-1,-1,-1,-1,-1,-1,-1,-1,-1,-1,-1,-1,-1,-1,-1,-1,-1,-1,-1,-1,-1,-1,-1,-1],"split_conditions":[-1.09942265E-1,-4.568798E-1,6.200272E-1,-3.512342E-1,1.1861292E0,-5.867131E-1,2.0842805E0,-6.2305665E-1,2.1380375E-1,1.09349474E-1,2.1089315E0,-7.145762E-1,2.6579124E-1,5.7505465E-1,-4.2300206E-1,-4.8820785E-1,1.09349474E-1,9.359291E-2,8.862214E-1,-1.8569155E-2,7.823862E-1,-4.774323E-2,2.5085382E0,-5.952004E-1,2.6579124E-1,-6.094959E-1,4.9295416E-1,1.6433778E0,2.5999107E0,2.862354E0,2.7012978E0,-7.643379E-1,-5.6370807E-1,-5.155825E-2,-9.1261E-1,-7.145762E-1,9.332751E-1,-6.3169384E-1,1.1675959E0,-1.4945735E-1,9.359291E-2,1.355447E0,9.332751E-1,6.46522E-1,9.060229E-1,1.09349474E-1,6.44446E0,-8.3987916E-1,9.359291E-2,-8.4976965E-1,9.332751E-1,-6.2163264E-1,-1.725496E0,-7.145762E-1,-5.408048E-2,-5.967251E-1,2.6765678E0,6.279412E-2,4.4256306E0,1.1025646E0,3.1970294E0,9.1199815E-1,1.0544214E0,-4.017347E-1,-3.8635895E-1,-3.759987E-1,-2.4304762E-1,-3.8269696E-1,-3.1826422E-1,-1.3038178E-1,-2.8300023E-1,-1.2715533E-1,1.8078947E-1,-2.733167E-1,1.4986794E-1,-3.3257425E-1,-1.3640784E-1,-3.7491006E-1,-1.3711053E-1,-2.967303E-1,-1.5200146E-1,6.731803E-2,-1.5067706E-1,1.5607218E-1,-2.219988E-1,-1.8238887E-1,4.0872503E-2,-3.95735E-1,3.41264E-1,-1.697626E-1,-3.595457E-1,-3.822723E-1,-3.354609E-1,-4.0199342E-1,1.7315555E-1,-3.1066933E-1,9.593775E-2,-2.3752905E-1,-3.7557888E-1,-1.0751994E-1,2.7538675E-1,-9.677527E-2,2.2789524E-1,-3.4097612E-1,9.342855E-3,1.4579101E-1,3.5965076E-1,-3.7363817E-3,2.853937E-1,2.3049194E-1,-3.0297795E-1,-1.6307697E-1,2.8389034E-1,4.503602E-2,-2.1134906E-1,1.0259783E-1,-2.5076845E-1,7.8607164E-2,-2.203252E-1,1.4913283E-1,-2.942391E-1,-2.2843933E-1,-4.012403E-1,-3.7551555E-1,-2.0314115E-1,-4.7553077E-1,-4.0575132E-1],"split_indices":[6,3,3,6,12,17,5,3,7,1,5,1,0,6,0,6,1,0,7,19,0,3,5,0,0,8,6,0,10,5,5,3,17,19,15,1,1,18,10,3,0,9,1,10,3,1,5,17,0,17,1,8,2,1,8,8,0,15,10,6,5,8,6,0,0,0,0,0,0,0,0,0,0,0,0,0,0,0,0,0,0,0,0,0,0,0,0,0,0,0,0,0,0,0,0,0,0,0,0,0,0,0,0,0,0,0,0,0,0,0,0,0,0,0,0,0,0,0,0,0,0,0,0,0,0,0,0],"split_type":[0,0,0,0,0,0,0,0,0,0,0,0,0,0,0,0,0,0,0,0,0,0,0,0,0,0,0,0,0,0,0,0,0,0,0,0,0,0,0,0,0,0,0,0,0,0,0,0,0,0,0,0,0,0,0,0,0,0,0,0,0,0,0,0,0,0,0,0,0,0,0,0,0,0,0,0,0,0,0,0,0,0,0,0,0,0,0,0,0,0,0,0,0,0,0,0,0,0,0,0,0,0,0,0,0,0,0,0,0,0,0,0,0,0,0,0,0,0,0,0,0,0,0,0,0,0,0],"sum_hessian":[7.6207656E5,3.3200406E5,4.3007253E5,1.7459934E5,1.5740472E5,3.5304325E5,7.7029266E4,1.5092933E5,2.367002E4,1.2219951E5,3.520521E4,8.006068E4,2.729826E5,6.3730234E4,1.329903E4,1.2583753E5,2.5091797E4,1.145052E4,1.2219499E4,7.696536E4,4.523415E4,1.4060582E4,2.1144629E4,1.3785511E4,6.627517E4,1.8058845E5,9.2394125E4,1.6289784E4,4.744045E4,9.3027423E2,1.2368756E4,1.1649742E5,9.340109E3,2.0016564E4,5.0752324E3,6.8218066E3,4.6287134E3,4.2443765E3,7.975123E3,4.879094E4,2.8174418E4,3.4114688E4,1.1119459E4,2.6918918E3,1.136869E4,5.867405E3,1.5277224E4,3.3429778E3,1.0442532E4,3.7345992E4,2.8929178E4,7.720801E2,1.7981638E5,7.842216E4,1.3971969E4,1.3206745E4,3.0830393E3,2.8444875E4,1.8995574E4,4.732393E2,4.570349E2,4.9532075E3,7.415549E3,9.406826E4,2.2429164E4,7.4773315E3,1.8627782E3,1.458583E4,5.4307344E3,4.7904678E2,4.5961855E3,1.7969199E3,5.0248867E3,3.8236445E3,8.0506885E2,2.3859373E3,1.8584391E3,7.8459297E3,1.291934E2,2.3147107E4,2.5643832E4,1.7246027E4,1.092839E4,3.1540564E4,2.5741252E3,6.0031445E3,5.116314E3,2.6874265E3,4.4652195E0,8.981151E3,2.387539E3,4.6553916E3,1.2120131E3,1.5272041E4,5.182775E0,8.12993E2,2.5299849E3,3.9570479E3,6.485485E3,3.683669E3,3.3662324E4,1.9440576E4,9.488602E3,3.5894125E2,4.1313882E2,3.8800364E3,1.7593633E5,8.482331E3,6.993983E4,6.7025454E3,7.269424E3,7.061947E2,1.250055E4,2.364986E3,7.1805347E2,3.3708062E3,2.5074068E4,1.540028E4,3.5952927E3,3.4318753E2,1.3005177E2,6.433972E1,3.926952E2,4.2794106E3,6.737968E2,2.6003674E3,4.8151816E3],"tree_param":{"num_deleted":"0","num_feature":"20","num_nodes":"127","size_leaf_vector":"0"}},{"base_weights":[2.9514125E-3,8.2535696E-1,-6.3192326E-1,1.1960306E0,4.1418645E-1,-8.380751E-1,3.1291765E-1,1.2897003E0,5.987269E-1,2.1242179E-1,1.1144984E0,-2.401908E-1,-1.0134219E0,1.1169165E-1,1.2771312E0,1.3170797E0,1.1523435E0,7.1176335E-2,1.0930321E0,4.8733708E-1,-2.5534377E-1,8.168027E-1,1.3124098E0,8.1877214E-1,-4.6046853E-1,-1.1762029E0,-6.952498E-1,-6.93301E-1,3.8811344E-1,5.7313377E-1,1.3300294E0,1.3292592E0,1.1650399E0,1.2174412E0,8.954109E-1,-3.3222508E-1,6.656534E-1,8.224445E-1,1.2369183E0,7.355584E-1,5.7469957E-2,-4.2513046E-1,2.6555616E-1,1.3146206E0,6.988235E-1,1.2422012E0,1.3392899E0,1.0033562E-2,1.0776486E0,-7.9205453E-1,-3.239649E-2,5.1250464E-1,-1.1834565E0,-8.4707004E-1,1.5688978E-1,-8.6659807E-1,4.908776E-2,6.963043E-1,-7.339864E-2,-8.975149E-2,1.2582194E0,1.1737092E0,1.4342709E0,1.3391156E0,1.2878631E0,1.2533289E0,8.101588E-1,1.2756566E0,1.0608808E0,4.3460605E-1,9.433342E-1,4.2385107E-1,-6.026315E-1,9.110557E-1,-4.995598E-1,1.1085808E0,4.5469278E-1,1.2497002E0,4.5703515E-1,9.89101E-1,5.066714E-1,-2.2439346E-1,5.022568E-1,-5.2024055E-1,7.3999584E-1,6.0796297E-1,-1.3624164E-1,1.3191166E0,-1.1375468E0,5.6587523E-1,1.1984856E0,1.2742379E0,1.1182029E0,1.339978E0,-5.7718515E-1,1.0355644E0,-3.197926E-1,7.9176337E-1,1.2519295E0,3.5839978E-1,-9.1795564E-1,3.2258427E-1,-7.596507E-1,1.136587E0,-3.1142818E-2,-4.8596993E-1,-1.1988357E0,1.2454713E-2,-9.5131224E-1,-7.6830643E-1,1.0099264E0,5.4358995E-1,-9.4630104E-1,-1.5012015E-1,7.044967E-1,-3.4199277E-1,8.3589476E-1,-2.6202384E-1,7.344174E-1,-4.9710938E-1,9.807969E-1,7.6146436E-1,1.3374674E0,1.2517184E0,6.771371E-1,1.5851024E0,1.3525043E0],"categories":[],"categories_nodes":[],"categories_segments":[],"categories_sizes":[],"default_left":[1,1,1,1,1,1,1,1,1,1,1,1,1,1,1,1,1,1,1,1,1,1,1,1,1,1,1,1,1,1,1,1,1,1,1,1,1,1,1,1,1,1,1,1,1,1,1,1,1,1,1,1,1,1,1,1,1,1,1,1,1,1,1,0,0,0,0,0,0,0,0,0,0,0,0,0,0,0,0,0,0,0,0,0,0,0,0,0,0,0,0,0,0,0,0,0,0,0,0,0,0,0,0,0,0,0,0,0,0,0,0,0,0,0,0,0,0,0,0,0,0,0,0,0,0,0,0],"id":5,"left_children":[1,3,5,7,9,11,13,15,17,19,21,23,25,27,29,31,33,35,37,39,41,43,45,47,49,51,53,55,57,59,61,63,65,67,69,71,73,75,77,79,81,83,85,87,89,91,93,95,97,99,101,103,105,107,109,111,113,115,117,119,121,123,125,-1,-1,-1,-1,-1,-1,-1,-1,-1,-1,-1,-1,-1,-1,-1,-1,-1,-1,-1,-1,-1,-1,-1,-1,-1,-1,-1,-1,-1,-1,-1,-1,-1,-1,-1,-1,-1,-1,-1,-1,-1,-1,-1,-1,-1,-1,-1,-1,-1,-1,-1,-1,-1,-1,-1,-1,-1,-1,-1,-1,-1,-1,-1,-1],"loss_changes":[3.9789988E5,5.060042E4,8.3770266E4,9.768E3,2.2240904E4,3.7011844E4,1.4945643E4,5.660781E2,6.1726387E3,1.5714609E4,2.0731836E3,1.8676041E4,1.4137656E4,1.4181584E4,4.9453125E2,2.3148438E2,4.1860156E2,2.7464434E3,4.7477246E2,8.2124375E3,4.0007937E3,8.249492E2,3.8246094E1,2.88638E3,9.407395E3,2.2127188E3,1.195348E4,2.095914E3,6.74783E3,4.230354E2,1.9988477E2,4.58125E1,2.9166113E2,1.8108984E2,1.11690186E2,1.3951635E3,1.324303E3,4.4622485E2,7.89375E1,2.8310215E3,3.5324402E3,3.7809248E3,1.5300165E3,3.1188965E1,7.546011E2,2.1885742E1,2.0923828E1,1.1314214E3,5.1935156E2,5.409795E3,7.468896E3,2.6232663E2,1.9282812E3,7.026629E3,1.102861E4,1.4850146E3,4.0276608E2,4.123126E3,2.894785E3,2.0730157E2,1.701294E1,1.9106445E2,8.932324E1,0E0,0E0,0E0,0E0,0E0,0E0,0E0,0E0,0E0,0E0,0E0,0E0,0E0,0E0,0E0,0E0,0E0,0E0,0E0,0E0,0E0,0E0,0E0,0E0,0E0,0E0,0E0,0E0,0E0,0E0,0E0,0E0,0E0,0E0,0E0,0E0,0E0,0E0,0E0,0E0,0E0,0E0,0E0,0E0,0E0,0E0,0E0,0E0,0E0,0E0,0E0,0E0,0E0,0E0,0E0,0E0,0E0,0E0,0E0,0E0,0E0,0E0,0E0,0E0],"parents":[2147483647,0,0,1,1,2,2,3,3,4,4,5,5,6,6,7,7,8,8,9,9,10,10,11,11,12,12,13,13,14,14,15,15,16,16,17,17,18,18,19,19,20,20,21,21,22,22,23,23,24,24,25,25,26,26,27,27,28,28,29,29,30,30,31,31,32,32,33,33,34,34,35,35,36,36,37,37,38,38,39,39,40,40,41,41,42,42,43,43,44,44,45,45,46,46,47,47,48,48,49,49,50,50,51,51,52,52,53,53,54,54,55,55,56,56,57,57,58,58,59,59,60,60,61,61,62,62],"right_children":[2,4,6,8,10,12,14,16,18,20,22,24,26,28,30,32,34,36,38,40,42,44,46,48,50,52,54,56,58,60,62,64,66,68,70,72,74,76,78,80,82,84,86,88,90,92,94,96,98,100,102,104,106,108,110,112,114,116,118,120,122,124,126,-1,-1,-1,-1,-1,-1,-1,-1,-1,-1,-1,-1,-1,-1,-1,-1,-1,-1,-1,-1,-1,-1,-1,-1,-1,-1,-1,-1,-1,-1,-1,-1,-1,-1,-1,-1,-1,-1,-1,-1,-1,-1,-1,-1,-1,-1,-1,-1,-1,-1,-1,-1,-1,-1,-1,-1,-1,-1,-1,-1,-1,-1,-1,-1],"split_conditions":[-1.09942265E-1,-4.568798E-1,6.200272E-1,-3.512342E-1,1.1861292E0,-5.867131E-1,2.0842805E0,-6.2305665E-1,2.1380375E-1,1.09349474E-1,2.1089315E0,-7.145762E-1,2.6579124E-1,5.7505465E-1,-4.2300206E-1,-4.8820785E-1,1.09349474E-1,9.359291E-2,8.862214E-1,-1.8569155E-2,7.823862E-1,-4.774323E-2,2.5085049E0,-5.952004E-1,2.6579124E-1,-6.094959E-1,4.9295416E-1,1.6433778E0,2.5999107E0,2.862354E0,2.7012978E0,-7.643379E-1,-5.6370807E-1,-5.155825E-2,-9.1261E-1,-7.145762E-1,9.332751E-1,-6.3169384E-1,1.1675959E0,-1.4945735E-1,9.359291E-2,1.355447E0,9.332751E-1,6.46522E-1,9.060229E-1,1.09349474E-1,6.44446E0,-8.3987916E-1,9.359291E-2,-8.4976965E-1,9.332751E-1,-6.2163264E-1,-1.725496E0,-7.145762E-1,-5.408048E-2,-5.967251E-1,2.6765678E0,6.279412E-2,4.4256306E0,1.1025646E0,3.1970294E0,9.1199815E-1,1.0544214E0,4.017347E-1,3.8635895E-1,3.759987E-1,2.4304764E-1,3.82697E-1,3.1826425E-1,1.3038182E-1,2.830003E-1,1.2715533E-1,-1.8078946E-1,2.733167E-1,-1.4986794E-1,3.3257425E-1,1.3640784E-1,3.7491006E-1,1.3711055E-1,2.967303E-1,1.5200144E-1,-6.731804E-2,1.5067706E-1,-1.5607217E-1,2.2199877E-1,1.823889E-1,-4.0872496E-2,3.95735E-1,-3.4126404E-1,1.6976258E-1,3.595457E-1,3.8227138E-1,3.354609E-1,4.0199342E-1,-1.7315555E-1,3.1066933E-1,-9.593778E-2,2.3752902E-1,3.7557888E-1,1.0751994E-1,-2.753867E-1,9.6775286E-2,-2.2789522E-1,3.4097612E-1,-9.3428455E-3,-1.4579098E-1,-3.5965073E-1,3.736414E-3,-2.853937E-1,-2.3049194E-1,3.0297795E-1,1.63077E-1,-2.8389034E-1,-4.5036048E-2,2.1134901E-1,-1.0259783E-1,2.5076845E-1,-7.860716E-2,2.2032522E-1,-1.4913282E-1,2.9423907E-1,2.2843932E-1,4.0124026E-1,3.7551555E-1,2.0314114E-1,4.7553074E-1,4.057513E-1],"split_indices":[6,3,3,6,12,17,5,3,7,1,5,1,0,6,0,6,1,0,7,19,0,3,5,0,0,8,6,0,10,5,5,3,17,19,15,1,1,18,10,3,0,9,1,10,3,1,5,17,0,17,1,8,2,1,8,8,0,15,10,6,5,8,6,0,0,0,0,0,0,0,0,0,0,0,0,0,0,0,0,0,0,0,0,0,0,0,0,0,0,0,0,0,0,0,0,0,0,0,0,0,0,0,0,0,0,0,0,0,0,0,0,0,0,0,0,0,0,0,0,0,0,0,0,0,0,0,0],"split_type":[0,0,0,0,0,0,0,0,0,0,0,0,0,0,0,0,0,0,0,0,0,0,0,0,0,0,0,0,0,0,0,0,0,0,0,0,0,0,0,0,0,0,0,0,0,0,0,0,0,0,0,0,0,0,0,0,0,0,0,0,0,0,0,0,0,0,0,0,0,0,0,0,0,0,0,0,0,0,0,0,0,0,0,0,0,0,0,0,0,0,0,0,0,0,0,0,0,0,0,0,0,0,0,0,0,0,0,0,0,0,0,0,0,0,0,0,0,0,0,0,0,0,0,0,0,0,0],"sum_hessian":[7.6207656E5,3.3200406E5,4.3007253E5,1.7459936E5,1.574047E5,3.5304325E5,7.7029266E4,1.5092933E5,2.367002E4,1.221995E5,3.5205207E4,8.006068E4,2.729826E5,6.3730234E4,1.329903E4,1.2583754E5,2.5091799E4,1.145052E4,1.2219499E4,7.696536E4,4.5234145E4,1.4060582E4,2.1144625E4,1.3785511E4,6.627517E4,1.8058845E5,9.2394125E4,1.6289784E4,4.744045E4,9.3027423E2,1.2368757E4,1.1649743E5,9.340109E3,2.0016566E4,5.075233E3,6.8218066E3,4.6287134E3,4.2443765E3,7.975123E3,4.879094E4,2.8174416E4,3.4114688E4,1.1119458E4,2.6918916E3,1.1368689E4,5.8672124E3,1.5277413E4,3.342978E3,1.0442533E4,3.7345992E4,2.8929178E4,7.720801E2,1.7981638E5,7.842216E4,1.3971969E4,1.3206745E4,3.0830393E3,2.8444875E4,1.8995574E4,4.732393E2,4.570349E2,4.9532075E3,7.415549E3,9.406826E4,2.2429164E4,7.4773315E3,1.8627782E3,1.4585831E4,5.430735E3,4.7904678E2,4.596186E3,1.7969199E3,5.0248867E3,3.8236445E3,8.0506885E2,2.3859373E3,1.8584391E3,7.8459297E3,1.291934E2,2.3147107E4,2.5643832E4,1.7246027E4,1.092839E4,3.1540562E4,2.5741252E3,6.003144E3,5.116314E3,2.6874265E3,4.4652195E0,8.98115E3,2.387539E3,4.6551997E3,1.212013E3,1.52722295E4,5.182775E0,8.1299304E2,2.5299849E3,3.957048E3,6.485485E3,3.683669E3,3.3662324E4,1.9440576E4,9.488602E3,3.5894125E2,4.1313882E2,3.8800364E3,1.7593633E5,8.482331E3,6.993983E4,6.7025454E3,7.269424E3,7.061947E2,1.250055E4,2.3649858E3,7.1805347E2,3.3708062E3,2.507407E4,1.5400281E4,3.5952927E3,3.4318753E2,1.3005177E2,6.433972E1,3.926952E2,4.2794106E3,6.737968E2,2.6003674E3,4.8151816E3],"tree_param":{"num_deleted":"0","num_feature":"20","num_nodes":"127","size_leaf_vector":"0"}},{"base_weights":[-4.073282E-3,-7.477911E-1,4.7233114E-1,-1.0724658E0,-2.821352E-1,6.4579445E-1,-2.7434555E-1,-1.1585593E0,-8.327186E-1,1.5918668E-2,-8.334406E-1,-4.1843498E-1,7.110091E-1,-5.2494603E-1,3.104574E-1,-1.1972088E0,-7.948696E-1,-8.876278E-1,-2.1606444E-1,-4.9593467E-1,1.6589627E-1,-5.5432016E-1,-1.1740886E0,-8.009604E-1,1.2691878E-1,7.7556515E-1,-2.6590642E-1,-2.4064326E-1,-7.6829034E-1,4.808387E-1,-7.030757E-1,-1.2148659E0,-1.1318836E0,-1.0766602E0,-3.8668168E-1,-9.384922E-1,-5.048906E-1,-9.8696655E-1,-1.0638084E-1,-6.939926E-1,-2.3629783E-1,3.3291188E-1,-3.087085E-1,-4.4537342E-1,-9.9101865E-1,-9.570337E-1,-1.1992983E0,-8.906028E-1,2.3062064E-1,-6.3000214E-1,3.187372E-1,5.55158E-1,9.8991656E-1,-6.4786243E-1,4.087194E-1,-1.33884605E-2,-5.9844834E-1,-1.0315694E0,-6.314332E-1,7.1431446E-1,1.9852184E-1,-2.8923348E-1,-1.0804116E0,-1.2225351E0,-1.1125598E0,-1.1685271E0,-9.568971E-1,-1.1483661E0,-7.8299546E-1,3.0688578E-1,-6.298254E-1,-1.0599289E0,-8.342192E-1,-7.3660934E-1,3.0679217E-1,-1.1631317E0,-3.2586384E-1,4.6845015E-2,-8.104299E-1,-3.9869183E-1,-9.0352046E-1,-1.4187507E-1,-8.3053774E-1,-7.968554E-1,4.149857E-1,-8.3230937E-1,-1.20906495E-1,-9.347285E-1,-2.9652843E-1,-8.697735E-1,-1.1849108E0,-1.1227627E0,-8.4851074E-1,-1.1502012E0,-1.2246705E0,-1.1875839E0,-6.9363695E-1,-2.5031948E-1,6.293715E-1,-1.1894718E-2,-7.8224874E-1,5.905937E-1,-1.1180006E-1,8.4648246E-1,1.44374E-1,1.0062785E0,-7.0152456E-1,-9.156992E-2,-8.960767E-1,5.1849484E-1,-9.8468506E-1,-5.3466123E-1,3.595329E-1,-7.5396854E-1,-1.0535028E-1,-9.1783893E-1,-1.282109E0,-4.1763225E-1,-1.0334345E0,3.5143384E-1,9.030999E-1,-1.8611068E-2,4.8736417E-1,5.650267E-1,-3.8421848E-1,-7.5246114E-1,-1.1908598E0],"categories":[],"categories_nodes":[],"categories_segments":[],"categories_sizes":[],"default_left":[1,1,1,1,1,1,1,1,1,1,1,1,1,1,1,1,1,1,1,1,1,1,1,1,1,1,1,1,1,1,1,1,1,1,1,1,1,1,1,1,1,1,1,1,1,1,1,1,1,1,1,1,1,1,1,1,1,1,1,1,1,1,1,0,0,0,0,0,0,0,0,0,0,0,0,0,0,0,0,0,0,0,0,0,0,0,0,0,0,0,0,0,0,0,0,0,0,0,0,0,0,0,0,0,0,0,0,0,0,0,0,0,0,0,0,0,0,0,0,0,0,0,0,0,0,0,0],"id":6,"left_children":[1,3,5,7,9,11,13,15,17,19,21,23,25,27,29,31,33,35,37,39,41,43,45,47,49,51,53,55,57,59,61,63,65,67,69,71,73,75,77,79,81,83,85,87,89,91,93,95,97,99,101,103,105,107,109,111,113,115,117,119,121,123,125,-1,-1,-1,-1,-1,-1,-1,-1,-1,-1,-1,-1,-1,-1,-1,-1,-1,-1,-1,-1,-1,-1,-1,-1,-1,-1,-1,-1,-1,-1,-1,-1,-1,-1,-1,-1,-1,-1,-1,-1,-1,-1,-1,-1,-1,-1,-1,-1,-1,-1,-1,-1,-1,-1,-1,-1,-1,-1,-1,-1,-1,-1,-1,-1],"loss_changes":[2.4005317E5,3.999503E4,5.3489664E4,3.2162188E3,1.7857809E4,2.325914E4,1.1409947E4,1.6110469E3,1.3943809E3,5.415347E3,3.6254707E3,4.0369307E3,1.9914828E4,3.7703623E3,4.0334768E3,1.1821875E2,1.2670757E3,7.357656E2,2.847494E2,8.218755E2,4.324657E3,9.9692773E2,9.2828125E1,1.0519512E3,1.1586006E3,1.3993391E4,5.0440986E3,2.0439155E3,1.0574258E3,1.3177886E3,5.2461584E2,6.2648438E1,1.404082E2,1.363628E2,7.5938525E2,4.2180273E2,8.3503577E2,4.8476715E1,3.183181E2,5.606948E2,3.8810764E2,3.7423408E3,1.3964205E3,1.2219075E3,9.734863E1,3.1279053E1,1.775586E1,6.11291E2,1.7469434E2,1.5182263E2,7.451703E2,1.7476758E4,4.1565312E3,1.725706E3,1.0829779E3,2.9887554E3,7.4867065E2,2.849629E2,1.6604409E3,7.493906E2,5.6772815E2,1.304156E2,6.278003E1,0E0,0E0,0E0,0E0,0E0,0E0,0E0,0E0,0E0,0E0,0E0,0E0,0E0,0E0,0E0,0E0,0E0,0E0,0E0,0E0,0E0,0E0,0E0,0E0,0E0,0E0,0E0,0E0,0E0,0E0,0E0,0E0,0E0,0E0,0E0,0E0,0E0,0E0,0E0,0E0,0E0,0E0,0E0,0E0,0E0,0E0,0E0,0E0,0E0,0E0,0E0,0E0,0E0,0E0,0E0,0E0,0E0,0E0,0E0,0E0,0E0,0E0,0E0,0E0],"parents":[2147483647,0,0,1,1,2,2,3,3,4,4,5,5,6,6,7,7,8,8,9,9,10,10,11,11,12,12,13,13,14,14,15,15,16,16,17,17,18,18,19,19,20,20,21,21,22,22,23,23,24,24,25,25,26,26,27,27,28,28,29,29,30,30,31,31,32,32,33,33,34,34,35,35,36,36,37,37,38,38,39,39,40,40,41,41,42,42,43,43,44,44,45,45,46,46,47,47,48,48,49,49,50,50,51,51,52,52,53,53,54,54,55,55,56,56,57,57,58,58,59,59,60,60,61,61,62,62],"right_children":[2,4,6,8,10,12,14,16,18,20,22,24,26,28,30,32,34,36,38,40,42,44,46,48,50,52,54,56,58,60,62,64,66,68,70,72,74,76,78,80,82,84,86,88,90,92,94,96,98,100,102,104,106,108,110,112,114,116,118,120,122,124,126,-1,-1,-1,-1,-1,-1,-1,-1,-1,-1,-1,-1,-1,-1,-1,-1,-1,-1,-1,-1,-1,-1,-1,-1,-1,-1,-1,-1,-1,-1,-1,-1,-1,-1,-1,-1,-1,-1,-1,-1,-1,-1,-1,-1,-1,-1,-1,-1,-1,-1,-1,-1,-1,-1,-1,-1,-1,-1,-1,-1,-1,-1,-1,-1],"split_conditions":[-2.3639995E-1,-2.8812072E-1,1.1267829E0,-5.788617E-1,1.0333754E0,-7.976569E-1,9.332751E-1,-4.07247E-1,9.332751E-1,-3.170895E-1,2.074859E0,2.0083356E-1,1.0422742E0,1.6433778E0,1.1322083E0,-7.438739E-1,-6.9846255E-1,-3.727618E-1,-1.386102E0,2.951578E-1,6.101879E-1,8.9057785E-1,2.213769E0,1.2318485E0,-3.1616366E-1,1.09349474E-1,2.2314756E0,5.5176926E-1,-1.8992525E-1,5.2119696E-1,1.9195503E0,-5.357747E-1,1.09349474E-1,7.078188E-1,-5.952004E-1,-2.747593E-1,-1.6272906E-2,-4.1965556E-1,1.1664507E0,-2.5080374E-1,9.1697776E-1,-1.3829126E0,-1.8272832E-1,3.1973727E-2,9.545845E-1,-3.1580657E-1,2.7134633E0,-8.985651E-1,1.09349474E-1,-7.673987E-1,-8.90844E-2,-7.860541E-2,2.043478E0,1.2448658E0,2.8999233E0,-3.7463167E-1,2.7449028E0,2.3321712E0,1.1384473E0,-4.3567193E-1,1.7572008E0,7.8774196E-1,2.252674E0,-3.6676055E-1,-3.3376795E-1,-3.5055816E-1,-2.8706914E-1,-3.4450984E-1,-2.3489864E-1,9.206574E-2,-1.8894763E-1,-3.1797868E-1,-2.5026578E-1,-2.209828E-1,9.2037655E-2,-3.4893954E-1,-9.775916E-2,1.4053505E-2,-2.4312897E-1,-1.1960755E-1,-2.7105615E-1,-4.2562522E-2,-2.4916133E-1,-2.3905663E-1,1.2449571E-1,-2.4969281E-1,-3.627195E-2,-2.8041857E-1,-8.895853E-2,-2.6093206E-1,-3.5547325E-1,-3.3682883E-1,-2.5455323E-1,-3.4506038E-1,-3.6740118E-1,-3.562752E-1,-2.080911E-1,-7.509585E-2,1.8881147E-1,-3.5684155E-3,-2.3467463E-1,1.7717811E-1,-3.3540018E-2,2.5394475E-1,4.33122E-2,3.0188358E-1,-2.1045737E-1,-2.7470978E-2,-2.6882303E-1,1.5554845E-1,-2.9540554E-1,-1.6039838E-1,1.0785987E-1,-2.2619057E-1,-3.1605083E-2,-2.753517E-1,-3.8463274E-1,-1.2528968E-1,-3.1003037E-1,1.05430156E-1,2.7093E-1,-5.5833207E-3,1.4620925E-1,1.6950801E-1,-1.1526555E-1,-2.2573835E-1,-3.5725796E-1],"split_indices":[6,3,0,3,5,17,1,6,1,19,5,6,6,0,5,3,17,6,2,5,0,3,5,10,19,1,10,6,5,6,5,6,1,8,0,19,17,8,9,0,9,9,5,3,0,19,5,17,1,0,15,0,5,6,12,17,10,0,5,17,1,3,5,0,0,0,0,0,0,0,0,0,0,0,0,0,0,0,0,0,0,0,0,0,0,0,0,0,0,0,0,0,0,0,0,0,0,0,0,0,0,0,0,0,0,0,0,0,0,0,0,0,0,0,0,0,0,0,0,0,0,0,0,0,0,0,0],"split_type":[0,0,0,0,0,0,0,0,0,0,0,0,0,0,0,0,0,0,0,0,0,0,0,0,0,0,0,0,0,0,0,0,0,0,0,0,0,0,0,0,0,0,0,0,0,0,0,0,0,0,0,0,0,0,0,0,0,0,0,0,0,0,0,0,0,0,0,0,0,0,0,0,0,0,0,0,0,0,0,0,0,0,0,0,0,0,0,0,0,0,0,0,0,0,0,0,0,0,0,0,0,0,0,0,0,0,0,0,0,0,0,0,0,0,0,0,0,0,0,0,0,0,0,0,0,0,0],"sum_hessian":[6.7752006E5,2.6454175E5,4.1297834E5,1.5586495E5,1.0867681E5,3.3512444E5,7.785391E4,1.1467955E5,4.1185406E4,7.054099E4,3.8135816E4,1.9349924E4,3.157745E5,5.4499723E4,2.3354184E4,1.0366113E5,1.1018413E4,3.781755E4,3.3678525E3,1.5984782E4,5.4556215E4,2.096232E4,1.7173494E4,1.1372491E4,7.977433E3,2.9620128E5,1.9573219E4,2.5135514E4,2.9364207E4,1.999365E4,3.3605327E3,8.159006E4,2.2071064E4,6.517471E3,4.500942E3,3.338001E4,4.437539E3,4.184952E2,2.9493574E3,9.066749E3,6.918033E3,4.0355297E4,1.4200917E4,1.6778479E4,4.1838433E3,1.7910984E3,1.5382396E4,1.0463381E4,9.091109E2,1.6124349E3,6.364998E3,1.4603953E5,1.5016175E5,1.2497494E4,7.0757246E3,1.5372762E4,9.762753E3,1.00411E4,1.9323107E4,1.09426E4,9.051051E3,1.6035782E3,1.7569546E3,7.589011E4,5.6999546E3,1.8244791E4,3.8262727E3,5.2360435E3,1.2814275E3,1.168249E3,3.3326929E3,1.5416606E4,1.7963406E4,3.4521218E3,9.854173E2,3.2984222E2,8.865298E1,2.4229678E3,5.2638965E2,3.7643362E3,5.302413E3,5.9705684E3,9.474649E2,2.7325354E3,3.762276E4,3.747969E3,1.0452947E4,3.9119492E3,1.2866528E4,2.5775369E3,1.6063064E3,7.050491E2,1.0860493E3,5.25668E3,1.0125716E4,4.170364E3,6.293017E3,4.1225525E2,4.9685568E2,3.1888184E2,1.2935531E3,3.901243E3,2.4637551E3,8.544302E4,6.059651E4,1.4872348E5,1.4382577E3,3.856271E3,8.641224E3,6.5595747E3,5.161499E2,6.41099E3,8.961771E3,7.4215205E3,2.3412324E3,6.909329E3,3.1317703E3,1.2615632E4,6.7074756E3,3.7456416E3,7.196958E3,5.1674404E3,3.8836106E3,1.5996481E2,1.4436135E3,4.44608E2,1.3123466E3],"tree_param":{"num_deleted":"0","num_feature":"20","num_nodes":"127","size_leaf_vector":"0"}},{"base_weights":[4.073302E-3,7.477912E-1,-4.7233114E-1,1.0724658E0,2.8213522E-1,-6.4579445E-1,2.7434555E-1,1.1585593E0,8.327186E-1,-1.5918678E-2,8.3344066E-1,4.1843498E-1,-7.110091E-1,5.2494603E-1,-3.1045744E-1,1.1972089E0,7.9486966E-1,8.876278E-1,2.1606442E-1,4.959347E-1,-1.658963E-1,5.543201E-1,1.1740887E0,8.009604E-1,-1.2691872E-1,-7.7556515E-1,2.6590633E-1,2.4064326E-1,7.6829034E-1,-4.8083872E-1,7.030757E-1,1.2148659E0,1.1318836E0,1.0766602E0,3.8668174E-1,9.3849224E-1,5.048906E-1,9.869665E-1,1.06380835E-1,6.939927E-1,2.3629783E-1,-3.3291188E-1,3.087084E-1,4.4537342E-1,9.910186E-1,9.570338E-1,1.1992984E0,8.906028E-1,-2.3062068E-1,6.3000226E-1,-3.1873715E-1,-5.5515796E-1,-9.8991656E-1,6.478624E-1,-4.0871948E-1,1.3388476E-2,5.9844834E-1,1.0315694E0,6.314332E-1,-7.143145E-1,-1.985219E-1,2.8923345E-1,1.0804116E0,1.2225353E0,1.1125598E0,1.1685271E0,9.568971E-1,1.1483661E0,7.8299546E-1,-3.0688572E-1,6.298254E-1,1.0599289E0,8.342192E-1,7.366094E-1,-3.0679217E-1,1.1631316E0,3.2586378E-1,-4.6845023E-2,8.104298E-1,3.986919E-1,9.035206E-1,1.4187506E-1,8.3053774E-1,7.968554E-1,-4.149857E-1,8.323093E-1,1.2090639E-1,9.347285E-1,2.9652843E-1,8.6977345E-1,1.1849107E0,1.1227628E0,8.4851086E-1,1.1502061E0,1.2246704E0,1.1875839E0,6.9363695E-1,2.5031942E-1,-6.293715E-1,1.1894801E-2,7.8224885E-1,-5.905937E-1,1.118001E-1,-8.4648246E-1,-1.4437398E-1,-1.0062785E0,7.0152456E-1,9.156988E-2,8.960766E-1,-5.1849496E-1,9.8468506E-1,5.3466123E-1,-3.595329E-1,7.5396854E-1,1.053502E-1,9.178389E-1,1.282109E0,4.1763228E-1,1.0334345E0,-3.5143387E-1,-9.030999E-1,1.8611006E-2,-4.8736423E-1,-5.650267E-1,3.8421842E-1,7.524611E-1,1.1908598E0],"categories":[],"categories_nodes":[],"categories_segments":[],"categories_sizes":[],"default_left":[1,1,1,1,1,1,1,1,1,1,1,1,1,1,1,1,1,1,1,1,1,1,1,1,1,1,1,1,1,1,1,1,1,1,1,1,1,1,1,1,1,1,1,1,1,1,1,1,1,1,1,1,1,1,1,1,1,1,1,1,1,1,1,0,0,0,0,0,0,0,0,0,0,0,0,0,0,0,0,0,0,0,0,0,0,0,0,0,0,0,0,0,0,0,0,0,0,0,0,0,0,0,0,0,0,0,0,0,0,0,0,0,0,0,0,0,0,0,0,0,0,0,0,0,0,0,0],"id":7,"left_children":[1,3,5,7,9,11,13,15,17,19,21,23,25,27,29,31,33,35,37,39,41,43,45,47,49,51,53,55,57,59,61,63,65,67,69,71,73,75,77,79,81,83,85,87,89,91,93,95,97,99,101,103,105,107,109,111,113,115,117,119,121,123,125,-1,-1,-1,-1,-1,-1,-1,-1,-1,-1,-1,-1,-1,-1,-1,-1,-1,-1,-1,-1,-1,-1,-1,-1,-1,-1,-1,-1,-1,-1,-1,-1,-1,-1,-1,-1,-1,-1,-1,-1,-1,-1,-1,-1,-1,-1,-1,-1,-1,-1,-1,-1,-1,-1,-1,-1,-1,-1,-1,-1,-1,-1,-1,-1],"loss_changes":[2.4005319E5,3.9995047E4,5.348967E4,3.2162188E3,1.7857816E4,2.3259125E4,1.1409947E4,1.6110469E3,1.3943789E3,5.415348E3,3.6254688E3,4.0369302E3,1.9914828E4,3.7703623E3,4.0334766E3,1.18203125E2,1.2670747E3,7.357656E2,2.8474936E2,8.21876E2,4.3246553E3,9.9692773E2,9.2828125E1,1.0519512E3,1.1586006E3,1.3993391E4,5.0440986E3,2.0439154E3,1.0574258E3,1.3177886E3,5.246161E2,6.265625E1,1.4041211E2,1.3636377E2,7.593854E2,4.2180664E2,8.3503577E2,4.8476715E1,3.1831815E2,5.606953E2,3.8810757E2,3.7423398E3,1.3964208E3,1.2219075E3,9.734863E1,3.1278809E1,1.7753906E1,6.11291E2,1.746943E2,1.518227E2,7.451702E2,1.7476758E4,4.1565312E3,1.7257065E3,1.082978E3,2.9887554E3,7.486704E2,2.849629E2,1.6604419E3,7.493911E2,5.6772815E2,1.304156E2,6.2779785E1,0E0,0E0,0E0,0E0,0E0,0E0,0E0,0E0,0E0,0E0,0E0,0E0,0E0,0E0,0E0,0E0,0E0,0E0,0E0,0E0,0E0,0E0,0E0,0E0,0E0,0E0,0E0,0E0,0E0,0E0,0E0,0E0,0E0,0E0,0E0,0E0,0E0,0E0,0E0,0E0,0E0,0E0,0E0,0E0,0E0,0E0,0E0,0E0,0E0,0E0,0E0,0E0,0E0,0E0,0E0,0E0,0E0,0E0,0E0,0E0,0E0,0E0,0E0,0E0],"parents":[2147483647,0,0,1,1,2,2,3,3,4,4,5,5,6,6,7,7,8,8,9,9,10,10,11,11,12,12,13,13,14,14,15,15,16,16,17,17,18,18,19,19,20,20,21,21,22,22,23,23,24,24,25,25,26,26,27,27,28,28,29,29,30,30,31,31,32,32,33,33,34,34,35,35,36,36,37,37,38,38,39,39,40,40,41,41,42,42,43,43,44,44,45,45,46,46,47,47,48,48,49,49,50,50,51,51,52,52,53,53,54,54,55,55,56,56,57,57,58,58,59,59,60,60,61,61,62,62],"right_children":[2,4,6,8,10,12,14,16,18,20,22,24,26,28,30,32,34,36,38,40,42,44,46,48,50,52,54,56,58,60,62,64,66,68,70,72,74,76,78,80,82,84,86,88,90,92,94,96,98,100,102,104,106,108,110,112,114,116,118,120,122,124,126,-1,-1,-1,-1,-1,-1,-1,-1,-1,-1,-1,-1,-1,-1,-1,-1,-1,-1,-1,-1,-1,-1,-1,-1,-1,-1,-1,-1,-1,-1,-1,-1,-1,-1,-1,-1,-1,-1,-1,-1,-1,-1,-1,-1,-1,-1,-1,-1,-1,-1,-1,-1,-1,-1,-1,-1,-1,-1,-1,-1,-1,-1,-1,-1],"split_conditions":[-2.3639995E-1,-2.8812072E-1,1.1267829E0,-5.788617E-1,1.0333754E0,-7.976569E-1,9.332751E-1,-4.07247E-1,9.332751E-1,-3.170895E-1,2.074859E0,2.0083356E-1,1.0422742E0,1.6433778E0,1.1322083E0,-7.438739E-1,-6.9846255E-1,-3.727618E-1,-1.386102E0,2.951578E-1,6.101879E-1,8.9057785E-1,2.213769E0,1.2318485E0,-3.1616366E-1,1.09349474E-1,2.2314756E0,5.5176926E-1,-1.8992525E-1,5.2119696E-1,1.9195503E0,-5.357747E-1,1.09349474E-1,7.078188E-1,-5.952004E-1,-2.747593E-1,-1.6272906E-2,-4.1965556E-1,1.1664507E0,-2.5080374E-1,9.1697776E-1,-1.3829126E0,-1.8272832E-1,3.1973727E-2,9.545845E-1,-3.1580657E-1,2.7134848E0,-8.985651E-1,1.09349474E-1,-7.673987E-1,-8.90844E-2,-7.860541E-2,2.043478E0,1.2448658E0,2.8999233E0,-3.7463167E-1,2.7449028E0,2.3321712E0,1.1384473E0,-4.3567193E-1,1.7572008E0,7.8774196E-1,2.252674E0,3.6676058E-1,3.3376795E-1,3.5055816E-1,2.8706914E-1,3.4450984E-1,2.3489864E-1,-9.206572E-2,1.8894763E-1,3.1797868E-1,2.5026578E-1,2.2098283E-1,-9.2037655E-2,3.4893948E-1,9.7759135E-2,-1.4053508E-2,2.4312896E-1,1.19607575E-1,2.7105618E-1,4.256252E-2,2.4916133E-1,2.3905663E-1,-1.2449571E-1,2.496928E-1,3.627192E-2,2.8041857E-1,8.895853E-2,2.6093206E-1,3.5547322E-1,3.3682886E-1,2.5455326E-1,3.4506184E-1,3.6740112E-1,3.562752E-1,2.080911E-1,7.509583E-2,-1.8881147E-1,3.5684404E-3,2.3467466E-1,-1.7717811E-1,3.354003E-2,-2.5394475E-1,-4.3312196E-2,-3.0188358E-1,2.1045737E-1,2.7470965E-2,2.68823E-1,-1.555485E-1,2.9540554E-1,1.6039838E-1,-1.0785987E-1,2.2619057E-1,3.160506E-2,2.7535167E-1,3.8463274E-1,1.252897E-1,3.1003037E-1,-1.0543016E-1,-2.7093E-1,5.583302E-3,-1.4620927E-1,-1.6950801E-1,1.1526553E-1,2.2573833E-1,3.5725796E-1],"split_indices":[6,3,0,3,5,17,1,6,1,19,5,6,6,0,5,3,17,6,2,5,0,3,5,10,19,1,10,6,5,6,5,6,1,8,0,19,17,8,9,0,9,9,5,3,0,19,5,17,1,0,15,0,5,6,12,17,10,0,5,17,1,3,5,0,0,0,0,0,0,0,0,0,0,0,0,0,0,0,0,0,0,0,0,0,0,0,0,0,0,0,0,0,0,0,0,0,0,0,0,0,0,0,0,0,0,0,0,0,0,0,0,0,0,0,0,0,0,0,0,0,0,0,0,0,0,0,0],"split_type":[0,0,0,0,0,0,0,0,0,0,0,0,0,0,0,0,0,0,0,0,0,0,0,0,0,0,0,0,0,0,0,0,0,0,0,0,0,0,0,0,0,0,0,0,0,0,0,0,0,0,0,0,0,0,0,0,0,0,0,0,0,0,0,0,0,0,0,0,0,0,0,0,0,0,0,0,0,0,0,0,0,0,0,0,0,0,0,0,0,0,0,0,0,0,0,0,0,0,0,0,0,0,0,0,0,0,0,0,0,0,0,0,0,0,0,0,0,0,0,0,0,0,0,0,0,0,0],"sum_hessian":[6.775201E5,2.6454178E5,4.1297834E5,1.5586495E5,1.0867681E5,3.3512444E5,7.785391E4,1.1467955E5,4.1185402E4,7.054099E4,3.8135816E4,1.9349924E4,3.157745E5,5.4499723E4,2.3354184E4,1.0366113E5,1.1018413E4,3.781755E4,3.3678525E3,1.5984782E4,5.455621E4,2.096232E4,1.7173496E4,1.1372491E4,7.977433E3,2.9620128E5,1.9573219E4,2.5135516E4,2.9364207E4,1.999365E4,3.3605327E3,8.159007E4,2.2071064E4,6.517471E3,4.500942E3,3.338001E4,4.437539E3,4.1849518E2,2.9493574E3,9.066749E3,6.918033E3,4.0355297E4,1.4200916E4,1.6778479E4,4.1838433E3,1.7910988E3,1.5382397E4,1.0463381E4,9.091109E2,1.612435E3,6.364998E3,1.4603953E5,1.5016175E5,1.2497494E4,7.075725E3,1.5372762E4,9.762753E3,1.00411E4,1.9323107E4,1.09426E4,9.051051E3,1.6035782E3,1.7569545E3,7.589012E4,5.6999546E3,1.8244791E4,3.8262725E3,5.2360435E3,1.2814275E3,1.168249E3,3.3326929E3,1.5416605E4,1.7963406E4,3.4521218E3,9.854173E2,3.2984222E2,8.865298E1,2.4229678E3,5.2638965E2,3.7643362E3,5.302413E3,5.9705684E3,9.474649E2,2.7325352E3,3.762276E4,3.7479688E3,1.0452947E4,3.9119492E3,1.2866528E4,2.5775369E3,1.6063064E3,7.050493E2,1.0860494E3,5.2569863E3,1.0125411E4,4.170364E3,6.293017E3,4.1225522E2,4.9685568E2,3.1888187E2,1.2935532E3,3.901243E3,2.4637551E3,8.544302E4,6.059651E4,1.4872348E5,1.4382577E3,3.856271E3,8.641224E3,6.559575E3,5.161499E2,6.41099E3,8.961771E3,7.4215205E3,2.3412324E3,6.909329E3,3.1317703E3,1.2615632E4,6.7074756E3,3.7456416E3,7.196958E3,5.1674404E3,3.8836106E3,1.5996481E2,1.4436134E3,4.44608E2,1.3123466E3],"tree_param":{"num_deleted":"0","num_feature":"20","num_nodes":"127","size_leaf_vector":"0"}},{"base_weights":[-5.910123E-3,-5.611357E-1,4.4299233E-1,-9.7343266E-1,-2.6133868E-1,7.188701E-1,-1.2837307E-2,-1.0928627E0,-5.0541574E-1,-1.7149109E-1,-1.0932466E0,7.545082E-1,-9.0545475E-1,3.000824E-1,-3.9831197E-1,-1.1263592E0,-9.4985956E-1,-6.3533686E-2,-8.5816383E-1,-3.6268535E-1,1.4512795E-1,-8.368377E-1,-1.1303391E0,3.440597E-1,8.614021E-1,-4.8439685E-1,-1.2171733E0,-2.071728E-2,5.7833767E-1,-7.5039524E-1,-9.919648E-2,-1.1402916E0,-9.6203226E-1,-1.0197053E0,-6.7268425E-1,-5.163699E-1,3.7627485E-1,-9.9857444E-1,-5.0321174E-1,-5.310722E-1,-6.3113734E-2,2.3093736E-1,-4.780402E-1,-1.0424733E0,-7.1513253E-1,-1.1186848E0,-1.321532E0,-7.16272E-1,5.049169E-1,4.6124563E-1,9.187464E-1,-5.902848E-2,-1.1943963E0,-9.145939E-1,-1.3002529E0,3.238276E-1,-3.196583E-1,6.819866E-1,5.4746725E-2,-9.596655E-1,-3.2436958E-1,4.3833557E-1,-2.2290245E-1,-1.1511086E0,-1.0969383E0,-1.0471548E0,-6.091277E-1,-1.080053E0,-8.545631E-1,-9.9234825E-1,-5.9318364E-1,-8.7228906E-1,-1.737866E-2,-2.4378955E-1,5.976474E-1,-6.2926537E-1,-1.0836643E0,-1.737824E-1,-8.256565E-1,-7.5288594E-1,-3.539414E-1,1.03687674E-1,-5.933416E-1,-7.38925E-1,2.9710835E-1,-2.866581E-1,-8.3626056E-1,-1.0199696E0,-1.8200836E0,-1.1872139E0,-6.288814E-1,-1.0561832E0,-1.1537889E0,2.9115522E-1,-1.3240528E0,-1.0908016E0,-3.1443623E-1,1.3486709E-1,6.997734E-1,-1.93197E-1,7.385149E-1,9.777428E-1,5.352722E-1,-1.1020705E0,1.6610266E-1,-8.2576215E-1,-1.2275722E0,-1.4305905E0,-7.482442E-1,-1.3949064E0,-1.2282033E0,4.9325046E-1,-5.2993876E-1,-6.16767E-1,1.0218045E-1,2.1736692E-1,7.502355E-1,1.793142E-1,-4.8605436E-1,-1.2560178E0,-7.774336E-1,-5.6377816E-1,4.8421554E-2,-2.9076533E-3,6.59905E-1,-5.5037194E-1,1.2655704E-1],"categories":[],"categories_nodes":[],"categories_segments":[],"categories_sizes":[],"default_left":[1,1,1,1,1,1,1,1,1,1,1,1,1,1,1,1,1,1,1,1,1,1,1,1,1,1,1,1,1,1,1,1,1,1,1,1,1,1,1,1,1,1,1,1,1,1,1,1,1,1,1,1,1,1,1,1,1,1,1,1,1,1,1,0,0,0,0,0,0,0,0,0,0,0,0,0,0,0,0,0,0,0,0,0,0,0,0,0,0,0,0,0,0,0,0,0,0,0,0,0,0,0,0,0,0,0,0,0,0,0,0,0,0,0,0,0,0,0,0,0,0,0,0,0,0,0,0],"id":8,"left_children":[1,3,5,7,9,11,13,15,17,19,21,23,25,27,29,31,33,35,37,39,41,43,45,47,49,51,53,55,57,59,61,63,65,67,69,71,73,75,77,79,81,83,85,87,89,91,93,95,97,99,101,103,105,107,109,111,113,115,117,119,121,123,125,-1,-1,-1,-1,-1,-1,-1,-1,-1,-1,-1,-1,-1,-1,-1,-1,-1,-1,-1,-1,-1,-1,-1,-1,-1,-1,-1,-1,-1,-1,-1,-1,-1,-1,-1,-1,-1,-1,-1,-1,-1,-1,-1,-1,-1,-1,-1,-1,-1,-1,-1,-1,-1,-1,-1,-1,-1,-1,-1,-1,-1,-1,-1,-1],"loss_changes":[1.504885E5,3.3364055E4,4.198378E4,6.351414E3,1.168143E4,1.2040359E4,1.5183679E4,4.3260938E2,3.6014526E3,8.538842E3,1.439414E2,8.92893E3,5.8553784E2,6.2018564E3,5.939628E3,1.6682812E2,3.3207617E2,2.0431713E3,6.398535E2,4.436338E3,2.8399985E3,4.7533447E1,2.8167969E1,7.1729746E3,3.7046953E3,5.7415344E2,6.329883E1,3.3241313E3,2.0191113E3,2.3093389E3,2.0278903E3,3.0445312E1,1.7176611E2,1.3587988E2,8.740613E1,8.976703E2,7.145271E2,2.8859863E2,3.86924E2,2.2117773E3,2.7990273E3,2.9960552E3,4.4045422E2,1.0656372E1,4.8726746E1,2.63125E1,3.4707031E0,8.3337646E2,2.6328164E3,3.672941E3,3.194539E3,2.7963104E2,7.6974487E0,4.6654663E1,1.1996826E1,2.1689902E3,2.1658438E3,9.84667E2,4.1433603E2,9.371963E2,7.617849E2,5.5779724E2,2.837037E3,0E0,0E0,0E0,0E0,0E0,0E0,0E0,0E0,0E0,0E0,0E0,0E0,0E0,0E0,0E0,0E0,0E0,0E0,0E0,0E0,0E0,0E0,0E0,0E0,0E0,0E0,0E0,0E0,0E0,0E0,0E0,0E0,0E0,0E0,0E0,0E0,0E0,0E0,0E0,0E0,0E0,0E0,0E0,0E0,0E0,0E0,0E0,0E0,0E0,0E0,0E0,0E0,0E0,0E0,0E0,0E0,0E0,0E0,0E0,0E0,0E0,0E0,0E0,0E0],"parents":[2147483647,0,0,1,1,2,2,3,3,4,4,5,5,6,6,7,7,8,8,9,9,10,10,11,11,12,12,13,13,14,14,15,15,16,16,17,17,18,18,19,19,20,20,21,21,22,22,23,23,24,24,25,25,26,26,27,27,28,28,29,29,30,30,31,31,32,32,33,33,34,34,35,35,36,36,37,37,38,38,39,39,40,40,41,41,42,42,43,43,44,44,45,45,46,46,47,47,48,48,49,49,50,50,51,51,52,52,53,53,54,54,55,55,56,56,57,57,58,58,59,59,60,60,61,61,62,62],"right_children":[2,4,6,8,10,12,14,16,18,20,22,24,26,28,30,32,34,36,38,40,42,44,46,48,50,52,54,56,58,60,62,64,66,68,70,72,74,76,78,80,82,84,86,88,90,92,94,96,98,100,102,104,106,108,110,112,114,116,118,120,122,124,126,-1,-1,-1,-1,-1,-1,-1,-1,-1,-1,-1,-1,-1,-1,-1,-1,-1,-1,-1,-1,-1,-1,-1,-1,-1,-1,-1,-1,-1,-1,-1,-1,-1,-1,-1,-1,-1,-1,-1,-1,-1,-1,-1,-1,-1,-1,-1,-1,-1,-1,-1,-1,-1,-1,-1,-1,-1,-1,-1,-1,-1,-1,-1,-1],"split_conditions":[-5.6424327E-2,-5.0604874E-1,4.6036875E-1,-3.7903303E-1,2.0550408E0,2.1031783E0,4.4644237E-1,-6.6932607E-1,1.4021477E-2,1.09349474E-1,2.213769E0,-8.4589845E-1,2.6579124E-1,1.09349474E-1,1.09349474E-1,-5.134437E-1,1.09349474E-1,-6.3358337E-1,1.09349474E-1,1.3757054E-2,1.0627086E0,-3.1546903E-1,-1.8500966E-1,-7.145762E-1,-5.5455226E-1,3.0483012E0,2.3453321E0,-8.301918E-2,1.4711795E0,4.6336216E-1,4.980807E-2,-7.9969835E-1,-5.6522214E-1,-4.2212047E-2,-1.1445098E0,1.09349474E-1,-7.145762E-1,-7.673987E-1,8.9756644E-1,-1.0964239E-1,1.2186509E0,-1.4709234E0,1.599432E0,-1.640903E-1,-6.386188E-1,2.7487543E0,-1.2054372E0,-3.9723343E-1,1.09349474E-1,1.2900546E-1,4.8756993E-1,-6.1668396E-1,3.2066844E0,-6.046638E-1,-6.1099184E-1,7.917427E-1,3.8254306E-1,-8.112316E-1,2.5043695E0,-1.5105158E-1,2.1970522E0,-1.0005193E0,2.2150931E0,-3.453326E-1,-3.2908148E-1,-3.1414646E-1,-1.8273832E-1,-3.2401592E-1,-2.5636894E-1,-2.977045E-1,-1.7795509E-1,-2.6168674E-1,-5.2135983E-3,-7.3136866E-2,1.7929423E-1,-1.8877962E-1,-3.250993E-1,-5.213472E-2,-2.4769695E-1,-2.258658E-1,-1.06182426E-1,3.1106303E-2,-1.7800248E-1,-2.216775E-1,8.913251E-2,-8.599743E-2,-2.5087819E-1,-3.0599087E-1,-5.460251E-1,-3.561642E-1,-1.8866442E-1,-3.1685498E-1,-3.461367E-1,8.734657E-2,-3.9721587E-1,-3.272405E-1,-9.433087E-2,4.046013E-2,2.0993201E-1,-5.7959102E-2,2.2155447E-1,2.9332286E-1,1.6058166E-1,-3.3062115E-1,4.98308E-2,-2.4772866E-1,-3.6827168E-1,-4.2917717E-1,-2.2447328E-1,-4.1847193E-1,-3.68461E-1,1.4797515E-1,-1.5898164E-1,-1.850301E-1,3.0654136E-2,6.521008E-2,2.2507066E-1,5.379426E-2,-1.4581631E-1,-3.7680537E-1,-2.3323008E-1,-1.6913345E-1,1.4526467E-2,-8.7229605E-4,1.9797151E-1,-1.6511159E-1,3.7967112E-2],"split_indices":[6,3,10,6,5,5,15,3,7,1,5,18,0,1,1,6,1,18,1,19,9,19,6,1,17,5,5,8,0,19,3,3,17,19,9,1,1,0,7,17,19,9,9,6,9,5,13,5,1,6,3,8,5,8,8,3,19,17,0,12,10,18,10,0,0,0,0,0,0,0,0,0,0,0,0,0,0,0,0,0,0,0,0,0,0,0,0,0,0,0,0,0,0,0,0,0,0,0,0,0,0,0,0,0,0,0,0,0,0,0,0,0,0,0,0,0,0,0,0,0,0,0,0,0,0,0,0],"split_type":[0,0,0,0,0,0,0,0,0,0,0,0,0,0,0,0,0,0,0,0,0,0,0,0,0,0,0,0,0,0,0,0,0,0,0,0,0,0,0,0,0,0,0,0,0,0,0,0,0,0,0,0,0,0,0,0,0,0,0,0,0,0,0,0,0,0,0,0,0,0,0,0,0,0,0,0,0,0,0,0,0,0,0,0,0,0,0,0,0,0,0,0,0,0,0,0,0,0,0,0,0,0,0,0,0,0,0,0,0,0,0,0,0,0,0,0,0,0,0,0,0,0,0,0,0,0,0],"sum_hessian":[6.037824E5,2.69925E5,3.3385734E5,1.13639555E5,1.5628545E5,2.0798178E5,1.2587556E5,9.0535164E4,2.3104393E4,1.410527E5,1.5232746E4,2.035171E5,4.4646777E3,6.94764E4,5.639916E4,7.33476E4,1.718756E4,1.0256905E4,1.2847488E4,8.794557E4,5.3107145E4,1.9280846E3,1.3304662E4,4.2051812E4,1.614653E5,1.9003328E3,2.564345E3,3.2271553E4,3.7204848E4,2.5905166E4,3.0493992E4,6.760946E4,5.7381426E3,1.3726041E4,3.4615188E3,5.0535195E3,5.2033857E3,9.204566E3,3.6429219E3,5.629936E4,3.1646207E4,4.668E4,6.427143E3,7.14048E2,1.2140366E3,1.2546718E4,7.579443E2,5.5386865E3,3.6513125E4,2.023962E4,1.4122567E5,1.1890457E3,7.112871E2,5.550041E2,2.0093408E3,1.4992195E4,1.7279357E4,3.1056639E4,6.148207E3,1.7371012E4,8.534155E3,5.704412E3,2.478958E4,5.408836E4,1.3521099E4,4.621456E3,1.1166869E3,1.0048493E4,3.677548E3,6.87135E2,2.7743838E3,2.9491848E3,2.104335E3,1.3689255E3,3.83446E3,1.7252006E3,7.4793657E3,1.8027057E3,1.8402162E3,2.499539E4,3.1303969E4,2.4073777E4,7.57243E3,2.980782E3,4.369922E4,4.190262E3,2.2368806E3,6.962115E2,1.7836458E1,1.8557233E2,1.0284642E3,4.5236357E3,8.023082E3,1.0041666E0,7.569401E2,2.865859E3,2.672828E3,1.2595271E4,2.3917854E4,6.023223E3,1.4216396E4,1.2239415E5,1.8831523E4,2.1039262E2,9.78653E2,6.0866066E1,6.50421E2,1.3345204E2,4.2155206E2,8.605083E2,1.1488325E3,1.2510094E4,2.4821023E3,1.0138305E4,7.141053E3,3.9782166E3,2.7078424E4,4.997709E3,1.1504979E3,6.6121655E3,1.0758846E4,5.196452E3,3.3377034E3,1.907239E3,3.797173E3,1.2797138E4,1.1992443E4],"tree_param":{"num_deleted":"0","num_feature":"20","num_nodes":"127","size_leaf_vector":"0"}},{"base_weights":[5.9100543E-3,5.6113565E-1,-4.429924E-1,9.734326E-1,2.6133868E-1,-7.1887016E-1,1.2837277E-2,1.0928627E0,5.0541574E-1,1.7149109E-1,1.0932466E0,-7.5450826E-1,9.0545475E-1,-3.0008242E-1,3.9831194E-1,1.1263592E0,9.4985956E-1,6.3533664E-2,8.5816383E-1,3.6268535E-1,-1.4512795E-1,8.368379E-1,1.1303391E0,-3.4405974E-1,-8.6140215E-1,4.8439687E-1,1.2171733E0,2.0717267E-2,-5.783377E-1,7.503952E-1,9.919645E-2,1.1402916E0,9.6203226E-1,1.0197053E0,6.7268425E-1,5.163699E-1,-3.7627485E-1,9.9857444E-1,5.0321174E-1,5.310722E-1,6.311381E-2,-2.3093736E-1,4.780402E-1,1.0424736E0,7.1513265E-1,1.1186848E0,1.3215321E0,7.1627194E-1,-5.0491697E-1,-4.612457E-1,-9.187465E-1,5.9028447E-2,1.1943963E0,9.145939E-1,1.3002529E0,-3.238276E-1,3.1965828E-1,-6.8198663E-1,-5.474674E-2,9.596654E-1,3.2436955E-1,-4.383356E-1,2.229024E-1,1.1511086E0,1.0969388E0,1.0471547E0,6.091277E-1,1.080053E0,8.545632E-1,9.923483E-1,5.9318364E-1,8.7228906E-1,1.737862E-2,2.4378958E-1,-5.976475E-1,6.2926537E-1,1.0836643E0,1.7378238E-1,8.256565E-1,7.5288594E-1,3.539414E-1,-1.036876E-1,5.9334165E-1,7.389251E-1,-2.9710835E-1,2.866581E-1,8.3626056E-1,1.0199698E0,1.8200839E0,1.187214E0,6.288815E-1,1.056186E0,1.1537888E0,-2.9115516E-1,1.3240528E0,1.0908015E0,3.1443617E-1,-1.3486709E-1,-6.997735E-1,1.9319697E-1,-7.3851496E-1,-9.7774285E-1,-5.3527224E-1,1.1020705E0,-1.661027E-1,8.2576215E-1,1.2275723E0,1.4305905E0,7.4824417E-1,1.3949064E0,1.2282033E0,-4.9325046E-1,5.2993876E-1,6.16767E-1,-1.02180466E-1,-2.1736693E-1,-7.502355E-1,-1.7931421E-1,4.8605433E-1,1.2560178E0,7.774336E-1,5.6377816E-1,-4.842157E-2,2.9076312E-3,-6.599051E-1,5.503719E-1,-1.2655705E-1],"categories":[],"categories_nodes":[],"categories_segments":[],"categories_sizes":[],"default_left":[1,1,1,1,1,1,1,1,1,1,1,1,1,1,1,1,1,1,1,1,1,1,1,1,1,1,1,1,1,1,1,1,1,1,1,1,1,1,1,1,1,1,1,1,1,1,1,1,1,1,1,1,1,1,1,1,1,1,1,1,1,1,1,0,0,0,0,0,0,0,0,0,0,0,0,0,0,0,0,0,0,0,0,0,0,0,0,0,0,0,0,0,0,0,0,0,0,0,0,0,0,0,0,0,0,0,0,0,0,0,0,0,0,0,0,0,0,0,0,0,0,0,0,0,0,0,0],"id":9,"left_children":[1,3,5,7,9,11,13,15,17,19,21,23,25,27,29,31,33,35,37,39,41,43,45,47,49,51,53,55,57,59,61,63,65,67,69,71,73,75,77,79,81,83,85,87,89,91,93,95,97,99,101,103,105,107,109,111,113,115,117,119,121,123,125,-1,-1,-1,-1,-1,-1,-1,-1,-1,-1,-1,-1,-1,-1,-1,-1,-1,-1,-1,-1,-1,-1,-1,-1,-1,-1,-1,-1,-1,-1,-1,-1,-1,-1,-1,-1,-1,-1,-1,-1,-1,-1,-1,-1,-1,-1,-1,-1,-1,-1,-1,-1,-1,-1,-1,-1,-1,-1,-1,-1,-1,-1,-1,-1],"loss_changes":[1.504885E5,3.3364062E4,4.198378E4,6.351414E3,1.1681428E4,1.2040359E4,1.518368E4,4.3260938E2,3.6014526E3,8.538845E3,1.4393945E2,8.928953E3,5.8553735E2,6.201857E3,5.939626E3,1.6682812E2,3.320752E2,2.0431714E3,6.398535E2,4.436333E3,2.8399985E3,4.753357E1,2.8169922E1,7.172975E3,3.7046797E3,5.7415356E2,6.3299072E1,3.3241309E3,2.0191113E3,2.3093428E3,2.0278903E3,3.0453125E1,1.7176611E2,1.358789E2,8.7406006E1,8.9767053E2,7.145272E2,2.8859863E2,3.8692395E2,2.2117793E3,2.7990276E3,2.9960552E3,4.4045422E2,1.0656311E1,4.8726746E1,2.6311523E1,3.4708252E0,8.333767E2,2.6328154E3,3.6729414E3,3.194539E3,2.7963104E2,7.6974487E0,4.6654694E1,1.1996826E1,2.1689905E3,2.1658442E3,9.84667E2,4.1433597E2,9.371924E2,7.61785E2,5.5779724E2,2.8370366E3,0E0,0E0,0E0,0E0,0E0,0E0,0E0,0E0,0E0,0E0,0E0,0E0,0E0,0E0,0E0,0E0,0E0,0E0,0E0,0E0,0E0,0E0,0E0,0E0,0E0,0E0,0E0,0E0,0E0,0E0,0E0,0E0,0E0,0E0,0E0,0E0,0E0,0E0,0E0,0E0,0E0,0E0,0E0,0E0,0E0,0E0,0E0,0E0,0E0,0E0,0E0,0E0,0E0,0E0,0E0,0E0,0E0,0E0,0E0,0E0,0E0,0E0,0E0,0E0],"parents":[2147483647,0,0,1,1,2,2,3,3,4,4,5,5,6,6,7,7,8,8,9,9,10,10,11,11,12,12,13,13,14,14,15,15,16,16,17,17,18,18,19,19,20,20,21,21,22,22,23,23,24,24,25,25,26,26,27,27,28,28,29,29,30,30,31,31,32,32,33,33,34,34,35,35,36,36,37,37,38,38,39,39,40,40,41,41,42,42,43,43,44,44,45,45,46,46,47,47,48,48,49,49,50,50,51,51,52,52,53,53,54,54,55,55,56,56,57,57,58,58,59,59,60,60,61,61,62,62],"right_children":[2,4,6,8,10,12,14,16,18,20,22,24,26,28,30,32,34,36,38,40,42,44,46,48,50,52,54,56,58,60,62,64,66,68,70,72,74,76,78,80,82,84,86,88,90,92,94,96,98,100,102,104,106,108,110,112,114,116,118,120,122,124,126,-1,-1,-1,-1,-1,-1,-1,-1,-1,-1,-1,-1,-1,-1,-1,-1,-1,-1,-1,-1,-1,-1,-1,-1,-1,-1,-1,-1,-1,-1,-1,-1,-1,-1,-1,-1,-1,-1,-1,-1,-1,-1,-1,-1,-1,-1,-1,-1,-1,-1,-1,-1,-1,-1,-1,-1,-1,-1,-1,-1,-1,-1,-1,-1],"split_conditions":[-5.6424327E-2,-5.0604874E-1,4.6036875E-1,-3.7903303E-1,2.0550408E0,2.1031783E0,4.4644237E-1,-6.6932607E-1,1.4021477E-2,1.09349474E-1,2.213769E0,-8.4589845E-1,2.6579124E-1,1.09349474E-1,1.09349474E-1,-5.134437E-1,1.09349474E-1,-6.3358337E-1,1.09349474E-1,1.3757054E-2,1.0627086E0,-3.1546903E-1,-1.8500966E-1,-7.145762E-1,-5.5455226E-1,3.0483012E0,2.3453321E0,-8.301918E-2,1.4711795E0,4.6336216E-1,4.980807E-2,-7.9970026E-1,-5.6522214E-1,-4.2212047E-2,-1.1445098E0,1.09349474E-1,-7.145762E-1,-7.673987E-1,8.9756644E-1,-1.0964239E-1,1.2186509E0,-1.4709234E0,1.599432E0,-1.640903E-1,-6.386188E-1,2.748808E0,-1.2054372E0,-3.9723343E-1,1.09349474E-1,1.2900546E-1,4.8756993E-1,-6.1668396E-1,3.2066844E0,-6.046638E-1,-6.1099184E-1,7.917427E-1,3.8254306E-1,-8.112316E-1,2.5043695E0,-1.5105158E-1,2.1970522E0,-1.0005193E0,2.2150931E0,3.453326E-1,3.2908165E-1,3.141464E-1,1.8273832E-1,3.2401592E-1,2.5636896E-1,2.9770452E-1,1.7795509E-1,2.6168674E-1,5.2135866E-3,7.313688E-2,-1.7929426E-1,1.8877962E-1,3.250993E-1,5.2134715E-2,2.4769695E-1,2.258658E-1,1.06182426E-1,-3.110628E-2,1.780025E-1,2.2167754E-1,-8.913251E-2,8.599743E-2,2.5087819E-1,3.0599096E-1,5.4602516E-1,3.5616422E-1,1.8866447E-1,3.168558E-1,3.4613666E-1,-8.7346554E-2,3.9721587E-1,3.2724047E-1,9.4330855E-2,-4.046013E-2,-2.0993206E-1,5.795909E-2,-2.215545E-1,-2.9332286E-1,-1.6058168E-1,3.3062115E-1,-4.9830813E-2,2.4772866E-1,3.682717E-1,4.2917717E-1,2.2447325E-1,4.1847193E-1,3.68461E-1,-1.4797515E-1,1.5898164E-1,1.850301E-1,-3.0654142E-2,-6.521008E-2,-2.2507066E-1,-5.3794265E-2,1.4581631E-1,3.7680537E-1,2.3323008E-1,1.6913345E-1,-1.45264715E-2,8.722894E-4,-1.9797154E-1,1.6511157E-1,-3.7967116E-2],"split_indices":[6,3,10,6,5,5,15,3,7,1,5,18,0,1,1,6,1,18,1,19,9,19,6,1,17,5,5,8,0,19,3,3,17,19,9,1,1,0,7,17,19,9,9,6,9,5,13,5,1,6,3,8,5,8,8,3,19,17,0,12,10,18,10,0,0,0,0,0,0,0,0,0,0,0,0,0,0,0,0,0,0,0,0,0,0,0,0,0,0,0,0,0,0,0,0,0,0,0,0,0,0,0,0,0,0,0,0,0,0,0,0,0,0,0,0,0,0,0,0,0,0,0,0,0,0,0,0],"split_type":[0,0,0,0,0,0,0,0,0,0,0,0,0,0,0,0,0,0,0,0,0,0,0,0,0,0,0,0,0,0,0,0,0,0,0,0,0,0,0,0,0,0,0,0,0,0,0,0,0,0,0,0,0,0,0,0,0,0,0,0,0,0,0,0,0,0,0,0,0,0,0,0,0,0,0,0,0,0,0,0,0,0,0,0,0,0,0,0,0,0,0,0,0,0,0,0,0,0,0,0,0,0,0,0,0,0,0,0,0,0,0,0,0,0,0,0,0,0,0,0,0,0,0,0,0,0,0],"sum_hessian":[6.037824E5,2.69925E5,3.3385734E5,1.1363955E5,1.5628545E5,2.079818E5,1.2587556E5,9.053515E4,2.3104393E4,1.410527E5,1.5232745E4,2.0351711E5,4.4646777E3,6.94764E4,5.639916E4,7.334759E4,1.718756E4,1.0256905E4,1.2847488E4,8.794556E4,5.3107145E4,1.928085E3,1.330466E4,4.2051812E4,1.614653E5,1.9003328E3,2.564345E3,3.2271555E4,3.7204848E4,2.5905166E4,3.0493992E4,6.7609445E4,5.7381426E3,1.3726042E4,3.4615188E3,5.05352E3,5.2033857E3,9.204566E3,3.6429219E3,5.629936E4,3.1646207E4,4.668E4,6.427143E3,7.140483E2,1.2140367E3,1.2546716E4,7.5794434E2,5.538687E3,3.6513125E4,2.0239621E4,1.4122569E5,1.1890457E3,7.112871E2,5.550041E2,2.009341E3,1.4992196E4,1.7279357E4,3.105664E4,6.148207E3,1.737101E4,8.534155E3,5.704412E3,2.478958E4,5.408823E4,1.3521216E4,4.621456E3,1.1166868E3,1.0048494E4,3.6775486E3,6.87135E2,2.7743838E3,2.9491848E3,2.104335E3,1.3689255E3,3.83446E3,1.7252006E3,7.4793657E3,1.8027057E3,1.8402162E3,2.499539E4,3.1303969E4,2.4073775E4,7.57243E3,2.9807822E3,4.369922E4,4.190262E3,2.2368806E3,6.9621185E2,1.783646E1,1.8557234E2,1.0284644E3,4.5237544E3,8.0229614E3,1.0041667E0,7.569401E2,2.865859E3,2.672828E3,1.2595271E4,2.3917855E4,6.023223E3,1.4216397E4,1.2239416E5,1.8831523E4,2.1039261E2,9.78653E2,6.086607E1,6.50421E2,1.3345203E2,4.2155203E2,8.605083E2,1.1488326E3,1.2510094E4,2.4821023E3,1.0138305E4,7.1410537E3,3.9782166E3,2.7078424E4,4.997709E3,1.1504979E3,6.6121655E3,1.0758846E4,5.196452E3,3.3377034E3,1.907239E3,3.797173E3,1.2797138E4,1.1992443E4],"tree_param":{"num_deleted":"0","num_feature":"20","num_nodes":"127","size_leaf_vector":"0"}},{"base_weights":[-6.0709463E-3,-4.483057E-1,3.6662453E-1,-9.114343E-1,-2.1151116E-1,6.448209E-1,-1.08213425E-2,-1.0534861E0,-4.5377457E-1,-1.4710848E-1,-1.0222466E0,8.111548E-1,3.8485008E-1,2.7167705E-1,-2.9678667E-1,-1.0842947E0,-9.404784E-1,-1.3491125E-1,-8.785399E-1,-4.1959065E-1,2.0846883E-2,-7.7839655E-1,-1.076697E0,-6.207311E-1,8.339577E-1,-2.2595124E-1,5.1793855E-1,-9.7697474E-2,5.467462E-1,-4.5505932E-1,1.17980294E-1,-1.095464E0,-9.3682075E-1,-9.9638426E-1,-7.02619E-1,3.626398E-1,-4.3036753E-1,-9.768576E-1,-6.012351E-1,-6.2433964E-1,-9.600062E-2,1.14342324E-1,-5.747606E-1,-8.682601E-1,-5.2118105E-1,9.1224843E-1,-1.0781412E0,-9.4749975E-1,-9.0595156E-2,5.3307503E-1,9.2526317E-1,2.5791085E-1,-6.0891056E-1,5.954706E-1,-3.1227907E-2,-3.6416313E-1,5.2797467E-1,-8.2376033E-1,6.205773E-1,-7.553287E-1,-2.799113E-1,2.63767E-1,-6.196262E-1,-1.1068735E0,-1.0655246E0,-9.867445E-1,-5.0375193E-1,-1.0442398E0,-8.612048E-1,-1.0039636E0,-6.420186E-1,-9.974866E-2,5.674373E-1,-7.453818E-1,2.2237865E-2,-7.0043653E-1,-1.0210214E0,-8.008251E-1,-2.5787568E-1,-7.1803045E-1,-4.0338048E-1,-5.370263E-1,5.704059E-1,1.9718179E-1,-4.285975E-1,-2.559637E-1,-6.7488444E-1,-8.364349E-1,-1.4454262E0,-3.1930587E-1,-8.1442773E-1,1.5260972E0,-1.28046E-1,-1.0156692E0,-1.1156002E0,-2.0669281E0,-8.626176E-1,3.8209032E-2,-1.8760682E0,-2.986832E-1,7.0910037E-1,9.654389E-1,2.2040802E-1,3.409017E-1,-9.6887016E-1,-2.9332748E-1,-1.0491825E0,1.2737467E-2,6.6034865E-1,4.506683E-1,-4.1876876E-1,-8.3928734E-1,-2.1558744E-1,6.103724E-1,-6.942064E-2,-3.218407E-1,-1.1949661E0,7.3312515E-1,1.8746054E-1,-1.0000007E0,-3.092289E-1,-7.458434E-1,-1.5594496E-1,-6.042381E-1,3.3184004E-1,-3.7106746E-1,-1.0205213E0],"categories":[],"categories_nodes":[],"categories_segments":[],"categories_sizes":[],"default_left":[1,1,1,1,1,1,1,1,1,1,1,1,1,1,1,1,1,1,1,1,1,1,1,1,1,1,1,1,1,1,1,1,1,1,1,1,1,1,1,1,1,1,1,1,1,1,1,1,1,1,1,1,1,1,1,1,1,1,1,1,1,1,1,0,0,0,0,0,0,0,0,0,0,0,0,0,0,0,0,0,0,0,0,0,0,0,0,0,0,0,0,0,0,0,0,0,0,0,0,0,0,0,0,0,0,0,0,0,0,0,0,0,0,0,0,0,0,0,0,0,0,0,0,0,0,0,0],"id":10,"left_children":[1,3,5,7,9,11,13,15,17,19,21,23,25,27,29,31,33,35,37,39,41,43,45,47,49,51,53,55,57,59,61,63,65,67,69,71,73,75,77,79,81,83,85,87,89,91,93,95,97,99,101,103,105,107,109,111,113,115,117,119,121,123,125,-1,-1,-1,-1,-1,-1,-1,-1,-1,-1,-1,-1,-1,-1,-1,-1,-1,-1,-1,-1,-1,-1,-1,-1,-1,-1,-1,-1,-1,-1,-1,-1,-1,-1,-1,-1,-1,-1,-1,-1,-1,-1,-1,-1,-1,-1,-1,-1,-1,-1,-1,-1,-1,-1,-1,-1,-1,-1,-1,-1,-1,-1,-1,-1],"loss_changes":[8.938723E4,2.7200223E4,3.0903469E4,5.4547266E3,8.569044E3,7.3261484E3,1.0088387E4,2.2192969E2,2.69215E3,6.958174E3,1.5952344E2,3.3740703E3,5.374172E3,6.3828643E3,4.074002E3,8.184766E1,1.8181543E2,1.6694534E3,2.3178906E2,3.8413398E3,5.2381387E3,5.0588013E1,2.933496E1,2.8058093E2,2.7934844E3,2.1919192E3,2.3112383E3,4.470751E3,3.643914E3,2.3621338E3,1.8434358E3,1.4800781E1,7.6234375E1,7.097656E1,4.7117188E1,4.007444E2,1.01589307E3,7.608008E1,1.5285913E2,7.348369E2,6.6043164E3,3.6567935E3,4.0719287E2,2.882251E1,3.3733994E1,5.1147165E0,2.1950195E1,9.34494E1,1.42413E2,3.4671616E3,2.2092656E3,5.324358E2,9.171062E2,1.7983164E3,1.2545156E3,1.3273884E3,3.943025E2,3.4262598E2,1.6653809E3,1.8058584E3,1.6386372E3,8.459392E2,2.8153503E2,0E0,0E0,0E0,0E0,0E0,0E0,0E0,0E0,0E0,0E0,0E0,0E0,0E0,0E0,0E0,0E0,0E0,0E0,0E0,0E0,0E0,0E0,0E0,0E0,0E0,0E0,0E0,0E0,0E0,0E0,0E0,0E0,0E0,0E0,0E0,0E0,0E0,0E0,0E0,0E0,0E0,0E0,0E0,0E0,0E0,0E0,0E0,0E0,0E0,0E0,0E0,0E0,0E0,0E0,0E0,0E0,0E0,0E0,0E0,0E0,0E0,0E0,0E0,0E0],"parents":[2147483647,0,0,1,1,2,2,3,3,4,4,5,5,6,6,7,7,8,8,9,9,10,10,11,11,12,12,13,13,14,14,15,15,16,16,17,17,18,18,19,19,20,20,21,21,22,22,23,23,24,24,25,25,26,26,27,27,28,28,29,29,30,30,31,31,32,32,33,33,34,34,35,35,36,36,37,37,38,38,39,39,40,40,41,41,42,42,43,43,44,44,45,45,46,46,47,47,48,48,49,49,50,50,51,51,52,52,53,53,54,54,55,55,56,56,57,57,58,58,59,59,60,60,61,61,62,62],"right_children":[2,4,6,8,10,12,14,16,18,20,22,24,26,28,30,32,34,36,38,40,42,44,46,48,50,52,54,56,58,60,62,64,66,68,70,72,74,76,78,80,82,84,86,88,90,92,94,96,98,100,102,104,106,108,110,112,114,116,118,120,122,124,126,-1,-1,-1,-1,-1,-1,-1,-1,-1,-1,-1,-1,-1,-1,-1,-1,-1,-1,-1,-1,-1,-1,-1,-1,-1,-1,-1,-1,-1,-1,-1,-1,-1,-1,-1,-1,-1,-1,-1,-1,-1,-1,-1,-1,-1,-1,-1,-1,-1,-1,-1,-1,-1,-1,-1,-1,-1,-1,-1,-1,-1,-1,-1,-1],"split_conditions":[-2.7852293E-2,-5.671882E-1,4.3798956E-1,-4.165542E-1,2.06566E0,2.2963838E-1,4.565755E-1,-7.297714E-1,5.917078E-1,-2.2371584E-1,2.2771835E0,-5.912459E-1,-7.145762E-1,-3.1841975E-1,9.332751E-1,-5.357747E-1,1.09349474E-1,-4.2300206E-1,1.09349474E-1,-3.6020386E-1,6.1562634E-1,1.09349474E-1,-1.3268905E0,-6.040709E-1,-3.9759934E-1,2.918873E-2,8.735368E-1,9.332751E-1,-5.8737403E-1,4.2819887E-1,1.1671269E0,-8.810171E-1,-4.713757E-1,-4.3848224E-2,-1.3469162E0,-7.145762E-1,1.09349474E-1,-9.39597E-1,-5.194388E-1,1.09349474E-1,-2.3797187E-1,9.53652E-1,-7.860541E-2,-1.6184062E-1,4.3798956E-1,-8.6686754E-1,2.9048014E0,-7.669974E-1,7.432763E-1,-3.1658673E-1,6.154275E-1,2.0172439E0,-2.2848956E-2,-8.110185E-1,4.3235868E-1,-2.8260016E-1,1.0504181E-1,1.9835197E0,1.0370882E0,1.780802E0,-7.145762E-1,-1.3246695E0,2.2194796E0,-3.3206207E-1,-3.196574E-1,-2.9602337E-1,-1.5112558E-1,-3.1327194E-1,-2.5836146E-1,-3.011891E-1,-1.926056E-1,-2.99246E-2,1.702312E-1,-2.2361454E-1,6.6713598E-3,-2.1013097E-1,-3.0630642E-1,-2.4024755E-1,-7.736271E-2,-2.1540914E-1,-1.2101415E-1,-1.611079E-1,1.7112178E-1,5.915454E-2,-1.2857926E-1,-7.678912E-2,-2.0246534E-1,-2.509305E-1,-4.3362787E-1,-9.5791765E-2,-2.4432833E-1,4.5782918E-1,-3.8413804E-2,-3.047008E-1,-3.3468008E-1,-6.2007844E-1,-2.587853E-1,1.146271E-2,-5.628205E-1,-8.960496E-2,2.1273012E-1,2.896317E-1,6.612241E-2,1.02270514E-1,-2.9066107E-1,-8.799825E-2,-3.1475478E-1,3.8212403E-3,1.981046E-1,1.352005E-1,-1.2563063E-1,-2.517862E-1,-6.467623E-2,1.8311173E-1,-2.0826194E-2,-9.6552216E-2,-3.5848984E-1,2.1993755E-1,5.6238163E-2,-3.0000022E-1,-9.276867E-2,-2.2375304E-1,-4.678349E-2,-1.8127143E-1,9.955201E-2,-1.1132024E-1,-3.061564E-1],"split_indices":[6,3,0,6,5,10,6,3,7,3,5,8,1,17,1,6,1,0,1,6,3,1,13,8,17,8,15,1,8,7,5,3,17,19,9,1,1,0,18,1,17,9,0,6,0,10,5,9,9,19,6,5,3,17,6,19,3,5,15,10,1,9,5,0,0,0,0,0,0,0,0,0,0,0,0,0,0,0,0,0,0,0,0,0,0,0,0,0,0,0,0,0,0,0,0,0,0,0,0,0,0,0,0,0,0,0,0,0,0,0,0,0,0,0,0,0,0,0,0,0,0,0,0,0,0,0,0],"split_type":[0,0,0,0,0,0,0,0,0,0,0,0,0,0,0,0,0,0,0,0,0,0,0,0,0,0,0,0,0,0,0,0,0,0,0,0,0,0,0,0,0,0,0,0,0,0,0,0,0,0,0,0,0,0,0,0,0,0,0,0,0,0,0,0,0,0,0,0,0,0,0,0,0,0,0,0,0,0,0,0,0,0,0,0,0,0,0,0,0,0,0,0,0,0,0,0,0,0,0,0,0,0,0,0,0,0,0,0,0,0,0,0,0,0,0,0,0,0,0,0,0,0,0,0,0,0,0],"sum_hessian":[5.4233406E5,2.4802784E5,2.9430622E5,8.3910586E4,1.6411725E5,1.6942839E5,1.2487785E5,6.4033957E4,1.9876633E4,1.5204072E5,1.207653E4,1.0332021E5,6.610817E4,6.281975E4,6.2058098E4,5.030973E4,1.3724227E4,1.1354409E4,8.522223E3,5.797826E4,9.406245E4,2.2071848E3,9.869346E3,1.6191799E3,1.0170103E5,1.1827214E4,5.428096E4,2.6813754E4,3.6006E4,4.491768E4,1.714042E4,4.676171E4,3.5480193E3,1.1109813E4,2.6144126E3,4.2303066E3,7.124102E3,6.289703E3,2.2325198E3,3.5509184E4,2.246908E4,8.130104E4,1.2761416E4,1.6339537E3,5.732311E2,6.703467E0,9.862643E3,1.0012412E3,6.179388E2,2.3678656E4,7.8022375E4,5.225375E3,6.601839E3,4.756551E4,6.715449E3,1.8805256E4,8.008497E3,1.840021E3,3.4165977E4,1.6546854E4,2.8370824E4,1.4312268E4,2.8281536E3,3.383252E4,1.2929188E4,3.1801375E3,3.6788165E2,8.200127E3,2.9096868E3,4.351245E2,2.1792878E3,1.2986802E3,2.9316265E3,4.200146E3,2.9239563E3,8.6879156E2,5.4209116E3,1.4109955E3,8.2152435E2,2.4934318E4,1.0574864E4,1.3521073E4,8.948008E3,7.053912E4,1.0761923E4,3.0508828E3,9.710533E3,1.5508865E3,8.306723E1,3.4074573E2,2.3248534E2,3.9221373E0,2.7813299E0,3.7075444E3,6.155098E3,6.892362E1,9.3231757E2,5.772728E2,4.0665916E1,4.1357295E3,1.9542926E4,7.381467E4,4.2076997E3,4.8949565E3,3.3041818E2,3.846423E3,2.755416E3,4.7652583E3,4.2800254E4,2.993256E3,3.722193E3,4.478617E3,1.4326639E4,7.0377666E3,9.7073E2,7.830713E2,1.0569497E3,2.7118408E4,7.0475684E3,1.0685142E4,5.861713E3,5.961035E3,2.240979E4,1.0402372E3,1.327203E4,1.746952E3,1.0812015E3],"tree_param":{"num_deleted":"0","num_feature":"20","num_nodes":"127","size_leaf_vector":"0"}},{"base_weights":[6.070881E-3,4.4830567E-1,-3.666246E-1,9.114343E-1,2.1151112E-1,-6.44821E-1,1.082136E-2,1.0534861E0,4.5377454E-1,1.4710845E-1,1.0222466E0,-8.1115484E-1,-3.8485014E-1,-2.7167702E-1,2.9678667E-1,1.0842947E0,9.404784E-1,1.3491124E-1,8.785399E-1,4.1959062E-1,-2.084691E-2,7.783964E-1,1.0766969E0,6.2073106E-1,-8.3395773E-1,2.2595122E-1,-5.179386E-1,9.769751E-2,-5.467462E-1,4.5505932E-1,-1.179803E-1,1.095464E0,9.368208E-1,9.9638426E-1,7.026191E-1,-3.626398E-1,4.303675E-1,9.7685754E-1,6.012351E-1,6.2433964E-1,9.600057E-2,-1.14342354E-1,5.747606E-1,8.6826E-1,5.211807E-1,-9.1224885E-1,1.0781411E0,9.474997E-1,9.059506E-2,-5.3307503E-1,-9.252632E-1,-2.5791088E-1,6.0891056E-1,-5.9547067E-1,3.1227868E-2,3.6416316E-1,-5.279746E-1,8.2376033E-1,-6.205773E-1,7.553287E-1,2.7991128E-1,-2.63767E-1,6.196262E-1,1.1068735E0,1.0655249E0,9.867445E-1,5.0375193E-1,1.0442396E0,8.612048E-1,1.0039637E0,6.420187E-1,9.974865E-2,-5.674373E-1,7.453817E-1,-2.2237884E-2,7.004365E-1,1.0210212E0,8.008251E-1,2.5787565E-1,7.1803045E-1,4.0338045E-1,5.370262E-1,-5.7040596E-1,-1.971818E-1,4.2859745E-1,2.559637E-1,6.7488444E-1,8.364349E-1,1.4454263E0,3.1930536E-1,8.144275E-1,-1.5260977E0,1.2804574E-1,1.0156692E0,1.1156002E0,2.066928E0,8.626176E-1,-3.8209125E-2,1.876068E0,2.986831E-1,-7.0910037E-1,-9.6543896E-1,-2.204081E-1,-3.4090173E-1,9.6887016E-1,2.9332745E-1,1.0491825E0,-1.2737457E-2,-6.603487E-1,-4.5066833E-1,4.1876873E-1,8.3928734E-1,2.1558745E-1,-6.103724E-1,6.94207E-2,3.2184073E-1,1.1949661E0,-7.3312515E-1,-1.874605E-1,1.0000007E0,3.0922887E-1,7.458434E-1,1.5594496E-1,6.0423815E-1,-3.3184004E-1,3.7106743E-1,1.0205213E0],"categories":[],"categories_nodes":[],"categories_segments":[],"categories_sizes":[],"default_left":[1,1,1,1,1,1,1,1,1,1,1,1,1,1,1,1,1,1,1,1,1,1,1,1,1,1,1,1,1,1,1,1,1,1,1,1,1,1,1,1,1,1,1,1,1,1,1,1,1,1,1,1,1,1,1,1,1,1,1,1,1,1,1,0,0,0,0,0,0,0,0,0,0,0,0,0,0,0,0,0,0,0,0,0,0,0,0,0,0,0,0,0,0,0,0,0,0,0,0,0,0,0,0,0,0,0,0,0,0,0,0,0,0,0,0,0,0,0,0,0,0,0,0,0,0,0,0],"id":11,"left_children":[1,3,5,7,9,11,13,15,17,19,21,23,25,27,29,31,33,35,37,39,41,43,45,47,49,51,53,55,57,59,61,63,65,67,69,71,73,75,77,79,81,83,85,87,89,91,93,95,97,99,101,103,105,107,109,111,113,115,117,119,121,123,125,-1,-1,-1,-1,-1,-1,-1,-1,-1,-1,-1,-1,-1,-1,-1,-1,-1,-1,-1,-1,-1,-1,-1,-1,-1,-1,-1,-1,-1,-1,-1,-1,-1,-1,-1,-1,-1,-1,-1,-1,-1,-1,-1,-1,-1,-1,-1,-1,-1,-1,-1,-1,-1,-1,-1,-1,-1,-1,-1,-1,-1,-1,-1,-1],"loss_changes":[8.9387234E4,2.7200219E4,3.090348E4,5.4547266E3,8.569043E3,7.3261484E3,1.0088385E4,2.2192969E2,2.692149E3,6.958174E3,1.5952344E2,3.3740703E3,5.374173E3,6.3828643E3,4.074003E3,8.184375E1,1.818125E2,1.6694532E3,2.3178906E2,3.8413408E3,5.2381387E3,5.0588135E1,2.9335938E1,2.8058093E2,2.7934922E3,2.1919192E3,2.3112383E3,4.470751E3,3.643914E3,2.3621318E3,1.8434358E3,1.4796875E1,7.623413E1,7.097949E1,4.7117065E1,4.007444E2,1.01589294E3,7.608057E1,1.5285913E2,7.3483887E2,6.6043164E3,3.6567935E3,4.0719287E2,2.882251E1,3.3733994E1,5.1147165E0,2.1949219E1,9.34494E1,1.4241298E2,3.4671616E3,2.2092578E3,5.324359E2,9.1710645E2,1.7983164E3,1.2545156E3,1.3273887E3,3.943025E2,3.4262598E2,1.6653789E3,1.8058584E3,1.6386375E3,8.459392E2,2.8153503E2,0E0,0E0,0E0,0E0,0E0,0E0,0E0,0E0,0E0,0E0,0E0,0E0,0E0,0E0,0E0,0E0,0E0,0E0,0E0,0E0,0E0,0E0,0E0,0E0,0E0,0E0,0E0,0E0,0E0,0E0,0E0,0E0,0E0,0E0,0E0,0E0,0E0,0E0,0E0,0E0,0E0,0E0,0E0,0E0,0E0,0E0,0E0,0E0,0E0,0E0,0E0,0E0,0E0,0E0,0E0,0E0,0E0,0E0,0E0,0E0,0E0,0E0,0E0,0E0],"parents":[2147483647,0,0,1,1,2,2,3,3,4,4,5,5,6,6,7,7,8,8,9,9,10,10,11,11,12,12,13,13,14,14,15,15,16,16,17,17,18,18,19,19,20,20,21,21,22,22,23,23,24,24,25,25,26,26,27,27,28,28,29,29,30,30,31,31,32,32,33,33,34,34,35,35,36,36,37,37,38,38,39,39,40,40,41,41,42,42,43,43,44,44,45,45,46,46,47,47,48,48,49,49,50,50,51,51,52,52,53,53,54,54,55,55,56,56,57,57,58,58,59,59,60,60,61,61,62,62],"right_children":[2,4,6,8,10,12,14,16,18,20,22,24,26,28,30,32,34,36,38,40,42,44,46,48,50,52,54,56,58,60,62,64,66,68,70,72,74,76,78,80,82,84,86,88,90,92,94,96,98,100,102,104,106,108,110,112,114,116,118,120,122,124,126,-1,-1,-1,-1,-1,-1,-1,-1,-1,-1,-1,-1,-1,-1,-1,-1,-1,-1,-1,-1,-1,-1,-1,-1,-1,-1,-1,-1,-1,-1,-1,-1,-1,-1,-1,-1,-1,-1,-1,-1,-1,-1,-1,-1,-1,-1,-1,-1,-1,-1,-1,-1,-1,-1,-1,-1,-1,-1,-1,-1,-1,-1,-1,-1],"split_conditions":[-2.7852293E-2,-5.671882E-1,4.3798956E-1,-4.165542E-1,2.06566E0,2.2963838E-1,4.565755E-1,-7.297714E-1,5.917078E-1,-2.2371584E-1,2.2771835E0,-5.912459E-1,-7.145762E-1,-3.1841975E-1,9.332751E-1,-5.357747E-1,1.09349474E-1,-4.2300206E-1,1.09349474E-1,-3.6020386E-1,6.1562634E-1,1.09349474E-1,-1.3268905E0,-6.040709E-1,-3.9759934E-1,2.918873E-2,8.735368E-1,9.332751E-1,-5.8737403E-1,4.2819887E-1,1.1671269E0,-8.810196E-1,-4.713757E-1,-4.3848224E-2,-1.3469162E0,-7.145762E-1,1.09349474E-1,-9.39597E-1,-5.194388E-1,1.09349474E-1,-2.3797187E-1,9.53652E-1,-7.860541E-2,-1.6184062E-1,4.3798956E-1,-8.6686754E-1,2.9048014E0,-7.669974E-1,7.432763E-1,-3.1658673E-1,6.154275E-1,2.0172439E0,-2.2848956E-2,-8.110185E-1,4.3235868E-1,-2.8260016E-1,1.0504181E-1,1.9835197E0,1.0370882E0,1.780802E0,-7.145762E-1,-1.3246695E0,2.2194796E0,3.3206207E-1,3.196575E-1,2.9602337E-1,1.5112558E-1,3.132719E-1,2.5836146E-1,3.0118912E-1,1.9260561E-1,2.9924596E-2,-1.702312E-1,2.2361453E-1,-6.6713654E-3,2.1013094E-1,3.063064E-1,2.4024755E-1,7.73627E-2,2.1540914E-1,1.2101414E-1,1.6110787E-1,-1.7112179E-1,-5.9154544E-2,1.2857924E-1,7.678912E-2,2.0246534E-1,2.509305E-1,4.3362793E-1,9.5791616E-2,2.4432826E-1,-4.5782933E-1,3.8413722E-2,3.047008E-1,3.3468008E-1,6.200784E-1,2.587853E-1,-1.1462738E-2,5.6282043E-1,8.960494E-2,-2.1273012E-1,-2.896317E-1,-6.6122435E-2,-1.0227052E-1,2.9066107E-1,8.799824E-2,3.1475478E-1,-3.8212372E-3,-1.9810462E-1,-1.352005E-1,1.2563063E-1,2.517862E-1,6.467624E-2,-1.8311173E-1,2.0826211E-2,9.655222E-2,3.5848984E-1,-2.1993755E-1,-5.6238152E-2,3.0000022E-1,9.276866E-2,2.2375304E-1,4.678349E-2,1.8127145E-1,-9.955201E-2,1.11320235E-1,3.061564E-1],"split_indices":[6,3,0,6,5,10,6,3,7,3,5,8,1,17,1,6,1,0,1,6,3,1,13,8,17,8,15,1,8,7,5,3,17,19,9,1,1,0,18,1,17,9,0,6,0,10,5,9,9,19,6,5,3,17,6,19,3,5,15,10,1,9,5,0,0,0,0,0,0,0,0,0,0,0,0,0,0,0,0,0,0,0,0,0,0,0,0,0,0,0,0,0,0,0,0,0,0,0,0,0,0,0,0,0,0,0,0,0,0,0,0,0,0,0,0,0,0,0,0,0,0,0,0,0,0,0,0],"split_type":[0,0,0,0,0,0,0,0,0,0,0,0,0,0,0,0,0,0,0,0,0,0,0,0,0,0,0,0,0,0,0,0,0,0,0,0,0,0,0,0,0,0,0,0,0,0,0,0,0,0,0,0,0,0,0,0,0,0,0,0,0,0,0,0,0,0,0,0,0,0,0,0,0,0,0,0,0,0,0,0,0,0,0,0,0,0,0,0,0,0,0,0,0,0,0,0,0,0,0,0,0,0,0,0,0,0,0,0,0,0,0,0,0,0,0,0,0,0,0,0,0,0,0,0,0,0,0],"sum_hessian":[5.4233406E5,2.4802783E5,2.9430625E5,8.391058E4,1.6411725E5,1.6942839E5,1.2487784E5,6.403395E4,1.987663E4,1.5204072E5,1.2076528E4,1.0332022E5,6.610818E4,6.281975E4,6.2058098E4,5.0309723E4,1.3724226E4,1.1354409E4,8.522223E3,5.797826E4,9.406245E4,2.2071843E3,9.869345E3,1.61918E3,1.0170104E5,1.1827214E4,5.4280965E4,2.6813752E4,3.6005996E4,4.4917676E4,1.714042E4,4.6761703E4,3.5480195E3,1.1109813E4,2.6144126E3,4.2303066E3,7.124102E3,6.289703E3,2.2325198E3,3.5509184E4,2.2469082E4,8.130104E4,1.2761416E4,1.6339536E3,5.732308E2,6.7034655E0,9.862641E3,1.0012412E3,6.179388E2,2.3678656E4,7.802238E4,5.2253745E3,6.601839E3,4.7565516E4,6.715449E3,1.8805256E4,8.0084966E3,1.840021E3,3.4165977E4,1.6546854E4,2.8370824E4,1.4312267E4,2.8281536E3,3.383242E4,1.2929278E4,3.180138E3,3.6788162E2,8.200126E3,2.909687E3,4.3512454E2,2.179288E3,1.2986803E3,2.9316265E3,4.200146E3,2.9239563E3,8.687915E2,5.4209116E3,1.4109955E3,8.2152435E2,2.4934316E4,1.0574864E4,1.3521073E4,8.948008E3,7.053912E4,1.0761923E4,3.0508828E3,9.710533E3,1.5508864E3,8.306724E1,3.4074557E2,2.3248523E2,3.9221363E0,2.781329E0,3.7075442E3,6.1550967E3,6.892363E1,9.323176E2,5.772729E2,4.066592E1,4.1357295E3,1.9542926E4,7.381469E4,4.2077E3,4.8949565E3,3.3041818E2,3.846423E3,2.755416E3,4.7652583E3,4.2800258E4,2.993256E3,3.7221929E3,4.478617E3,1.4326639E4,7.0377666E3,9.7073E2,7.830713E2,1.0569497E3,2.7118408E4,7.0475684E3,1.0685142E4,5.861713E3,5.961035E3,2.240979E4,1.0402372E3,1.3272029E4,1.7469521E3,1.0812014E3],"tree_param":{"num_deleted":"0","num_feature":"20","num_nodes":"127","size_leaf_vector":"0"}},{"base_weights":[-5.6404825E-3,-7.468512E-1,1.4278987E-1,-9.881358E-1,-3.247579E-1,-2.0741363E-1,2.866755E-1,-1.041226E0,-8.0714464E-1,-5.5135417E-1,7.510013E-2,-1.2675616E-1,-9.498929E-1,6.1963946E-1,5.28826E-2,-1.0528188E0,-8.715122E-1,-8.884343E-1,-5.087162E-1,-9.240766E-1,-3.8948572E-1,-4.747326E-1,2.4278668E-1,-4.4018757E-1,-3.1830947E-4,-7.8468454E-1,-1.0938472E0,6.598194E-1,-4.321024E-1,-9.2340454E-2,4.4005755E-1,-1.0684758E0,-9.9709195E-1,-9.154051E-1,-2.698058E-1,-9.669879E-1,-6.929268E-1,-2.1060622E-1,-6.473519E-1,-1.0051953E0,-7.036825E-1,-7.3586273E-1,-1.1260587E-1,-6.1528665E-1,2.1145104E-1,2.2058956E-2,6.068367E-1,-7.9854155E-1,-3.5820886E-1,8.658362E-2,-4.6281838E-1,-8.944129E-1,-3.461584E-1,-1.0960913E0,1.1331571E0,-2.4301858E-1,7.104377E-1,-1.9057785E-1,-1.2558612E0,-3.1656647E-1,1.3855991E-1,5.973181E-1,-3.952952E-2,-1.0719867E0,-1.0177268E0,-1.0214062E0,-8.6269647E-1,-7.657929E-1,-9.940958E-1,-3.7365925E-1,1.3180538E0,1.3863335E0,-9.728719E-1,-3.1560206E-1,-7.700759E-1,-8.790201E-2,-8.5163915E-1,-7.5446266E-1,-3.7146226E-1,4.2444974E-1,-1.0107858E0,-8.5777044E-1,-4.118829E-1,-8.212819E-1,-1.2640424E-1,-3.624285E-1,3.4209156E-1,-9.4262725E-1,-3.5427898E-1,-3.9496496E-1,5.68407E-1,-2.5044727E-1,7.2390836E-1,-3.7054935E-1,6.581073E-1,-1.0294851E0,-6.6459805E-1,-2.0861997E-1,-7.298793E-1,-4.1252163E-1,1.675548E-1,-3.88003E-1,-9.532906E-1,-9.482475E-1,-7.126738E-1,1.2688178E-1,-8.2832426E-1,-1.0820063E0,-1.239293E0,-1.3308789E-1,1.4212375E0,-9.784305E-1,-6.222373E-3,7.4017584E-1,-1.0136504E-1,-1.3723805E0,-5.2498415E-2,-1.5518328E0,-6.132659E-1,-1.3248344E-1,-6.8018067E-1,5.6867117E-1,-1.7110129E-1,7.2754055E-1,3.0420825E-1,6.1515372E-2,-5.677752E-1],"categories":[],"categories_nodes":[],"categories_segments":[],"categories_sizes":[],"default_left":[1,1,1,1,1,1,1,1,1,1,1,1,1,1,1,1,1,1,1,1,1,1,1,1,1,1,1,1,1,1,1,1,1,1,1,1,1,1,1,1,1,1,1,1,1,1,1,1,1,1,1,1,1,1,1,1,1,1,1,1,1,1,1,0,0,0,0,0,0,0,0,0,0,0,0,0,0,0,0,0,0,0,0,0,0,0,0,0,0,0,0,0,0,0,0,0,0,0,0,0,0,0,0,0,0,0,0,0,0,0,0,0,0,0,0,0,0,0,0,0,0,0,0,0,0,0,0],"id":12,"left_children":[1,3,5,7,9,11,13,15,17,19,21,23,25,27,29,31,33,35,37,39,41,43,45,47,49,51,53,55,57,59,61,63,65,67,69,71,73,75,77,79,81,83,85,87,89,91,93,95,97,99,101,103,105,107,109,111,113,115,117,119,121,123,125,-1,-1,-1,-1,-1,-1,-1,-1,-1,-1,-1,-1,-1,-1,-1,-1,-1,-1,-1,-1,-1,-1,-1,-1,-1,-1,-1,-1,-1,-1,-1,-1,-1,-1,-1,-1,-1,-1,-1,-1,-1,-1,-1,-1,-1,-1,-1,-1,-1,-1,-1,-1,-1,-1,-1,-1,-1,-1,-1,-1,-1,-1,-1,-1],"loss_changes":[5.408258E4,8.352609E3,2.063759E4,5.0059766E2,2.7030645E3,