{"learner":{"attributes":{"best_iteration":"99","best_ntree_limit":"100","scikit_learn":"{\"use_label_encoder\": null, \"n_estimators\": 100, \"objective\": \"binary:logistic\", \"max_depth\": null, \"max_leaves\": null, \"max_bin\": null, \"grow_policy\": null, \"learning_rate\": null, \"verbosity\": null, \"booster\": \"gbtree\", \"tree_method\": null, \"gamma\": null, \"min_child_weight\": null, \"max_delta_step\": null, \"subsample\": null, \"sampling_method\": null, \"colsample_bytree\": null, \"colsample_bylevel\": null, \"colsample_bynode\": null, \"reg_alpha\": null, \"reg_lambda\": null, \"scale_pos_weight\": null, \"base_score\": null, \"missing\": NaN, \"num_parallel_tree\": null, \"random_state\": null, \"n_jobs\": null, \"monotone_constraints\": null, \"interaction_constraints\": null, \"importance_type\": null, \"gpu_id\": null, \"validate_parameters\": null, \"predictor\": null, \"enable_categorical\": false, \"feature_types\": null, \"max_cat_to_onehot\": null, \"max_cat_threshold\": null, \"eval_metric\": null, \"early_stopping_rounds\": null, \"callbacks\": null, \"classes_\": [0.0, 1.0], \"n_classes_\": 2, \"_estimator_type\": \"classifier\"}"},"feature_names":[],"feature_types":[],"gradient_booster":{"model":{"gbtree_model_param":{"num_parallel_tree":"1","num_trees":"200","size_leaf_vector":"0"},"tree_info":[0,1,0,1,0,1,0,1,0,1,0,1,0,1,0,1,0,1,0,1,0,1,0,1,0,1,0,1,0,1,0,1,0,1,0,1,0,1,0,1,0,1,0,1,0,1,0,1,0,1,0,1,0,1,0,1,0,1,0,1,0,1,0,1,0,1,0,1,0,1,0,1,0,1,0,1,0,1,0,1,0,1,0,1,0,1,0,1,0,1,0,1,0,1,0,1,0,1,0,1,0,1,0,1,0,1,0,1,0,1,0,1,0,1,0,1,0,1,0,1,0,1,0,1,0,1,0,1,0,1,0,1,0,1,0,1,0,1,0,1,0,1,0,1,0,1,0,1,0,1,0,1,0,1,0,1,0,1,0,1,0,1,0,1,0,1,0,1,0,1,0,1,0,1,0,1,0,1,0,1,0,1,0,1,0,1,0,1,0,1,0,1,0,1,0,1,0,1,0,1],"trees":[{"base_weights":[-0E0,-1.4165167E0,1.0220846E0,-1.8481829E0,-7.500487E-1,1.2822784E0,-7.7623606E-1,-1.9186838E0,-1.0230652E0,-4.5509696E-1,-1.9260061E0,-5.061929E-1,1.4080405E0,-5.508761E-1,-1.8488294E0,-1.9597548E0,-1.6538324E0,-1.4550837E0,1.514835E-1,-1.3558747E0,-9.541083E-2,-1.4969612E0,-1.9661314E0,-1.128584E0,4.0817428E-1,1.5789568E0,3.757259E-1,-9.43285E-1,9.378873E-2,-1.5640911E0,-1.9348077E0,-1.9737183E0,-1.7316687E0,-1.7680409E0,-1.2296032E0,-8.4998155E-1,-1.722367E0,-2.947302E-1,7.7744985E-1,-1.5798056E0,-1.2235028E0,-4.7694764E-1,3.0345383E-1,-1.8014184E0,-1.2967542E0,-1.9667397E0,1.5555556E0,-1.5182788E0,-5.7310414E-1,-5.9568244E-1,8.080033E-1,1.6125702E0,-1.445867E0,-4.471073E-1,9.1531765E-1,6.368316E-1,-1.2485085E0,5.104568E-1,-6.2136453E-1,5.897436E-1,-1.6015447E0,-1.9527981E0,-1.6181029E0,-1.9861356E0,-1.895787E0,-1.8267305E0,-9.9556434E-1,-1.8472022E0,-1.5031286E0,-1.7236493E0,-1.129731E0,-1.2702702E0,-9.0551995E-2,-1.8261853E0,-1.4128156E0,-7.40578E-1,4.396216E-1,1.0725133E0,1.2066508E-1,-1.6393653E0,-8.775325E-1,-1.1150025E0,-1.5276564E0,-2.5051993E-1,-9.3236136E-1,-9.4866014E-1,4.1184878E-1,-1.6267606E0,-1.8340425E0,-1.1157147E0,-1.6335369E0,-1.8817277E0,-1.98521E0,-1.7677976E0,-1.2092935E0,-1.1642516E0,1.712993E-2,-1.1748675E0,-1.1312431E-1,1.0890859E0,1.2890397E-1,1.2099109E0,1.7179304E0,-7.993568E-1,-1.9020202E0,-9.894522E-2,-1.0813062E0,9.9911916E-1,-1.7660316E0,1.3195046E0,-1.0588679E0,-1.2312624E-1,-1.3889916E0,6.846582E-2,8.49748E-1,-9.677575E-1,1.3747228E-2,1.4157304E0,-4.7887325E-1,-1.8173192E0,-1.3088E0,-2.4390244E-1,-1.9550272E0,-1.2341679E0,-1.8891258E0],"categories":[],"categories_nodes":[],"categories_segments":[],"categories_sizes":[],"default_left":[1,1,1,1,1,1,1,1,1,1,1,1,1,1,1,1,1,1,1,1,1,1,1,1,1,1,1,1,1,1,1,1,1,1,1,1,1,1,1,1,1,1,1,1,1,1,0,1,1,1,1,1,1,1,1,1,1,1,1,1,1,1,1,0,0,0,0,0,0,0,0,0,0,0,0,0,0,0,0,0,0,0,0,0,0,0,0,0,0,0,0,0,0,0,0,0,0,0,0,0,0,0,0,0,0,0,0,0,0,0,0,0,0,0,0,0,0,0,0,0,0,0,0,0,0],"id":0,"left_children":[1,3,5,7,9,11,13,15,17,19,21,23,25,27,29,31,33,35,37,39,41,43,45,47,49,51,53,55,57,59,61,63,65,67,69,71,73,75,77,79,81,83,85,87,89,91,-1,93,95,97,99,101,103,105,107,109,111,113,115,117,119,121,123,-1,-1,-1,-1,-1,-1,-1,-1,-1,-1,-1,-1,-1,-1,-1,-1,-1,-1,-1,-1,-1,-1,-1,-1,-1,-1,-1,-1,-1,-1,-1,-1,-1,-1,-1,-1,-1,-1,-1,-1,-1,-1,-1,-1,-1,-1,-1,-1,-1,-1,-1,-1,-1,-1,-1,-1,-1,-1,-1,-1,-1,-1],"loss_changes":[1.0938931E6,9.1103125E4,2.0535894E5,1.1178125E4,4.3176227E4,8.623744E4,1.3408316E4,1.9228125E3,7.6780947E3,3.2244967E4,4.2678125E2,1.433594E4,6.3203312E4,1.159741E4,2.3276172E2,4.848125E2,1.1498594E3,1.7876738E3,1.1369705E3,8.3989453E2,1.0823904E4,1.280459E2,5.1953125E1,3.2435996E3,4.0955698E3,3.1250375E4,2.2593264E4,1.3744932E4,5.1695522E3,1.8156201E2,3.8966797E1,1.36E2,6.175332E2,3.9004297E2,2.470664E2,1.0823032E3,2.4397656E2,7.7849524E2,3.281563E2,4.3973242E2,5.8746484E2,3.7483223E3,4.719881E3,1.8369141E0,7.7073975E1,3.2101562E1,0E0,6.769375E2,2.1567527E3,8.12276E2,1.3927329E3,1.28930625E4,9.9475195E2,4.4499766E3,6.9073945E3,5.342891E3,3.7759023E3,1.6438059E3,1.4050872E3,3.5101826E1,1.3665137E2,2.6154297E1,3.9628784E1,0E0,0E0,0E0,0E0,0E0,0E0,0E0,0E0,0E0,0E0,0E0,0E0,0E0,0E0,0E0,0E0,0E0,0E0,0E0,0E0,0E0,0E0,0E0,0E0,0E0,0E0,0E0,0E0,0E0,0E0,0E0,0E0,0E0,0E0,0E0,0E0,0E0,0E0,0E0,0E0,0E0,0E0,0E0,0E0,0E0,0E0,0E0,0E0,0E0,0E0,0E0,0E0,0E0,0E0,0E0,0E0,0E0,0E0,0E0,0E0,0E0,0E0],"parents":[2147483647,0,0,1,1,2,2,3,3,4,4,5,5,6,6,7,7,8,8,9,9,10,10,11,11,12,12,13,13,14,14,15,15,16,16,17,17,18,18,19,19,20,20,21,21,22,22,23,23,24,24,25,25,26,26,27,27,28,28,29,29,30,30,31,31,32,32,33,33,34,34,35,35,36,36,37,37,38,38,39,39,40,40,41,41,42,42,43,43,44,44,45,45,47,47,48,48,49,49,50,50,51,51,52,52,53,53,54,54,55,55,56,56,57,57,58,58,59,59,60,60,61,61,62,62],"right_children":[2,4,6,8,10,12,14,16,18,20,22,24,26,28,30,32,34,36,38,40,42,44,46,48,50,52,54,56,58,60,62,64,66,68,70,72,74,76,78,80,82,84,86,88,90,92,-1,94,96,98,100,102,104,106,108,110,112,114,116,118,120,122,124,-1,-1,-1,-1,-1,-1,-1,-1,-1,-1,-1,-1,-1,-1,-1,-1,-1,-1,-1,-1,-1,-1,-1,-1,-1,-1,-1,-1,-1,-1,-1,-1,-1,-1,-1,-1,-1,-1,-1,-1,-1,-1,-1,-1,-1,-1,-1,-1,-1,-1,-1,-1,-1,-1,-1,-1,-1,-1,-1,-1,-1,-1],"split_conditions":[-1.8445058E-1,-3.840894E-1,9.210086E-1,-3.2947665E-1,1.9854773E0,-7.713641E-1,1.9915192E0,-5.461793E-1,-4.781314E-1,-7.153834E-1,2.1394718E0,1.08229905E-1,9.5279217E-1,2.4940493E0,2.319364E0,-4.3986776E-1,1.08229905E-1,2.5332114E-1,-1.508925E-1,-1.5740924E-1,1.08229905E-1,-3.1600496E-1,6.4613447E0,1.9520654E-1,6.7894205E-2,2.1662898E0,1.08229905E-1,3.1702167E-1,2.1571279E0,7.3297787E-1,2.1357894E0,-6.690682E-1,-3.9933467E-1,3.941019E-2,-1.2038033E0,1.08229905E-1,1.08229905E-1,1.08229905E-1,9.25523E-2,-3.092107E-1,4.3664825E-1,2.6460028E-1,-1.2585857E0,2.015996E0,9.0602505E-1,2.3684497E0,4.666667E-1,-8.6209273E-1,8.7986946E-2,-8.654234E-1,7.807442E-1,-5.057397E-1,2.7385519E0,1.4506483E-1,1.9821362E0,1.8492573E-1,1.4122257E-1,1.08229905E-1,9.318433E-1,-5.7322896E-1,2.6676946E0,5.7121617E-1,2.9055982E0,-5.958407E-1,-5.6873614E-1,-5.480192E-1,-2.986693E-1,-5.5416065E-1,-4.509386E-1,-5.170948E-1,-3.3891934E-1,-3.8108107E-1,-2.71656E-2,-5.478556E-1,-4.238447E-1,-2.2217341E-1,1.3188648E-1,3.21754E-1,3.6199525E-2,-4.918096E-1,-2.6325977E-1,-3.3450076E-1,-4.5829695E-1,-7.515598E-2,-2.7970842E-1,-2.8459805E-1,1.2355464E-1,-4.880282E-1,-5.502128E-1,-3.347144E-1,-4.900611E-1,-5.6451833E-1,-5.95563E-1,-5.303393E-1,-3.6278805E-1,-3.4927547E-1,5.1389793E-3,-3.5246027E-1,-3.3937294E-2,3.2672578E-1,3.867119E-2,3.6297327E-1,5.1537913E-1,-2.3980705E-1,-5.706061E-1,-2.9683568E-2,-3.2439187E-1,2.9973575E-1,-5.2980953E-1,3.958514E-1,-3.176604E-1,-3.6937874E-2,-4.166975E-1,2.0539748E-2,2.5492442E-1,-2.9032728E-1,4.124169E-3,4.2471913E-1,-1.4366198E-1,-5.4519576E-1,-3.9264002E-1,-7.317074E-2,-5.865082E-1,-3.702504E-1,-5.667378E-1],"split_indices":[6,3,6,6,5,17,5,3,17,1,5,1,0,10,5,6,1,7,17,3,1,19,5,6,6,5,1,3,0,3,8,3,17,19,9,1,1,1,0,6,0,0,9,5,3,5,0,17,19,17,0,17,5,8,5,8,15,1,1,8,10,3,5,0,0,0,0,0,0,0,0,0,0,0,0,0,0,0,0,0,0,0,0,0,0,0,0,0,0,0,0,0,0,0,0,0,0,0,0,0,0,0,0,0,0,0,0,0,0,0,0,0,0,0,0,0,0,0,0,0,0,0,0,0,0],"split_type":[0,0,0,0,0,0,0,0,0,0,0,0,0,0,0,0,0,0,0,0,0,0,0,0,0,0,0,0,0,0,0,0,0,0,0,0,0,0,0,0,0,0,0,0,0,0,0,0,0,0,0,0,0,0,0,0,0,0,0,0,0,0,0,0,0,0,0,0,0,0,0,0,0,0,0,0,0,0,0,0,0,0,0,0,0,0,0,0,0,0,0,0,0,0,0,0,0,0,0,0,0,0,0,0,0,0,0,0,0,0,0,0,0,0,0,0,0,0,0,0,0,0,0,0,0],"sum_hessian":[7.555535E5,3.16673E5,4.388805E5,1.9219075E5,1.2448225E5,3.8340675E5,5.547375E4,1.7706075E5,1.513E4,9.952175E4,2.49605E4,2.5189E4,3.5821775E5,4.584325E4,9.6305E3,1.5328425E5,2.37765E4,1.106125E4,4.06875E3,2.839875E4,7.1123E4,2.138E3,2.28225E4,1.498725E4,1.020175E4,3.0733325E5,5.08845E4,2.849675E4,1.73465E4,2.238E3,7.3925E3,1.4443425E5,8.85E3,1.873075E4,5.04575E3,3.39025E3,7.671E3,2.37575E3,1.693E3,1.05465E4,1.785225E4,3.6351E4,3.4772E4,8.45E2,1.293E3,2.2819E4,3.5E0,8.807E3,6.18025E3,2.90575E3,7.296E3,3.03956E5,3.37725E3,2.0153E4,3.07315E4,4.61325E3,2.38835E4,1.096075E4,6.38575E3,3.8E1,2.2E3,6.99025E3,4.0225E2,1.245625E5,1.987175E4,7.8365E3,1.0135E3,1.441675E4,4.314E3,8.4575E2,4.2E3,2.182E3,1.20825E3,5.74075E3,1.93025E3,1.47825E3,8.975E2,1.16775E3,5.2525E2,9.72075E3,8.2575E2,1.316175E4,4.6905E3,2.42805E4,1.20705E4,2.76975E3,3.200225E4,1.41E2,7.04E2,8.4375E2,4.4925E2,4.09125E3,1.872775E4,4.86975E3,3.93725E3,3.08725E3,3.093E3,1.32E3,1.58575E3,5.15975E3,2.13625E3,6.304125E4,2.4091475E5,1.39825E3,1.979E3,1.301125E4,7.14175E3,2.980075E4,9.3075E2,3.28925E3,1.324E3,2.65075E3,2.123275E4,4.7605E3,6.20025E3,4.13175E3,2.254E3,2.125E1,1.675E1,1.2635E3,9.365E2,9.25E0,6.981E3,1.6875E2,2.335E2],"tree_param":{"num_deleted":"0","num_feature":"20","num_nodes":"125","size_leaf_vector":"0"}},{"base_weights":[-0E0,1.4165167E0,-1.0220846E0,1.8481829E0,7.500487E-1,-1.2822784E0,7.7623606E-1,1.9186838E0,1.0230652E0,4.5509696E-1,1.9260061E0,5.061929E-1,-1.4080405E0,5.508761E-1,1.8488294E0,1.9597548E0,1.6538324E0,1.4550837E0,-1.514835E-1,1.3558747E0,9.541083E-2,1.4969612E0,1.9661314E0,1.128584E0,-4.0817428E-1,-1.5789568E0,-3.757259E-1,9.43285E-1,-9.378873E-2,1.5640911E0,1.9348077E0,1.9737183E0,1.7316687E0,1.7680409E0,1.2296032E0,8.4998155E-1,1.722367E0,2.947302E-1,-7.7744985E-1,1.5798056E0,1.2235028E0,4.7694764E-1,-3.0345383E-1,1.8014184E0,1.2967542E0,1.9667397E0,-1.5555556E0,1.5182788E0,5.7310414E-1,5.9568244E-1,-8.080033E-1,-1.6125702E0,1.445867E0,4.471073E-1,-9.1531765E-1,-6.368316E-1,1.2485085E0,-5.104568E-1,6.2136453E-1,-5.897436E-1,1.6015447E0,1.9527981E0,1.6181029E0,1.9861356E0,1.895787E0,1.8267305E0,9.9556434E-1,1.8472022E0,1.5031286E0,1.7236493E0,1.129731E0,1.2702702E0,9.0551995E-2,1.8261853E0,1.4128156E0,7.40578E-1,-4.396216E-1,-1.0725133E0,-1.2066508E-1,1.6393653E0,8.775325E-1,1.1150025E0,1.5276564E0,2.5051993E-1,9.3236136E-1,9.4866014E-1,-4.1184878E-1,1.6267606E0,1.8340425E0,1.1157147E0,1.6335369E0,1.8817277E0,1.98521E0,1.7677976E0,1.2092935E0,1.1642516E0,-1.712993E-2,1.1748675E0,1.1312431E-1,-1.0890859E0,-1.2890397E-1,-1.2099109E0,-1.7179304E0,7.993568E-1,1.9020202E0,9.894522E-2,1.0813062E0,-9.9911916E-1,1.7660316E0,-1.3195046E0,1.0588679E0,1.2312624E-1,1.3889916E0,-6.846582E-2,-8.49748E-1,9.677575E-1,-1.3747228E-2,-1.4157304E0,4.7887325E-1,1.8173192E0,1.3088E0,2.4390244E-1,1.9550272E0,1.2341679E0,1.8891258E0],"categories":[],"categories_nodes":[],"categories_segments":[],"categories_sizes":[],"default_left":[1,1,1,1,1,1,1,1,1,1,1,1,1,1,1,1,1,1,1,1,1,1,1,1,1,1,1,1,1,1,1,1,1,1,1,1,1,1,1,1,1,1,1,1,1,1,0,1,1,1,1,1,1,1,1,1,1,1,1,1,1,1,1,0,0,0,0,0,0,0,0,0,0,0,0,0,0,0,0,0,0,0,0,0,0,0,0,0,0,0,0,0,0,0,0,0,0,0,0,0,0,0,0,0,0,0,0,0,0,0,0,0,0,0,0,0,0,0,0,0,0,0,0,0,0],"id":1,"left_children":[1,3,5,7,9,11,13,15,17,19,21,23,25,27,29,31,33,35,37,39,41,43,45,47,49,51,53,55,57,59,61,63,65,67,69,71,73,75,77,79,81,83,85,87,89,91,-1,93,95,97,99,101,103,105,107,109,111,113,115,117,119,121,123,-1,-1,-1,-1,-1,-1,-1,-1,-1,-1,-1,-1,-1,-1,-1,-1,-1,-1,-1,-1,-1,-1,-1,-1,-1,-1,-1,-1,-1,-1,-1,-1,-1,-1,-1,-1,-1,-1,-1,-1,-1,-1,-1,-1,-1,-1,-1,-1,-1,-1,-1,-1,-1,-1,-1,-1,-1,-1,-1,-1,-1,-1],"loss_changes":[1.0938931E6,9.1103125E4,2.0535894E5,1.1178125E4,4.3176227E4,8.623744E4,1.3408316E4,1.9228125E3,7.6780947E3,3.2244967E4,4.2678125E2,1.433594E4,6.3203312E4,1.159741E4,2.3276172E2,4.848125E2,1.1498594E3,1.7876738E3,1.1369705E3,8.3989453E2,1.0823904E4,1.280459E2,5.1953125E1,3.2435996E3,4.0955698E3,3.1250375E4,2.2593264E4,1.3744932E4,5.1695522E3,1.8156201E2,3.8966797E1,1.36E2,6.175332E2,3.9004297E2,2.470664E2,1.0823032E3,2.4397656E2,7.7849524E2,3.281563E2,4.3973242E2,5.8746484E2,3.7483223E3,4.719881E3,1.8369141E0,7.7073975E1,3.2101562E1,0E0,6.769375E2,2.1567527E3,8.12276E2,1.3927329E3,1.28930625E4,9.9475195E2,4.4499766E3,6.9073945E3,5.342891E3,3.7759023E3,1.6438059E3,1.4050872E3,3.5101826E1,1.3665137E2,2.6154297E1,3.9628784E1,0E0,0E0,0E0,0E0,0E0,0E0,0E0,0E0,0E0,0E0,0E0,0E0,0E0,0E0,0E0,0E0,0E0,0E0,0E0,0E0,0E0,0E0,0E0,0E0,0E0,0E0,0E0,0E0,0E0,0E0,0E0,0E0,0E0,0E0,0E0,0E0,0E0,0E0,0E0,0E0,0E0,0E0,0E0,0E0,0E0,0E0,0E0,0E0,0E0,0E0,0E0,0E0,0E0,0E0,0E0,0E0,0E0,0E0,0E0,0E0,0E0,0E0],"parents":[2147483647,0,0,1,1,2,2,3,3,4,4,5,5,6,6,7,7,8,8,9,9,10,10,11,11,12,12,13,13,14,14,15,15,16,16,17,17,18,18,19,19,20,20,21,21,22,22,23,23,24,24,25,25,26,26,27,27,28,28,29,29,30,30,31,31,32,32,33,33,34,34,35,35,36,36,37,37,38,38,39,39,40,40,41,41,42,42,43,43,44,44,45,45,47,47,48,48,49,49,50,50,51,51,52,52,53,53,54,54,55,55,56,56,57,57,58,58,59,59,60,60,61,61,62,62],"right_children":[2,4,6,8,10,12,14,16,18,20,22,24,26,28,30,32,34,36,38,40,42,44,46,48,50,52,54,56,58,60,62,64,66,68,70,72,74,76,78,80,82,84,86,88,90,92,-1,94,96,98,100,102,104,106,108,110,112,114,116,118,120,122,124,-1,-1,-1,-1,-1,-1,-1,-1,-1,-1,-1,-1,-1,-1,-1,-1,-1,-1,-1,-1,-1,-1,-1,-1,-1,-1,-1,-1,-1,-1,-1,-1,-1,-1,-1,-1,-1,-1,-1,-1,-1,-1,-1,-1,-1,-1,-1,-1,-1,-1,-1,-1,-1,-1,-1,-1,-1,-1,-1,-1,-1,-1],"split_conditions":[-1.8445058E-1,-3.840894E-1,9.210086E-1,-3.2947665E-1,1.9854773E0,-7.713641E-1,1.9915192E0,-5.461793E-1,-4.781314E-1,-7.153834E-1,2.1394718E0,1.08229905E-1,9.5279217E-1,2.4940493E0,2.319364E0,-4.3986776E-1,1.08229905E-1,2.5332114E-1,-1.508925E-1,-1.5740924E-1,1.08229905E-1,-3.1600496E-1,6.4613447E0,1.9520654E-1,6.7894205E-2,2.1662898E0,1.08229905E-1,3.1702167E-1,2.1571279E0,7.3297787E-1,2.1357894E0,-6.690682E-1,-3.9933467E-1,3.941019E-2,-1.2038033E0,1.08229905E-1,1.08229905E-1,1.08229905E-1,9.25523E-2,-3.092107E-1,4.3664825E-1,2.6460028E-1,-1.2585857E0,2.015996E0,9.0602505E-1,2.3684497E0,-4.666667E-1,-8.6209273E-1,8.7986946E-2,-8.654234E-1,7.807442E-1,-5.057397E-1,2.7385519E0,1.4506483E-1,1.9821362E0,1.8492573E-1,1.4122257E-1,1.08229905E-1,9.318433E-1,-5.7322896E-1,2.6676946E0,5.7121617E-1,2.9055982E0,5.958407E-1,5.6873614E-1,5.480192E-1,2.986693E-1,5.5416065E-1,4.509386E-1,5.170948E-1,3.3891934E-1,3.8108107E-1,2.71656E-2,5.478556E-1,4.238447E-1,2.2217341E-1,-1.3188648E-1,-3.21754E-1,-3.6199525E-2,4.918096E-1,2.6325977E-1,3.3450076E-1,4.5829695E-1,7.515598E-2,2.7970842E-1,2.8459805E-1,-1.2355464E-1,4.880282E-1,5.502128E-1,3.347144E-1,4.900611E-1,5.6451833E-1,5.95563E-1,5.303393E-1,3.6278805E-1,3.4927547E-1,-5.1389793E-3,3.5246027E-1,3.3937294E-2,-3.2672578E-1,-3.867119E-2,-3.6297327E-1,-5.1537913E-1,2.3980705E-1,5.706061E-1,2.9683568E-2,3.2439187E-1,-2.9973575E-1,5.2980953E-1,-3.958514E-1,3.176604E-1,3.6937874E-2,4.166975E-1,-2.0539748E-2,-2.5492442E-1,2.9032728E-1,-4.124169E-3,-4.2471913E-1,1.4366198E-1,5.4519576E-1,3.9264002E-1,7.317074E-2,5.865082E-1,3.702504E-1,5.667378E-1],"split_indices":[6,3,6,6,5,17,5,3,17,1,5,1,0,10,5,6,1,7,17,3,1,19,5,6,6,5,1,3,0,3,8,3,17,19,9,1,1,1,0,6,0,0,9,5,3,5,0,17,19,17,0,17,5,8,5,8,15,1,1,8,10,3,5,0,0,0,0,0,0,0,0,0,0,0,0,0,0,0,0,0,0,0,0,0,0,0,0,0,0,0,0,0,0,0,0,0,0,0,0,0,0,0,0,0,0,0,0,0,0,0,0,0,0,0,0,0,0,0,0,0,0,0,0,0,0],"split_type":[0,0,0,0,0,0,0,0,0,0,0,0,0,0,0,0,0,0,0,0,0,0,0,0,0,0,0,0,0,0,0,0,0,0,0,0,0,0,0,0,0,0,0,0,0,0,0,0,0,0,0,0,0,0,0,0,0,0,0,0,0,0,0,0,0,0,0,0,0,0,0,0,0,0,0,0,0,0,0,0,0,0,0,0,0,0,0,0,0,0,0,0,0,0,0,0,0,0,0,0,0,0,0,0,0,0,0,0,0,0,0,0,0,0,0,0,0,0,0,0,0,0,0,0,0],"sum_hessian":[7.555535E5,3.16673E5,4.388805E5,1.9219075E5,1.2448225E5,3.8340675E5,5.547375E4,1.7706075E5,1.513E4,9.952175E4,2.49605E4,2.5189E4,3.5821775E5,4.584325E4,9.6305E3,1.5328425E5,2.37765E4,1.106125E4,4.06875E3,2.839875E4,7.1123E4,2.138E3,2.28225E4,1.498725E4,1.020175E4,3.0733325E5,5.08845E4,2.849675E4,1.73465E4,2.238E3,7.3925E3,1.4443425E5,8.85E3,1.873075E4,5.04575E3,3.39025E3,7.671E3,2.37575E3,1.693E3,1.05465E4,1.785225E4,3.6351E4,3.4772E4,8.45E2,1.293E3,2.2819E4,3.5E0,8.807E3,6.18025E3,2.90575E3,7.296E3,3.03956E5,3.37725E3,2.0153E4,3.07315E4,4.61325E3,2.38835E4,1.096075E4,6.38575E3,3.8E1,2.2E3,6.99025E3,4.0225E2,1.245625E5,1.987175E4,7.8365E3,1.0135E3,1.441675E4,4.314E3,8.4575E2,4.2E3,2.182E3,1.20825E3,5.74075E3,1.93025E3,1.47825E3,8.975E2,1.16775E3,5.2525E2,9.72075E3,8.2575E2,1.316175E4,4.6905E3,2.42805E4,1.20705E4,2.76975E3,3.200225E4,1.41E2,7.04E2,8.4375E2,4.4925E2,4.09125E3,1.872775E4,4.86975E3,3.93725E3,3.08725E3,3.093E3,1.32E3,1.58575E3,5.15975E3,2.13625E3,6.304125E4,2.4091475E5,1.39825E3,1.979E3,1.301125E4,7.14175E3,2.980075E4,9.3075E2,3.28925E3,1.324E3,2.65075E3,2.123275E4,4.7605E3,6.20025E3,4.13175E3,2.254E3,2.125E1,1.675E1,1.2635E3,9.365E2,9.25E0,6.981E3,1.6875E2,2.335E2],"tree_param":{"num_deleted":"0","num_feature":"20","num_nodes":"125","size_leaf_vector":"0"}},{"base_weights":[-1.2215128E-3,-1.0473821E0,7.7513504E-1,-1.3821479E0,-4.998595E-1,9.902277E-1,-4.9732903E-1,-1.458308E0,-6.283783E-1,-1.8843912E-1,-1.2929397E0,-9.810825E-2,1.1083868E0,1.9925521E-1,-7.5942916E-1,-1.5049195E0,-1.18855E0,-1.1129456E0,1.4909701E-1,-9.05606E-1,6.145936E-2,-8.814308E-1,-1.5142306E0,-6.499322E-1,5.6402487E-1,1.2855054E0,5.2280205E-1,7.050657E-1,-4.97127E-1,-1.1508347E0,-2.721484E-1,-1.5199815E0,-1.2495661E0,-1.3077762E0,-7.948477E-1,-6.436896E-1,-1.3527843E0,6.964843E-1,-2.47666E-1,-1.1918836E0,-8.1284773E-1,1.6681859E-1,-9.9460715E-1,-1.2817792E0,-6.4977336E-1,-1.3658458E0,-1.5307372E0,-1.072913E0,-3.8704973E-2,-4.01382E-2,8.7857735E-1,-8.8871247E-1,1.3087848E0,-8.287515E-2,9.004218E-1,1.1336029E0,-1.4031687E-1,-1.008856E0,1.15273505E-1,-1.3769752E0,-8.3425856E-1,1.11434676E-1,-1.0757698E0,-1.5364544E0,-1.4527204E0,-1.3543838E0,-4.4781807E-1,-1.3985728E0,-1.045319E0,-6.9029415E-1,-1.5341934E0,1.151511E-2,-9.799983E-1,-1.3988512E0,-7.73767E-1,8.295397E-1,-3.4727448E-1,-7.6890695E-1,4.0119594E-1,-8.988885E-1,-1.3438202E0,-8.663865E-1,-5.7773385E-2,-7.3827547E-1,2.9476032E-1,-6.8921614E-1,-1.3696222E0,-1.4896026E0,-1.2029437E0,-5.276408E-1,-1.216773E0,-1.4804416E0,-1.2804246E0,-1.5312858E0,1.2501124E0,-3.9715907E-1,-1.2283713E0,5.447234E-1,-6.163745E-1,4.886802E-1,-4.545374E-1,1.1835915E0,4.2676377E-1,-2.839076E-2,-1.4058375E0,9.391459E-1,1.3793281E0,-4.0326166E-1,5.586651E-1,1.0768449E0,1.3295162E-1,1.3083085E0,-5.877979E-1,-7.3954487E-1,3.8983428E-1,-3.1612188E-1,-1.347814E0,4.9212626E-1,-4.310514E-1,-5.7150054E-1,-1.4018507E0,-6.5178204E-1,-1.3961186E0,5.4943514E-1,-2.3869711E-1,-7.001749E-1,-1.4101294E0],"categories":[],"categories_nodes":[],"categories_segments":[],"categories_sizes":[],"default_left":[1,1,1,1,1,1,1,1,1,1,1,1,1,1,1,1,1,1,1,1,1,1,1,1,1,1,1,1,1,1,1,1,1,1,1,1,1,1,1,1,1,1,1,1,1,1,1,1,1,1,1,1,1,1,1,1,1,1,1,1,1,1,1,0,0,0,0,0,0,0,0,0,0,0,0,0,0,0,0,0,0,0,0,0,0,0,0,0,0,0,0,0,0,0,0,0,0,0,0,0,0,0,0,0,0,0,0,0,0,0,0,0,0,0,0,0,0,0,0,0,0,0,0,0,0,0,0],"id":2,"left_children":[1,3,5,7,9,11,13,15,17,19,21,23,25,27,29,31,33,35,37,39,41,43,45,47,49,51,53,55,57,59,61,63,65,67,69,71,73,75,77,79,81,83,85,87,89,91,93,95,97,99,101,103,105,107,109,111,113,115,117,119,121,123,125,-1,-1,-1,-1,-1,-1,-1,-1,-1,-1,-1,-1,-1,-1,-1,-1,-1,-1,-1,-1,-1,-1,-1,-1,-1,-1,-1,-1,-1,-1,-1,-1,-1,-1,-1,-1,-1,-1,-1,-1,-1,-1,-1,-1,-1,-1,-1,-1,-1,-1,-1,-1,-1,-1,-1,-1,-1,-1,-1,-1,-1,-1,-1,-1],"loss_changes":[5.8172444E5,5.592225E4,1.1252716E5,1.0868469E4,2.8591967E4,4.5226E4,1.0853961E4,2.1604375E3,6.546648E3,1.4897939E4,2.9710547E3,1.2585438E4,3.2903312E4,5.7255356E3,8.238178E3,5.620625E2,1.1884336E3,1.2039248E3,1.4493801E3,5.694453E2,6.8594014E3,1.0580186E3,4.989453E1,4.857158E3,2.9755986E3,1.2329406E4,1.6850428E4,3.411212E3,2.1434048E3,1.713748E3,5.9317637E3,1.5115625E2,6.8618164E2,4.62E2,4.544558E2,7.982698E2,1.8785449E2,3.897528E2,1.308984E3,2.327124E2,6.5594336E2,6.4914062E3,6.39541E2,6.675488E1,5.003191E2,1.8993896E1,3.1039062E1,1.1659414E3,2.590343E3,1.1752196E3,1.4184736E3,1.1481876E3,6.2827188E3,5.815835E3,6.144367E3,1.8798877E3,1.0067723E3,8.7445386E2,6.4138715E2,2.7913477E2,1.02269385E3,1.9978134E3,7.798091E2,0E0,0E0,0E0,0E0,0E0,0E0,0E0,0E0,0E0,0E0,0E0,0E0,0E0,0E0,0E0,0E0,0E0,0E0,0E0,0E0,0E0,0E0,0E0,0E0,0E0,0E0,0E0,0E0,0E0,0E0,0E0,0E0,0E0,0E0,0E0,0E0,0E0,0E0,0E0,0E0,0E0,0E0,0E0,0E0,0E0,0E0,0E0,0E0,0E0,0E0,0E0,0E0,0E0,0E0,0E0,0E0,0E0,0E0,0E0,0E0,0E0,0E0,0E0,0E0],"parents":[2147483647,0,0,1,1,2,2,3,3,4,4,5,5,6,6,7,7,8,8,9,9,10,10,11,11,12,12,13,13,14,14,15,15,16,16,17,17,18,18,19,19,20,20,21,21,22,22,23,23,24,24,25,25,26,26,27,27,28,28,29,29,30,30,31,31,32,32,33,33,34,34,35,35,36,36,37,37,38,38,39,39,40,40,41,41,42,42,43,43,44,44,45,45,46,46,47,47,48,48,49,49,50,50,51,51,52,52,53,53,54,54,55,55,56,56,57,57,58,58,59,59,60,60,61,61,62,62],"right_children":[2,4,6,8,10,12,14,16,18,20,22,24,26,28,30,32,34,36,38,40,42,44,46,48,50,52,54,56,58,60,62,64,66,68,70,72,74,76,78,80,82,84,86,88,90,92,94,96,98,100,102,104,106,108,110,112,114,116,118,120,122,124,126,-1,-1,-1,-1,-1,-1,-1,-1,-1,-1,-1,-1,-1,-1,-1,-1,-1,-1,-1,-1,-1,-1,-1,-1,-1,-1,-1,-1,-1,-1,-1,-1,-1,-1,-1,-1,-1,-1,-1,-1,-1,-1,-1,-1,-1,-1,-1,-1,-1,-1,-1,-1,-1,-1,-1,-1,-1,-1,-1,-1,-1,-1,-1,-1],"split_conditions":[-1.5244636E-1,-3.2981282E-1,8.4243226E-1,-3.092452E-1,1.1882143E0,-7.163824E-1,3.6725688E-1,-5.177482E-1,-5.559611E-1,-7.153834E-1,2.0774546E0,1.08229905E-1,6.086962E-1,1.1400669E0,2.3156538E0,-4.1390693E-1,1.08229905E-1,4.8315E-1,-2.5154364E-1,-1.1316399E-1,1.1942159E0,-7.153834E-1,2.2412548E0,1.8975125E-1,1.6670233E-1,-6.0827696E-1,1.08229905E-1,4.3664825E-1,2.3537235E0,1.08229905E-1,1.2464433E0,-6.960964E-1,-3.6414474E-1,4.7825333E-3,1.3709741E0,-2.5154364E-1,9.318433E-1,2.9294518E-1,1.08229905E-1,-2.5154364E-1,-2.9645097E-1,-1.0802567E0,1.568598E0,5.4339867E-4,9.570669E-1,-7.153834E-1,6.4613447E0,-5.956396E-1,-7.949568E-2,1.0154357E0,4.3664825E-1,2.0421178E0,-7.153834E-1,2.594657E-1,1.640984E0,4.1723877E-1,1.08229905E-1,1.2899383E0,1.4689362E0,2.1726927E-1,1.1675568E0,1.640984E0,2.192686E0,-4.6093634E-1,-4.3581614E-1,-4.0631518E-1,-1.3434543E-1,-4.1957185E-1,-3.135957E-1,-2.0708825E-1,-4.6025804E-1,3.4545332E-3,-2.939995E-1,-4.1965535E-1,-2.3213011E-1,2.4886192E-1,-1.0418235E-1,-2.3067209E-1,1.2035879E-1,-2.6966658E-1,-4.031461E-1,-2.5991595E-1,-1.7332016E-2,-2.2148265E-1,8.8428095E-2,-2.0676485E-1,-4.1088668E-1,-4.468808E-1,-3.6088312E-1,-1.5829225E-1,-3.6503193E-1,-4.4413248E-1,-3.841274E-1,-4.5938575E-1,3.7503374E-1,-1.19147725E-1,-3.6851138E-1,1.6341703E-1,-1.8491235E-1,1.4660408E-1,-1.3636123E-1,3.5507745E-1,1.2802914E-1,-8.517228E-3,-4.217513E-1,2.817438E-1,4.1379845E-1,-1.20978504E-1,1.6759953E-1,3.2305348E-1,3.9885487E-2,3.9249256E-1,-1.7633937E-1,-2.2186346E-1,1.1695029E-1,-9.483657E-2,-4.043442E-1,1.4763789E-1,-1.2931542E-1,-1.7145017E-1,-4.2055523E-1,-1.9553462E-1,-4.188356E-1,1.6483055E-1,-7.160914E-2,-2.1005249E-1,-4.2303884E-1],"split_indices":[6,3,6,6,12,17,15,3,17,1,5,1,0,6,10,6,1,7,0,5,9,1,5,19,6,8,1,0,10,1,5,3,17,19,9,0,1,7,1,0,6,9,9,3,3,1,5,0,0,7,0,5,1,19,0,8,1,6,0,3,5,0,5,0,0,0,0,0,0,0,0,0,0,0,0,0,0,0,0,0,0,0,0,0,0,0,0,0,0,0,0,0,0,0,0,0,0,0,0,0,0,0,0,0,0,0,0,0,0,0,0,0,0,0,0,0,0,0,0,0,0,0,0,0,0,0,0],"split_type":[0,0,0,0,0,0,0,0,0,0,0,0,0,0,0,0,0,0,0,0,0,0,0,0,0,0,0,0,0,0,0,0,0,0,0,0,0,0,0,0,0,0,0,0,0,0,0,0,0,0,0,0,0,0,0,0,0,0,0,0,0,0,0,0,0,0,0,0,0,0,0,0,0,0,0,0,0,0,0,0,0,0,0,0,0,0,0,0,0,0,0,0,0,0,0,0,0,0,0,0,0,0,0,0,0,0,0,0,0,0,0,0,0,0,0,0,0,0,0,0,0,0,0,0,0,0,0],"sum_hessian":[7.162365E5,3.0510253E5,4.1113397E5,1.8933686E5,1.1576569E5,3.516864E5,5.9447555E4,1.7196116E5,1.7375697E4,8.312576E4,3.2639926E4,3.4442703E4,3.172437E5,1.6252766E4,4.319479E4,1.4662175E5,2.5339402E4,1.0703949E4,6.671748E3,2.1479775E4,6.1645984E4,1.141597E4,2.1223955E4,1.8786223E4,1.5656481E4,2.4357089E5,7.3672805E4,9.41457E3,6.8381953E3,2.3953174E4,1.9241613E4,1.3845034E5,8.1714077E3,1.9447674E4,5.8917266E3,3.621667E3,7.082282E3,2.8033704E3,3.8683777E3,5.2536616E3,1.6226113E4,5.605451E4,5.591476E3,4.182784E3,7.2331855E3,2.1330234E3,1.9090932E4,1.1102397E4,7.683825E3,5.3608105E3,1.0295671E4,2.5799014E3,2.40991E5,2.829318E4,4.5379625E4,6.2473525E3,3.167218E3,3.7249421E3,3.113253E3,1.3970352E4,9.982821E3,1.3025275E4,6.216339E3,1.11195516E5,2.7254834E4,7.226014E3,9.4539374E2,1.4445835E4,5.0018394E3,5.1634746E3,7.28252E2,1.228751E3,2.3929163E3,6.5590273E3,5.232546E2,2.4865918E3,3.1677838E2,2.1450447E3,1.723333E3,1.7963988E3,3.457263E3,1.5151636E4,1.0744777E3,6.9417734E3,4.911274E4,3.0833826E3,2.5080938E3,1.1454073E3,3.037377E3,5.952861E3,1.2803246E3,9.0397534E2,1.2290482E3,1.9087615E4,3.3161533E0,2.0771006E3,9.025296E3,3.8228857E3,3.8609395E3,2.3551736E3,3.0056367E3,6.145378E3,4.1502935E3,9.6895013E2,1.6109513E3,3.862331E4,2.0236769E5,1.886989E4,9.423291E3,3.6897387E4,8.482237E3,5.671945E3,5.754077E2,1.4865646E3,1.6806536E3,1.2244482E3,2.500494E3,1.8424426E3,1.2708104E3,4.1923975E2,1.3551112E4,7.5371313E3,2.4456902E3,5.786292E3,7.238983E3,2.9290996E3,3.2872393E3],"tree_param":{"num_deleted":"0","num_feature":"20","num_nodes":"127","size_leaf_vector":"0"}},{"base_weights":[1.2214147E-3,1.047382E0,-7.7513516E-1,1.3821478E0,4.9985942E-1,-9.902278E-1,4.9732906E-1,1.4583079E0,6.283783E-1,1.8843898E-1,1.2929397E0,9.810825E-2,-1.1083869E0,-1.9925521E-1,7.5942916E-1,1.5049194E0,1.1885499E0,1.1129457E0,-1.4909707E-1,9.05606E-1,-6.1459556E-2,8.814307E-1,1.5142307E0,6.499322E-1,-5.6402487E-1,-1.2855057E0,-5.228022E-1,-7.050657E-1,4.9712706E-1,1.1508347E0,2.7214843E-1,1.5199685E0,1.2493334E0,1.3077761E0,7.9484767E-1,6.4368963E-1,1.3527843E0,-6.9648445E-1,2.4766596E-1,1.1918836E0,8.128478E-1,-1.6681878E-1,9.946069E-1,1.2817792E0,6.497732E-1,1.3658458E0,1.5307373E0,1.072913E0,3.8704984E-2,4.013816E-2,-8.785774E-1,8.8871235E-1,-1.3087851E0,8.2875006E-2,-9.0042186E-1,-1.133603E0,1.4031689E-1,1.0088562E0,-1.1527349E-1,1.3769752E0,8.3425856E-1,-1.11434676E-1,1.0757699E0,1.5364327E0,1.4527472E0,1.3543049E0,4.4558427E-1,1.3985727E0,1.045319E0,6.902941E-1,1.5341934E0,-1.1515072E-2,9.7999835E-1,1.3988512E0,7.73767E-1,-8.2953984E-1,3.472744E-1,7.689069E-1,-4.0119594E-1,8.988885E-1,1.3438203E0,8.6638653E-1,5.77734E-2,7.3827535E-1,-2.9476053E-1,6.8921596E-1,1.369622E0,1.4896026E0,1.2029437E0,5.276406E-1,1.2167728E0,1.4804416E0,1.2804246E0,1.5312859E0,-1.2501124E0,3.971591E-1,1.2283713E0,-5.447234E-1,6.1637455E-1,-4.886803E-1,4.545374E-1,-1.1835916E0,-4.267637E-1,2.8390585E-2,1.4058374E0,-9.3914616E-1,-1.3793283E0,4.032615E-1,-5.586652E-1,-1.076845E0,-1.3295162E-1,-1.3083085E0,5.877978E-1,7.3954487E-1,-3.8983428E-1,3.1612197E-1,1.3478141E0,-4.9212626E-1,4.3105143E-1,5.715005E-1,1.4018507E0,6.51782E-1,1.3961188E0,-5.4943514E-1,2.3869713E-1,7.00175E-1,1.4101295E0],"categories":[],"categories_nodes":[],"categories_segments":[],"categories_sizes":[],"default_left":[1,1,1,1,1,1,1,1,1,1,1,1,1,1,1,1,1,1,1,1,1,1,1,1,1,1,1,1,1,1,1,1,1,1,1,1,1,1,1,1,1,1,1,1,1,1,1,1,1,1,1,1,1,1,1,1,1,1,1,1,1,1,1,0,0,0,0,0,0,0,0,0,0,0,0,0,0,0,0,0,0,0,0,0,0,0,0,0,0,0,0,0,0,0,0,0,0,0,0,0,0,0,0,0,0,0,0,0,0,0,0,0,0,0,0,0,0,0,0,0,0,0,0,0,0,0,0],"id":3,"left_children":[1,3,5,7,9,11,13,15,17,19,21,23,25,27,29,31,33,35,37,39,41,43,45,47,49,51,53,55,57,59,61,63,65,67,69,71,73,75,77,79,81,83,85,87,89,91,93,95,97,99,101,103,105,107,109,111,113,115,117,119,121,123,125,-1,-1,-1,-1,-1,-1,-1,-1,-1,-1,-1,-1,-1,-1,-1,-1,-1,-1,-1,-1,-1,-1,-1,-1,-1,-1,-1,-1,-1,-1,-1,-1,-1,-1,-1,-1,-1,-1,-1,-1,-1,-1,-1,-1,-1,-1,-1,-1,-1,-1,-1,-1,-1,-1,-1,-1,-1,-1,-1,-1,-1,-1,-1,-1],"loss_changes":[5.8172444E5,5.592225E4,1.1252717E5,1.08684375E4,2.8591977E4,4.522597E4,1.0853957E4,2.1604688E3,6.5466484E3,1.489795E4,2.9710547E3,1.2585439E4,3.2903312E4,5.725536E3,8.23818E3,5.620625E2,1.1884297E3,1.2039258E3,1.4493805E3,5.6944336E2,6.8594014E3,1.0580205E3,4.989453E1,4.8571577E3,2.9755986E3,1.2329469E4,1.6850426E4,3.411212E3,2.1434048E3,1.7137441E3,5.931764E3,1.51E2,6.877617E2,4.620039E2,4.544558E2,7.982699E2,1.8785352E2,3.897527E2,1.3089839E3,2.327124E2,6.5594336E2,6.491407E3,6.39541E2,6.6754395E1,5.003191E2,1.8994385E1,3.1042969E1,1.1659414E3,2.590343E3,1.1752197E3,1.4184746E3,1.1481873E3,6.2827188E3,5.815835E3,6.144371E3,1.8798877E3,1.0067723E3,8.7445435E2,6.4138715E2,2.7913867E2,1.02269434E3,1.9978134E3,7.798091E2,0E0,0E0,0E0,0E0,0E0,0E0,0E0,0E0,0E0,0E0,0E0,0E0,0E0,0E0,0E0,0E0,0E0,0E0,0E0,0E0,0E0,0E0,0E0,0E0,0E0,0E0,0E0,0E0,0E0,0E0,0E0,0E0,0E0,0E0,0E0,0E0,0E0,0E0,0E0,0E0,0E0,0E0,0E0,0E0,0E0,0E0,0E0,0E0,0E0,0E0,0E0,0E0,0E0,0E0,0E0,0E0,0E0,0E0,0E0,0E0,0E0,0E0,0E0,0E0],"parents":[2147483647,0,0,1,1,2,2,3,3,4,4,5,5,6,6,7,7,8,8,9,9,10,10,11,11,12,12,13,13,14,14,15,15,16,16,17,17,18,18,19,19,20,20,21,21,22,22,23,23,24,24,25,25,26,26,27,27,28,28,29,29,30,30,31,31,32,32,33,33,34,34,35,35,36,36,37,37,38,38,39,39,40,40,41,41,42,42,43,43,44,44,45,45,46,46,47,47,48,48,49,49,50,50,51,51,52,52,53,53,54,54,55,55,56,56,57,57,58,58,59,59,60,60,61,61,62,62],"right_children":[2,4,6,8,10,12,14,16,18,20,22,24,26,28,30,32,34,36,38,40,42,44,46,48,50,52,54,56,58,60,62,64,66,68,70,72,74,76,78,80,82,84,86,88,90,92,94,96,98,100,102,104,106,108,110,112,114,116,118,120,122,124,126,-1,-1,-1,-1,-1,-1,-1,-1,-1,-1,-1,-1,-1,-1,-1,-1,-1,-1,-1,-1,-1,-1,-1,-1,-1,-1,-1,-1,-1,-1,-1,-1,-1,-1,-1,-1,-1,-1,-1,-1,-1,-1,-1,-1,-1,-1,-1,-1,-1,-1,-1,-1,-1,-1,-1,-1,-1,-1,-1,-1,-1,-1,-1,-1],"split_conditions":[-1.5244636E-1,-3.2981282E-1,8.4243226E-1,-3.092452E-1,1.1882143E0,-7.163824E-1,3.6725688E-1,-5.177482E-1,-5.559611E-1,-7.153834E-1,2.0774546E0,1.08229905E-1,6.086962E-1,1.1400669E0,2.3156538E0,-4.1370183E-1,1.08229905E-1,4.8315E-1,-2.5154364E-1,-1.1316399E-1,1.1942159E0,-7.153834E-1,2.2412548E0,1.8975125E-1,1.6670233E-1,-6.0827696E-1,1.08229905E-1,4.3664825E-1,2.3537235E0,1.08229905E-1,1.2464433E0,-6.960964E-1,-3.6414474E-1,4.7825333E-3,1.3709741E0,-2.5154364E-1,9.318433E-1,2.9294518E-1,1.08229905E-1,-2.5154364E-1,-2.9645097E-1,-1.0802567E0,1.568598E0,5.4339867E-4,9.570669E-1,-7.153834E-1,6.4613447E0,-5.956396E-1,-7.949568E-2,1.0154357E0,4.3664825E-1,2.0421178E0,-7.153834E-1,2.594657E-1,1.640984E0,4.1723877E-1,1.08229905E-1,1.2899383E0,1.4689362E0,2.1726927E-1,1.1675568E0,1.640984E0,2.192686E0,4.6092984E-1,4.358242E-1,4.0629148E-1,1.3367529E-1,4.1957182E-1,3.135957E-1,2.0708823E-1,4.6025804E-1,-3.4545215E-3,2.9399952E-1,4.1965535E-1,2.3213011E-1,-2.4886195E-1,1.04182325E-1,2.3067208E-1,-1.2035879E-1,2.6966658E-1,4.0314612E-1,2.5991598E-1,1.7332021E-2,2.2148262E-1,-8.842816E-2,2.067648E-1,4.1088662E-1,4.468808E-1,3.6088312E-1,1.5829217E-1,3.6503184E-1,4.4413248E-1,3.841274E-1,4.5938578E-1,-3.7503374E-1,1.1914773E-1,3.6851138E-1,-1.6341703E-1,1.8491237E-1,-1.4660409E-1,1.3636123E-1,-3.550775E-1,-1.2802912E-1,8.517176E-3,4.2175123E-1,-2.8174385E-1,-4.1379848E-1,1.2097846E-1,-1.6759957E-1,-3.2305354E-1,-3.9885487E-2,-3.9249256E-1,1.7633936E-1,2.2186346E-1,-1.1695029E-1,9.483659E-2,4.0434423E-1,-1.4763789E-1,1.2931544E-1,1.7145015E-1,4.2055523E-1,1.955346E-1,4.1883564E-1,-1.6483055E-1,7.160914E-2,2.100525E-1,4.2303887E-1],"split_indices":[6,3,6,6,12,17,15,3,17,1,5,1,0,6,10,6,1,7,0,5,9,1,5,19,6,8,1,0,10,1,5,3,17,19,9,0,1,7,1,0,6,9,9,3,3,1,5,0,0,7,0,5,1,19,0,8,1,6,0,3,5,0,5,0,0,0,0,0,0,0,0,0,0,0,0,0,0,0,0,0,0,0,0,0,0,0,0,0,0,0,0,0,0,0,0,0,0,0,0,0,0,0,0,0,0,0,0,0,0,0,0,0,0,0,0,0,0,0,0,0,0,0,0,0,0,0,0],"split_type":[0,0,0,0,0,0,0,0,0,0,0,0,0,0,0,0,0,0,0,0,0,0,0,0,0,0,0,0,0,0,0,0,0,0,0,0,0,0,0,0,0,0,0,0,0,0,0,0,0,0,0,0,0,0,0,0,0,0,0,0,0,0,0,0,0,0,0,0,0,0,0,0,0,0,0,0,0,0,0,0,0,0,0,0,0,0,0,0,0,0,0,0,0,0,0,0,0,0,0,0,0,0,0,0,0,0,0,0,0,0,0,0,0,0,0,0,0,0,0,0,0,0,0,0,0,0,0],"sum_hessian":[7.162365E5,3.0510253E5,4.1113394E5,1.8933686E5,1.1576569E5,3.516864E5,5.944755E4,1.7196116E5,1.7375697E4,8.3125766E4,3.2639928E4,3.4442703E4,3.172437E5,1.6252766E4,4.3194785E4,1.4662175E5,2.53394E4,1.0703949E4,6.671748E3,2.1479775E4,6.164599E4,1.141597E4,2.1223957E4,1.8786223E4,1.5656481E4,2.4357089E5,7.3672805E4,9.41457E3,6.838195E3,2.3953172E4,1.9241613E4,1.3846394E5,8.15781E3,1.9447674E4,5.8917266E3,3.621667E3,7.082282E3,2.80337E3,3.8683777E3,5.2536616E3,1.6226114E4,5.605451E4,5.591476E3,4.182784E3,7.2331855E3,2.1330237E3,1.9090934E4,1.1102397E4,7.683825E3,5.3608105E3,1.0295671E4,2.5799014E3,2.4099098E5,2.8293182E4,4.5379625E4,6.2473525E3,3.167218E3,3.7249421E3,3.113253E3,1.3970352E4,9.982821E3,1.3025275E4,6.216339E3,1.1120509E5,2.7258852E4,7.2148486E3,9.429614E2,1.4445835E4,5.0018394E3,5.1634746E3,7.2825195E2,1.228751E3,2.392916E3,6.559028E3,5.232546E2,2.4865918E3,3.1677838E2,2.1450447E3,1.723333E3,1.7963988E3,3.457263E3,1.5151637E4,1.0744777E3,6.941774E3,4.911274E4,3.0833826E3,2.5080938E3,1.1454073E3,3.037377E3,5.952861E3,1.2803246E3,9.039754E2,1.2290482E3,1.9087617E4,3.3161533E0,2.0771008E3,9.025297E3,3.8228857E3,3.8609395E3,2.3551736E3,3.0056367E3,6.145378E3,4.1502935E3,9.689501E2,1.6109513E3,3.862331E4,2.0236767E5,1.886989E4,9.423291E3,3.6897387E4,8.482237E3,5.671945E3,5.754077E2,1.4865645E3,1.6806534E3,1.2244482E3,2.500494E3,1.8424426E3,1.2708104E3,4.1923975E2,1.3551111E4,7.537131E3,2.4456902E3,5.786292E3,7.238983E3,2.9290996E3,3.2872395E3],"tree_param":{"num_deleted":"0","num_feature":"20","num_nodes":"127","size_leaf_vector":"0"}},{"base_weights":[-2.9907618E-3,-8.288012E-1,6.297996E-1,-1.1976085E0,-4.1627738E-1,8.371173E-1,-2.939202E-1,-1.2907838E0,-6.1961055E-1,-2.6266256E-1,-1.2927302E0,1.9045056E-1,1.006291E0,-9.44711E-2,-1.2930436E0,-1.3194984E0,-1.1564549E0,-4.099522E-2,-1.0612206E0,-5.3002554E-1,2.1283688E-1,-1.0041825E0,-1.3206697E0,-8.7341774E-1,4.170387E-1,1.1717167E0,6.8422407E-1,6.9489896E-1,-3.813727E-1,-1.0073144E0,-1.3984556E0,-1.3301674E0,-1.1759171E0,-1.2200567E0,-9.064665E-1,-5.1922727E-1,4.3539673E-1,-1.1502588E0,-5.249513E-1,-7.682959E-1,-1.08565E-1,3.8094527E-1,-3.1086832E-1,-1.1029367E0,-7.041245E-1,1.4426446E-1,-1.3214631E0,-2.0716256E-1,-1.1702291E0,7.585638E-1,-1.676812E-2,4.7333533E-1,1.1886702E0,2.3645853E-1,9.5825154E-1,8.474686E-1,-1.7484991E-1,-6.82173E-1,7.773571E-2,5.9483893E-2,-1.1476316E0,-1.5281525E0,-1.3145711E0,-1.338613E0,-1.2921178E0,-1.2588207E0,-8.3008516E-1,-1.276723E0,-1.066946E0,-4.235971E-1,-9.5474577E-1,-9.3556774E-1,7.304856E-2,-2.9163232E-1,6.9330865E-1,-1.1999614E0,-5.484978E-1,-7.518649E-1,-1.3440054E-2,-1.0006914E0,-5.800526E-1,7.678814E-2,-6.8840015E-1,4.7394732E-1,-6.892358E-1,-6.552221E-1,1.04843944E-1,-1.1827122E0,-8.418523E-1,-5.0055E-1,-1.2337413E0,9.335807E-1,-7.647176E-1,-1.2623748E0,-1.3386443E0,-1.0239124E0,6.800537E-2,-1.320658E0,-8.9713913E-1,-5.042665E-1,9.068311E-1,-3.7608534E-1,7.271992E-1,6.415636E-1,-8.078323E-1,1.206458E0,5.487182E-1,6.6132975E-1,-4.8536032E-1,1.0525979E0,2.4754152E-1,-2.5076693E-1,9.460921E-1,9.780447E-2,-6.262781E-1,2.2458096E-1,-8.640262E-1,2.7292845E-1,-6.974661E-1,4.654694E-1,-7.64852E-1,-1.2277803E0,-6.604853E-1,-1.2517812E0,-1.6576777E0,-1.3331666E0,-9.616989E-1],"categories":[],"categories_nodes":[],"categories_segments":[],"categories_sizes":[],"default_left":[1,1,1,1,1,1,1,1,1,1,1,1,1,1,1,1,1,1,1,1,1,1,1,1,1,1,1,1,1,1,1,1,1,1,1,1,1,1,1,1,1,1,1,1,1,1,1,1,1,1,1,1,1,1,1,1,1,1,1,1,1,1,1,0,0,0,0,0,0,0,0,0,0,0,0,0,0,0,0,0,0,0,0,0,0,0,0,0,0,0,0,0,0,0,0,0,0,0,0,0,0,0,0,0,0,0,0,0,0,0,0,0,0,0,0,0,0,0,0,0,0,0,0,0,0,0,0],"id":4,"left_children":[1,3,5,7,9,11,13,15,17,19,21,23,25,27,29,31,33,35,37,39,41,43,45,47,49,51,53,55,57,59,61,63,65,67,69,71,73,75,77,79,81,83,85,87,89,91,93,95,97,99,101,103,105,107,109,111,113,115,117,119,121,123,125,-1,-1,-1,-1,-1,-1,-1,-1,-1,-1,-1,-1,-1,-1,-1,-1,-1,-1,-1,-1,-1,-1,-1,-1,-1,-1,-1,-1,-1,-1,-1,-1,-1,-1,-1,-1,-1,-1,-1,-1,-1,-1,-1,-1,-1,-1,-1,-1,-1,-1,-1,-1,-1,-1,-1,-1,-1,-1,-1,-1,-1,-1,-1,-1],"loss_changes":[3.3760678E5,4.264203E4,7.004758E4,7.96875E3,1.7812184E4,3.2680547E4,1.3360614E4,4.9001562E2,5.249754E3,1.4311528E4,1.5773438E2,1.4933112E4,1.2614641E4,1.2657999E4,3.3462695E2,1.5925E2,3.55875E2,2.0265569E3,5.557666E2,7.235967E3,3.5671602E3,5.0958374E1,2.109375E1,2.1507676E3,7.5663184E3,1.8515938E3,9.859074E3,1.9772363E3,5.6611597E3,4.5068774E2,8.663379E1,2.96875E1,2.0739746E2,1.5390039E2,1.0584302E2,1.0946711E3,8.357855E2,2.9819727E2,1.9278018E2,2.0131914E3,2.7971133E3,3.053039E3,1.4095337E3,2.6327515E1,4.6292755E1,8.345886E0,1.6560547E1,7.5375464E2,3.079375E2,5.350586E3,6.0140967E3,7.9993945E2,1.7378594E3,9.356257E3,3.3421055E3,1.3731826E3,2.7384567E2,4.084085E3,2.4556182E3,1.17784035E2,1.030647E2,1.1225391E2,3.1230469E1,0E0,0E0,0E0,0E0,0E0,0E0,0E0,0E0,0E0,0E0,0E0,0E0,0E0,0E0,0E0,0E0,0E0,0E0,0E0,0E0,0E0,0E0,0E0,0E0,0E0,0E0,0E0,0E0,0E0,0E0,0E0,0E0,0E0,0E0,0E0,0E0,0E0,0E0,0E0,0E0,0E0,0E0,0E0,0E0,0E0,0E0,0E0,0E0,0E0,0E0,0E0,0E0,0E0,0E0,0E0,0E0,0E0,0E0,0E0,0E0,0E0,0E0,0E0,0E0],"parents":[2147483647,0,0,1,1,2,2,3,3,4,4,5,5,6,6,7,7,8,8,9,9,10,10,11,11,12,12,13,13,14,14,15,15,16,16,17,17,18,18,19,19,20,20,21,21,22,22,23,23,24,24,25,25,26,26,27,27,28,28,29,29,30,30,31,31,32,32,33,33,34,34,35,35,36,36,37,37,38,38,39,39,40,40,41,41,42,42,43,43,44,44,45,45,46,46,47,47,48,48,49,49,50,50,51,51,52,52,53,53,54,54,55,55,56,56,57,57,58,58,59,59,60,60,61,61,62,62],"right_children":[2,4,6,8,10,12,14,16,18,20,22,24,26,28,30,32,34,36,38,40,42,44,46,48,50,52,54,56,58,60,62,64,66,68,70,72,74,76,78,80,82,84,86,88,90,92,94,96,98,100,102,104,106,108,110,112,114,116,118,120,122,124,126,-1,-1,-1,-1,-1,-1,-1,-1,-1,-1,-1,-1,-1,-1,-1,-1,-1,-1,-1,-1,-1,-1,-1,-1,-1,-1,-1,-1,-1,-1,-1,-1,-1,-1,-1,-1,-1,-1,-1,-1,-1,-1,-1,-1,-1,-1,-1,-1,-1,-1,-1,-1,-1,-1,-1,-1,-1,-1,-1,-1,-1,-1,-1,-1],"split_conditions":[-1.1483711E-1,-4.5463073E-1,5.980246E-1,-3.6069542E-1,2.0150924E0,-6.092187E-1,2.0980325E0,-6.310317E-1,2.399174E-2,1.08229905E-1,2.1515403E0,-7.153834E-1,2.6460028E-1,5.754111E-1,2.430163E0,-4.8819554E-1,1.08229905E-1,-6.2672037E-1,-6.41383E-1,-2.3499493E-2,7.807442E-1,1.08229905E-1,-1.3337846E0,-4.235916E-1,2.6460028E-1,-1.70114E0,1.08229905E-1,1.8130322E0,2.6031828E0,-2.5154364E-1,1.1408731E0,-7.6218116E-1,-5.6393754E-1,-4.955609E-2,-9.1180086E-1,1.08229905E-1,-3.1690067E-1,9.318433E-1,1.08229905E-1,-1.4165187E-1,1.1357634E0,1.290621E0,9.318433E-1,-4.8661023E-2,7.807442E-1,-8.675978E-1,2.4315195E0,-8.4056425E-1,-6.247483E-1,-8.525347E-1,9.318433E-1,4.5595422E-1,1.6501768E0,8.764608E-2,5.181061E-1,-5.8731323E-1,2.501224E0,2.112611E-1,4.3522778E0,7.933999E-1,9.278412E-1,2.6460028E-1,2.3094492E0,-4.0158394E-1,-3.8763538E-1,-3.776462E-1,-2.4902555E-1,-3.830169E-1,-3.2008383E-1,-1.2707913E-1,-2.8642374E-1,-2.8067034E-1,2.191457E-2,-8.74897E-2,2.079926E-1,-3.5998845E-1,-1.6454935E-1,-2.2555949E-1,-4.0320163E-3,-3.0020744E-1,-1.7401579E-1,2.3036443E-2,-2.0652005E-1,1.421842E-1,-2.0677075E-1,-1.9656664E-1,3.1453185E-2,-3.5481367E-1,-2.525557E-1,-1.5016499E-1,-3.701224E-1,2.800742E-1,-2.2941528E-1,-3.7871245E-1,-4.015933E-1,-3.0717373E-1,2.0401612E-2,-3.961974E-1,-2.6914176E-1,-1.5127996E-1,2.7204934E-1,-1.1282561E-1,2.1815977E-1,1.9246909E-1,-2.423497E-1,3.619374E-1,1.6461547E-1,1.9839893E-1,-1.456081E-1,3.157794E-1,7.4262455E-2,-7.5230084E-2,2.8382766E-1,2.9341342E-2,-1.8788344E-1,6.737429E-2,-2.5920787E-1,8.1878535E-2,-2.0923983E-1,1.3964082E-1,-2.294556E-1,-3.683341E-1,-1.9814561E-1,-3.755344E-1,-4.973033E-1,-3.9995E-1,-2.8850967E-1],"split_indices":[6,3,3,6,5,17,5,3,7,1,5,1,0,6,5,6,1,18,17,19,0,1,13,0,0,2,1,0,10,0,6,3,17,19,15,1,19,1,1,3,19,9,1,19,0,10,5,17,18,17,1,6,2,8,6,8,0,15,10,6,8,0,8,0,0,0,0,0,0,0,0,0,0,0,0,0,0,0,0,0,0,0,0,0,0,0,0,0,0,0,0,0,0,0,0,0,0,0,0,0,0,0,0,0,0,0,0,0,0,0,0,0,0,0,0,0,0,0,0,0,0,0,0,0,0,0,0],"split_type":[0,0,0,0,0,0,0,0,0,0,0,0,0,0,0,0,0,0,0,0,0,0,0,0,0,0,0,0,0,0,0,0,0,0,0,0,0,0,0,0,0,0,0,0,0,0,0,0,0,0,0,0,0,0,0,0,0,0,0,0,0,0,0,0,0,0,0,0,0,0,0,0,0,0,0,0,0,0,0,0,0,0,0,0,0,0,0,0,0,0,0,0,0,0,0,0,0,0,0,0,0,0,0,0,0,0,0,0,0,0,0,0,0,0,0,0,0,0,0,0,0,0,0,0,0,0,0],"sum_hessian":[6.460552E5,2.8028047E5,3.6577475E5,1.4798027E5,1.3230019E5,2.9872878E5,6.704597E4,1.2743592E5,2.054435E4,1.1257125E5,1.9728928E4,6.1945195E4,2.3678358E5,5.5890062E4,1.1155907E4,1.0498509E5,2.245083E4,8.893207E3,1.1651144E4,7.205576E4,4.0515496E4,1.7449275E3,1.7984E4,1.0876307E4,5.1068887E4,1.5643172E5,8.035187E4,1.4898229E4,4.0991832E4,3.0093462E3,8.1465615E3,9.771587E4,7.2692246E3,1.7894305E4,4.556524E3,4.4379873E3,4.455219E3,9.991145E3,1.6599988E3,4.6031363E4,2.6024396E4,3.0670572E4,9.844924E3,1.3108337E3,4.3409384E2,9.63726E0,1.7974363E4,3.3525361E3,7.5237705E3,2.8573191E4,2.2495697E4,3.7081187E3,1.527236E5,3.0506154E4,4.984571E4,1.2674855E4,2.2233728E3,2.476544E4,1.6226395E4,3.498787E2,2.6594675E3,3.1928157E3,4.9537456E3,7.993825E4,1.777762E4,5.861464E3,1.4077609E3,1.3055212E4,4.8390938E3,4.1505838E2,4.141466E3,2.6057178E3,1.8322697E3,1.1665881E3,3.288631E3,9.227965E3,7.6317993E2,1.1495654E3,5.1043338E2,2.0597908E4,2.5433453E4,1.972111E4,6.303286E3,2.8218826E4,2.4517463E3,5.3842896E3,4.460634E3,1.00134E3,3.0949368E2,3.1497037E2,1.1912347E2,5.1436768E0,4.493583E0,4.0658591E3,1.3908504E4,8.4416766E2,2.5083684E3,4.8489424E3,2.6748284E3,3.0019988E3,2.5571193E4,1.5169642E4,7.3260547E3,3.2781665E3,4.2995203E2,1.4859248E5,4.1311147E3,1.9203076E4,1.1303077E4,4.4003758E4,5.8419517E3,1.0443058E3,1.163055E4,1.3866467E3,8.36726E2,4.1370586E3,2.062838E4,1.2963008E4,3.2633862E3,2.3471626E2,1.1516243E2,2.2824268E3,3.7704077E2,1.02225916E3,2.1705566E3,4.703125E3,2.5062073E2],"tree_param":{"num_deleted":"0","num_feature":"20","num_nodes":"127","size_leaf_vector":"0"}},{"base_weights":[2.9908398E-3,8.288014E-1,-6.2979954E-1,1.1976088E0,4.1627744E-1,-8.3711725E-1,2.9392022E-1,1.290782E0,6.196271E-1,2.6266262E-1,1.2927302E0,-1.9045055E-1,-1.0062909E0,9.4471134E-2,1.2930436E0,1.3194973E0,1.1564487E0,4.1029584E-2,1.061225E0,5.3002554E-1,-2.1283674E-1,1.0041826E0,1.3206697E0,8.7341774E-1,-4.170387E-1,-1.1717166E0,-6.8422395E-1,-6.9489884E-1,3.8137272E-1,1.0073144E0,1.3984556E0,1.3301693E0,1.1758718E0,1.2200482E0,9.0647024E-1,5.192513E-1,-4.3535137E-1,1.1502612E0,5.249691E-1,7.682959E-1,1.0856498E-1,-3.8094515E-1,3.1086847E-1,1.1029367E0,7.041246E-1,-1.4426444E-1,1.3214631E0,2.0716257E-1,1.1702291E0,-7.585638E-1,1.6768144E-2,-4.7333527E-1,-1.18867E0,-2.3645845E-1,-9.582515E-1,-8.474685E-1,1.7485002E-1,6.82173E-1,-7.773573E-2,-5.948381E-2,1.1476318E0,1.5281526E0,1.3145711E0,1.3386154E0,1.292117E0,1.258799E0,8.299237E-1,1.2767168E0,1.0669309E0,4.2359328E-1,9.5475024E-1,9.355906E-1,-7.302446E-2,2.9168862E-1,-6.932684E-1,1.1999637E0,5.485004E-1,7.518851E-1,1.3450904E-2,1.0006914E0,5.800527E-1,-7.6788165E-2,6.884001E-1,-4.7394717E-1,6.892357E-1,6.552223E-1,-1.048438E-1,1.1827122E0,8.4185237E-1,5.005501E-1,1.2337413E0,-9.335807E-1,7.647176E-1,1.2623627E0,1.3386446E0,1.0239124E0,-6.8005346E-2,1.3206581E0,8.9713913E-1,5.0426644E-1,-9.068311E-1,3.7608534E-1,-7.271992E-1,-6.4156353E-1,8.078323E-1,-1.206458E0,-5.4871815E-1,-6.613296E-1,4.8536035E-1,-1.0525978E0,-2.4754143E-1,2.50767E-1,-9.46092E-1,-9.780436E-2,6.2627816E-1,-2.245809E-1,8.640262E-1,-2.7292845E-1,6.97466E-1,-4.6546927E-1,7.64852E-1,1.2277803E0,6.604852E-1,1.2517813E0,1.6576777E0,1.3331666E0,9.6169883E-1],"categories":[],"categories_nodes":[],"categories_segments":[],"categories_sizes":[],"default_left":[1,1,1,1,1,1,1,1,1,1,1,1,1,1,1,1,1,1,1,1,1,1,1,1,1,1,1,1,1,1,1,1,1,1,1,1,1,1,1,1,1,1,1,1,1,1,1,1,1,1,1,1,1,1,1,1,1,1,1,1,1,1,1,0,0,0,0,0,0,0,0,0,0,0,0,0,0,0,0,0,0,0,0,0,0,0,0,0,0,0,0,0,0,0,0,0,0,0,0,0,0,0,0,0,0,0,0,0,0,0,0,0,0,0,0,0,0,0,0,0,0,0,0,0,0,0,0],"id":5,"left_children":[1,3,5,7,9,11,13,15,17,19,21,23,25,27,29,31,33,35,37,39,41,43,45,47,49,51,53,55,57,59,61,63,65,67,69,71,73,75,77,79,81,83,85,87,89,91,93,95,97,99,101,103,105,107,109,111,113,115,117,119,121,123,125,-1,-1,-1,-1,-1,-1,-1,-1,-1,-1,-1,-1,-1,-1,-1,-1,-1,-1,-1,-1,-1,-1,-1,-1,-1,-1,-1,-1,-1,-1,-1,-1,-1,-1,-1,-1,-1,-1,-1,-1,-1,-1,-1,-1,-1,-1,-1,-1,-1,-1,-1,-1,-1,-1,-1,-1,-1,-1,-1,-1,-1,-1,-1,-1],"loss_changes":[3.3760684E5,4.2642062E4,7.004758E4,7.968328E3,1.7812178E4,3.2680531E4,1.3360613E4,4.900625E2,5.249466E3,1.4311525E4,1.5773438E2,1.4933112E4,1.2614625E4,1.2657998E4,3.346289E2,1.5935938E2,3.558457E2,2.0264772E3,5.557422E2,7.2359688E3,3.5671602E3,5.095874E1,2.109375E1,2.1507686E3,7.5663203E3,1.851625E3,9.859078E3,1.9772358E3,5.661162E3,4.5068726E2,8.663281E1,2.96875E1,2.0751953E2,1.5391211E2,1.0584619E2,1.094673E3,8.3581976E2,2.9819824E2,1.9278558E2,2.0131914E3,2.797113E3,3.0530376E3,1.4095332E3,2.6327393E1,4.6292725E1,8.345886E0,1.65625E1,7.5375464E2,3.079375E2,5.350586E3,6.0140967E3,7.9993933E2,1.7378281E3,9.356256E3,3.3421016E3,1.3731816E3,2.7384567E2,4.084083E3,2.4556182E3,1.17784004E2,1.0306494E2,1.12254395E2,3.1229492E1,0E0,0E0,0E0,0E0,0E0,0E0,0E0,0E0,0E0,0E0,0E0,0E0,0E0,0E0,0E0,0E0,0E0,0E0,0E0,0E0,0E0,0E0,0E0,0E0,0E0,0E0,0E0,0E0,0E0,0E0,0E0,0E0,0E0,0E0,0E0,0E0,0E0,0E0,0E0,0E0,0E0,0E0,0E0,0E0,0E0,0E0,0E0,0E0,0E0,0E0,0E0,0E0,0E0,0E0,0E0,0E0,0E0,0E0,0E0,0E0,0E0,0E0,0E0,0E0],"parents":[2147483647,0,0,1,1,2,2,3,3,4,4,5,5,6,6,7,7,8,8,9,9,10,10,11,11,12,12,13,13,14,14,15,15,16,16,17,17,18,18,19,19,20,20,21,21,22,22,23,23,24,24,25,25,26,26,27,27,28,28,29,29,30,30,31,31,32,32,33,33,34,34,35,35,36,36,37,37,38,38,39,39,40,40,41,41,42,42,43,43,44,44,45,45,46,46,47,47,48,48,49,49,50,50,51,51,52,52,53,53,54,54,55,55,56,56,57,57,58,58,59,59,60,60,61,61,62,62],"right_children":[2,4,6,8,10,12,14,16,18,20,22,24,26,28,30,32,34,36,38,40,42,44,46,48,50,52,54,56,58,60,62,64,66,68,70,72,74,76,78,80,82,84,86,88,90,92,94,96,98,100,102,104,106,108,110,112,114,116,118,120,122,124,126,-1,-1,-1,-1,-1,-1,-1,-1,-1,-1,-1,-1,-1,-1,-1,-1,-1,-1,-1,-1,-1,-1,-1,-1,-1,-1,-1,-1,-1,-1,-1,-1,-1,-1,-1,-1,-1,-1,-1,-1,-1,-1,-1,-1,-1,-1,-1,-1,-1,-1,-1,-1,-1,-1,-1,-1,-1,-1,-1,-1,-1,-1,-1,-1],"split_conditions":[-1.1483711E-1,-4.5463073E-1,5.980246E-1,-3.6069542E-1,2.0150924E0,-6.092187E-1,2.0980325E0,-6.310317E-1,2.399174E-2,1.08229905E-1,2.1515403E0,-7.153834E-1,2.6460028E-1,5.754111E-1,2.430163E0,-4.8819554E-1,1.08229905E-1,-6.2672037E-1,-6.41383E-1,-2.3499493E-2,7.807442E-1,1.08229905E-1,-1.3337846E0,-4.235916E-1,2.6460028E-1,-1.70114E0,1.08229905E-1,1.8130322E0,2.6031828E0,-2.5154364E-1,1.1408731E0,-7.621789E-1,-5.6393754E-1,-4.955609E-2,-9.1180086E-1,1.08229905E-1,-3.1690067E-1,9.318433E-1,1.08229905E-1,-1.4165187E-1,1.1357634E0,1.290621E0,9.318433E-1,-4.8661023E-2,7.807442E-1,-8.675978E-1,2.4314742E0,-8.4056425E-1,-6.247483E-1,-8.525347E-1,9.318433E-1,4.5595422E-1,1.6501768E0,8.764608E-2,5.181061E-1,-5.8731323E-1,2.501224E0,2.112611E-1,4.3522778E0,7.933999E-1,9.278412E-1,2.6460028E-1,2.3094492E0,4.0158466E-1,3.876351E-1,3.776397E-1,2.4897711E-1,3.8301507E-1,3.2007927E-1,1.27078E-1,2.8642508E-1,2.806772E-1,-2.1907339E-2,8.750659E-2,-2.0798053E-1,3.599891E-1,1.6455013E-1,2.2556554E-1,4.0352712E-3,3.0020744E-1,1.740158E-1,-2.303645E-2,2.0652004E-1,-1.4218415E-1,2.0677072E-1,1.965667E-1,-3.1453144E-2,3.5481367E-1,2.5255573E-1,1.5016504E-1,3.701224E-1,-2.800742E-1,2.2941528E-1,3.7870884E-1,4.0159342E-1,3.0717373E-1,-2.0401604E-2,3.9619744E-1,2.6914176E-1,1.5127994E-1,-2.7204934E-1,1.1282561E-1,-2.1815977E-1,-1.9246908E-1,2.423497E-1,-3.619374E-1,-1.6461545E-1,-1.983989E-1,1.4560811E-1,-3.1577933E-1,-7.426243E-2,7.52301E-2,-2.838276E-1,-2.9341308E-2,1.8788345E-1,-6.7374274E-2,2.5920787E-1,-8.1878535E-2,2.0923981E-1,-1.396408E-1,2.294556E-1,3.683341E-1,1.9814557E-1,3.7553442E-1,4.973033E-1,3.9995E-1,2.8850967E-1],"split_indices":[6,3,3,6,5,17,5,3,7,1,5,1,0,6,5,6,1,18,17,19,0,1,13,0,0,2,1,0,10,0,6,3,17,19,15,1,19,1,1,3,19,9,1,19,0,10,5,17,18,17,1,6,2,8,6,8,0,15,10,6,8,0,8,0,0,0,0,0,0,0,0,0,0,0,0,0,0,0,0,0,0,0,0,0,0,0,0,0,0,0,0,0,0,0,0,0,0,0,0,0,0,0,0,0,0,0,0,0,0,0,0,0,0,0,0,0,0,0,0,0,0,0,0,0,0,0,0],"split_type":[0,0,0,0,0,0,0,0,0,0,0,0,0,0,0,0,0,0,0,0,0,0,0,0,0,0,0,0,0,0,0,0,0,0,0,0,0,0,0,0,0,0,0,0,0,0,0,0,0,0,0,0,0,0,0,0,0,0,0,0,0,0,0,0,0,0,0,0,0,0,0,0,0,0,0,0,0,0,0,0,0,0,0,0,0,0,0,0,0,0,0,0,0,0,0,0,0,0,0,0,0,0,0,0,0,0,0,0,0,0,0,0,0,0,0,0,0,0,0,0,0,0,0,0,0,0,0],"sum_hessian":[6.460552E5,2.8028044E5,3.6577475E5,1.4798025E5,1.3230017E5,2.9872878E5,6.704597E4,1.2743582E5,2.0544426E4,1.1257125E5,1.9728928E4,6.1945195E4,2.3678358E5,5.5890062E4,1.1155907E4,1.0498511E5,2.245071E4,8.893256E3,1.1651171E4,7.205576E4,4.0515492E4,1.7449276E3,1.7984E4,1.0876307E4,5.106889E4,1.5643172E5,8.035187E4,1.4898229E4,4.0991832E4,3.0093462E3,8.146561E3,9.7716125E4,7.2689814E3,1.7894191E4,4.556519E3,4.4380083E3,4.455247E3,9.991165E3,1.6600059E3,4.603136E4,2.6024396E4,3.067057E4,9.844923E3,1.3108337E3,4.3409384E2,9.63726E0,1.7974363E4,3.3525361E3,7.523771E3,2.8573193E4,2.2495697E4,3.7081187E3,1.527236E5,3.0506154E4,4.9845707E4,1.2674855E4,2.2233728E3,2.476544E4,1.6226395E4,3.498787E2,2.6594675E3,3.192816E3,4.953745E3,7.99387E4,1.7777426E4,5.8613276E3,1.407654E3,1.3055148E4,4.839044E3,4.1505753E2,4.141462E3,2.605733E3,1.8322755E3,1.1665995E3,3.2886477E3,9.227984E3,7.6318097E2,1.1495714E3,5.1043442E2,2.0597908E4,2.5433453E4,1.972111E4,6.303286E3,2.8218824E4,2.4517463E3,5.3842896E3,4.460634E3,1.00134E3,3.0949368E2,3.1497037E2,1.19123474E2,5.1436768E0,4.493583E0,4.0652847E3,1.3909078E4,8.4416766E2,2.5083684E3,4.8489424E3,2.6748284E3,3.0019988E3,2.5571193E4,1.5169642E4,7.3260547E3,3.2781667E3,4.2995206E2,1.4859248E5,4.1311147E3,1.9203076E4,1.1303077E4,4.4003758E4,5.8419517E3,1.0443058E3,1.163055E4,1.3866469E3,8.367261E2,4.1370586E3,2.062838E4,1.2963008E4,3.263386E3,2.3471626E2,1.1516244E2,2.2824268E3,3.7704077E2,1.02225916E3,2.1705566E3,4.7031245E3,2.5062073E2],"tree_param":{"num_deleted":"0","num_feature":"20","num_nodes":"127","size_leaf_vector":"0"}},{"base_weights":[-4.0770443E-3,-7.430109E-1,4.740097E-1,-1.0641435E0,-2.854529E-1,6.481685E-1,-2.7498585E-1,-1.119174E0,-6.491594E-1,1.040728E-2,-8.432961E-1,-4.642427E-1,7.0716137E-1,-5.250833E-1,3.1362998E-1,-1.1941233E0,-8.7660635E-1,-8.367794E-1,7.658383E-2,1.6311358E-1,-4.479753E-1,-5.7517976E-1,-1.182473E0,-7.2775567E-1,5.625954E-2,7.737933E-1,-2.657442E-1,-2.0558351E-1,-7.567547E-1,4.7343004E-1,-6.842426E-1,-1.2149373E0,-1.128978E0,-9.209408E-1,-3.1042522E-1,-1.0932553E0,-6.401328E-1,-1.0521245E-1,6.112031E-1,-3.7107968E-1,3.293666E-1,-6.1361295E-1,1.677222E-1,-4.6469536E-1,-1.0031877E0,-1.0107107E0,-1.2023984E0,-8.334055E-1,2.3820674E-1,-2.6211458E-1,4.5046908E-1,2.3704919E-1,8.641051E-1,-6.2214214E-1,3.469523E-1,-7.152653E-1,1.7004648E-1,-1.059422E0,-6.312314E-1,7.209992E-1,2.2254539E-1,-2.9311708E-1,-1.1038133E0,-1.2221009E0,-1.0953546E0,-1.1673955E0,-9.476106E-1,-1.011837E0,-7.5423694E-1,-1.0493697E0,-1.6192386E-1,-1.1629684E0,-8.899255E-1,-7.384353E-1,1.07861586E-1,1.66958E-1,-4.41006E-1,-1.0745732E0,6.782697E-1,-2.7128375E-1,-8.892228E-1,-7.807245E-1,4.104552E-1,-8.194158E-1,-2.1798056E-1,3.47798E-1,-2.8968132E-1,-1.0011299E0,-3.159507E-1,-8.837356E-1,-1.1939365E0,-1.1443164E0,-9.1673845E-1,-1.2030116E0,1.1031443E0,-1.1605024E0,-6.0219574E-1,-1.0538084E-1,8.8432574E-1,-9.3350685E-1,-1.3206914E-1,7.299212E-1,5.630606E-2,5.6996995E-1,-4.119449E-1,4.4301835E-1,9.459212E-1,-1.0060045E-1,-8.9938337E-1,4.5612904E-1,-9.9675894E-1,-1.0816677E0,-5.5029184E-1,-1.1275624E0,3.1797132E-1,-7.2546446E-1,-1.1386927E0,-4.2986536E-1,-1.0036137E0,2.9180667E-1,9.396524E-1,-1.2497584E-1,4.2340925E-1,5.495054E-1,-3.91615E-1,-9.017152E-1,-1.2542042E0],"categories":[],"categories_nodes":[],"categories_segments":[],"categories_sizes":[],"default_left":[1,1,1,1,1,1,1,1,1,1,1,1,1,1,1,1,1,1,1,1,1,1,1,1,1,1,1,1,1,1,1,1,1,1,1,1,1,1,1,1,1,1,1,1,1,1,1,1,1,1,1,1,1,1,1,1,1,1,1,1,1,1,1,0,0,0,0,0,0,0,0,0,0,0,0,0,0,0,0,0,0,0,0,0,0,0,0,0,0,0,0,0,0,0,0,0,0,0,0,0,0,0,0,0,0,0,0,0,0,0,0,0,0,0,0,0,0,0,0,0,0,0,0,0,0,0,0],"id":6,"left_children":[1,3,5,7,9,11,13,15,17,19,21,23,25,27,29,31,33,35,37,39,41,43,45,47,49,51,53,55,57,59,61,63,65,67,69,71,73,75,77,79,81,83,85,87,89,91,93,95,97,99,101,103,105,107,109,111,113,115,117,119,121,123,125,-1,-1,-1,-1,-1,-1,-1,-1,-1,-1,-1,-1,-1,-1,-1,-1,-1,-1,-1,-1,-1,-1,-1,-1,-1,-1,-1,-1,-1,-1,-1,-1,-1,-1,-1,-1,-1,-1,-1,-1,-1,-1,-1,-1,-1,-1,-1,-1,-1,-1,-1,-1,-1,-1,-1,-1,-1,-1,-1,-1,-1,-1,-1,-1],"loss_changes":[2.0290164E5,3.315192E4,4.54891E4,3.0268438E3,1.5357018E4,1.856771E4,9.685129E3,2.1269844E3,2.1139565E3,4.2561084E3,2.9318145E3,1.9544792E3,1.7418219E4,3.4174482E3,3.1286963E3,1.1988281E2,6.933535E2,6.214512E2,3.1009927E2,4.0507178E3,1.5496577E3,8.5128906E2,4.7503906E1,9.6564355E2,6.0132495E2,1.2189359E4,3.7610742E3,3.715942E3,1.01615625E3,1.0502078E3,4.4414844E2,5.6695312E1,1.4985742E2,3.8754492E2,2.2019887E2,7.48291E1,5.136587E2,2.1770912E2,9.22637E1,5.595513E2,3.1314385E3,9.747241E2,2.6547745E2,1.1421655E3,8.313037E1,1.7608765E1,1.9355469E1,6.4423486E2,2.07318E2,2.313098E2,2.3574533E2,7.8257544E3,7.4151875E3,1.5744248E3,9.2975397E2,4.9718896E2,2.1452952E3,2.0683984E2,1.418356E3,7.9846533E2,5.8646155E2,1.1666851E2,3.8573975E1,0E0,0E0,0E0,0E0,0E0,0E0,0E0,0E0,0E0,0E0,0E0,0E0,0E0,0E0,0E0,0E0,0E0,0E0,0E0,0E0,0E0,0E0,0E0,0E0,0E0,0E0,0E0,0E0,0E0,0E0,0E0,0E0,0E0,0E0,0E0,0E0,0E0,0E0,0E0,0E0,0E0,0E0,0E0,0E0,0E0,0E0,0E0,0E0,0E0,0E0,0E0,0E0,0E0,0E0,0E0,0E0,0E0,0E0,0E0,0E0,0E0,0E0,0E0,0E0],"parents":[2147483647,0,0,1,1,2,2,3,3,4,4,5,5,6,6,7,7,8,8,9,9,10,10,11,11,12,12,13,13,14,14,15,15,16,16,17,17,18,18,19,19,20,20,21,21,22,22,23,23,24,24,25,25,26,26,27,27,28,28,29,29,30,30,31,31,32,32,33,33,34,34,35,35,36,36,37,37,38,38,39,39,40,40,41,41,42,42,43,43,44,44,45,45,46,46,47,47,48,48,49,49,50,50,51,51,52,52,53,53,54,54,55,55,56,56,57,57,58,58,59,59,60,60,61,61,62,62],"right_children":[2,4,6,8,10,12,14,16,18,20,22,24,26,28,30,32,34,36,38,40,42,44,46,48,50,52,54,56,58,60,62,64,66,68,70,72,74,76,78,80,82,84,86,88,90,92,94,96,98,100,102,104,106,108,110,112,114,116,118,120,122,124,126,-1,-1,-1,-1,-1,-1,-1,-1,-1,-1,-1,-1,-1,-1,-1,-1,-1,-1,-1,-1,-1,-1,-1,-1,-1,-1,-1,-1,-1,-1,-1,-1,-1,-1,-1,-1,-1,-1,-1,-1,-1,-1,-1,-1,-1,-1,-1,-1,-1,-1,-1,-1,-1,-1,-1,-1,-1,-1,-1,-1,-1,-1,-1,-1],"split_conditions":[-2.2733895E-1,-2.911318E-1,1.1248403E0,-4.0649098E-1,1.0477788E0,-8.0946374E-1,9.318433E-1,-5.637865E-1,-3.0241936E-1,6.086962E-1,2.1102161E0,2.6371545E-1,1.0218803E0,4.3953818E-1,1.1684741E0,-7.5401807E-1,9.318433E-1,-7.7553713E-1,2.3250714E-1,-7.153834E-1,9.318433E-1,8.894172E-1,2.2412548E0,1.2284102E0,1.08229905E-1,-5.593269E-3,2.159041E0,-3.464079E-1,-6.2005468E-2,4.3693691E-1,2.0474591E0,-5.14395E-1,1.08229905E-1,-1.2481923E-1,-1.1682031E0,1.08229905E-1,9.318433E-1,9.25523E-2,-5.9808296E-1,1.0078211E0,-1.3809359E0,2.9528874E-1,1.4689362E0,1.8089887E-2,9.5279217E-1,-3.1001782E-1,6.4613447E0,-8.980085E-1,-8.6822414E-1,-8.5851747E-1,-1.3128723E-1,3.987298E-3,-7.153834E-1,1.2434746E0,2.8774352E0,-2.676826E-1,-5.8969647E-1,2.6092398E-1,1.1380033E0,-4.3109083E-1,-5.3809203E-2,8.495863E-1,2.7308002E0,-3.6663026E-1,-3.2860637E-1,-3.5021865E-1,-2.842832E-1,-3.035511E-1,-2.262711E-1,-3.1481093E-1,-4.857716E-2,-3.4889054E-1,-2.6697767E-1,-2.215306E-1,3.235848E-2,5.0087404E-2,-1.323018E-1,-3.2237196E-1,2.0348091E-1,-8.138513E-2,-2.6676685E-1,-2.3421736E-1,1.23136565E-1,-2.4582475E-1,-6.539417E-2,1.043394E-1,-8.69044E-2,-3.0033898E-1,-9.478521E-2,-2.651207E-1,-3.5818094E-1,-3.4329495E-1,-2.7502155E-1,-3.609035E-1,3.309433E-1,-3.4815073E-1,-1.8065873E-1,-3.1614255E-2,2.6529774E-1,-2.8005207E-1,-3.9620742E-2,2.1897638E-1,1.6891818E-2,1.7099099E-1,-1.2358347E-1,1.3290551E-1,2.8377637E-1,-3.0180136E-2,-2.6981503E-1,1.3683872E-1,-2.9902768E-1,-3.2450032E-1,-1.6508755E-1,-3.3826873E-1,9.53914E-2,-2.1763934E-1,-3.4160784E-1,-1.2895961E-1,-3.0108413E-1,8.7542005E-2,2.8189573E-1,-3.7492752E-2,1.2702279E-1,1.6485164E-1,-1.174845E-1,-2.7051458E-1,-3.7626126E-1],"split_indices":[6,3,0,6,5,17,1,3,17,0,5,6,6,6,5,3,1,17,17,1,1,3,5,10,1,6,10,17,12,6,5,6,1,19,14,1,1,0,8,9,9,5,0,3,0,19,5,17,5,5,15,7,1,6,12,19,8,15,5,17,12,3,5,0,0,0,0,0,0,0,0,0,0,0,0,0,0,0,0,0,0,0,0,0,0,0,0,0,0,0,0,0,0,0,0,0,0,0,0,0,0,0,0,0,0,0,0,0,0,0,0,0,0,0,0,0,0,0,0,0,0,0,0,0,0,0,0],"split_type":[0,0,0,0,0,0,0,0,0,0,0,0,0,0,0,0,0,0,0,0,0,0,0,0,0,0,0,0,0,0,0,0,0,0,0,0,0,0,0,0,0,0,0,0,0,0,0,0,0,0,0,0,0,0,0,0,0,0,0,0,0,0,0,0,0,0,0,0,0,0,0,0,0,0,0,0,0,0,0,0,0,0,0,0,0,0,0,0,0,0,0,0,0,0,0,0,0,0,0,0,0,0,0,0,0,0,0,0,0,0,0,0,0,0,0,0,0,0,0,0,0,0,0,0,0,0,0],"sum_hessian":[5.743436E5,2.2562133E5,3.4872228E5,1.3257414E5,9.3047195E4,2.8293375E5,6.578852E4,1.1705052E5,1.5523613E4,6.080132E4,3.2245873E4,1.4248426E4,2.6868534E5,4.6170996E4,1.9617525E4,8.941796E4,2.7632564E4,1.2334684E4,3.1889297E3,4.5608035E4,1.5193288E4,1.8011016E4,1.4234857E4,9.459166E3,4.7892593E3,2.5146344E5,1.7221904E4,1.9407648E4,2.6763348E4,1.691006E4,2.707464E3,6.775306E4,2.1664896E4,2.562536E4,2.0072042E3,5.351041E3,6.983642E3,2.3803123E3,8.086176E2,1.0824911E4,3.478312E4,1.1972419E4,3.2208696E3,1.4317288E4,3.6937266E3,1.485057E3,1.2749801E4,8.526715E3,9.324516E2,2.6496592E3,2.1396003E3,3.6217594E4,2.1524584E5,1.0888301E4,6.3336045E3,8.23411E3,1.1173538E4,7.843447E3,1.89199E4,8.510327E3,8.399733E3,1.40211E3,1.3053542E3,6.391508E4,3.8379873E3,1.7873477E4,3.7914202E3,1.6579973E4,9.045387E3,3.348618E2,1.6723425E3,3.9813025E3,1.3697386E3,6.172461E3,8.111812E2,1.314983E3,1.0653292E3,3.036424E1,7.7825336E2,9.077986E3,1.7469241E3,2.3672454E3,3.2415877E4,7.874918E3,4.097501E3,2.311207E3,9.0966254E2,3.1068774E3,1.1210411E4,2.274811E3,1.4189154E3,6.085991E2,8.7645795E2,1.2746889E4,2.9122264E0,3.529476E3,4.997239E3,6.0928705E2,3.2316452E2,4.2894495E2,2.220714E3,1.2514795E3,8.8812085E2,2.3938006E4,1.2279587E4,3.501888E4,1.8022697E5,3.7795796E3,7.1087207E3,5.858279E3,4.7532553E2,2.5546758E3,5.679435E3,1.1427365E3,1.0030801E4,1.5065774E3,6.3368696E3,1.2281061E4,6.63884E3,2.873093E3,5.6372344E3,3.076814E3,5.32292E3,1.46266E2,1.255844E3,5.599194E2,7.454348E2],"tree_param":{"num_deleted":"0","num_feature":"20","num_nodes":"127","size_leaf_vector":"0"}},{"base_weights":[4.077017E-3,7.4301124E-1,-4.7400987E-1,1.0641443E0,2.854529E-1,-6.4816874E-1,2.749858E-1,1.1191711E0,6.4919287E-1,-1.0407255E-2,8.432961E-1,4.6424258E-1,-7.0716155E-1,5.250833E-1,-3.1363E-1,1.1941205E0,8.766034E-1,8.3679026E-1,-7.644438E-2,-1.6311355E-1,4.479753E-1,5.7517976E-1,1.182473E0,7.2775555E-1,-5.625954E-2,-7.7379346E-1,2.6574424E-1,2.0558341E-1,7.567547E-1,-4.7343007E-1,6.842426E-1,1.2149364E0,1.1289691E0,9.2093784E-1,3.1042427E-1,1.0932598E0,6.4014864E-1,1.0536504E-1,-6.111141E-1,3.7107977E-1,-3.293666E-1,6.13613E-1,-1.6772223E-1,4.6469536E-1,1.0031877E0,1.0107117E0,1.2023983E0,8.334053E-1,-2.382068E-1,2.6211458E-1,-4.5046905E-1,-2.3705047E-1,-8.6410517E-1,6.2214214E-1,-3.469523E-1,7.152651E-1,-1.700465E-1,1.059422E0,6.312314E-1,-7.2099924E-1,-2.2254539E-1,2.9311705E-1,1.1038133E0,1.2221023E0,1.095305E0,1.1673872E0,9.4759744E-1,1.0118364E0,7.5422853E-1,1.0493689E0,1.6192295E-1,1.1629726E0,8.8993084E-1,7.3845065E-1,-1.0784342E-1,-1.6677068E-1,4.4111848E-1,1.0746001E0,-6.7817795E-1,2.7128384E-1,8.892229E-1,7.8072447E-1,-4.1045517E-1,8.194158E-1,2.1798061E-1,-3.4779805E-1,2.8968132E-1,1.00113E0,3.1595066E-1,8.8373566E-1,1.1939365E0,1.1443172E0,9.167397E-1,1.2030116E0,-1.1031444E0,1.1605023E0,6.0219556E-1,1.0538077E-1,-8.8432574E-1,9.3350685E-1,1.3206913E-1,-7.299212E-1,-5.630604E-2,-5.6997156E-1,4.1194448E-1,-4.4301832E-1,-9.4592124E-1,1.00600466E-1,8.993834E-1,-4.56129E-1,9.967588E-1,1.0816674E0,5.502917E-1,1.1275625E0,-3.1797135E-1,7.2546446E-1,1.1386927E0,4.298654E-1,1.0036137E0,-2.9180685E-1,-9.396524E-1,1.24975815E-1,-4.2340925E-1,-5.4950535E-1,3.9161497E-1,9.017152E-1,1.2542042E0],"categories":[],"categories_nodes":[],"categories_segments":[],"categories_sizes":[],"default_left":[1,1,1,1,1,1,1,1,1,1,1,1,1,1,1,1,1,1,1,1,1,1,1,1,1,1,1,1,1,1,1,1,1,1,1,1,1,1,1,1,1,1,1,1,1,1,1,1,1,1,1,1,1,1,1,1,1,1,1,1,1,1,1,0,0,0,0,0,0,0,0,0,0,0,0,0,0,0,0,0,0,0,0,0,0,0,0,0,0,0,0,0,0,0,0,0,0,0,0,0,0,0,0,0,0,0,0,0,0,0,0,0,0,0,0,0,0,0,0,0,0,0,0,0,0,0,0],"id":7,"left_children":[1,3,5,7,9,11,13,15,17,19,21,23,25,27,29,31,33,35,37,39,41,43,45,47,49,51,53,55,57,59,61,63,65,67,69,71,73,75,77,79,81,83,85,87,89,91,93,95,97,99,101,103,105,107,109,111,113,115,117,119,121,123,125,-1,-1,-1,-1,-1,-1,-1,-1,-1,-1,-1,-1,-1,-1,-1,-1,-1,-1,-1,-1,-1,-1,-1,-1,-1,-1,-1,-1,-1,-1,-1,-1,-1,-1,-1,-1,-1,-1,-1,-1,-1,-1,-1,-1,-1,-1,-1,-1,-1,-1,-1,-1,-1,-1,-1,-1,-1,-1,-1,-1,-1,-1,-1,-1],"loss_changes":[2.0290181E5,3.315196E4,4.548911E4,3.0264219E3,1.5357016E4,1.8567734E4,9.685126E3,2.1269844E3,2.11342E3,4.2561084E3,2.9318125E3,1.954478E3,1.7418219E4,3.4174502E3,3.1286958E3,1.19890625E2,6.933496E2,6.214248E2,3.1016135E2,4.0507178E3,1.549658E3,8.5128906E2,4.750586E1,9.6564355E2,6.013249E2,1.2189328E4,3.7610742E3,3.71594E3,1.01615625E3,1.050208E3,4.4414844E2,5.6742188E1,1.4986328E2,3.875664E2,2.2019876E2,7.48291E1,5.136582E2,2.1766368E2,9.2258026E1,5.595513E2,3.1314377E3,9.747241E2,2.6547748E2,1.1421658E3,8.313037E1,1.7608643E1,1.9355469E1,6.4423535E2,2.0731798E2,2.3130977E2,2.3574536E2,7.825774E3,7.415203E3,1.5744248E3,9.297536E2,4.9718945E2,2.1452957E3,2.068418E2,1.418356E3,7.9846484E2,5.864614E2,1.1666849E2,3.8574097E1,0E0,0E0,0E0,0E0,0E0,0E0,0E0,0E0,0E0,0E0,0E0,0E0,0E0,0E0,0E0,0E0,0E0,0E0,0E0,0E0,0E0,0E0,0E0,0E0,0E0,0E0,0E0,0E0,0E0,0E0,0E0,0E0,0E0,0E0,0E0,0E0,0E0,0E0,0E0,0E0,0E0,0E0,0E0,0E0,0E0,0E0,0E0,0E0,0E0,0E0,0E0,0E0,0E0,0E0,0E0,0E0,0E0,0E0,0E0,0E0,0E0,0E0,0E0,0E0],"parents":[2147483647,0,0,1,1,2,2,3,3,4,4,5,5,6,6,7,7,8,8,9,9,10,10,11,11,12,12,13,13,14,14,15,15,16,16,17,17,18,18,19,19,20,20,21,21,22,22,23,23,24,24,25,25,26,26,27,27,28,28,29,29,30,30,31,31,32,32,33,33,34,34,35,35,36,36,37,37,38,38,39,39,40,40,41,41,42,42,43,43,44,44,45,45,46,46,47,47,48,48,49,49,50,50,51,51,52,52,53,53,54,54,55,55,56,56,57,57,58,58,59,59,60,60,61,61,62,62],"right_children":[2,4,6,8,10,12,14,16,18,20,22,24,26,28,30,32,34,36,38,40,42,44,46,48,50,52,54,56,58,60,62,64,66,68,70,72,74,76,78,80,82,84,86,88,90,92,94,96,98,100,102,104,106,108,110,112,114,116,118,120,122,124,126,-1,-1,-1,-1,-1,-1,-1,-1,-1,-1,-1,-1,-1,-1,-1,-1,-1,-1,-1,-1,-1,-1,-1,-1,-1,-1,-1,-1,-1,-1,-1,-1,-1,-1,-1,-1,-1,-1,-1,-1,-1,-1,-1,-1,-1,-1,-1,-1,-1,-1,-1,-1,-1,-1,-1,-1,-1,-1,-1,-1,-1,-1,-1,-1],"split_conditions":[-2.2733895E-1,-2.911318E-1,1.1248403E0,-4.0649098E-1,1.0477788E0,-8.0946374E-1,9.318433E-1,-5.637865E-1,-3.0241936E-1,6.086962E-1,2.1102161E0,2.6371545E-1,1.0218803E0,4.3953818E-1,1.1684741E0,-7.5401807E-1,9.318433E-1,-7.7553713E-1,2.3250714E-1,-7.153834E-1,9.318433E-1,8.894172E-1,2.2412548E0,1.2284102E0,1.08229905E-1,-5.593269E-3,2.159041E0,-3.464079E-1,-6.2005468E-2,4.3693691E-1,2.0474591E0,-5.14395E-1,1.08229905E-1,-1.2481923E-1,-1.1682031E0,1.08229905E-1,9.318433E-1,9.25523E-2,-5.9808296E-1,1.0078211E0,-1.3809359E0,2.9528874E-1,1.4689362E0,1.8089887E-2,9.5279217E-1,-3.1001782E-1,6.4613447E0,-8.980085E-1,-8.6822414E-1,-8.5851747E-1,-1.3128723E-1,3.987298E-3,-7.153834E-1,1.2434746E0,2.8774352E0,-2.676826E-1,-5.8969647E-1,2.6092398E-1,1.1380033E0,-4.3109083E-1,-5.3809203E-2,8.495863E-1,2.7308002E0,3.666307E-1,3.285915E-1,3.5021618E-1,2.8427926E-1,3.0355093E-1,2.2626857E-1,3.1481066E-1,4.8576888E-2,3.488918E-1,2.6697928E-1,2.215352E-1,-3.235303E-2,-5.0031208E-2,1.3233554E-1,3.2238004E-1,-2.0345339E-1,8.138515E-2,2.6676688E-1,2.3421735E-1,-1.2313656E-1,2.4582475E-1,6.5394185E-2,-1.0433942E-1,8.69044E-2,3.00339E-1,9.4785206E-2,2.6512071E-1,3.5818094E-1,3.4329516E-1,2.750219E-1,3.609035E-1,-3.3094335E-1,3.481507E-1,1.8065867E-1,3.1614233E-2,-2.6529774E-1,2.8005207E-1,3.962074E-2,-2.1897638E-1,-1.6891813E-2,-1.7099148E-1,1.2358335E-1,-1.329055E-1,-2.8377637E-1,3.0180141E-2,2.6981503E-1,-1.368387E-1,2.9902765E-1,3.2450023E-1,1.6508752E-1,3.3826876E-1,-9.539141E-2,2.1763934E-1,3.4160784E-1,1.2895963E-1,3.0108413E-1,-8.754206E-2,-2.8189573E-1,3.7492745E-2,-1.2702279E-1,-1.648516E-1,1.17484495E-1,2.7051458E-1,3.7626126E-1],"split_indices":[6,3,0,6,5,17,1,3,17,0,5,6,6,6,5,3,1,17,17,1,1,3,5,10,1,6,10,17,12,6,5,6,1,19,14,1,1,0,8,9,9,5,0,3,0,19,5,17,5,5,15,7,1,6,12,19,8,15,5,17,12,3,5,0,0,0,0,0,0,0,0,0,0,0,0,0,0,0,0,0,0,0,0,0,0,0,0,0,0,0,0,0,0,0,0,0,0,0,0,0,0,0,0,0,0,0,0,0,0,0,0,0,0,0,0,0,0,0,0,0,0,0,0,0,0,0,0],"split_type":[0,0,0,0,0,0,0,0,0,0,0,0,0,0,0,0,0,0,0,0,0,0,0,0,0,0,0,0,0,0,0,0,0,0,0,0,0,0,0,0,0,0,0,0,0,0,0,0,0,0,0,0,0,0,0,0,0,0,0,0,0,0,0,0,0,0,0,0,0,0,0,0,0,0,0,0,0,0,0,0,0,0,0,0,0,0,0,0,0,0,0,0,0,0,0,0,0,0,0,0,0,0,0,0,0,0,0,0,0,0,0,0,0,0,0,0,0,0,0,0,0,0,0,0,0,0,0],"sum_hessian":[5.7434356E5,2.2562128E5,3.4872228E5,1.325741E5,9.3047195E4,2.8293378E5,6.5788516E4,1.1705028E5,1.5523814E4,6.080132E4,3.2245871E4,1.4248425E4,2.6868534E5,4.6170996E4,1.9617525E4,8.941779E4,2.7632494E4,1.2334778E4,3.189036E3,4.560803E4,1.5193288E4,1.8011014E4,1.4234856E4,9.459165E3,4.7892593E3,2.5146344E5,1.7221904E4,1.9407648E4,2.6763348E4,1.691006E4,2.707464E3,6.7753086E4,2.1664705E4,2.5625291E4,2.0072031E3,5.3510796E3,6.983699E3,2.3804045E3,8.086313E2,1.0824911E4,3.478312E4,1.1972419E4,3.2208696E3,1.4317288E4,3.6937266E3,1.4850591E3,1.2749798E4,8.526714E3,9.324516E2,2.6496592E3,2.1396003E3,3.62176E4,2.1524584E5,1.0888301E4,6.333604E3,8.23411E3,1.1173537E4,7.843447E3,1.89199E4,8.510327E3,8.399733E3,1.40211E3,1.3053541E3,6.39153E4,3.8377825E3,1.7873326E4,3.7913777E3,1.657996E4,9.045331E3,3.3486148E2,1.6723416E3,3.9813325E3,1.369747E3,6.172513E3,8.111859E2,1.3150391E3,1.0653655E3,3.0364601E1,7.7826666E2,9.077986E3,1.7469241E3,2.3672454E3,3.2415877E4,7.874918E3,4.097501E3,2.311207E3,9.0966254E2,3.1068774E3,1.121041E4,2.274811E3,1.4189154E3,6.085999E2,8.764591E2,1.2746885E4,2.9122267E0,3.5294756E3,4.9972383E3,6.0928705E2,3.2316452E2,4.2894495E2,2.220714E3,1.2514795E3,8.8812085E2,2.3938014E4,1.2279587E4,3.5018875E4,1.8022697E5,3.7795796E3,7.1087207E3,5.858279E3,4.7532544E2,2.5546755E3,5.6794346E3,1.1427366E3,1.0030801E4,1.5065774E3,6.336869E3,1.2281061E4,6.6388394E3,2.873093E3,5.6372344E3,3.076814E3,5.3229194E3,1.46266E2,1.255844E3,5.599194E2,7.454347E2],"tree_param":{"num_deleted":"0","num_feature":"20","num_nodes":"127","size_leaf_vector":"0"}},{"base_weights":[-6.203657E-3,-6.34956E-1,3.7119043E-1,-1.024723E0,-2.7757776E-1,7.2520286E-1,6.55752E-2,-1.0747787E0,-6.658718E-1,-1.716343E-1,-1.078627E0,1.7571855E-1,8.3321285E-1,-3.1668842E-1,3.7633955E-1,-1.1277773E0,-8.7287736E-1,-3.9170462E-1,-9.8411596E-1,-3.4483927E-1,1.3018778E-1,-8.074302E-1,-1.1182705E0,-3.6482307E-1,5.015199E-1,8.6347145E-1,-9.5823306E-1,-2.3383442E-2,-6.3119113E-1,6.041468E-1,-1.6287094E-2,-1.1450638E0,-1.0717044E0,-9.5306545E-1,-5.947245E-1,3.2142252E-1,-5.8355826E-1,-1.0645558E0,-7.798734E-1,-5.265213E-1,-3.1966757E-2,2.2650103E-1,-5.008475E-1,-8.9801687E-1,-5.2775997E-1,-1.0572413E0,-1.1524323E0,-6.956252E-1,2.902668E-1,-1.6289422E-1,6.5845585E-1,9.0529716E-1,2.918774E-1,-5.8637226E-1,-1.288477E0,9.937337E-2,-1.2129451E0,-8.951209E-1,-3.7561495E-2,3.239403E-1,8.586056E-1,9.580924E-2,-1.0500264E0,-1.1508827E0,-1.0341505E0,-1.1021487E0,-9.2084944E-1,-1.0375915E0,-7.507134E-1,-2.949181E-1,-7.523531E-1,-8.3216685E-1,4.57489E-1,-8.187402E-1,-1.588743E-1,-9.1583645E-1,-1.1095998E0,-9.2307836E-1,-6.5693635E-1,-7.536484E-1,-3.7466994E-1,1.8303333E-1,-5.3008455E-1,-3.7174004E-1,3.4514543E-1,-2.995689E-1,-8.786509E-1,-9.651028E-1,-6.907296E-1,-9.95423E-1,-3.5699672E-1,-1.0884053E0,-9.3110615E-1,-1.1535479E0,8.53411E-1,-9.023554E-1,-1.6644375E-1,7.4151665E-1,-1.8412331E-1,4.6286014E-1,-3.5809317E-1,7.15458E-1,-4.485214E-1,5.501527E-1,9.781303E-1,8.646914E-1,-6.2223965E-1,-1.1820247E0,-3.5823384E-1,-1.0645597E0,-1.314867E0,-3.7592462E-1,4.1228086E-1,-9.453809E-1,-1.2713236E0,-1.2686133E0,-8.091516E-1,4.1700757E-1,-4.233434E-1,-2.0318235E-1,4.7950354E-1,4.7723433E-1,9.3374616E-1,-3.302044E-1,2.5731498E-1,-1.133439E0,-6.115217E-1],"categories":[],"categories_nodes":[],"categories_segments":[],"categories_sizes":[],"default_left":[1,1,1,1,1,1,1,1,1,1,1,1,1,1,1,1,1,1,1,1,1,1,1,1,1,1,1,1,1,1,1,1,1,1,1,1,1,1,1,1,1,1,1,1,1,1,1,1,1,1,1,1,1,1,1,1,1,1,1,1,1,1,1,0,0,0,0,0,0,0,0,0,0,0,0,0,0,0,0,0,0,0,0,0,0,0,0,0,0,0,0,0,0,0,0,0,0,0,0,0,0,0,0,0,0,0,0,0,0,0,0,0,0,0,0,0,0,0,0,0,0,0,0,0,0,0,0],"id":8,"left_children":[1,3,5,7,9,11,13,15,17,19,21,23,25,27,29,31,33,35,37,39,41,43,45,47,49,51,53,55,57,59,61,63,65,67,69,71,73,75,77,79,81,83,85,87,89,91,93,95,97,99,101,103,105,107,109,111,113,115,117,119,121,123,125,-1,-1,-1,-1,-1,-1,-1,-1,-1,-1,-1,-1,-1,-1,-1,-1,-1,-1,-1,-1,-1,-1,-1,-1,-1,-1,-1,-1,-1,-1,-1,-1,-1,-1,-1,-1,-1,-1,-1,-1,-1,-1,-1,-1,-1,-1,-1,-1,-1,-1,-1,-1,-1,-1,-1,-1,-1,-1,-1,-1,-1,-1,-1,-1],"loss_changes":[1.2151604E5,2.6756016E4,3.4623438E4,1.6496484E3,8.503988E3,8.799641E3,2.0403115E4,8.617969E2,9.8118066E2,4.626745E3,1.249375E2,4.2899116E3,6.7177188E3,7.1043804E3,8.473477E3,6.0679688E1,3.7345605E2,8.272481E2,8.469629E1,3.19648E3,1.9614473E3,3.7436035E1,2.0067383E1,1.9854165E3,1.5848564E3,2.9129531E3,2.5205908E2,5.8196167E3,5.822876E3,4.2743105E3,4.0309873E3,3.0308594E1,6.816992E1,2.2182617E2,1.7723889E2,2.0163809E2,4.756759E2,2.3984375E1,2.5355408E1,1.2266904E3,2.2126091E3,1.9873993E3,3.2471216E2,1.5031189E1,2.9075233E1,1.3436035E1,1.5604492E1,6.657964E2,6.5829364E2,3.549746E2,7.7611475E2,2.9364688E3,4.351857E3,1.3141235E2,5.03833E0,5.372867E3,5.702832E1,8.2503516E2,2.0062262E3,2.3398894E3,8.999004E2,2.1593748E3,1.2378223E2,0E0,0E0,0E0,0E0,0E0,0E0,0E0,0E0,0E0,0E0,0E0,0E0,0E0,0E0,0E0,0E0,0E0,0E0,0E0,0E0,0E0,0E0,0E0,0E0,0E0,0E0,0E0,0E0,0E0,0E0,0E0,0E0,0E0,0E0,0E0,0E0,0E0,0E0,0E0,0E0,0E0,0E0,0E0,0E0,0E0,0E0,0E0,0E0,0E0,0E0,0E0,0E0,0E0,0E0,0E0,0E0,0E0,0E0,0E0,0E0,0E0,0E0,0E0,0E0],"parents":[2147483647,0,0,1,1,2,2,3,3,4,4,5,5,6,6,7,7,8,8,9,9,10,10,11,11,12,12,13,13,14,14,15,15,16,16,17,17,18,18,19,19,20,20,21,21,22,22,23,23,24,24,25,25,26,26,27,27,28,28,29,29,30,30,31,31,32,32,33,33,34,34,35,35,36,36,37,37,38,38,39,39,40,40,41,41,42,42,43,43,44,44,45,45,46,46,47,47,48,48,49,49,50,50,51,51,52,52,53,53,54,54,55,55,56,56,57,57,58,58,59,59,60,60,61,61,62,62],"right_children":[2,4,6,8,10,12,14,16,18,20,22,24,26,28,30,32,34,36,38,40,42,44,46,48,50,52,54,56,58,60,62,64,66,68,70,72,74,76,78,80,82,84,86,88,90,92,94,96,98,100,102,104,106,108,110,112,114,116,118,120,122,124,126,-1,-1,-1,-1,-1,-1,-1,-1,-1,-1,-1,-1,-1,-1,-1,-1,-1,-1,-1,-1,-1,-1,-1,-1,-1,-1,-1,-1,-1,-1,-1,-1,-1,-1,-1,-1,-1,-1,-1,-1,-1,-1,-1,-1,-1,-1,-1,-1,-1,-1,-1,-1,-1,-1,-1,-1,-1,-1,-1,-1,-1,-1,-1,-1],"split_conditions":[-2.5805464E-1,-4.2415017E-1,9.25523E-2,-4.3985748E-1,2.0574336E0,-6.524176E-1,1.08229905E-1,-6.2471664E-1,4.2880824E-1,1.08229905E-1,2.216244E0,1.2572718E-1,2.2166615E0,2.3909856E-2,3.1808683E-1,-7.876164E-1,1.08229905E-1,-5.956396E-1,-6.515105E-1,1.4029515E-2,9.742589E-1,1.08229905E-1,2.7520554E0,1.08229905E-1,-7.153834E-1,7.565737E-1,2.9792871E0,1.9737446E0,5.9253067E-1,-4.0338933E-1,2.05168E0,-5.321995E-1,1.08229905E-1,-4.9550787E-2,-7.620687E-1,-1.770227E0,1.08229905E-1,8.50783E-1,-6.570754E-1,-1.2519546E-1,9.465152E-1,-9.262208E-1,1.5136832E0,-5.4548807E-2,-4.2875516E-1,1.08229905E-1,7.1045866E0,4.2927614E-1,8.508239E-1,-9.3973553E-1,1.7355025E0,1.2018368E-2,-7.016072E-3,1.1092521E-1,3.2118435E0,-2.3723292E-1,2.2108736E0,-8.639239E-1,4.426266E-1,3.8287483E-2,-9.8376817E-1,-1.1081743E-1,6.953628E-1,-3.4526482E-1,-3.1024516E-1,-3.306446E-1,-2.7625483E-1,-3.1127745E-1,-2.2521403E-1,-8.847543E-2,-2.2570594E-1,-2.4965006E-1,1.3724671E-1,-2.4562207E-1,-4.766229E-2,-2.7475095E-1,-3.3287996E-1,-2.769235E-1,-1.9708091E-1,-2.2609453E-1,-1.12400986E-1,5.491E-2,-1.5902537E-1,-1.1152202E-1,1.0354363E-1,-8.987067E-2,-2.6359528E-1,-2.8953084E-1,-2.072189E-1,-2.9862693E-1,-1.0709902E-1,-3.2652158E-1,-2.7933186E-1,-3.460644E-1,2.5602332E-1,-2.7070662E-1,-4.9933128E-2,2.2245501E-1,-5.5236995E-2,1.3885805E-1,-1.07427955E-1,2.146374E-1,-1.3455643E-1,1.6504583E-1,2.934391E-1,2.5940743E-1,-1.866719E-1,-3.5460743E-1,-1.07470155E-1,-3.1936792E-1,-3.944601E-1,-1.1277739E-1,1.23684265E-1,-2.8361428E-1,-3.813971E-1,-3.8058403E-1,-2.4274549E-1,1.2510228E-1,-1.2700303E-1,-6.095471E-2,1.4385107E-1,1.4317031E-1,2.8012386E-1,-9.9061325E-2,7.71945E-2,-3.4003168E-1,-1.8345653E-1],"split_indices":[6,3,0,6,5,17,1,3,7,1,5,6,5,8,3,3,1,0,3,19,9,1,5,1,1,6,5,5,19,17,5,6,1,19,10,14,1,7,13,3,19,9,9,19,9,1,12,19,7,0,9,6,8,6,5,17,5,5,6,6,18,5,8,0,0,0,0,0,0,0,0,0,0,0,0,0,0,0,0,0,0,0,0,0,0,0,0,0,0,0,0,0,0,0,0,0,0,0,0,0,0,0,0,0,0,0,0,0,0,0,0,0,0,0,0,0,0,0,0,0,0,0,0,0,0,0,0],"split_type":[0,0,0,0,0,0,0,0,0,0,0,0,0,0,0,0,0,0,0,0,0,0,0,0,0,0,0,0,0,0,0,0,0,0,0,0,0,0,0,0,0,0,0,0,0,0,0,0,0,0,0,0,0,0,0,0,0,0,0,0,0,0,0,0,0,0,0,0,0,0,0,0,0,0,0,0,0,0,0,0,0,0,0,0,0,0,0,0,0,0,0,0,0,0,0,0,0,0,0,0,0,0,0,0,0,0,0,0,0,0,0,0,0,0,0,0,0,0,0,0,0,0,0,0,0,0,0],"sum_hessian":[5.1210288E5,1.920837E5,3.2001916E5,9.187754E4,1.00206164E5,1.4826897E5,1.717502E5,8.0628766E4,1.1248774E4,8.8502414E4,1.1703749E4,2.4357348E4,1.23911625E5,7.7015414E4,9.473478E4,6.3860832E4,1.6767932E4,6.0440557E3,5.204719E3,5.6232457E4,3.2269955E4,1.4953826E3,1.0208366E4,9.159903E3,1.5197444E4,1.2185395E5,2.0576702E3,3.9851246E4,3.7164164E4,5.9950293E4,3.4784492E4,4.8797844E4,1.5062987E4,1.3013789E4,3.7541433E3,1.2811813E3,4.762874E3,3.731053E3,1.4736664E3,3.5574188E4,2.0658271E4,2.7997422E4,4.2725317E3,1.1278536E3,3.6752887E2,3.675005E3,6.5333613E3,6.086386E3,3.073517E3,2.9037793E3,1.2293664E4,1.1354487E5,8.309086E3,9.69157E2,1.0885132E3,3.6124316E4,3.726932E3,2.5725854E4,1.1438313E4,2.8532732E4,3.141756E4,3.1382367E4,3.402125E3,4.6356395E4,2.4414504E3,1.2528319E4,2.5346675E3,9.176484E3,3.837305E3,1.2946384E3,2.4595046E3,1.3463261E2,1.1465487E3,3.0647473E3,1.698127E3,8.7231464E2,2.8587383E3,6.777136E2,7.9595276E2,1.4252494E4,2.1321693E4,1.4430388E4,6.227884E3,4.633215E3,2.3364207E4,2.788645E3,1.4838865E3,8.4932465E2,2.7852905E2,9.701318E1,2.705157E2,2.9407986E3,7.342065E2,6.530155E3,3.2067797E0,4.376109E3,1.7102773E3,1.5748877E3,1.4986294E3,6.9010864E2,2.2136707E3,1.1691958E4,6.017062E2,1.9324502E4,9.422037E4,5.1081904E3,3.2008958E3,2.672378E2,7.019192E2,1.1912116E2,9.693921E2,1.4340811E4,2.1783504E4,6.705971E2,3.0563347E3,4.810961E3,2.0914893E4,5.250976E3,6.187337E3,6.501667E3,2.2031064E4,5.1724517E3,2.6245107E4,8.626547E3,2.275582E4,2.8570676E3,5.450573E2],"tree_param":{"num_deleted":"0","num_feature":"20","num_nodes":"127","size_leaf_vector":"0"}},{"base_weights":[6.2037096E-3,6.349566E-1,-3.711906E-1,1.0247245E0,2.775776E-1,-7.252031E-1,-6.557534E-2,1.0747796E0,6.65867E-1,1.716341E-1,1.0786271E0,-1.7571887E-1,-8.332131E-1,3.1668824E-1,-3.7633967E-1,1.1277784E0,8.728769E-1,3.9169848E-1,9.841083E-1,3.4483913E-1,-1.3018806E-1,8.074308E-1,1.1182706E0,3.6482224E-1,-5.015199E-1,-8.6347175E-1,9.582331E-1,2.3383353E-2,6.311909E-1,-6.0414696E-1,1.62871E-2,1.1450648E0,1.0717052E0,9.5306534E-1,5.9472245E-1,-3.2151562E-1,5.835658E-1,1.064551E0,7.798568E-1,5.26521E-1,3.1966895E-2,-2.2650129E-1,5.0084716E-1,8.980174E-1,5.277607E-1,1.0572413E0,1.1524324E0,6.956244E-1,-2.9026768E-1,1.6289417E-1,-6.5845585E-1,-9.052974E-1,-2.9187736E-1,5.863725E-1,1.288477E0,-9.937348E-2,1.2129452E0,8.951207E-1,3.7561376E-2,-3.2394052E-1,-8.586058E-1,-9.580923E-2,1.0500264E0,1.1508836E0,1.0341755E0,1.1021494E0,9.208512E-1,1.037591E0,7.507147E-1,2.9491585E-1,7.523512E-1,8.319292E-1,-4.575357E-1,8.187638E-1,1.5883885E-1,9.1583717E-1,1.109594E0,9.230749E-1,6.569049E-1,7.536478E-1,3.746699E-1,-1.8303323E-1,5.300847E-1,3.717395E-1,-3.451456E-1,2.9956853E-1,8.786505E-1,9.6510327E-1,6.907303E-1,9.9542344E-1,3.5699755E-1,1.0884051E0,9.31107E-1,1.153548E0,-8.53411E-1,9.023547E-1,1.6644287E-1,-7.41518E-1,1.8412308E-1,-4.6286014E-1,3.580931E-1,-7.15458E-1,4.4852144E-1,-5.50155E-1,-9.781302E-1,-8.646913E-1,6.222397E-1,1.1820251E0,3.582339E-1,1.0645598E0,1.314867E0,3.759245E-1,-4.1228095E-1,9.45381E-1,1.2713237E0,1.2686125E0,8.091515E-1,-4.1700783E-1,4.233434E-1,2.031813E-1,-4.795035E-1,-4.7723454E-1,-9.3374634E-1,3.3020437E-1,-2.5731495E-1,1.133439E0,6.1152166E-1],"categories":[],"categories_nodes":[],"categories_segments":[],"categories_sizes":[],"default_left":[1,1,1,1,1,1,1,1,1,1,1,1,1,1,1,1,1,1,1,1,1,1,1,1,1,1,1,1,1,1,1,1,1,1,1,1,1,1,1,1,1,1,1,1,1,1,1,1,1,1,1,1,1,1,1,1,1,1,1,1,1,1,1,0,0,0,0,0,0,0,0,0,0,0,0,0,0,0,0,0,0,0,0,0,0,0,0,0,0,0,0,0,0,0,0,0,0,0,0,0,0,0,0,0,0,0,0,0,0,0,0,0,0,0,0,0,0,0,0,0,0,0,0,0,0,0,0],"id":9,"left_children":[1,3,5,7,9,11,13,15,17,19,21,23,25,27,29,31,33,35,37,39,41,43,45,47,49,51,53,55,57,59,61,63,65,67,69,71,73,75,77,79,81,83,85,87,89,91,93,95,97,99,101,103,105,107,109,111,113,115,117,119,121,123,125,-1,-1,-1,-1,-1,-1,-1,-1,-1,-1,-1,-1,-1,-1,-1,-1,-1,-1,-1,-1,-1,-1,-1,-1,-1,-1,-1,-1,-1,-1,-1,-1,-1,-1,-1,-1,-1,-1,-1,-1,-1,-1,-1,-1,-1,-1,-1,-1,-1,-1,-1,-1,-1,-1,-1,-1,-1,-1,-1,-1,-1,-1,-1,-1],"loss_changes":[1.2151621E5,2.6756125E4,3.4623457E4,1.6496641E3,8.503996E3,8.799641E3,2.0403113E4,8.618047E2,9.8115283E2,4.626748E3,1.2493848E2,4.2899033E3,6.7177266E3,7.104376E3,8.473483E3,6.0679688E1,3.7345898E2,8.273823E2,8.470068E1,3.1964736E3,1.9614467E3,3.7435913E1,2.006543E1,1.985417E3,1.5848562E3,2.912961E3,2.5205896E2,5.819618E3,5.822874E3,4.2743086E3,4.0309873E3,3.0300781E1,6.816992E1,2.2182422E2,1.7723889E2,2.0152989E2,4.7574683E2,2.398291E1,2.536029E1,1.2266875E3,2.2126099E3,1.987397E3,3.2471204E2,1.503125E1,2.907521E1,1.3436523E1,1.5605469E1,6.657964E2,6.5829535E2,3.549746E2,7.7611426E2,2.9364375E3,4.351857E3,1.314125E2,5.038452E0,5.372866E3,5.702832E1,8.250332E2,2.0062273E3,2.3398816E3,8.9989844E2,2.1593743E3,1.2378223E2,0E0,0E0,0E0,0E0,0E0,0E0,0E0,0E0,0E0,0E0,0E0,0E0,0E0,0E0,0E0,0E0,0E0,0E0,0E0,0E0,0E0,0E0,0E0,0E0,0E0,0E0,0E0,0E0,0E0,0E0,0E0,0E0,0E0,0E0,0E0,0E0,0E0,0E0,0E0,0E0,0E0,0E0,0E0,0E0,0E0,0E0,0E0,0E0,0E0,0E0,0E0,0E0,0E0,0E0,0E0,0E0,0E0,0E0,0E0,0E0,0E0,0E0,0E0,0E0],"parents":[2147483647,0,0,1,1,2,2,3,3,4,4,5,5,6,6,7,7,8,8,9,9,10,10,11,11,12,12,13,13,14,14,15,15,16,16,17,17,18,18,19,19,20,20,21,21,22,22,23,23,24,24,25,25,26,26,27,27,28,28,29,29,30,30,31,31,32,32,33,33,34,34,35,35,36,36,37,37,38,38,39,39,40,40,41,41,42,42,43,43,44,44,45,45,46,46,47,47,48,48,49,49,50,50,51,51,52,52,53,53,54,54,55,55,56,56,57,57,58,58,59,59,60,60,61,61,62,62],"right_children":[2,4,6,8,10,12,14,16,18,20,22,24,26,28,30,32,34,36,38,40,42,44,46,48,50,52,54,56,58,60,62,64,66,68,70,72,74,76,78,80,82,84,86,88,90,92,94,96,98,100,102,104,106,108,110,112,114,116,118,120,122,124,126,-1,-1,-1,-1,-1,-1,-1,-1,-1,-1,-1,-1,-1,-1,-1,-1,-1,-1,-1,-1,-1,-1,-1,-1,-1,-1,-1,-1,-1,-1,-1,-1,-1,-1,-1,-1,-1,-1,-1,-1,-1,-1,-1,-1,-1,-1,-1,-1,-1,-1,-1,-1,-1,-1,-1,-1,-1,-1,-1,-1,-1,-1,-1,-1],"split_conditions":[-2.5805464E-1,-4.2415017E-1,9.25523E-2,-4.3985748E-1,2.0574336E0,-6.524176E-1,1.08229905E-1,-6.2471664E-1,4.2880824E-1,1.08229905E-1,2.216244E0,1.2572718E-1,2.2166615E0,2.3909856E-2,3.1808683E-1,-7.876164E-1,1.08229905E-1,-5.956396E-1,-6.515105E-1,1.4029515E-2,9.742589E-1,1.08229905E-1,2.7520554E0,1.08229905E-1,-7.153834E-1,7.565737E-1,2.9792871E0,1.9737446E0,5.9253067E-1,-4.0338933E-1,2.05168E0,-5.3221405E-1,1.08229905E-1,-4.9550787E-2,-7.620687E-1,-1.770227E0,1.08229905E-1,8.50783E-1,-6.570754E-1,-1.2519546E-1,9.465152E-1,-9.262208E-1,1.5136832E0,-5.4548807E-2,-4.2875516E-1,1.08229905E-1,7.1045866E0,4.2927614E-1,8.508239E-1,-9.3973553E-1,1.7355025E0,1.2018368E-2,-7.016072E-3,1.1092521E-1,3.2118435E0,-2.3723292E-1,2.2108736E0,-8.639239E-1,4.426266E-1,3.8287483E-2,-9.8376817E-1,-1.1081743E-1,6.953628E-1,3.452651E-1,3.1025267E-1,3.3064482E-1,2.7625537E-1,3.112773E-1,2.2521442E-1,8.847476E-2,2.2570537E-1,2.4957877E-1,-1.3726072E-1,2.4562915E-1,4.765166E-2,2.7475116E-1,3.328782E-1,2.769225E-1,1.9707148E-1,2.2609435E-1,1.1240098E-1,-5.490997E-2,1.5902543E-1,1.11521855E-1,-1.0354369E-1,8.9870565E-2,2.6359516E-1,2.89531E-1,2.072191E-1,2.9862705E-1,1.0709927E-1,3.2652155E-1,2.793321E-1,3.4606442E-1,-2.5602332E-1,2.7070642E-1,4.9932864E-2,-2.2245541E-1,5.523693E-2,-1.3885805E-1,1.0742794E-1,-2.146374E-1,1.3455644E-1,-1.650465E-1,-2.934391E-1,-2.594074E-1,1.8667191E-1,3.5460752E-1,1.0747018E-1,3.1936795E-1,3.944601E-1,1.1277735E-1,-1.2368429E-1,2.836143E-1,3.8139713E-1,3.8058376E-1,2.4274544E-1,-1.2510236E-1,1.2700303E-1,6.0954392E-2,-1.4385106E-1,-1.4317037E-1,-2.8012392E-1,9.906132E-2,-7.719449E-2,3.4003168E-1,1.8345651E-1],"split_indices":[6,3,0,6,5,17,1,3,7,1,5,6,5,8,3,3,1,0,3,19,9,1,5,1,1,6,5,5,19,17,5,6,1,19,10,14,1,7,13,3,19,9,9,19,9,1,12,19,7,0,9,6,8,6,5,17,5,5,6,6,18,5,8,0,0,0,0,0,0,0,0,0,0,0,0,0,0,0,0,0,0,0,0,0,0,0,0,0,0,0,0,0,0,0,0,0,0,0,0,0,0,0,0,0,0,0,0,0,0,0,0,0,0,0,0,0,0,0,0,0,0,0,0,0,0,0,0],"split_type":[0,0,0,0,0,0,0,0,0,0,0,0,0,0,0,0,0,0,0,0,0,0,0,0,0,0,0,0,0,0,0,0,0,0,0,0,0,0,0,0,0,0,0,0,0,0,0,0,0,0,0,0,0,0,0,0,0,0,0,0,0,0,0,0,0,0,0,0,0,0,0,0,0,0,0,0,0,0,0,0,0,0,0,0,0,0,0,0,0,0,0,0,0,0,0,0,0,0,0,0,0,0,0,0,0,0,0,0,0,0,0,0,0,0,0,0,0,0,0,0,0,0,0,0,0,0,0],"sum_hessian":[5.121028E5,1.9208366E5,3.2001916E5,9.18775E4,1.00206164E5,1.4826895E5,1.7175019E5,8.062901E4,1.1248495E4,8.850241E4,1.1703751E4,2.4357346E4,1.2391162E5,7.701541E4,9.473478E4,6.386109E4,1.6767916E4,6.043867E3,5.204628E3,5.6232453E4,3.2269955E4,1.4953838E3,1.0208367E4,9.159902E3,1.5197443E4,1.21853945E5,2.0576704E3,3.9851242E4,3.7164164E4,5.995029E4,3.4784492E4,4.8798062E4,1.5063025E4,1.3013781E4,3.7541355E3,1.2810902E3,4.762777E3,3.7309966E3,1.4736315E3,3.5574184E4,2.0658271E4,2.7997424E4,4.2725312E3,1.1278547E3,3.6752914E2,3.6750046E3,6.5333633E3,6.086385E3,3.073517E3,2.9037795E3,1.2293664E4,1.1354486E5,8.309086E3,9.691571E2,1.0885133E3,3.6124312E4,3.726932E3,2.5725852E4,1.14383125E4,2.853273E4,3.1417559E4,3.1382367E4,3.4021248E3,4.6356215E4,2.4418496E3,1.2528349E4,2.534676E3,9.176471E3,3.8373103E3,1.2946361E3,2.4594993E3,1.34597E2,1.1464932E3,3.0647207E3,1.6980563E3,8.7231177E2,2.8586848E3,6.7770856E2,7.959229E2,1.4252489E4,2.1321693E4,1.4430388E4,6.2278843E3,4.633215E3,2.3364209E4,2.788645E3,1.4838864E3,8.4932544E2,2.7852927E2,9.701325E1,2.7051587E2,2.9407969E3,7.342076E2,6.5301562E3,3.2067802E0,4.376108E3,1.7102771E3,1.5748878E3,1.4986292E3,6.901087E2,2.2136707E3,1.1691958E4,6.017062E2,1.9324508E4,9.422035E4,5.1081904E3,3.2008958E3,2.672379E2,7.019192E2,1.1912116E2,9.693921E2,1.434081E4,2.1783502E4,6.705971E2,3.0563347E3,4.8109595E3,2.091489E4,5.250976E3,6.187337E3,6.501667E3,2.2031064E4,5.1724517E3,2.6245107E4,8.626547E3,2.275582E4,2.8570676E3,5.4505725E2],"tree_param":{"num_deleted":"0","num_feature":"20","num_nodes":"127","size_leaf_vector":"0"}},{"base_weights":[-6.4418213E-3,-4.6752352E-1,3.4851193E-1,-8.853371E-1,-2.0451665E-1,6.159478E-1,-4.0507726E-2,-1.0266212E0,-3.8385645E-1,-1.325582E-1,-1.0220803E0,6.50775E-1,-8.712831E-1,2.573883E-1,-3.701693E-1,-1.0684037E0,-8.5607696E-1,-9.585587E-2,-8.577E-1,-4.7325753E-2,-5.9886944E-1,-7.799317E-1,-1.0736836E0,2.7763465E-1,7.716122E-1,-2.2726807E-1,-1.0338837E0,-2.2718921E-2,5.015368E-1,-5.4752696E-1,9.861825E-2,-1.0868616E0,-8.6275154E-1,-9.346211E-1,-5.733373E-1,4.0813798E-1,-3.674819E-1,-9.5449966E-1,-6.171918E-1,-4.804547E-1,8.823077E-2,-4.4736364E-1,-9.041764E-1,-9.6353E-1,-6.6640824E-1,5.5488753E-1,-1.0751117E0,-7.0265746E-1,4.370225E-1,4.9574035E-1,8.482508E-1,-9.3754005E-1,2.9746753E-1,-6.3244104E-1,-1.1689023E0,2.8801817E-1,-2.7468535E-1,5.9712964E-1,1.6437996E-2,-7.663904E-1,-1.11180104E-1,6.065545E-1,-3.536202E-2,-1.1008924E0,-1.0333813E0,-9.726125E-1,-4.2430297E-1,-1.0079224E0,-7.485187E-1,-4.9401245E-1,-9.598775E-1,-1.4972919E-1,6.540328E-1,-7.14334E-1,8.587353E-2,-6.533295E-1,-1.0216824E0,-7.7176267E-1,-2.6359078E-1,-9.3055135E-1,-3.4045595E-1,2.831474E-1,-1.4609297E-1,-3.3891723E-1,-9.995915E-1,-1.0535197E0,-6.5234274E-1,3.810846E-1,-9.6808577E-1,-5.5162996E-1,-9.7769415E-1,-5.164854E-1,1.0750345E0,-1.0109289E0,-1.1131601E0,-9.275484E-1,-2.532265E-1,2.5794312E-1,8.2241654E-1,-2.159376E-1,6.550907E-1,8.946807E-1,6.597381E-2,-1.3086005E0,-5.67275E-1,8.162772E-1,-4.0712535E-1,-1.2058042E0,-3.9718297E-1,-1.0493793E0,-1.2480419E0,4.2863315E-1,-4.5431674E-1,-5.305995E-1,6.1232865E-2,-1.7373784E-2,6.7638654E-1,-1.4613467E-1,5.3866273E-1,-2.7137673E-1,-9.5498353E-1,6.363443E-2,-6.618232E-1,-6.1541233E-2,7.0071256E-1,-2.83879E-1,2.1439399E-1],"categories":[],"categories_nodes":[],"categories_segments":[],"categories_sizes":[],"default_left":[1,1,1,1,1,1,1,1,1,1,1,1,1,1,1,1,1,1,1,1,1,1,1,1,1,1,1,1,1,1,1,1,1,1,1,1,1,1,1,1,1,1,1,1,1,1,1,1,1,1,1,1,1,1,1,1,1,1,1,1,1,1,1,0,0,0,0,0,0,0,0,0,0,0,0,0,0,0,0,0,0,0,0,0,0,0,0,0,0,0,0,0,0,0,0,0,0,0,0,0,0,0,0,0,0,0,0,0,0,0,0,0,0,0,0,0,0,0,0,0,0,0,0,0,0,0,0],"id":10,"left_children":[1,3,5,7,9,11,13,15,17,19,21,23,25,27,29,31,33,35,37,39,41,43,45,47,49,51,53,55,57,59,61,63,65,67,69,71,73,75,77,79,81,83,85,87,89,91,93,95,97,99,101,103,105,107,109,111,113,115,117,119,121,123,125,-1,-1,-1,-1,-1,-1,-1,-1,-1,-1,-1,-1,-1,-1,-1,-1,-1,-1,-1,-1,-1,-1,-1,-1,-1,-1,-1,-1,-1,-1,-1,-1,-1,-1,-1,-1,-1,-1,-1,-1,-1,-1,-1,-1,-1,-1,-1,-1,-1,-1,-1,-1,-1,-1,-1,-1,-1,-1,-1,-1,-1,-1,-1,-1],"loss_changes":[7.494939E4,2.1889062E4,2.6920238E4,5.4516797E3,7.1916904E3,7.9429414E3,1.0352435E4,4.2688672E2,2.3083892E3,4.4656343E3,1.227334E2,6.7555586E3,3.6722656E2,3.7870803E3,4.1605596E3,1.8209375E2,2.6193848E2,1.4406329E3,1.4828516E2,5.5775938E3,8.0273975E2,3.5642212E1,1.9549805E1,5.727282E3,2.392461E3,2.6439853E2,1.5110425E2,2.0193177E3,1.3720161E3,3.4670674E3,9.3481726E2,3.20625E1,1.9111035E2,1.2540381E2,7.8392395E1,5.0565485E2,1.0752988E3,9.1549805E1,1.0025183E2,1.426562E3,3.3046597E3,6.9473975E2,2.1585596E2,4.4296875E0,3.801065E1,4.9016743E0,1.875879E1,5.179136E2,2.175725E3,2.7908843E3,3.2169453E3,4.065869E1,1.4959288E2,9.4921265E1,1.8508545E1,1.205688E3,1.2243915E3,1.2038057E3,4.136813E2,2.2568848E3,1.1675239E3,1.8040027E2,6.747553E2,0E0,0E0,0E0,0E0,0E0,0E0,0E0,0E0,0E0,0E0,0E0,0E0,0E0,0E0,0E0,0E0,0E0,0E0,0E0,0E0,0E0,0E0,0E0,0E0,0E0,0E0,0E0,0E0,0E0,0E0,0E0,0E0,0E0,0E0,0E0,0E0,0E0,0E0,0E0,0E0,0E0,0E0,0E0,0E0,0E0,0E0,0E0,0E0,0E0,0E0,0E0,0E0,0E0,0E0,0E0,0E0,0E0,0E0,0E0,0E0,0E0,0E0,0E0,0E0],"parents":[2147483647,0,0,1,1,2,2,3,3,4,4,5,5,6,6,7,7,8,8,9,9,10,10,11,11,12,12,13,13,14,14,15,15,16,16,17,17,18,18,19,19,20,20,21,21,22,22,23,23,24,24,25,25,26,26,27,27,28,28,29,29,30,30,31,31,32,32,33,33,34,34,35,35,36,36,37,37,38,38,39,39,40,40,41,41,42,42,43,43,44,44,45,45,46,46,47,47,48,48,49,49,50,50,51,51,52,52,53,53,54,54,55,55,56,56,57,57,58,58,59,59,60,60,61,61,62,62],"right_children":[2,4,6,8,10,12,14,16,18,20,22,24,26,28,30,32,34,36,38,40,42,44,46,48,50,52,54,56,58,60,62,64,66,68,70,72,74,76,78,80,82,84,86,88,90,92,94,96,98,100,102,104,106,108,110,112,114,116,118,120,122,124,126,-1,-1,-1,-1,-1,-1,-1,-1,-1,-1,-1,-1,-1,-1,-1,-1,-1,-1,-1,-1,-1,-1,-1,-1,-1,-1,-1,-1,-1,-1,-1,-1,-1,-1,-1,-1,-1,-1,-1,-1,-1,-1,-1,-1,-1,-1,-1,-1,-1,-1,-1,-1,-1,-1,-1,-1,-1,-1,-1,-1,-1,-1,-1,-1],"split_conditions":[-7.686147E-2,-5.088524E-1,4.2220044E-1,-3.7912595E-1,2.0765107E0,2.0736098E0,3.8137352E-1,-6.6906667E-1,5.966823E-1,9.291266E-1,2.2786896E0,-8.0018854E-1,-4.235916E-1,1.08229905E-1,9.318433E-1,-5.134112E-1,1.08229905E-1,-4.235916E-1,1.08229905E-1,-7.615843E-1,1.5065548E0,-3.1001782E-1,-1.104245E0,-3.175799E-1,-3.9860326E-1,-6.014985E-1,2.3296518E0,-1.3019104E-1,1.4689362E0,2.2108634E0,3.847936E-2,-8.021586E-1,-5.6393754E-1,-4.955609E-2,1.3104138E0,-7.153834E-1,1.08229905E-1,-7.6768756E-1,-4.4546473E-1,-1.5349793E0,9.25523E-2,8.120586E-1,1.08229905E-1,-1.7189285E0,1.1875484E0,-7.153834E-1,2.903173E0,-1.4974213E-1,9.318433E-1,-7.153834E-1,6.2359715E-1,-6.2658155E-1,5.262405E-1,-6.0048735E-1,3.0526292E0,7.8064406E-1,3.3488834E-1,-8.2476574E-1,1.7554567E0,4.0079445E-2,2.673272E0,-6.877903E-1,2.2527373E0,-3.3026773E-1,-3.1001443E-1,-2.9178375E-1,-1.2729089E-1,-3.0237675E-1,-2.2455563E-1,-1.4820375E-1,-2.8796327E-1,-4.491876E-2,1.9620986E-1,-2.1430022E-1,2.576206E-2,-1.9599886E-1,-3.0650473E-1,-2.315288E-1,-7.907724E-2,-2.7916542E-1,-1.0213679E-1,8.494422E-2,-4.382789E-2,-1.01675175E-1,-2.9987746E-1,-3.1605592E-1,-1.9570284E-1,1.1432538E-1,-2.9042575E-1,-1.6548899E-1,-2.9330826E-1,-1.5494563E-1,3.2251036E-1,-3.0327868E-1,-3.3394805E-1,-2.7826452E-1,-7.596795E-2,7.738294E-2,2.4672498E-1,-6.4781286E-2,1.9652721E-1,2.6840422E-1,1.9792143E-2,-3.9258018E-1,-1.701825E-1,2.4488316E-1,-1.2213761E-1,-3.6174127E-1,-1.1915489E-1,-3.1481382E-1,-3.7441257E-1,1.2858996E-1,-1.3629502E-1,-1.5917985E-1,1.8369861E-2,-5.212135E-3,2.0291597E-1,-4.3840405E-2,1.6159883E-1,-8.141302E-2,-2.8649506E-1,1.909033E-2,-1.9854698E-1,-1.8462371E-2,2.1021378E-1,-8.5163705E-2,6.43182E-2],"split_indices":[6,3,10,6,5,5,15,3,7,9,5,18,0,1,1,6,1,0,1,9,9,19,13,19,17,8,5,8,0,10,3,3,17,19,9,1,1,0,18,9,0,5,1,4,3,1,5,17,1,1,6,8,6,8,5,3,19,17,1,3,0,17,10,0,0,0,0,0,0,0,0,0,0,0,0,0,0,0,0,0,0,0,0,0,0,0,0,0,0,0,0,0,0,0,0,0,0,0,0,0,0,0,0,0,0,0,0,0,0,0,0,0,0,0,0,0,0,0,0,0,0,0,0,0,0,0,0],"split_type":[0,0,0,0,0,0,0,0,0,0,0,0,0,0,0,0,0,0,0,0,0,0,0,0,0,0,0,0,0,0,0,0,0,0,0,0,0,0,0,0,0,0,0,0,0,0,0,0,0,0,0,0,0,0,0,0,0,0,0,0,0,0,0,0,0,0,0,0,0,0,0,0,0,0,0,0,0,0,0,0,0,0,0,0,0,0,0,0,0,0,0,0,0,0,0,0,0,0,0,0,0,0,0,0,0,0,0,0,0,0,0,0,0,0,0,0,0,0,0,0,0,0,0,0,0,0,0],"sum_hessian":[4.579484E5,1.9919525E5,2.5875314E5,7.694995E4,1.22245305E5,1.5333839E5,1.0541475E5,6.0035008E4,1.6914943E4,1.12357266E5,9.888043E3,1.498303E5,3.508084E3,5.5375418E4,5.003933E4,4.821684E4,1.1818169E4,1.052132E4,6.3936226E3,9.499514E4,1.7362123E4,1.7398599E3,8.1481836E3,3.6652426E4,1.1317788E5,7.0765607E2,2.800428E3,2.578903E4,2.9586389E4,3.6304125E4,1.3735203E4,4.4241723E4,3.975116E3,9.247061E3,2.5711077E3,3.6844436E3,6.8368765E3,4.556681E3,1.8369413E3,2.264321E4,7.235193E4,1.1605477E4,5.7566475E3,6.6190027E2,1.0779596E3,6.799493E0,8.141384E3,5.125481E3,3.1526943E4,2.4607404E4,8.857048E4,3.0033786E2,4.073182E2,7.062528E2,2.0941753E3,1.1547704E4,1.4241325E4,2.4715715E4,4.8706743E3,2.4176758E4,1.2127369E4,2.8660637E3,1.086914E4,3.503146E4,9.210264E3,3.1776755E3,7.9744055E2,6.630892E3,2.6161685E3,2.135204E3,4.3590353E2,1.1273013E3,2.5571423E3,3.8730876E3,2.9637886E3,8.33034E2,3.7236472E3,1.2773752E3,5.5956604E2,5.3707095E3,1.7272502E4,3.9497043E4,3.2854883E4,9.701844E3,1.9036326E3,3.611663E3,2.1449841E3,1.9559866E0,6.599443E2,7.895914E2,2.883683E2,2.2245388E0,4.574954E0,3.04032E3,5.101064E3,3.4153894E3,1.7100918E3,2.1526148E4,1.0000794E4,4.5017383E3,2.0105666E4,8.360801E4,4.962466E3,1.4874205E2,1.515958E2,2.3449504E2,1.7282318E2,2.04275E2,5.0197778E2,8.3991925E2,1.254256E3,9.70902E3,1.8386848E3,8.082907E3,6.158418E3,2.8236738E3,2.1892041E4,3.7149128E3,1.1557615E3,6.670546E3,1.750621E4,9.205691E3,2.9216777E3,3.540759E2,2.5119878E3,5.448015E3,5.4211245E3],"tree_param":{"num_deleted":"0","num_feature":"20","num_nodes":"127","size_leaf_vector":"0"}},{"base_weights":[6.441818E-3,4.6752355E-1,-3.485119E-1,8.8533795E-1,2.0451634E-1,-6.159477E-1,4.0507756E-2,1.026619E0,3.8387352E-1,1.3255782E-1,1.0220804E0,-6.5077496E-1,8.712832E-1,-2.5738823E-1,3.701693E-1,1.0684026E0,8.5606766E-1,9.5883764E-2,8.5770214E-1,4.73254E-2,5.98869E-1,7.799325E-1,1.0736836E0,-2.7763456E-1,-7.7161217E-1,2.2726808E-1,1.0338838E0,2.2718979E-2,-5.015367E-1,5.4752696E-1,-9.861823E-2,1.0868623E0,8.627205E-1,9.3461215E-1,5.7332814E-1,-4.0810236E-1,3.6750534E-1,9.545017E-1,6.17194E-1,4.8045427E-1,-8.8231094E-2,4.4736323E-1,9.041759E-1,9.6353054E-1,6.6640913E-1,-5.5488724E-1,1.0751117E0,7.0265764E-1,-4.3702245E-1,-4.9574026E-1,-8.4825075E-1,9.3754005E-1,-2.9746753E-1,6.3244104E-1,1.1689024E0,-2.880181E-1,2.7468544E-1,-5.971296E-1,-1.6437987E-2,7.6639044E-1,1.1118008E-1,-6.0655445E-1,3.536203E-2,1.1008931E0,1.0333822E0,9.725998E-1,4.2416605E-1,1.0079181E0,7.4849397E-1,4.9399883E-1,9.5988363E-1,1.4977063E-1,-6.5400136E-1,7.143538E-1,-8.584742E-2,6.533338E-1,1.0216839E0,7.717644E-1,2.6359412E-1,9.305508E-1,3.4045553E-1,-2.831476E-1,1.4609253E-1,3.3891675E-1,9.995916E-1,1.0535192E0,6.5234214E-1,-3.8108313E-1,9.6808636E-1,5.5163103E-1,9.7769475E-1,5.1648533E-1,-1.075034E0,1.0109286E0,1.1131603E0,9.275486E-1,2.5322667E-1,-2.5794303E-1,-8.224165E-1,2.1593772E-1,-6.550906E-1,-8.946807E-1,-6.5973796E-2,1.3086005E0,5.6727505E-1,-8.162772E-1,4.0712535E-1,1.2058043E0,3.9718297E-1,1.0493793E0,1.2480419E0,-4.286331E-1,4.5431674E-1,5.3059953E-1,-6.1232816E-2,1.7373873E-2,-6.7638654E-1,1.4613469E-1,-5.3866273E-1,2.7137682E-1,9.5498353E-1,-6.3634455E-2,6.6182315E-1,6.1541293E-2,-7.0071256E-1,2.83879E-1,-2.1439397E-1],"categories":[],"categories_nodes":[],"categories_segments":[],"categories_sizes":[],"default_left":[1,1,1,1,1,1,1,1,1,1,1,1,1,1,1,1,1,1,1,1,1,1,1,1,1,1,1,1,1,1,1,1,1,1,1,1,1,1,1,1,1,1,1,1,1,1,1,1,1,1,1,1,1,1,1,1,1,1,1,1,1,1,1,0,0,0,0,0,0,0,0,0,0,0,0,0,0,0,0,0,0,0,0,0,0,0,0,0,0,0,0,0,0,0,0,0,0,0,0,0,0,0,0,0,0,0,0,0,0,0,0,0,0,0,0,0,0,0,0,0,0,0,0,0,0,0,0],"id":11,"left_children":[1,3,5,7,9,11,13,15,17,19,21,23,25,27,29,31,33,35,37,39,41,43,45,47,49,51,53,55,57,59,61,63,65,67,69,71,73,75,77,79,81,83,85,87,89,91,93,95,97,99,101,103,105,107,109,111,113,115,117,119,121,123,125,-1,-1,-1,-1,-1,-1,-1,-1,-1,-1,-1,-1,-1,-1,-1,-1,-1,-1,-1,-1,-1,-1,-1,-1,-1,-1,-1,-1,-1,-1,-1,-1,-1,-1,-1,-1,-1,-1,-1,-1,-1,-1,-1,-1,-1,-1,-1,-1,-1,-1,-1,-1,-1,-1,-1,-1,-1,-1,-1,-1,-1,-1,-1,-1],"loss_changes":[7.4949375E4,2.1889137E4,2.6920236E4,5.451379E3,7.1916987E3,7.9429453E3,1.0352435E4,4.2691406E2,2.3082483E3,4.465632E3,1.2273242E2,6.7555664E3,3.6722656E2,3.7870803E3,4.1605586E3,1.8214062E2,2.6193652E2,1.440602E3,1.4828516E2,5.5775913E3,8.0274023E2,3.564209E1,1.9549805E1,5.727283E3,2.3924453E3,2.6439856E2,1.5110425E2,2.0193179E3,1.3720161E3,3.4670684E3,9.348171E2,3.20625E1,1.9117969E2,1.2541943E2,7.839911E1,5.0567334E2,1.0752925E3,9.154883E1,1.00251465E2,1.426562E3,3.3046558E3,6.947407E2,2.1585596E2,4.4296875E0,3.801062E1,4.9016714E0,1.875879E1,5.179133E2,2.175725E3,2.7908857E3,3.2169531E3,4.065866E1,1.4959288E2,9.4921265E1,1.8508545E1,1.2056877E3,1.2243912E3,1.2038057E3,4.1368124E2,2.2568838E3,1.1675239E3,1.8040051E2,6.7475525E2,0E0,0E0,0E0,0E0,0E0,0E0,0E0,0E0,0E0,0E0,0E0,0E0,0E0,0E0,0E0,0E0,0E0,0E0,0E0,0E0,0E0,0E0,0E0,0E0,0E0,0E0,0E0,0E0,0E0,0E0,0E0,0E0,0E0,0E0,0E0,0E0,0E0,0E0,0E0,0E0,0E0,0E0,0E0,0E0,0E0,0E0,0E0,0E0,0E0,0E0,0E0,0E0,0E0,0E0,0E0,0E0,0E0,0E0,0E0,0E0,0E0,0E0,0E0,0E0],"parents":[2147483647,0,0,1,1,2,2,3,3,4,4,5,5,6,6,7,7,8,8,9,9,10,10,11,11,12,12,13,13,14,14,15,15,16,16,17,17,18,18,19,19,20,20,21,21,22,22,23,23,24,24,25,25,26,26,27,27,28,28,29,29,30,30,31,31,32,32,33,33,34,34,35,35,36,36,37,37,38,38,39,39,40,40,41,41,42,42,43,43,44,44,45,45,46,46,47,47,48,48,49,49,50,50,51,51,52,52,53,53,54,54,55,55,56,56,57,57,58,58,59,59,60,60,61,61,62,62],"right_children":[2,4,6,8,10,12,14,16,18,20,22,24,26,28,30,32,34,36,38,40,42,44,46,48,50,52,54,56,58,60,62,64,66,68,70,72,74,76,78,80,82,84,86,88,90,92,94,96,98,100,102,104,106,108,110,112,114,116,118,120,122,124,126,-1,-1,-1,-1,-1,-1,-1,-1,-1,-1,-1,-1,-1,-1,-1,-1,-1,-1,-1,-1,-1,-1,-1,-1,-1,-1,-1,-1,-1,-1,-1,-1,-1,-1,-1,-1,-1,-1,-1,-1,-1,-1,-1,-1,-1,-1,-1,-1,-1,-1,-1,-1,-1,-1,-1,-1,-1,-1,-1,-1,-1,-1,-1,-1],"split_conditions":[-7.686147E-2,-5.088524E-1,4.2220044E-1,-3.7912595E-1,2.0765107E0,2.0736098E0,3.8137352E-1,-6.6906667E-1,5.966823E-1,9.291266E-1,2.2786896E0,-8.0018854E-1,-4.235916E-1,1.08229905E-1,9.318433E-1,-5.134112E-1,1.08229905E-1,-4.235916E-1,1.08229905E-1,-7.615843E-1,1.5065548E0,-3.1001782E-1,-1.104245E0,-3.175799E-1,-3.9860326E-1,-6.014985E-1,2.3296518E0,-1.3019104E-1,1.4689362E0,2.2108634E0,3.847936E-2,-8.021586E-1,-5.6393754E-1,-4.955609E-2,1.3104138E0,-7.153834E-1,1.08229905E-1,-7.6768756E-1,-4.4546473E-1,-1.5349793E0,9.25523E-2,8.120586E-1,1.08229905E-1,-1.7189285E0,1.1875484E0,-7.153834E-1,2.903173E0,-1.4974213E-1,9.318433E-1,-7.153834E-1,6.2359715E-1,-6.2658155E-1,5.262405E-1,-6.0048735E-1,3.0526292E0,7.8064406E-1,3.3488834E-1,-8.2476574E-1,1.7554567E0,4.0079445E-2,2.673272E0,-6.877903E-1,2.2527373E0,3.3026797E-1,3.1001467E-1,2.9177997E-1,1.2724982E-1,3.0237544E-1,2.245482E-1,1.4819965E-1,2.879651E-1,4.4931192E-2,-1.9620042E-1,2.1430615E-1,-2.5754228E-2,1.9600014E-1,3.065052E-1,2.3152933E-1,7.907824E-2,2.7916527E-1,1.02136664E-1,-8.4944285E-2,4.382776E-2,1.01675026E-1,2.998775E-1,3.1605577E-1,1.9570266E-1,-1.1432494E-1,2.9042593E-1,1.6548932E-1,2.9330844E-1,1.5494561E-1,-3.225102E-1,3.032786E-1,3.3394808E-1,2.7826458E-1,7.5968005E-2,-7.7382915E-2,-2.4672495E-1,6.4781316E-2,-1.9652718E-1,-2.6840422E-1,-1.979214E-2,3.9258018E-1,1.7018253E-1,-2.4488316E-1,1.2213761E-1,3.617413E-1,1.1915489E-1,3.1481382E-1,3.7441257E-1,-1.2858993E-1,1.3629502E-1,1.5917987E-1,-1.8369846E-2,5.212162E-3,-2.0291597E-1,4.384041E-2,-1.6159883E-1,8.1413046E-2,2.8649506E-1,-1.9090338E-2,1.9854696E-1,1.8462388E-2,-2.1021378E-1,8.5163705E-2,-6.4318195E-2],"split_indices":[6,3,10,6,5,5,15,3,7,9,5,18,0,1,1,6,1,0,1,9,9,19,13,19,17,8,5,8,0,10,3,3,17,19,9,1,1,0,18,9,0,5,1,4,3,1,5,17,1,1,6,8,6,8,5,3,19,17,1,3,0,17,10,0,0,0,0,0,0,0,0,0,0,0,0,0,0,0,0,0,0,0,0,0,0,0,0,0,0,0,0,0,0,0,0,0,0,0,0,0,0,0,0,0,0,0,0,0,0,0,0,0,0,0,0,0,0,0,0,0,0,0,0,0,0,0,0],"split_type":[0,0,0,0,0,0,0,0,0,0,0,0,0,0,0,0,0,0,0,0,0,0,0,0,0,0,0,0,0,0,0,0,0,0,0,0,0,0,0,0,0,0,0,0,0,0,0,0,0,0,0,0,0,0,0,0,0,0,0,0,0,0,0,0,0,0,0,0,0,0,0,0,0,0,0,0,0,0,0,0,0,0,0,0,0,0,0,0,0,0,0,0,0,0,0,0,0,0,0,0,0,0,0,0,0,0,0,0,0,0,0,0,0,0,0,0,0,0,0,0,0,0,0,0,0,0,0],"sum_hessian":[4.5794834E5,1.9919522E5,2.5875314E5,7.69499E4,1.2224531E5,1.5333839E5,1.0541475E5,6.0034824E4,1.6915074E4,1.12357266E5,9.888046E3,1.498303E5,3.508084E3,5.5375418E4,5.003933E4,4.8216836E4,1.1817989E4,1.0521427E4,6.3936475E3,9.499514E4,1.7362125E4,1.7398622E3,8.1481836E3,3.665242E4,1.13177875E5,7.0765607E2,2.800428E3,2.578903E4,2.9586389E4,3.6304125E4,1.3735203E4,4.4241902E4,3.9749329E3,9.24691E3,2.5710784E3,3.6844785E3,6.836948E3,4.556701E3,1.8369464E3,2.2643213E4,7.235193E4,1.1605477E4,5.7566475E3,6.619013E2,1.0779609E3,6.7994943E0,8.1413843E3,5.125481E3,3.1526943E4,2.4607404E4,8.857048E4,3.0033786E2,4.073182E2,7.062528E2,2.0941753E3,1.1547704E4,1.4241325E4,2.4715715E4,4.8706743E3,2.4176758E4,1.2127369E4,2.8660637E3,1.086914E4,3.5031605E4,9.210297E3,3.1775771E3,7.973558E2,6.6308247E3,2.616086E3,2.1351738E3,4.3590457E2,1.1273168E3,2.5571619E3,3.8731362E3,2.963812E3,8.330384E2,3.7236628E3,1.2773787E3,5.595678E2,5.37071E3,1.7272502E4,3.9497047E4,3.2854883E4,9.701845E3,1.9036326E3,3.611663E3,2.1449841E3,1.955989E0,6.599453E2,7.895923E2,2.8836865E2,2.2245386E0,4.5749555E0,3.0403174E3,5.101067E3,3.4153894E3,1.7100917E3,2.1526148E4,1.0000794E4,4.5017383E3,2.0105666E4,8.360801E4,4.962466E3,1.4874205E2,1.515958E2,2.3449504E2,1.7282318E2,2.04275E2,5.0197778E2,8.3991925E2,1.254256E3,9.70902E3,1.8386848E3,8.0829077E3,6.158418E3,2.8236736E3,2.1892041E4,3.7149128E3,1.1557615E3,6.670546E3,1.750621E4,9.205691E3,2.9216777E3,3.540759E2,2.5119878E3,5.448015E3,5.4211245E3],"tree_param":{"num_deleted":"0","num_feature":"20","num_nodes":"127","size_leaf_vector":"0"}},{"base_weights":[-6.3263793E-3,-4.5060596E-1,2.3645304E-1,-8.038253E-1,-9.9166825E-2,5.891318E-1,3.5854768E-2,-9.778971E-1,-5.6474435E-1,1.1568873E-1,-5.454104E-1,3.1386676E-1,7.6181424E-1,-5.443556E-1,1.4380813E-1,-1.0343007E0,-6.2870973E-1,-6.7255914E-1,-3.1423002E-1,-3.7929764E-1,2.2135478E-1,-3.8852474E-1,-9.954184E-1,3.2884106E-2,7.026736E-1,-4.6137172E-1,8.079029E-1,-8.2062054E-1,-2.9808372E-1,2.6363862E-1,-2.5619292E-1,-1.0582191E0,-9.379252E-1,-3.1197822E-1,-8.986811E-1,-7.696585E-1,-4.3243676E-1,-1.6509634E-2,-4.4313833E-1,5.206778E-2,-6.1209977E-1,3.072956E-1,-3.803597E-1,-6.615159E-1,-2.734248E-1,-8.521765E-1,-1.0514307E0,-3.8476926E-1,3.33178E-1,-4.1796526E-1,7.405287E-1,-9.601103E-1,-1.3402607E-1,8.7021446E-1,2.2229205E-1,-7.176732E-1,-1.1420188E0,1.2067064E-1,-6.087644E-1,1.13133654E-1,6.20898E-1,-3.514042E-1,2.4910344E-1,-1.0645653E0,-9.633877E-1,-9.85714E-1,-7.1506256E-1,-6.294572E-1,1.15290724E-1,-9.6074295E-1,-6.710364E-1,1.910648E0,-7.7620333E-1,-2.2327092E-2,-5.3190964E-1,-8.962377E-1,5.2526724E-2,-5.8683443E-1,-1.6350797E-1,-5.395416E-1,1.9810565E-1,-7.267046E-1,-1.13012835E-1,-4.9765218E-2,4.2114383E-1,-7.3728746E-1,-2.2947054E-1,-8.5652524E-1,-5.8288616E-1,-1.3773397E-1,-6.591393E-1,-9.184563E-1,-6.146301E-1,-1.0527828E0,7.7394515E-1,-6.1905146E-1,2.0086448E-1,-5.607195E-1,4.1257074E-1,-5.521731E-1,6.507077E-1,4.5119783E-1,8.478553E-1,-7.882178E-3,-1.0907032E0,8.383426E-3,-1.0437049E0,8.7686557E-1,-1.7293344E0,-9.533481E-1,6.720408E-1,-8.200151E-1,-2.757104E-1,-9.5865846E-1,-1.351528E0,-2.735194E-1,4.5780078E-1,-5.2203345E-1,-1.0125574E0,-1.8547213E-1,3.1453767E-1,6.4905465E-1,-7.8205794E-1,-2.2072315E-1,-6.1295366E-1,4.089326E-1,-4.8906878E-1],"categories":[],"categories_nodes":[],"categories_segments":[],"categories_sizes":[],"default_left":[1,1,1,1,1,1,1,1,1,1,1,1,1,1,1,1,1,1,1,1,1,1,1,1,1,1,1,1,1,1,1,1,1,1,1,1,1,1,1,1,1,1,1,1,1,1,1,1,1,1,1,1,1,1,1,1,1,1,1,1,1,1,1,0,0,0,0,0,0,0,0,0,0,0,0,0,0,0,0,0,0,0,0,0,0,0,0,0,0,0,0,0,0,0,0,0,0,0,0,0,0,0,0,0,0,0,0,0,0,0,0,0,0,0,0,0,0,0,0,0,0,0,0,0,0,0,0],"id":12,"left_children":[1,3,5,7,9,11,13,15,17,19,21,23,25,27,29,31,33,35,37,39,41,43,45,47,49,51,53,55,57,59,61,63,65,67,69,71,73,75,77,79,81,83,85,87,89,91,93,95,97,99,101,103,105,107,109,111,113,115,117,119,121,123,125,-1,-1,-1,-1,-1,-1,-1,-1,-1,-1,-1,-1,-1,-1,-1,-1,-1,-1,-1,-1,-1,-1,-1,-1,-1,-1,-1,-1,-1,-1,-1,-1,-1,-1,-1,-1,-1,-1,-1,-1,-1,-1,-1,-1,-1,-1,-1,-1,-1,-1,-1,-1,-1,-1,-1,-1,-1,-1,-1,-1,-1,-1,-1,-1],"loss_changes":[4.492071E4,1.8267918E4,1.9052273E4,3.0539453E3,7.0727954E3,4.6408945E3,1.0752388E4,8.358242E2,8.350625E2,2.604498E3,1.6922178E3,4.1122236E3,3.3828086E3,1.831937E3,