{"learner":{"attributes":{"best_iteration":"99","best_ntree_limit":"100","scikit_learn":"{\"use_label_encoder\": null, \"n_estimators\": 100, \"objective\": \"binary:logistic\", \"max_depth\": null, \"max_leaves\": null, \"max_bin\": null, \"grow_policy\": null, \"learning_rate\": null, \"verbosity\": null, \"booster\": \"gbtree\", \"tree_method\": null, \"gamma\": null, \"min_child_weight\": null, \"max_delta_step\": null, \"subsample\": null, \"sampling_method\": null, \"colsample_bytree\": null, \"colsample_bylevel\": null, \"colsample_bynode\": null, \"reg_alpha\": null, \"reg_lambda\": null, \"scale_pos_weight\": null, \"base_score\": null, \"missing\": NaN, \"num_parallel_tree\": null, \"random_state\": null, \"n_jobs\": null, \"monotone_constraints\": null, \"interaction_constraints\": null, \"importance_type\": null, \"gpu_id\": null, \"validate_parameters\": null, \"predictor\": null, \"enable_categorical\": false, \"feature_types\": null, \"max_cat_to_onehot\": null, \"max_cat_threshold\": null, \"eval_metric\": null, \"early_stopping_rounds\": null, \"callbacks\": null, \"classes_\": [0.0, 1.0], \"n_classes_\": 2, \"_estimator_type\": \"classifier\"}"},"feature_names":[],"feature_types":[],"gradient_booster":{"model":{"gbtree_model_param":{"num_parallel_tree":"1","num_trees":"200","size_leaf_vector":"0"},"tree_info":[0,1,0,1,0,1,0,1,0,1,0,1,0,1,0,1,0,1,0,1,0,1,0,1,0,1,0,1,0,1,0,1,0,1,0,1,0,1,0,1,0,1,0,1,0,1,0,1,0,1,0,1,0,1,0,1,0,1,0,1,0,1,0,1,0,1,0,1,0,1,0,1,0,1,0,1,0,1,0,1,0,1,0,1,0,1,0,1,0,1,0,1,0,1,0,1,0,1,0,1,0,1,0,1,0,1,0,1,0,1,0,1,0,1,0,1,0,1,0,1,0,1,0,1,0,1,0,1,0,1,0,1,0,1,0,1,0,1,0,1,0,1,0,1,0,1,0,1,0,1,0,1,0,1,0,1,0,1,0,1,0,1,0,1,0,1,0,1,0,1,0,1,0,1,0,1,0,1,0,1,0,1,0,1,0,1,0,1,0,1,0,1,0,1,0,1,0,1,0,1],"trees":[{"base_weights":[-0E0,-1.4182504E0,1.020609E0,-1.6329699E0,4.243008E-1,1.2763305E0,-7.945918E-1,-1.9025446E0,-1.1233757E0,9.0554374E-1,-8.851832E-1,4.5517233E-1,1.6504741E0,-1.2110033E0,3.903047E-1,-8.9027184E-1,-1.9391718E0,-1.4626716E0,-2.2520882E-1,1.1104561E0,-1.793953E0,-1.7603024E0,-3.211564E-1,1.0892512E0,-6.322943E-1,1.7786075E0,9.524493E-1,-1.5310334E0,-5.7210624E-1,8.075655E-1,-1.6310662E0,-1.3581878E0,1.7123288E-1,-1.6945984E0,-1.973187E0,-1.2935847E0,-1.9729881E0,9.2381746E-2,-1.8786099E0,-1.8234284E-1,1.3164823E0,-9.168539E-1,-1.9021116E0,-6.7832166E-1,-1.840933E0,-1.839512E-2,-1.8747592E0,1.2092808E0,-1.6469809E0,-1.161365E0,6.567184E-1,1.7920865E0,-1.2362708E0,3.2646146E-1,1.51963E0,-7.6241034E-1,-1.6517563E0,3.4283283E-1,-9.5931226E-1,1.3484108E0,1.6877371E-1,-1.0686979E0,-1.8772727E0,-1.5398461E0,-1.3682678E-1,-6.479633E-1,7.094487E-1,-1.8198373E0,-1.0522059E0,-1.9881315E0,-1.8642551E0,-9.0406334E-1,-1.6589051E0,-1.7766113E0,-1.9847639E0,6.725771E-1,-9.903802E-1,-1.4687898E0,-1.9525847E0,9.559302E-1,-1.1694242E0,1.4244384E0,-1.11163005E-1,-1.9679634E-1,-1.5973742E0,1E0,-1.9059219E0,-1.5102041E0,3.6399218E-1,-1.9321692E0,-1.5148987E0,8.452001E-1,-5.877773E-1,-1.2662193E0,-1.9460771E0,1.4285634E0,1.6216579E-1,-9.480558E-1,-1.8470057E0,-1.3401314E0,5.6701845E-1,-1.0401208E-1,1.4498744E0,1.8402916E0,1.1618297E0,-4.6326625E-1,-1.8783625E0,8.333452E-1,-4.6644014E-1,1.5891833E0,-1.615768E0,-1.0840704E0,2.4698505E-1,-4.2485645E-1,-1.7221113E0,6.7400444E-1,-1.6863636E0,7.427895E-1,-1.2646302E0,1.4491593E0,-1.0288066E-1,1.6090047E0,-3.550959E-1,-5.27439E-1,-1.3938277E0,-1.9218559E0,-1.2694395E0],"categories":[],"categories_nodes":[],"categories_segments":[],"categories_sizes":[],"default_left":[1,1,1,1,1,1,1,1,1,1,1,1,1,1,1,1,1,1,1,1,1,1,1,1,1,1,1,1,1,1,1,1,1,1,1,1,1,1,1,1,1,1,1,1,1,1,1,1,1,1,1,1,1,1,1,1,1,1,1,1,1,1,1,0,0,0,0,0,0,0,0,0,0,0,0,0,0,0,0,0,0,0,0,0,0,0,0,0,0,0,0,0,0,0,0,0,0,0,0,0,0,0,0,0,0,0,0,0,0,0,0,0,0,0,0,0,0,0,0,0,0,0,0,0,0,0,0],"id":0,"left_children":[1,3,5,7,9,11,13,15,17,19,21,23,25,27,29,31,33,35,37,39,41,43,45,47,49,51,53,55,57,59,61,63,65,67,69,71,73,75,77,79,81,83,85,87,89,91,93,95,97,99,101,103,105,107,109,111,113,115,117,119,121,123,125,-1,-1,-1,-1,-1,-1,-1,-1,-1,-1,-1,-1,-1,-1,-1,-1,-1,-1,-1,-1,-1,-1,-1,-1,-1,-1,-1,-1,-1,-1,-1,-1,-1,-1,-1,-1,-1,-1,-1,-1,-1,-1,-1,-1,-1,-1,-1,-1,-1,-1,-1,-1,-1,-1,-1,-1,-1,-1,-1,-1,-1,-1,-1,-1],"loss_changes":[1.2903676E6,1.4759331E5,2.4063625E5,4.5897188E4,2.4538117E4,1.3960194E5,3.158527E4,8.10025E3,3.522822E4,1.5752404E4,5.1646133E3,9.807442E4,2.7918062E4,9.684234E3,1.4042255E4,3.7912573E3,1.751125E3,7.237328E3,1.6644545E4,7.0492695E3,1.8886523E2,3.5652637E2,2.9936401E3,2.9509617E4,3.5727586E4,1.0720125E4,1.7189785E4,2.927086E3,5.601336E3,4.767328E3,3.9242773E2,1.1751465E3,1.0304122E3,2.0702422E3,2.976875E2,8.967008E3,4.4757812E1,1.6705334E4,1.5197266E2,4.089501E3,3.5184023E3,1.08713684E2,2.1674805E1,2.485353E2,1.1058496E2,2.6201125E3,4.2584717E1,1.9762594E4,5.261426E2,1.14769375E4,9.19895E3,7.9751875E3,5.8208105E2,9.250926E3,5.542008E3,1.3917749E3,2.3535234E3,3.1609385E3,5.774089E3,1.0927412E3,4.7750044E3,1.5232294E2,5.121631E1,0E0,0E0,0E0,0E0,0E0,0E0,0E0,0E0,0E0,0E0,0E0,0E0,0E0,0E0,0E0,0E0,0E0,0E0,0E0,0E0,0E0,0E0,0E0,0E0,0E0,0E0,0E0,0E0,0E0,0E0,0E0,0E0,0E0,0E0,0E0,0E0,0E0,0E0,0E0,0E0,0E0,0E0,0E0,0E0,0E0,0E0,0E0,0E0,0E0,0E0,0E0,0E0,0E0,0E0,0E0,0E0,0E0,0E0,0E0,0E0,0E0,0E0,0E0,0E0],"parents":[2147483647,0,0,1,1,2,2,3,3,4,4,5,5,6,6,7,7,8,8,9,9,10,10,11,11,12,12,13,13,14,14,15,15,16,16,17,17,18,18,19,19,20,20,21,21,22,22,23,23,24,24,25,25,26,26,27,27,28,28,29,29,30,30,31,31,32,32,33,33,34,34,35,35,36,36,37,37,38,38,39,39,40,40,41,41,42,42,43,43,44,44,45,45,46,46,47,47,48,48,49,49,50,50,51,51,52,52,53,53,54,54,55,55,56,56,57,57,58,58,59,59,60,60,61,61,62,62],"right_children":[2,4,6,8,10,12,14,16,18,20,22,24,26,28,30,32,34,36,38,40,42,44,46,48,50,52,54,56,58,60,62,64,66,68,70,72,74,76,78,80,82,84,86,88,90,92,94,96,98,100,102,104,106,108,110,112,114,116,118,120,122,124,126,-1,-1,-1,-1,-1,-1,-1,-1,-1,-1,-1,-1,-1,-1,-1,-1,-1,-1,-1,-1,-1,-1,-1,-1,-1,-1,-1,-1,-1,-1,-1,-1,-1,-1,-1,-1,-1,-1,-1,-1,-1,-1,-1,-1,-1,-1,-1,-1,-1,-1,-1,-1,-1,-1,-1,-1,-1,-1,-1,-1,-1,-1,-1,-1],"split_conditions":[-1.8661928E-1,-1.2191321E-1,9.3882763E-1,-3.754218E-1,9.730725E-1,-3.1602728E-1,4.46496E-2,-4.3948978E-1,-2.3147492E-1,2.0565648E0,-2.8522754E-1,2.254017E-1,9.134671E-2,-2.57761E-1,1.8800304E0,-2.781955E-1,3.8504064E-1,2.0039177E0,2.0236745E0,-5.5005354E-1,2.210004E0,-6.4731646E-1,1.9861336E0,2.1015284E0,2.8767414E-2,2.216505E0,-1.7472053E-1,-2.329854E0,-1.770095E0,-1.3035214E0,2.3581934E0,1.5113765E-1,-3.2572186E-1,-2.0085832E-1,-5.342181E-1,7.9137146E-1,2.1160078E0,8.724359E-1,2.2418823E0,-7.681008E-2,7.918683E-1,9.0800154E-1,-1.9183136E0,-5.0143003E-1,-4.5539802E-1,-2.0900881E-1,2.1320956E0,4.3798956E-1,2.3449132E0,-1.4741993E-1,-2.7167875E-1,1.1267829E0,2.8457441E0,6.256065E-1,2.0971882E0,-1.6547501E-2,2.4617933E-1,2.0322418E0,4.254456E-1,5.108588E0,4.9506605E-1,-1.4456904E0,2.372991E0,-4.6195385E-1,-4.1048035E-2,-1.94389E-1,2.1283461E-1,-5.4595125E-1,-3.156618E-1,-5.964395E-1,-5.592765E-1,-2.7121902E-1,-4.9767157E-1,-5.329834E-1,-5.954292E-1,2.0177314E-1,-2.9711407E-1,-4.4063696E-1,-5.8577543E-1,2.8677908E-1,-3.5082728E-1,4.2733154E-1,-3.3348903E-2,-5.9038904E-2,-4.7921228E-1,3E-1,-5.717766E-1,-4.5306125E-1,1.0919766E-1,-5.7965076E-1,-4.5446962E-1,2.5356004E-1,-1.763332E-1,-3.798658E-1,-5.8382314E-1,4.2856902E-1,4.864974E-2,-2.8441676E-1,-5.5410177E-1,-4.0203944E-1,1.7010555E-1,-3.1203626E-2,4.3496233E-1,5.520875E-1,3.4854892E-1,-1.3897988E-1,-5.635088E-1,2.5000358E-1,-1.3993205E-1,4.7675502E-1,-4.847304E-1,-3.2522115E-1,7.409552E-2,-1.2745695E-1,-5.1663345E-1,2.0220134E-1,-5.059091E-1,2.2283687E-1,-3.7938908E-1,4.347478E-1,-3.0864198E-2,4.8270145E-1,-1.06528774E-1,-1.582317E-1,-4.181483E-1,-5.765568E-1,-3.8083187E-1],"split_indices":[6,38,6,3,28,41,38,28,31,5,3,29,28,41,5,41,28,5,5,3,5,30,5,5,34,5,38,30,30,30,5,34,6,31,3,28,5,28,5,28,3,3,13,3,3,30,5,0,5,38,31,0,5,29,5,34,3,5,3,10,3,30,8,0,0,0,0,0,0,0,0,0,0,0,0,0,0,0,0,0,0,0,0,0,0,0,0,0,0,0,0,0,0,0,0,0,0,0,0,0,0,0,0,0,0,0,0,0,0,0,0,0,0,0,0,0,0,0,0,0,0,0,0,0,0,0,0],"split_type":[0,0,0,0,0,0,0,0,0,0,0,0,0,0,0,0,0,0,0,0,0,0,0,0,0,0,0,0,0,0,0,0,0,0,0,0,0,0,0,0,0,0,0,0,0,0,0,0,0,0,0,0,0,0,0,0,0,0,0,0,0,0,0,0,0,0,0,0,0,0,0,0,0,0,0,0,0,0,0,0,0,0,0,0,0,0,0,0,0,0,0,0,0,0,0,0,0,0,0,0,0,0,0,0,0,0,0,0,0,0,0,0,0,0,0,0,0,0,0,0,0,0,0,0,0,0,0],"sum_hessian":[8.914565E5,3.7305475E5,5.1840175E5,3.3411875E5,3.8936E4,4.5438875E5,6.4013E4,2.185195E5,1.1559925E5,2.84725E4,1.04635E4,1.4222975E5,3.12159E5,4.736675E4,1.664625E4,7.6315E3,2.10888E5,8.3903E4,3.169625E4,2.646425E4,2.00825E3,4.1E3,6.3635E3,8.984375E4,5.2386E4,2.6374325E5,4.841575E4,3.155775E4,1.5809E4,1.37985E4,2.84775E3,5.2965E3,2.335E3,2.575525E4,1.8513275E5,6.302425E4,2.087875E4,2.658975E4,5.1065E3,3.63775E3,2.28265E4,2.215E2,1.78675E3,2.85E2,3.815E3,5.3265E3,1.037E3,8.606875E4,3.775E3,3.71415E4,1.52445E4,2.6256975E5,1.1735E3,2.30155E4,2.540025E4,4.28475E3,2.7273E4,4.701E3,1.1108E4,7.4715E3,6.327E3,8.6875E2,1.979E3,4.6105E3,6.86E2,9.2575E2,1.40925E3,2.155175E4,4.2035E3,1.62783E5,2.234975E4,3.05035E4,3.252075E4,1.18975E3,1.9689E4,1.7313E4,9.27675E3,7.84E2,4.3225E3,1.6895E3,1.94825E3,2.122175E4,1.60475E3,1.0825E2,1.1325E2,2E0,1.78475E3,1.5825E2,1.2675E2,2.977E3,8.38E2,2.11625E3,3.21025E3,1.1075E2,9.2625E2,7.116525E4,1.49035E4,8.4125E2,2.93375E3,3.366025E4,3.48125E3,7.78175E3,7.46275E3,2.4391225E5,1.86575E4,5.3325E2,6.4025E2,1.404E4,8.9755E3,2.48495E4,5.5075E2,3.24925E3,1.0355E3,1.4795E3,2.57935E4,4.042E3,6.59E2,1.68925E3,9.41875E3,6.9865E3,4.85E2,1.687E3,4.64E3,3.27E2,5.4175E2,1.84175E3,1.3725E2],"tree_param":{"num_deleted":"0","num_feature":"49","num_nodes":"127","size_leaf_vector":"0"}},{"base_weights":[-0E0,1.4182504E0,-1.020609E0,1.6329699E0,-4.243008E-1,-1.2763305E0,7.945918E-1,1.9025446E0,1.1233757E0,-9.0554374E-1,8.851832E-1,-4.5517233E-1,-1.6504741E0,1.2110033E0,-3.903047E-1,8.9027184E-1,1.9391718E0,1.4626716E0,2.2520882E-1,-1.1104561E0,1.793953E0,1.7603024E0,3.211564E-1,-1.0892512E0,6.322943E-1,-1.7786075E0,-9.524493E-1,1.5310334E0,5.7210624E-1,-8.075655E-1,1.6310662E0,1.3581878E0,-1.7123288E-1,1.6945984E0,1.973187E0,1.2935847E0,1.9729881E0,-9.2381746E-2,1.8786099E0,1.8234284E-1,-1.3164823E0,9.168539E-1,1.9021116E0,6.7832166E-1,1.840933E0,1.839512E-2,1.8747592E0,-1.2092808E0,1.6469809E0,1.161365E0,-6.567184E-1,-1.7920865E0,1.2362708E0,-3.2646146E-1,-1.51963E0,7.6241034E-1,1.6517563E0,-3.4283283E-1,9.5931226E-1,-1.3484108E0,-1.6877371E-1,1.0686979E0,1.8772727E0,1.5398461E0,1.3682678E-1,6.479633E-1,-7.094487E-1,1.8198373E0,1.0522059E0,1.9881315E0,1.8642551E0,9.0406334E-1,1.6589051E0,1.7766113E0,1.9847639E0,-6.725771E-1,9.903802E-1,1.4687898E0,1.9525847E0,-9.559302E-1,1.1694242E0,-1.4244384E0,1.11163005E-1,1.9679634E-1,1.5973742E0,-1E0,1.9059219E0,1.5102041E0,-3.6399218E-1,1.9321692E0,1.5148987E0,-8.452001E-1,5.877773E-1,1.2662193E0,1.9460771E0,-1.4285634E0,-1.6216579E-1,9.480558E-1,1.8470057E0,1.3401314E0,-5.6701845E-1,1.0401208E-1,-1.4498744E0,-1.8402916E0,-1.1618297E0,4.6326625E-1,1.8783625E0,-8.333452E-1,4.6644014E-1,-1.5891833E0,1.615768E0,1.0840704E0,-2.4698505E-1,4.2485645E-1,1.7221113E0,-6.7400444E-1,1.6863636E0,-7.427895E-1,1.2646302E0,-1.4491593E0,1.0288066E-1,-1.6090047E0,3.550959E-1,5.27439E-1,1.3938277E0,1.9218559E0,1.2694395E0],"categories":[],"categories_nodes":[],"categories_segments":[],"categories_sizes":[],"default_left":[1,1,1,1,1,1,1,1,1,1,1,1,1,1,1,1,1,1,1,1,1,1,1,1,1,1,1,1,1,1,1,1,1,1,1,1,1,1,1,1,1,1,1,1,1,1,1,1,1,1,1,1,1,1,1,1,1,1,1,1,1,1,1,0,0,0,0,0,0,0,0,0,0,0,0,0,0,0,0,0,0,0,0,0,0,0,0,0,0,0,0,0,0,0,0,0,0,0,0,0,0,0,0,0,0,0,0,0,0,0,0,0,0,0,0,0,0,0,0,0,0,0,0,0,0,0,0],"id":1,"left_children":[1,3,5,7,9,11,13,15,17,19,21,23,25,27,29,31,33,35,37,39,41,43,45,47,49,51,53,55,57,59,61,63,65,67,69,71,73,75,77,79,81,83,85,87,89,91,93,95,97,99,101,103,105,107,109,111,113,115,117,119,121,123,125,-1,-1,-1,-1,-1,-1,-1,-1,-1,-1,-1,-1,-1,-1,-1,-1,-1,-1,-1,-1,-1,-1,-1,-1,-1,-1,-1,-1,-1,-1,-1,-1,-1,-1,-1,-1,-1,-1,-1,-1,-1,-1,-1,-1,-1,-1,-1,-1,-1,-1,-1,-1,-1,-1,-1,-1,-1,-1,-1,-1,-1,-1,-1,-1],"loss_changes":[1.2903676E6,1.4759331E5,2.4063625E5,4.5897188E4,2.4538117E4,1.3960194E5,3.158527E4,8.10025E3,3.522822E4,1.5752404E4,5.1646133E3,9.807442E4,2.7918062E4,9.684234E3,1.4042255E4,3.7912573E3,1.751125E3,7.237328E3,1.6644545E4,7.0492695E3,1.8886523E2,3.5652637E2,2.9936401E3,2.9509617E4,3.5727586E4,1.0720125E4,1.7189785E4,2.927086E3,5.601336E3,4.767328E3,3.9242773E2,1.1751465E3,1.0304122E3,2.0702422E3,2.976875E2,8.967008E3,4.4757812E1,1.6705334E4,1.5197266E2,4.089501E3,3.5184023E3,1.08713684E2,2.1674805E1,2.485353E2,1.1058496E2,2.6201125E3,4.2584717E1,1.9762594E4,5.261426E2,1.14769375E4,9.19895E3,7.9751875E3,5.8208105E2,9.250926E3,5.542008E3,1.3917749E3,2.3535234E3,3.1609385E3,5.774089E3,1.0927412E3,4.7750044E3,1.5232294E2,5.121631E1,0E0,0E0,0E0,0E0,0E0,0E0,0E0,0E0,0E0,0E0,0E0,0E0,0E0,0E0,0E0,0E0,0E0,0E0,0E0,0E0,0E0,0E0,0E0,0E0,0E0,0E0,0E0,0E0,0E0,0E0,0E0,0E0,0E0,0E0,0E0,0E0,0E0,0E0,0E0,0E0,0E0,0E0,0E0,0E0,0E0,0E0,0E0,0E0,0E0,0E0,0E0,0E0,0E0,0E0,0E0,0E0,0E0,0E0,0E0,0E0,0E0,0E0,0E0,0E0],"parents":[2147483647,0,0,1,1,2,2,3,3,4,4,5,5,6,6,7,7,8,8,9,9,10,10,11,11,12,12,13,13,14,14,15,15,16,16,17,17,18,18,19,19,20,20,21,21,22,22,23,23,24,24,25,25,26,26,27,27,28,28,29,29,30,30,31,31,32,32,33,33,34,34,35,35,36,36,37,37,38,38,39,39,40,40,41,41,42,42,43,43,44,44,45,45,46,46,47,47,48,48,49,49,50,50,51,51,52,52,53,53,54,54,55,55,56,56,57,57,58,58,59,59,60,60,61,61,62,62],"right_children":[2,4,6,8,10,12,14,16,18,20,22,24,26,28,30,32,34,36,38,40,42,44,46,48,50,52,54,56,58,60,62,64,66,68,70,72,74,76,78,80,82,84,86,88,90,92,94,96,98,100,102,104,106,108,110,112,114,116,118,120,122,124,126,-1,-1,-1,-1,-1,-1,-1,-1,-1,-1,-1,-1,-1,-1,-1,-1,-1,-1,-1,-1,-1,-1,-1,-1,-1,-1,-1,-1,-1,-1,-1,-1,-1,-1,-1,-1,-1,-1,-1,-1,-1,-1,-1,-1,-1,-1,-1,-1,-1,-1,-1,-1,-1,-1,-1,-1,-1,-1,-1,-1,-1,-1,-1,-1],"split_conditions":[-1.8661928E-1,-1.2191321E-1,9.3882763E-1,-3.754218E-1,9.730725E-1,-3.1602728E-1,4.46496E-2,-4.3948978E-1,-2.3147492E-1,2.0565648E0,-2.8522754E-1,2.254017E-1,9.134671E-2,-2.57761E-1,1.8800304E0,-2.781955E-1,3.8504064E-1,2.0039177E0,2.0236745E0,-5.5005354E-1,2.210004E0,-6.4731646E-1,1.9861336E0,2.1015284E0,2.8767414E-2,2.216505E0,-1.7472053E-1,-2.329854E0,-1.770095E0,-1.3035214E0,2.3581934E0,1.5113765E-1,-3.2572186E-1,-2.0085832E-1,-5.342181E-1,7.9137146E-1,2.1160078E0,8.724359E-1,2.2418823E0,-7.681008E-2,7.918683E-1,9.0800154E-1,-1.9183136E0,-5.0143003E-1,-4.5539802E-1,-2.0900881E-1,2.1320956E0,4.3798956E-1,2.3449132E0,-1.4741993E-1,-2.7167875E-1,1.1267829E0,2.8457441E0,6.256065E-1,2.0971882E0,-1.6547501E-2,2.4617933E-1,2.0322418E0,4.254456E-1,5.108588E0,4.9506605E-1,-1.4456904E0,2.372991E0,4.6195385E-1,4.1048035E-2,1.94389E-1,-2.1283461E-1,5.4595125E-1,3.156618E-1,5.964395E-1,5.592765E-1,2.7121902E-1,4.9767157E-1,5.329834E-1,5.954292E-1,-2.0177314E-1,2.9711407E-1,4.4063696E-1,5.8577543E-1,-2.8677908E-1,3.5082728E-1,-4.2733154E-1,3.3348903E-2,5.9038904E-2,4.7921228E-1,-3E-1,5.717766E-1,4.5306125E-1,-1.0919766E-1,5.7965076E-1,4.5446962E-1,-2.5356004E-1,1.763332E-1,3.798658E-1,5.8382314E-1,-4.2856902E-1,-4.864974E-2,2.8441676E-1,5.5410177E-1,4.0203944E-1,-1.7010555E-1,3.1203626E-2,-4.3496233E-1,-5.520875E-1,-3.4854892E-1,1.3897988E-1,5.635088E-1,-2.5000358E-1,1.3993205E-1,-4.7675502E-1,4.847304E-1,3.2522115E-1,-7.409552E-2,1.2745695E-1,5.1663345E-1,-2.0220134E-1,5.059091E-1,-2.2283687E-1,3.7938908E-1,-4.347478E-1,3.0864198E-2,-4.8270145E-1,1.06528774E-1,1.582317E-1,4.181483E-1,5.765568E-1,3.8083187E-1],"split_indices":[6,38,6,3,28,41,38,28,31,5,3,29,28,41,5,41,28,5,5,3,5,30,5,5,34,5,38,30,30,30,5,34,6,31,3,28,5,28,5,28,3,3,13,3,3,30,5,0,5,38,31,0,5,29,5,34,3,5,3,10,3,30,8,0,0,0,0,0,0,0,0,0,0,0,0,0,0,0,0,0,0,0,0,0,0,0,0,0,0,0,0,0,0,0,0,0,0,0,0,0,0,0,0,0,0,0,0,0,0,0,0,0,0,0,0,0,0,0,0,0,0,0,0,0,0,0,0],"split_type":[0,0,0,0,0,0,0,0,0,0,0,0,0,0,0,0,0,0,0,0,0,0,0,0,0,0,0,0,0,0,0,0,0,0,0,0,0,0,0,0,0,0,0,0,0,0,0,0,0,0,0,0,0,0,0,0,0,0,0,0,0,0,0,0,0,0,0,0,0,0,0,0,0,0,0,0,0,0,0,0,0,0,0,0,0,0,0,0,0,0,0,0,0,0,0,0,0,0,0,0,0,0,0,0,0,0,0,0,0,0,0,0,0,0,0,0,0,0,0,0,0,0,0,0,0,0,0],"sum_hessian":[8.914565E5,3.7305475E5,5.1840175E5,3.3411875E5,3.8936E4,4.5438875E5,6.4013E4,2.185195E5,1.1559925E5,2.84725E4,1.04635E4,1.4222975E5,3.12159E5,4.736675E4,1.664625E4,7.6315E3,2.10888E5,8.3903E4,3.169625E4,2.646425E4,2.00825E3,4.1E3,6.3635E3,8.984375E4,5.2386E4,2.6374325E5,4.841575E4,3.155775E4,1.5809E4,1.37985E4,2.84775E3,5.2965E3,2.335E3,2.575525E4,1.8513275E5,6.302425E4,2.087875E4,2.658975E4,5.1065E3,3.63775E3,2.28265E4,2.215E2,1.78675E3,2.85E2,3.815E3,5.3265E3,1.037E3,8.606875E4,3.775E3,3.71415E4,1.52445E4,2.6256975E5,1.1735E3,2.30155E4,2.540025E4,4.28475E3,2.7273E4,4.701E3,1.1108E4,7.4715E3,6.327E3,8.6875E2,1.979E3,4.6105E3,6.86E2,9.2575E2,1.40925E3,2.155175E4,4.2035E3,1.62783E5,2.234975E4,3.05035E4,3.252075E4,1.18975E3,1.9689E4,1.7313E4,9.27675E3,7.84E2,4.3225E3,1.6895E3,1.94825E3,2.122175E4,1.60475E3,1.0825E2,1.1325E2,2E0,1.78475E3,1.5825E2,1.2675E2,2.977E3,8.38E2,2.11625E3,3.21025E3,1.1075E2,9.2625E2,7.116525E4,1.49035E4,8.4125E2,2.93375E3,3.366025E4,3.48125E3,7.78175E3,7.46275E3,2.4391225E5,1.86575E4,5.3325E2,6.4025E2,1.404E4,8.9755E3,2.48495E4,5.5075E2,3.24925E3,1.0355E3,1.4795E3,2.57935E4,4.042E3,6.59E2,1.68925E3,9.41875E3,6.9865E3,4.85E2,1.687E3,4.64E3,3.27E2,5.4175E2,1.84175E3,1.3725E2],"tree_param":{"num_deleted":"0","num_feature":"49","num_nodes":"127","size_leaf_vector":"0"}},{"base_weights":[-7.497414E-4,-1.0526395E0,7.8137136E-1,-1.2465854E0,2.3635948E-1,5.6447715E-2,1.2111039E0,-1.4724996E0,-8.6828774E-1,6.7402065E-1,-6.187353E-1,5.7428646E-1,-7.137109E-1,1.2988762E0,-2.0514205E-2,-2.073547E-1,-1.4983916E0,-1.1757973E0,-2.3735039E-1,8.358602E-1,-1.3565661E0,-1.3799018E0,-1.946936E-1,-8.3356935E-1,7.8638524E-1,-1.0765281E0,4.061836E-1,-1.1168445E-1,1.3491075E0,6.1636174E-1,-6.957336E-1,-6.7709464E-1,8.518443E-1,-1.1926024E0,-1.5235876E0,-1.3077037E0,-8.123122E-1,1.2022427E-1,-9.894677E-1,3.0727118E-1,1.1468649E0,-5.488035E-1,-1.4568164E0,-2.9259035E-1,-1.4325917E0,-7.130568E-1,4.401823E-1,-1.1819332E0,7.211189E-1,9.3580586E-1,-8.5536665E-1,-1.2273287E0,-2.4439183E-1,5.828689E-1,-1.4584931E0,-7.6329195E-1,9.562568E-1,1.0091736E0,1.4683403E0,8.272705E-1,-1.2944057E0,7.230994E-1,-9.1214895E-1,-1.0847609E0,-9.043151E-2,-9.2535645E-1,1.0672007E0,-1.293015E0,-1.5773002E-2,-1.5410382E0,-1.4261184E0,-1.5177827E0,-1.2116071E0,-4.209858E-1,-1.1651357E0,3.992531E-1,-1.4565378E0,-7.454135E-2,-1.1763219E0,-2.4859874E-1,7.291259E-1,-4.2337388E-1,1.227819E0,3.689492E-2,-1.3428326E0,-1.2329215E0,-1.530264E0,-1.2845026E0,2.800421E-1,-1.49528E0,-1.1925071E0,-3.5362743E-2,-9.554778E-1,6.21446E-1,-1.4171643E0,-1.3078914E0,2.3282154E-1,1.7871392E-1,1.16215E0,5.680195E-1,1.3330964E0,3.314213E-1,-1.1257111E0,-1.2897232E0,-3.9948583E-1,5.9424853E-1,-8.6233824E-1,9.3475306E-1,3.9589293E-2,-1.1366928E0,-1.5791359E0,-1.2311057E0,3.2728934E-1,1.180729E0,2.1027218E-1,6.525524E-1,1.3986717E0,1.4792229E0,-1.0251782E0,9.625514E-3,1.0648446E0,-8.5149485E-1,-1.5904897E0,1.3507352E0,-9.8921925E-1,-1.1636331E0,-1.9740047E-1],"categories":[],"categories_nodes":[],"categories_segments":[],"categories_sizes":[],"default_left":[1,1,1,1,1,1,1,1,1,1,1,1,1,1,1,1,1,1,1,1,1,1,1,1,1,1,1,1,1,1,1,1,1,1,1,1,1,1,1,1,1,1,1,1,1,1,1,1,1,1,1,1,1,1,1,1,1,1,1,1,1,1,1,0,0,0,0,0,0,0,0,0,0,0,0,0,0,0,0,0,0,0,0,0,0,0,0,0,0,0,0,0,0,0,0,0,0,0,0,0,0,0,0,0,0,0,0,0,0,0,0,0,0,0,0,0,0,0,0,0,0,0,0,0,0,0,0],"id":2,"left_children":[1,3,5,7,9,11,13,15,17,19,21,23,25,27,29,31,33,35,37,39,41,43,45,47,49,51,53,55,57,59,61,63,65,67,69,71,73,75,77,79,81,83,85,87,89,91,93,95,97,99,101,103,105,107,109,111,113,115,117,119,121,123,125,-1,-1,-1,-1,-1,-1,-1,-1,-1,-1,-1,-1,-1,-1,-1,-1,-1,-1,-1,-1,-1,-1,-1,-1,-1,-1,-1,-1,-1,-1,-1,-1,-1,-1,-1,-1,-1,-1,-1,-1,-1,-1,-1,-1,-1,-1,-1,-1,-1,-1,-1,-1,-1,-1,-1,-1,-1,-1,-1,-1,-1,-1,-1,-1],"loss_changes":[6.9094375E5,8.953753E4,1.5005728E5,2.6604438E4,1.7530586E4,7.149771E4,3.2691875E4,6.3845312E3,2.2584016E4,1.0183402E4,5.1184097E3,3.2010145E4,2.9286578E4,2.000225E4,8.65232E3,1.9460774E3,1.4697812E3,3.751164E3,1.0258461E4,4.717338E3,1.8444287E2,3.246338E2,3.3524937E3,7.6025254E3,2.2854594E4,6.831215E3,5.811839E3,6.756427E3,1.1047031E4,4.173755E3,2.999414E3,6.478895E2,4.609452E2,1.7186875E3,2.979375E2,1.1573516E3,2.8769453E3,1.1375237E4,2.1011816E3,2.4932476E3,2.2971406E3,1.1825154E2,3.1567871E1,1.500242E2,7.96582E1,9.2127905E2,1.5425159E3,2.0436758E3,6.1456287E2,1.247643E4,2.4940088E3,2.3800547E3,4.3295244E3,3.0801152E3,5.74834E1,3.0767874E3,6.15854E2,9.831727E3,5.477625E3,1.8114722E3,1.336737E2,1.3909868E3,1.5229663E3,0E0,0E0,0E0,0E0,0E0,0E0,0E0,0E0,0E0,0E0,0E0,0E0,0E0,0E0,0E0,0E0,0E0,0E0,0E0,0E0,0E0,0E0,0E0,0E0,0E0,0E0,0E0,0E0,0E0,0E0,0E0,0E0,0E0,0E0,0E0,0E0,0E0,0E0,0E0,0E0,0E0,0E0,0E0,0E0,0E0,0E0,0E0,0E0,0E0,0E0,0E0,0E0,0E0,0E0,0E0,0E0,0E0,0E0,0E0,0E0,0E0,0E0,0E0,0E0],"parents":[2147483647,0,0,1,1,2,2,3,3,4,4,5,5,6,6,7,7,8,8,9,9,10,10,11,11,12,12,13,13,14,14,15,15,16,16,17,17,18,18,19,19,20,20,21,21,22,22,23,23,24,24,25,25,26,26,27,27,28,28,29,29,30,30,31,31,32,32,33,33,34,34,35,35,36,36,37,37,38,38,39,39,40,40,41,41,42,42,43,43,44,44,45,45,46,46,47,47,48,48,49,49,50,50,51,51,52,52,53,53,54,54,55,55,56,56,57,57,58,58,59,59,60,60,61,61,62,62],"right_children":[2,4,6,8,10,12,14,16,18,20,22,24,26,28,30,32,34,36,38,40,42,44,46,48,50,52,54,56,58,60,62,64,66,68,70,72,74,76,78,80,82,84,86,88,90,92,94,96,98,100,102,104,106,108,110,112,114,116,118,120,122,124,126,-1,-1,-1,-1,-1,-1,-1,-1,-1,-1,-1,-1,-1,-1,-1,-1,-1,-1,-1,-1,-1,-1,-1,-1,-1,-1,-1,-1,-1,-1,-1,-1,-1,-1,-1,-1,-1,-1,-1,-1,-1,-1,-1,-1,-1,-1,-1,-1,-1,-1,-1,-1,-1,-1,-1,-1,-1,-1,-1,-1,-1,-1,-1,-1],"split_conditions":[-1.5028462E-1,-1.8992843E-1,-4.9968995E-2,-4.253577E-1,8.3702075E-1,6.101879E-1,1.0234941E0,-7.8333294E-1,-2.9712692E-1,2.01122E0,-3.1787047E-1,-7.0262307E-1,1.2486215E-2,-8.0186415E-1,-1.0730295E0,9.8055646E-2,4.131799E-2,-3.1983596E-1,9.565726E-1,-2.3579751E-1,2.1719296E0,-8.655672E-1,-8.491051E-2,-2.334126E-1,1.0146112E0,-7.725556E-2,2.022585E0,-2.1661425E-1,-2.9589874E-1,2.0468616E0,3.7280458E-1,-7.319036E-1,-4.077432E-1,6.4261645E-2,-5.9464043E-1,-1.142358E0,6.6488063E-1,2.0663295E0,-5.345638E-1,-2.6072E-1,-7.631863E-1,1.0910192E0,2.5326378E0,-6.2414575E-1,-4.6916705E-1,-4.1499105E-1,2.1085417E0,4.7108424E-5,1.11776024E-1,-3.4201932E-1,-2.0437663E0,6.1415887E-1,6.351007E-1,5.933105E-1,2.3865323E0,-1.697495E-1,4.167117E-1,-2.2244908E-1,2.2471654E0,2.2317643E0,2.6713343E0,-1.7709872E-1,2.9512618E-2,-3.2542828E-1,-2.7129455E-2,-2.7760693E-1,3.201602E-1,-3.8790452E-1,-4.731901E-3,-4.6231148E-1,-4.2783552E-1,-4.553348E-1,-3.6348215E-1,-1.2629575E-1,-3.4954074E-1,1.19775936E-1,-4.3696138E-1,-2.2362407E-2,-3.5289657E-1,-7.457963E-2,2.1873778E-1,-1.2701216E-1,3.683457E-1,1.1068476E-2,-4.028498E-1,-3.6987644E-1,-4.5907924E-1,-3.853508E-1,8.4012635E-2,-4.4858402E-1,-3.5775214E-1,-1.0608823E-2,-2.8664336E-1,1.864338E-1,-4.2514932E-1,-3.9236742E-1,6.9846466E-2,5.3614177E-2,3.4864503E-1,1.7040586E-1,3.9992893E-1,9.942639E-2,-3.3771333E-1,-3.8691697E-1,-1.19845755E-1,1.7827457E-1,-2.5870147E-1,2.8042594E-1,1.1876789E-2,-3.4100783E-1,-4.737408E-1,-3.6933172E-1,9.8186806E-2,3.5421872E-1,6.308166E-2,1.9576573E-1,4.1960153E-1,4.437669E-1,-3.0755347E-1,2.8876544E-3,3.194534E-1,-2.5544846E-1,-4.7714695E-1,4.0522057E-1,-2.9676577E-1,-3.4908995E-1,-5.9220143E-2],"split_indices":[6,38,34,3,28,0,6,28,41,5,3,17,44,17,30,34,28,31,28,31,5,30,44,38,6,38,5,38,31,5,3,5,6,44,3,23,28,5,30,41,3,3,5,3,3,30,5,44,38,40,30,35,6,6,5,31,28,38,5,10,5,23,44,0,0,0,0,0,0,0,0,0,0,0,0,0,0,0,0,0,0,0,0,0,0,0,0,0,0,0,0,0,0,0,0,0,0,0,0,0,0,0,0,0,0,0,0,0,0,0,0,0,0,0,0,0,0,0,0,0,0,0,0,0,0,0,0],"split_type":[0,0,0,0,0,0,0,0,0,0,0,0,0,0,0,0,0,0,0,0,0,0,0,0,0,0,0,0,0,0,0,0,0,0,0,0,0,0,0,0,0,0,0,0,0,0,0,0,0,0,0,0,0,0,0,0,0,0,0,0,0,0,0,0,0,0,0,0,0,0,0,0,0,0,0,0,0,0,0,0,0,0,0,0,0,0,0,0,0,0,0,0,0,0,0,0,0,0,0,0,0,0,0,0,0,0,0,0,0,0,0,0,0,0,0,0,0,0,0,0,0,0,0,0,0,0,0],"sum_hessian":[8.398417E5,3.5815362E5,4.816881E5,3.1131278E5,4.6840836E4,1.7927203E5,3.0241606E5,1.9491145E5,1.16401336E5,3.098306E4,1.5857775E4,1.07195945E5,7.2076086E4,2.8229784E5,2.0118227E4,3.9091763E3,1.9100227E5,7.825845E4,3.814288E4,2.8696512E4,2.2865493E3,5.6727607E3,1.0185015E4,1.4034657E4,9.316129E4,5.4439215E4,1.7636871E4,9.707154E3,2.725907E5,1.0353116E4,9.76511E3,2.7083997E3,1.2007765E3,1.4543532E4,1.7645873E5,5.741891E4,2.0839545E4,2.5852717E4,1.2290163E4,1.0630579E4,1.8065932E4,2.5316415E2,2.0333851E3,2.6249326E2,5.410267E3,5.6069395E3,4.5780747E3,1.1465734E4,2.568923E3,8.539012E4,7.771173E3,4.6086836E4,8.35238E3,1.6110981E4,1.5258898E3,6.0288926E3,3.6782615E3,7.078667E4,2.01804E5,9.324458E3,1.0286582E3,1.292044E3,8.473066E3,1.5974786E3,1.110921E3,1.2942406E2,1.0713524E3,1.3400076E4,1.1434559E3,1.4965095E5,2.6807787E4,1.8016906E4,3.9402004E4,9.881687E3,1.0957859E4,2.1966246E4,3.88647E3,2.084562E3,1.0205602E4,4.5869087E3,6.043671E3,8.855222E2,1.7180408E4,1.4624397E2,1.0692018E2,5.0666702E2,1.526718E3,9.561906E1,1.6687419E2,4.28594E3,1.1243273E3,1.4775516E3,4.1293877E3,4.17162E3,4.0645486E2,1.0528443E4,9.3729126E2,1.1526876E3,1.4162354E3,4.43428E4,4.1047316E4,1.4417579E3,6.329415E3,4.2856207E4,3.2306287E3,3.543453E3,4.8089263E3,9.777401E3,6.33358E3,4.189123E2,1.1069774E3,4.2189927E3,1.8099001E3,2.8270107E3,8.512507E2,3.695431E4,3.3832367E4,2.009275E5,8.7650714E2,2.0995613E3,7.224897E3,4.1369278E2,6.1496545E2,9.456391E2,3.464048E2,6.267292E3,2.2057742E3],"tree_param":{"num_deleted":"0","num_feature":"49","num_nodes":"127","size_leaf_vector":"0"}},{"base_weights":[7.49782E-4,1.0526395E0,-7.8137124E-1,1.2465854E0,-2.3635949E-1,-5.6447633E-2,-1.2111038E0,1.4724996E0,8.6828774E-1,-6.7402065E-1,6.1873525E-1,-5.7428634E-1,7.1371096E-1,-1.298876E0,2.0514198E-2,2.0735468E-1,1.4983916E0,1.1757973E0,2.3735036E-1,-8.358602E-1,1.3565662E0,1.3799018E0,1.9469355E-1,8.335694E-1,-7.863851E-1,1.0765281E0,-4.0618354E-1,1.1168453E-1,-1.3491074E0,-6.163618E-1,6.9573367E-1,6.770946E-1,-8.518444E-1,1.1926024E0,1.5235876E0,1.3077037E0,8.123121E-1,-1.2022431E-1,9.894677E-1,-3.0727118E-1,-1.1468649E0,5.488036E-1,1.4568164E0,2.9259035E-1,1.4325917E0,7.130568E-1,-4.4018233E-1,1.1819332E0,-7.211188E-1,-9.3580574E-1,8.553667E-1,1.2273287E0,2.4439186E-1,-5.828688E-1,1.4584932E0,7.63292E-1,-9.562567E-1,-1.0091735E0,-1.4683402E0,-8.2727057E-1,1.2944057E0,-7.2309935E-1,9.12149E-1,1.0847609E0,9.043149E-2,9.253563E-1,-1.0672008E0,1.293015E0,1.5772898E-2,1.541038E0,1.4261184E0,1.5177828E0,1.2116071E0,4.2098573E-1,1.1651357E0,-3.9925316E-1,1.4565381E0,7.454137E-2,1.1763219E0,2.4859871E-1,-7.291259E-1,4.2337394E-1,-1.227819E0,-3.6894806E-2,1.3428326E0,1.2329215E0,1.5302641E0,1.2845026E0,-2.800422E-1,1.49528E0,1.192507E0,3.5362788E-2,9.554777E-1,-6.214461E-1,1.4171644E0,1.3078914E0,-2.3282143E-1,-1.7871383E-1,-1.1621498E0,-5.6801945E-1,-1.3330963E0,-3.3142135E-1,1.1257111E0,1.2897232E0,3.9948586E-1,-5.942485E-1,8.6233824E-1,-9.34753E-1,-3.95893E-2,1.1366929E0,1.579136E0,1.2311057E0,-3.2728925E-1,-1.1807288E0,-2.1027206E-1,-6.5255237E-1,-1.3986716E0,-1.4792228E0,1.0251781E0,-9.625573E-3,-1.0648447E0,8.514949E-1,1.5904897E0,-1.3507352E0,9.8921937E-1,1.1636331E0,1.974005E-1],"categories":[],"categories_nodes":[],"categories_segments":[],"categories_sizes":[],"default_left":[1,1,1,1,1,1,1,1,1,1,1,1,1,1,1,1,1,1,1,1,1,1,1,1,1,1,1,1,1,1,1,1,1,1,1,1,1,1,1,1,1,1,1,1,1,1,1,1,1,1,1,1,1,1,1,1,1,1,1,1,1,1,1,0,0,0,0,0,0,0,0,0,0,0,0,0,0,0,0,0,0,0,0,0,0,0,0,0,0,0,0,0,0,0,0,0,0,0,0,0,0,0,0,0,0,0,0,0,0,0,0,0,0,0,0,0,0,0,0,0,0,0,0,0,0,0,0],"id":3,"left_children":[1,3,5,7,9,11,13,15,17,19,21,23,25,27,29,31,33,35,37,39,41,43,45,47,49,51,53,55,57,59,61,63,65,67,69,71,73,75,77,79,81,83,85,87,89,91,93,95,97,99,101,103,105,107,109,111,113,115,117,119,121,123,125,-1,-1,-1,-1,-1,-1,-1,-1,-1,-1,-1,-1,-1,-1,-1,-1,-1,-1,-1,-1,-1,-1,-1,-1,-1,-1,-1,-1,-1,-1,-1,-1,-1,-1,-1,-1,-1,-1,-1,-1,-1,-1,-1,-1,-1,-1,-1,-1,-1,-1,-1,-1,-1,-1,-1,-1,-1,-1,-1,-1,-1,-1,-1,-1],"loss_changes":[6.909436E5,8.953747E4,1.5005731E5,2.66045E4,1.7530586E4,7.149771E4,3.2691906E4,6.3844688E3,2.2584023E4,1.0183406E4,5.1184097E3,3.201014E4,2.9286574E4,2.000225E4,8.652322E3,1.9460774E3,1.4697812E3,3.751164E3,1.0258462E4,4.717336E3,1.8444287E2,3.246328E2,3.352494E3,7.6025244E3,2.2854586E4,6.831211E3,5.81184E3,6.7564253E3,1.1046969E4,4.173756E3,2.999414E3,6.478895E2,4.6094513E2,1.7186855E3,2.98E2,1.1573516E3,2.8769453E3,1.137524E4,2.1011816E3,2.4932476E3,2.2971406E3,1.1825153E2,3.1567383E1,1.500242E2,7.965918E1,9.212788E2,1.5425161E3,2.0436777E3,6.145626E2,1.247643E4,2.4940093E3,2.3800625E3,4.3295244E3,3.0801143E3,5.7483154E1,3.076787E3,6.1585425E2,9.831719E3,5.4776562E3,1.8114717E3,1.3367383E2,1.3909867E3,1.5229663E3,0E0,0E0,0E0,0E0,0E0,0E0,0E0,0E0,0E0,0E0,0E0,0E0,0E0,0E0,0E0,0E0,0E0,0E0,0E0,0E0,0E0,0E0,0E0,0E0,0E0,0E0,0E0,0E0,0E0,0E0,0E0,0E0,0E0,0E0,0E0,0E0,0E0,0E0,0E0,0E0,0E0,0E0,0E0,0E0,0E0,0E0,0E0,0E0,0E0,0E0,0E0,0E0,0E0,0E0,0E0,0E0,0E0,0E0,0E0,0E0,0E0,0E0,0E0,0E0],"parents":[2147483647,0,0,1,1,2,2,3,3,4,4,5,5,6,6,7,7,8,8,9,9,10,10,11,11,12,12,13,13,14,14,15,15,16,16,17,17,18,18,19,19,20,20,21,21,22,22,23,23,24,24,25,25,26,26,27,27,28,28,29,29,30,30,31,31,32,32,33,33,34,34,35,35,36,36,37,37,38,38,39,39,40,40,41,41,42,42,43,43,44,44,45,45,46,46,47,47,48,48,49,49,50,50,51,51,52,52,53,53,54,54,55,55,56,56,57,57,58,58,59,59,60,60,61,61,62,62],"right_children":[2,4,6,8,10,12,14,16,18,20,22,24,26,28,30,32,34,36,38,40,42,44,46,48,50,52,54,56,58,60,62,64,66,68,70,72,74,76,78,80,82,84,86,88,90,92,94,96,98,100,102,104,106,108,110,112,114,116,118,120,122,124,126,-1,-1,-1,-1,-1,-1,-1,-1,-1,-1,-1,-1,-1,-1,-1,-1,-1,-1,-1,-1,-1,-1,-1,-1,-1,-1,-1,-1,-1,-1,-1,-1,-1,-1,-1,-1,-1,-1,-1,-1,-1,-1,-1,-1,-1,-1,-1,-1,-1,-1,-1,-1,-1,-1,-1,-1,-1,-1,-1,-1,-1,-1,-1,-1],"split_conditions":[-1.5028462E-1,-1.8992843E-1,-4.9968995E-2,-4.253577E-1,8.3702075E-1,6.101879E-1,1.0234941E0,-7.8333294E-1,-2.9712692E-1,2.01122E0,-3.1787047E-1,-7.0262307E-1,1.2486215E-2,-8.0186415E-1,-1.0730295E0,9.8055646E-2,4.131799E-2,-3.1983596E-1,9.565726E-1,-2.3579751E-1,2.1719296E0,-8.655672E-1,-8.491051E-2,-2.334126E-1,1.0146112E0,-7.725556E-2,2.022585E0,-2.1661425E-1,-2.9589874E-1,2.0468616E0,3.7280458E-1,-7.319036E-1,-4.077432E-1,6.4261645E-2,-5.9464043E-1,-1.142358E0,6.6488063E-1,2.0663295E0,-5.345638E-1,-2.6072E-1,-7.631863E-1,1.0910192E0,2.5326378E0,-6.2414575E-1,-4.6916705E-1,-4.1499105E-1,2.1085417E0,4.7108424E-5,1.11776024E-1,-3.4201932E-1,-2.0437663E0,6.1415887E-1,6.351007E-1,5.933105E-1,2.3865323E0,-1.697495E-1,4.167117E-1,-2.2244908E-1,2.2471654E0,2.2317643E0,2.6713343E0,-1.7709872E-1,2.9512618E-2,3.2542828E-1,2.7129447E-2,2.776069E-1,-3.2016024E-1,3.8790452E-1,4.7318693E-3,4.6231142E-1,4.2783552E-1,4.5533487E-1,3.6348215E-1,1.2629573E-1,3.4954074E-1,-1.1977595E-1,4.3696144E-1,2.2362411E-2,3.5289657E-1,7.457962E-2,-2.1873778E-1,1.270122E-1,-3.683457E-1,-1.1068442E-2,4.028498E-1,3.6987644E-1,4.5907927E-1,3.853508E-1,-8.4012665E-2,4.4858402E-1,3.577521E-1,1.0608837E-2,2.8664333E-1,-1.8643382E-1,4.2514935E-1,3.9236742E-1,-6.984644E-2,-5.361415E-2,-3.4864494E-1,-1.7040583E-1,-3.999289E-1,-9.942641E-2,3.3771333E-1,3.8691697E-1,1.1984576E-1,-1.7827454E-1,2.5870147E-1,-2.804259E-1,-1.1876791E-2,3.410079E-1,4.7374082E-1,3.6933172E-1,-9.818678E-2,-3.5421866E-1,-6.308162E-2,-1.9576572E-1,-4.196015E-1,-4.4376686E-1,3.0755344E-1,-2.8876718E-3,-3.1945342E-1,2.554485E-1,4.7714695E-1,-4.0522057E-1,2.9676583E-1,3.4908995E-1,5.922015E-2],"split_indices":[6,38,34,3,28,0,6,28,41,5,3,17,44,17,30,34,28,31,28,31,5,30,44,38,6,38,5,38,31,5,3,5,6,44,3,23,28,5,30,41,3,3,5,3,3,30,5,44,38,40,30,35,6,6,5,31,28,38,5,10,5,23,44,0,0,0,0,0,0,0,0,0,0,0,0,0,0,0,0,0,0,0,0,0,0,0,0,0,0,0,0,0,0,0,0,0,0,0,0,0,0,0,0,0,0,0,0,0,0,0,0,0,0,0,0,0,0,0,0,0,0,0,0,0,0,0,0],"split_type":[0,0,0,0,0,0,0,0,0,0,0,0,0,0,0,0,0,0,0,0,0,0,0,0,0,0,0,0,0,0,0,0,0,0,0,0,0,0,0,0,0,0,0,0,0,0,0,0,0,0,0,0,0,0,0,0,0,0,0,0,0,0,0,0,0,0,0,0,0,0,0,0,0,0,0,0,0,0,0,0,0,0,0,0,0,0,0,0,0,0,0,0,0,0,0,0,0,0,0,0,0,0,0,0,0,0,0,0,0,0,0,0,0,0,0,0,0,0,0,0,0,0,0,0,0,0,0],"sum_hessian":[8.398417E5,3.581536E5,4.816881E5,3.1131278E5,4.6840836E4,1.7927203E5,3.0241606E5,1.9491144E5,1.16401336E5,3.098306E4,1.5857774E4,1.07195945E5,7.2076086E4,2.822978E5,2.0118227E4,3.909176E3,1.9100227E5,7.825845E4,3.814288E4,2.869651E4,2.2865493E3,5.6727607E3,1.0185015E4,1.4034657E4,9.316129E4,5.4439215E4,1.7636871E4,9.707154E3,2.7259066E5,1.0353117E4,9.76511E3,2.7083997E3,1.2007765E3,1.4543531E4,1.7645873E5,5.741891E4,2.0839545E4,2.5852717E4,1.2290163E4,1.0630579E4,1.8065932E4,2.5316417E2,2.033385E3,2.6249326E2,5.410267E3,5.6069395E3,4.5780747E3,1.1465734E4,2.568923E3,8.539012E4,7.7711733E3,4.6086836E4,8.35238E3,1.6110981E4,1.5258896E3,6.0288926E3,3.6782612E3,7.078667E4,2.01804E5,9.324459E3,1.0286582E3,1.292044E3,8.473066E3,1.5974786E3,1.110921E3,1.2942406E2,1.0713524E3,1.3400075E4,1.1434559E3,1.4965094E5,2.6807787E4,1.8016904E4,3.9402004E4,9.881687E3,1.0957859E4,2.1966246E4,3.8864697E3,2.084562E3,1.0205602E4,4.5869087E3,6.043671E3,8.855222E2,1.7180408E4,1.4624397E2,1.0692019E2,5.0666702E2,1.526718E3,9.561906E1,1.6687419E2,4.28594E3,1.1243274E3,1.4775515E3,4.1293877E3,4.17162E3,4.0645486E2,1.0528443E4,9.372912E2,1.1526876E3,1.4162354E3,4.4342797E4,4.1047316E4,1.4417579E3,6.3294155E3,4.2856207E4,3.230629E3,3.543453E3,4.808927E3,9.777401E3,6.33358E3,4.1891226E2,1.1069774E3,4.2189927E3,1.8099E3,2.8270107E3,8.512507E2,3.6954305E4,3.3832367E4,2.0092748E5,8.765071E2,2.0995613E3,7.2248975E3,4.1369278E2,6.1496545E2,9.456391E2,3.464048E2,6.2672925E3,2.2057742E3],"tree_param":{"num_deleted":"0","num_feature":"49","num_nodes":"127","size_leaf_vector":"0"}},{"base_weights":[-1.9897025E-3,-8.483583E-1,6.3508075E-1,-1.0390744E0,1.2505162E-1,1.2559552E-1,1.0553548E0,-1.2720606E0,-7.13561E-1,5.4157966E-1,-4.785493E-1,6.499198E-1,-3.526145E-1,1.1361238E0,2.4336684E-1,-3.4849462E-1,-1.3050977E0,-8.6732477E-1,1.867093E-1,7.3229676E-1,-8.0512416E-1,-1.1207052E0,-8.849172E-2,-1.8252818E-1,8.550878E-1,-7.499347E-1,4.391855E-1,2.5928298E-1,1.1903712E0,-4.2985427E-1,6.305623E-1,-7.237095E-1,6.182852E-1,-1.1003852E0,-1.3269358E0,-1.0308477E0,-4.4856352E-1,6.13139E-1,-3.6745238E-1,-5.4149956E-1,8.396184E-1,-4.3756202E-1,-1.3059349E0,-1.9758146E-1,-1.2032179E0,1.1897793E-1,-1.272524E0,-6.090508E-1,8.134807E-1,9.2733115E-1,-1.2949109E0,-9.5360315E-1,-1.6018236E-1,6.9830185E-1,-3.859108E-1,-6.1398596E-1,7.684235E-1,1.201723E0,-1.2571815E0,-9.044911E-1,1.7085163E-1,7.379143E-1,-1.1432574E0,-9.343476E-1,1.212307E-1,-3.198514E-1,9.1656405E-1,-1.2150201E0,-4.83837E-1,-1.0911517E0,-1.3312606E0,-8.3518356E-1,-1.1923646E0,-3.4145974E-2,-8.121187E-1,8.526042E-1,-8.152111E-1,3.282805E-1,-7.1743244E-1,9.8102576E-1,-1.0299829E0,3.2445386E-1,1.0181776E0,1.077421E-1,-8.17302E-1,-1.3103802E0,1.5417671E0,-1.1303087E0,1.8120214E-1,-1.2892183E0,-9.3073463E-1,-5.6235033E-1,4.3788835E-1,-7.737753E-1,-1.3420835E0,-8.786277E-1,3.363996E-1,-3.135372E-1,9.3243796E-1,1.022291E0,-1.8445158E-1,-8.086585E-1,-1.5924954E0,-6.4413E-1,-1.1368613E0,3.9852446E-1,-6.9087E-1,7.688486E-1,-1.1684699E0,-6.977323E-1,4.2204884E-1,-9.0017396E-1,7.776536E-1,4.020794E-1,1.199214E0,1.249288E0,8.012852E-1,-6.230012E-1,-1.6225115E0,-1.2782155E-1,-1.1547594E0,-3.672685E-1,8.172801E-1,2.4527788E-1,1.0293862E0,9.6499664E-1,-1.2010697E0],"categories":[],"categories_nodes":[],"categories_segments":[],"categories_sizes":[],"default_left":[1,1,1,1,1,1,1,1,1,1,1,1,1,1,1,1,1,1,1,1,1,1,1,1,1,1,1,1,1,1,1,1,1,1,1,1,1,1,1,1,1,1,1,1,1,1,1,1,1,1,1,1,1,1,1,1,1,1,1,1,1,1,1,0,0,0,0,0,0,0,0,0,0,0,0,0,0,0,0,0,0,0,0,0,0,0,0,0,0,0,0,0,0,0,0,0,0,0,0,0,0,0,0,0,0,0,0,0,0,0,0,0,0,0,0,0,0,0,0,0,0,0,0,0,0,0,0],"id":4,"left_children":[1,3,5,7,9,11,13,15,17,19,21,23,25,27,29,31,33,35,37,39,41,43,45,47,49,51,53,55,57,59,61,63,65,67,69,71,73,75,77,79,81,83,85,87,89,91,93,95,97,99,101,103,105,107,109,111,113,115,117,119,121,123,125,-1,-1,-1,-1,-1,-1,-1,-1,-1,-1,-1,-1,-1,-1,-1,-1,-1,-1,-1,-1,-1,-1,-1,-1,-1,-1,-1,-1,-1,-1,-1,-1,-1,-1,-1,-1,-1,-1,-1,-1,-1,-1,-1,-1,-1,-1,-1,-1,-1,-1,-1,-1,-1,-1,-1,-1,-1,-1,-1,-1,-1,-1,-1,-1],"loss_changes":[4.046706E5,5.9835188E4,9.168706E4,2.0438469E4,1.3276079E4,4.853218E4,1.5388344E4,4.79225E3,1.5563809E4,8.0253184E3,5.400431E3,1.5768891E4,3.184734E4,1.0150969E4,5.5341606E3,1.9687705E3,6.765156E2,6.575336E3,3.876277E3,3.7419336E3,7.129768E2,6.203467E2,3.2954238E3,7.756322E3,1.1506234E4,8.0963633E3,7.2318804E3,5.5293706E3,5.5855625E3,2.210463E3,2.5674312E3,6.959055E2,4.2497217E2,1.0330156E3,1.3828125E2,2.1815312E3,4.0633203E3,3.171348E3,1.7371919E3,1.5831725E3,2.3216602E3,4.6332523E2,2.2783691E1,2.3680963E2,1.7405469E2,2.4805952E3,6.835205E1,3.258399E3,7.342295E2,7.5661016E3,3.4721436E2,2.8408203E3,5.130993E3,3.3908994E3,2.0370846E3,1.8249519E3,1.2392964E3,3.809375E3,2.1407019E2,8.4164014E2,1.190858E3,1.8247432E3,9.495477E1,0E0,0E0,0E0,0E0,0E0,0E0,0E0,0E0,0E0,0E0,0E0,0E0,0E0,0E0,0E0,0E0,0E0,0E0,0E0,0E0,0E0,0E0,0E0,0E0,0E0,0E0,0E0,0E0,0E0,0E0,0E0,0E0,0E0,0E0,0E0,0E0,0E0,0E0,0E0,0E0,0E0,0E0,0E0,0E0,0E0,0E0,0E0,0E0,0E0,0E0,0E0,0E0,0E0,0E0,0E0,0E0,0E0,0E0,0E0,0E0,0E0,0E0,0E0,0E0],"parents":[2147483647,0,0,1,1,2,2,3,3,4,4,5,5,6,6,7,7,8,8,9,9,10,10,11,11,12,12,13,13,14,14,15,15,16,16,17,17,18,18,19,19,20,20,21,21,22,22,23,23,24,24,25,25,26,26,27,27,28,28,29,29,30,30,31,31,32,32,33,33,34,34,35,35,36,36,37,37,38,38,39,39,40,40,41,41,42,42,43,43,44,44,45,45,46,46,47,47,48,48,49,49,50,50,51,51,52,52,53,53,54,54,55,55,56,56,57,57,58,58,59,59,60,60,61,61,62,62],"right_children":[2,4,6,8,10,12,14,16,18,20,22,24,26,28,30,32,34,36,38,40,42,44,46,48,50,52,54,56,58,60,62,64,66,68,70,72,74,76,78,80,82,84,86,88,90,92,94,96,98,100,102,104,106,108,110,112,114,116,118,120,122,124,126,-1,-1,-1,-1,-1,-1,-1,-1,-1,-1,-1,-1,-1,-1,-1,-1,-1,-1,-1,-1,-1,-1,-1,-1,-1,-1,-1,-1,-1,-1,-1,-1,-1,-1,-1,-1,-1,-1,-1,-1,-1,-1,-1,-1,-1,-1,-1,-1,-1,-1,-1,-1,-1,-1,-1,-1,-1,-1,-1,-1,-1,-1,-1,-1],"split_conditions":[-1.2402609E-1,-2.3873883E-1,-1.4065166E-2,-4.7866443E-1,7.0896304E-1,2.6579124E-1,8.173724E-1,-6.211846E-1,-8.604203E-2,6.573037E-1,-2.4984373E-1,-6.016546E-1,-9.775774E-2,-7.4736184E-1,-2.8065044E-1,-2.2440945E-1,1.7705242E-1,-2.9493928E-1,6.834823E-1,-7.332711E-1,2.1136758E0,-7.0665085E-1,1.9770906E0,-2.9226544E-1,2.1636105E0,-2.3568293E-1,1.8155761E0,-2.8659105E-1,2.3597965E0,1.1746714E0,2.1383705E0,-2.1313111E-1,-2.3443729E-2,-1.679059E-1,-1.1367381E0,6.6648334E-1,5.85696E-1,5.825292E-1,-2.2645035E-1,-7.5611985E-1,-2.9493824E-1,-5.458213E-1,7.292515E0,-6.439413E-1,-4.2584163E-1,-3.0842656E-1,2.1417694E0,-2.5231296E-1,-8.420242E-1,8.2301664E-1,2.6814132E0,-7.397E-2,5.3854334E-1,2.0168464E0,5.578531E-1,5.524447E-1,5.185343E-1,1.1020942E0,2.966072E0,-1.8488593E0,-2.590313E-1,9.533689E-1,9.488138E-1,-2.803043E-1,3.6369212E-2,-9.5955424E-2,2.7496922E-1,-3.6450604E-1,-1.4515111E-1,-3.2734552E-1,-3.9937818E-1,-2.5055507E-1,-3.5770938E-1,-1.0243792E-2,-2.4363562E-1,2.5578126E-1,-2.4456334E-1,9.848416E-2,-2.1522973E-1,2.9430774E-1,-3.089949E-1,9.7336166E-2,3.054533E-1,3.232263E-2,-2.451906E-1,-3.931141E-1,4.6253017E-1,-3.3909264E-1,5.4360647E-2,-3.867655E-1,-2.792204E-1,-1.687051E-1,1.313665E-1,-2.321326E-1,-4.0262505E-1,-2.6358834E-1,1.0091989E-1,-9.4061166E-2,2.797314E-1,3.066873E-1,-5.5335477E-2,-2.4259755E-1,-4.7774866E-1,-1.93239E-1,-3.410584E-1,1.1955734E-1,-2.0726101E-1,2.3065458E-1,-3.50541E-1,-2.0931971E-1,1.2661466E-1,-2.700522E-1,2.3329608E-1,1.2062383E-1,3.5976422E-1,3.747864E-1,2.4038558E-1,-1.8690038E-1,-4.8675346E-1,-3.8346466E-2,-3.4642783E-1,-1.1018056E-1,2.4518405E-1,7.3583364E-2,3.0881587E-1,2.89499E-1,-3.6032093E-1],"split_indices":[6,38,34,3,28,0,6,28,44,3,3,17,44,17,41,31,28,31,28,3,5,30,5,38,5,40,0,41,5,7,5,41,34,31,30,28,28,3,30,28,41,30,12,3,3,41,5,31,17,6,5,8,6,5,35,35,35,29,5,30,31,7,3,0,0,0,0,0,0,0,0,0,0,0,0,0,0,0,0,0,0,0,0,0,0,0,0,0,0,0,0,0,0,0,0,0,0,0,0,0,0,0,0,0,0,0,0,0,0,0,0,0,0,0,0,0,0,0,0,0,0,0,0,0,0,0,0],"split_type":[0,0,0,0,0,0,0,0,0,0,0,0,0,0,0,0,0,0,0,0,0,0,0,0,0,0,0,0,0,0,0,0,0,0,0,0,0,0,0,0,0,0,0,0,0,0,0,0,0,0,0,0,0,0,0,0,0,0,0,0,0,0,0,0,0,0,0,0,0,0,0,0,0,0,0,0,0,0,0,0,0,0,0,0,0,0,0,0,0,0,0,0,0,0,0,0,0,0,0,0,0,0,0,0,0,0,0,0,0,0,0,0,0,0,0,0,0,0,0,0,0,0,0,0,0,0,0],"sum_hessian":[7.505048E5,3.2230797E5,4.281968E5,2.6950494E5,5.2803047E4,1.935561E5,2.3464073E5,1.5707534E5,1.1242957E5,3.1243139E4,2.155991E4,9.232631E4,1.0122978E5,2.134121E5,2.122863E4,5.4251113E3,1.5165023E5,9.602824E4,1.6401334E4,2.7367826E4,3.8753125E3,8.1464497E3,1.341346E4,1.825572E4,7.407059E4,6.740596E4,3.3823824E4,1.2434205E4,2.0097789E5,7.751281E3,1.3477349E4,3.908459E3,1.5166525E3,1.4623125E4,1.3702711E5,6.905958E4,2.6968662E4,9.268827E3,7.132507E3,2.126339E3,2.5241486E4,2.2360632E3,1.6392494E3,6.6869604E2,7.477754E3,1.141431E4,1.9991498E3,1.2782314E4,5.473405E3,7.1663164E4,2.407426E3,5.0102613E4,1.7303346E4,2.5740375E4,8.083451E3,4.579434E3,7.8547715E3,2.0005056E5,9.2733344E2,4.329723E3,3.4215576E3,1.2708794E4,7.685551E2,3.1284507E3,7.8000836E2,3.6586716E2,1.1507854E3,1.2329693E4,2.293431E3,2.4726565E3,1.3455445E5,3.1231473E4,3.7828105E4,1.2603263E4,1.4365399E4,7.9383525E3,1.3304747E3,2.387134E3,4.745373E3,5.162527E2,1.6100863E3,6.4976943E3,1.8743793E4,9.182206E2,1.3178425E3,1.6372335E3,2.0158634E0,1.9255621E2,4.7613983E2,5.6809995E3,1.7967544E3,3.6390303E3,7.77528E3,2.461749E2,1.7529749E3,9.946371E3,2.8359438E3,5.2240765E2,4.9509976E3,6.602399E4,5.6391763E3,9.153929E2,1.4920331E3,1.8635998E4,3.1466615E4,8.429273E3,8.874072E3,2.4803615E4,9.3675934E2,5.8325796E3,2.2508718E3,3.7986104E3,7.808237E2,4.24595E3,3.6088213E3,1.7880903E5,2.1241523E4,3.3993747E2,5.8739594E2,1.0555365E3,3.2741868E3,1.8674384E3,1.5541194E3,4.7248486E3,7.9839453E3,2.0093925E1,7.484612E2],"tree_param":{"num_deleted":"0","num_feature":"49","num_nodes":"127","size_leaf_vector":"0"}},{"base_weights":[1.9896987E-3,8.483583E-1,-6.3508075E-1,1.0390744E0,-1.2505163E-1,-1.2559555E-1,-1.0553548E0,1.2720606E0,7.13561E-1,-5.415797E-1,4.7854933E-1,-6.499198E-1,3.526145E-1,-1.1361238E0,-2.4336684E-1,3.4849465E-1,1.3050977E0,8.6732477E-1,-1.8670924E-1,-7.322968E-1,8.051241E-1,1.1207052E0,8.849172E-2,1.8252821E-1,-8.550878E-1,7.499347E-1,-4.3918553E-1,-2.59283E-1,-1.1903712E0,4.2985427E-1,-6.305623E-1,7.237095E-1,-6.182851E-1,1.1003852E0,1.3269358E0,1.0308477E0,4.485635E-1,-6.131389E-1,3.6745244E-1,5.4149956E-1,-8.3961844E-1,4.37562E-1,1.3059349E0,1.9758148E-1,1.2032179E0,-1.1897793E-1,1.272524E0,6.0905087E-1,-8.134807E-1,-9.2733115E-1,1.2949109E0,9.5360315E-1,1.6018237E-1,-6.983019E-1,3.8591078E-1,6.1398596E-1,-7.684235E-1,-1.201723E0,1.2571815E0,9.044911E-1,-1.7085165E-1,-7.3791426E-1,1.1432574E0,9.343477E-1,-1.2123071E-1,3.198514E-1,-9.16564E-1,1.2150201E0,4.8383704E-1,1.0911292E0,1.3312606E0,8.3518356E-1,1.1923646E0,3.414591E-2,8.121187E-1,-8.5260415E-1,8.152111E-1,-3.2828045E-1,7.174325E-1,-9.810259E-1,1.0299829E0,-3.2445395E-1,-1.0181777E0,-1.07742116E-1,8.173019E-1,1.3103801E0,-1.5417671E0,1.1303087E0,-1.8120211E-1,1.2892183E0,9.3073463E-1,5.6235033E-1,-4.3788835E-1,7.7377534E-1,1.3420835E0,8.786277E-1,-3.363996E-1,3.135372E-1,-9.32438E-1,-1.022291E0,1.8445152E-1,8.086584E-1,1.5924953E0,6.4412993E-1,1.1368613E0,-3.9852446E-1,6.9087005E-1,-7.688486E-1,1.1684699E0,6.9773227E-1,-4.2204887E-1,9.001739E-1,-7.776536E-1,-4.0207943E-1,-1.199214E0,-1.2492851E0,-8.012618E-1,6.230013E-1,1.6225115E0,1.2782156E-1,1.1547594E0,3.6726847E-1,-8.172801E-1,-2.4527785E-1,-1.0293862E0,-9.649966E-1,1.2010697E0],"categories":[],"categories_nodes":[],"categories_segments":[],"categories_sizes":[],"default_left":[1,1,1,1,1,1,1,1,1,1,1,1,1,1,1,1,1,1,1,1,1,1,1,1,1,1,1,1,1,1,1,1,1,1,1,1,1,1,1,1,1,1,1,1,1,1,1,1,1,1,1,1,1,1,1,1,1,1,1,1,1,1,1,0,0,0,0,0,0,0,0,0,0,0,0,0,0,0,0,0,0,0,0,0,0,0,0,0,0,0,0,0,0,0,0,0,0,0,0,0,0,0,0,0,0,0,0,0,0,0,0,0,0,0,0,0,0,0,0,0,0,0,0,0,0,0,0],"id":5,"left_children":[1,3,5,7,9,11,13,15,17,19,21,23,25,27,29,31,33,35,37,39,41,43,45,47,49,51,53,55,57,59,61,63,65,67,69,71,73,75,77,79,81,83,85,87,89,91,93,95,97,99,101,103,105,107,109,111,113,115,117,119,121,123,125,-1,-1,-1,-1,-1,-1,-1,-1,-1,-1,-1,-1,-1,-1,-1,-1,-1,-1,-1,-1,-1,-1,-1,-1,-1,-1,-1,-1,-1,-1,-1,-1,-1,-1,-1,-1,-1,-1,-1,-1,-1,-1,-1,-1,-1,-1,-1,-1,-1,-1,-1,-1,-1,-1,-1,-1,-1,-1,-1,-1,-1,-1,-1,-1],"loss_changes":[4.046706E5,5.9835188E4,9.168706E4,2.0438469E4,1.3276081E4,4.8532184E4,1.53883125E4,4.79225E3,1.5563805E4,8.0253184E3,5.40043E3,1.5768891E4,3.184734E4,1.0151E4,5.534159E3,1.9687705E3,6.765156E2,6.575336E3,3.8762769E3,3.7419316E3,7.1297656E2,6.2034863E2,3.2954238E3,7.7563213E3,1.1506238E4,8.0963633E3,7.2318804E3,5.52937E3,5.5855625E3,2.210463E3,2.5674321E3,6.959055E2,4.2497217E2,1.0330156E3,1.3829688E2,2.1815312E3,4.0633203E3,3.1713481E3,1.7371919E3,1.5831729E3,2.3216602E3,4.6332523E2,2.2783936E1,2.3680963E2,1.7405469E2,2.4805952E3,6.835181E1,3.2583994E3,7.3423E2,7.5661016E3,3.4721436E2,2.8408203E3,5.130993E3,3.3908994E3,2.0370845E3,1.8249519E3,1.2392964E3,3.8093438E3,2.1407031E2,8.416399E2,1.1908579E3,1.8247422E3,9.4954834E1,0E0,0E0,0E0,0E0,0E0,0E0,0E0,0E0,0E0,0E0,0E0,0E0,0E0,0E0,0E0,0E0,0E0,0E0,0E0,0E0,0E0,0E0,0E0,0E0,0E0,0E0,0E0,0E0,0E0,0E0,0E0,0E0,0E0,0E0,0E0,0E0,0E0,0E0,0E0,0E0,0E0,0E0,0E0,0E0,0E0,0E0,0E0,0E0,0E0,0E0,0E0,0E0,0E0,0E0,0E0,0E0,0E0,0E0,0E0,0E0,0E0,0E0,0E0,0E0],"parents":[2147483647,0,0,1,1,2,2,3,3,4,4,5,5,6,6,7,7,8,8,9,9,10,10,11,11,12,12,13,13,14,14,15,15,16,16,17,17,18,18,19,19,20,20,21,21,22,22,23,23,24,24,25,25,26,26,27,27,28,28,29,29,30,30,31,31,32,32,33,33,34,34,35,35,36,36,37,37,38,38,39,39,40,40,41,41,42,42,43,43,44,44,45,45,46,46,47,47,48,48,49,49,50,50,51,51,52,52,53,53,54,54,55,55,56,56,57,57,58,58,59,59,60,60,61,61,62,62],"right_children":[2,4,6,8,10,12,14,16,18,20,22,24,26,28,30,32,34,36,38,40,42,44,46,48,50,52,54,56,58,60,62,64,66,68,70,72,74,76,78,80,82,84,86,88,90,92,94,96,98,100,102,104,106,108,110,112,114,116,118,120,122,124,126,-1,-1,-1,-1,-1,-1,-1,-1,-1,-1,-1,-1,-1,-1,-1,-1,-1,-1,-1,-1,-1,-1,-1,-1,-1,-1,-1,-1,-1,-1,-1,-1,-1,-1,-1,-1,-1,-1,-1,-1,-1,-1,-1,-1,-1,-1,-1,-1,-1,-1,-1,-1,-1,-1,-1,-1,-1,-1,-1,-1,-1,-1,-1,-1],"split_conditions":[-1.2402609E-1,-2.3873883E-1,-1.4065166E-2,-4.7866443E-1,7.0896304E-1,2.6579124E-1,8.173724E-1,-6.211846E-1,-8.604203E-2,6.573037E-1,-2.4984373E-1,-6.016546E-1,-9.775774E-2,-7.4736184E-1,-2.8065044E-1,-2.2440945E-1,1.7705242E-1,-2.9493928E-1,6.834823E-1,-7.332711E-1,2.1136758E0,-7.0665085E-1,1.9770906E0,-2.9226544E-1,2.1636105E0,-2.3568293E-1,1.8155761E0,-2.8659105E-1,2.3597965E0,1.1746714E0,2.1383705E0,-2.1313111E-1,-2.3443729E-2,-1.679059E-1,-1.136816E0,6.6648334E-1,5.85696E-1,5.825292E-1,-2.2645035E-1,-7.5611985E-1,-2.9493824E-1,-5.458213E-1,7.292515E0,-6.439413E-1,-4.2584163E-1,-3.0842656E-1,2.1417694E0,-2.5231296E-1,-8.420242E-1,8.2301664E-1,2.6814132E0,-7.397E-2,5.3854334E-1,2.0168464E0,5.578531E-1,5.524447E-1,5.185343E-1,1.10219E0,2.966072E0,-1.8488593E0,-2.590313E-1,9.533689E-1,9.488138E-1,2.803043E-1,-3.6369212E-2,9.5955424E-2,-2.7496922E-1,3.6450604E-1,1.4515112E-1,3.2733876E-1,3.9937818E-1,2.5055507E-1,3.5770938E-1,1.0243773E-2,2.4363562E-1,-2.5578126E-1,2.4456334E-1,-9.8484136E-2,2.1522976E-1,-2.9430777E-1,3.089949E-1,-9.733619E-2,-3.0545333E-1,-3.2322638E-2,2.4519059E-1,3.9311406E-1,-4.6253017E-1,3.3909264E-1,-5.4360636E-2,3.867655E-1,2.792204E-1,1.687051E-1,-1.313665E-1,2.3213261E-1,4.0262505E-1,2.6358834E-1,-1.0091989E-1,9.4061166E-2,-2.7973142E-1,-3.066873E-1,5.533546E-2,2.4259754E-1,4.777486E-1,1.9323899E-1,3.410584E-1,-1.1955734E-1,2.0726103E-1,-2.3065458E-1,3.50541E-1,2.093197E-1,-1.2661466E-1,2.700522E-1,-2.3329608E-1,-1.20623834E-1,-3.5976422E-1,-3.7478554E-1,-2.4037854E-1,1.8690039E-1,4.8675346E-1,3.834647E-2,3.4642783E-1,1.1018055E-1,-2.4518405E-1,-7.358336E-2,-3.0881587E-1,-2.8949898E-1,3.6032093E-1],"split_indices":[6,38,34,3,28,0,6,28,44,3,3,17,44,17,41,31,28,31,28,3,5,30,5,38,5,40,0,41,5,7,5,41,34,31,30,28,28,3,30,28,41,30,12,3,3,41,5,31,17,6,5,8,6,5,35,35,35,29,5,30,31,7,3,0,0,0,0,0,0,0,0,0,0,0,0,0,0,0,0,0,0,0,0,0,0,0,0,0,0,0,0,0,0,0,0,0,0,0,0,0,0,0,0,0,0,0,0,0,0,0,0,0,0,0,0,0,0,0,0,0,0,0,0,0,0,0,0],"split_type":[0,0,0,0,0,0,0,0,0,0,0,0,0,0,0,0,0,0,0,0,0,0,0,0,0,0,0,0,0,0,0,0,0,0,0,0,0,0,0,0,0,0,0,0,0,0,0,0,0,0,0,0,0,0,0,0,0,0,0,0,0,0,0,0,0,0,0,0,0,0,0,0,0,0,0,0,0,0,0,0,0,0,0,0,0,0,0,0,0,0,0,0,0,0,0,0,0,0,0,0,0,0,0,0,0,0,0,0,0,0,0,0,0,0,0,0,0,0,0,0,0,0,0,0,0,0,0],"sum_hessian":[7.505048E5,3.2230797E5,4.2819684E5,2.6950494E5,5.2803047E4,1.935561E5,2.3464073E5,1.5707536E5,1.1242957E5,3.1243139E4,2.155991E4,9.232631E4,1.0122978E5,2.1341211E5,2.1228629E4,5.4251113E3,1.5165023E5,9.602824E4,1.6401334E4,2.7367826E4,3.8753125E3,8.14645E3,1.341346E4,1.825572E4,7.407059E4,6.740596E4,3.3823824E4,1.2434205E4,2.0097789E5,7.751281E3,1.3477349E4,3.908459E3,1.5166525E3,1.4623125E4,1.3702711E5,6.905958E4,2.6968662E4,9.268827E3,7.132507E3,2.126339E3,2.5241488E4,2.2360632E3,1.6392494E3,6.6869604E2,7.477754E3,1.141431E4,1.9991498E3,1.2782315E4,5.4734053E3,7.1663164E4,2.407426E3,5.0102613E4,1.7303346E4,2.5740375E4,8.083451E3,4.579434E3,7.8547715E3,2.0005056E5,9.2733344E2,4.329723E3,3.4215576E3,1.2708794E4,7.685551E2,3.1284507E3,7.800083E2,3.6586716E2,1.1507854E3,1.2329693E4,2.293431E3,2.472459E3,1.3455466E5,3.1231473E4,3.7828105E4,1.2603263E4,1.4365399E4,7.9383525E3,1.3304747E3,2.387134E3,4.745373E3,5.162527E2,1.6100863E3,6.4976943E3,1.8743793E4,9.182206E2,1.3178425E3,1.6372335E3,2.0158634E0,1.9255621E2,4.7613983E2,5.6809995E3,1.7967544E3,3.6390303E3,7.77528E3,2.4617491E2,1.7529749E3,9.946371E3,2.835944E3,5.2240765E2,4.9509976E3,6.602399E4,5.6391763E3,9.153929E2,1.4920331E3,1.8635998E4,3.1466615E4,8.429273E3,8.874072E3,2.4803615E4,9.367593E2,5.8325796E3,2.2508718E3,3.7986104E3,7.808237E2,4.24595E3,3.6088213E3,1.7881131E5,2.1239248E4,3.3993747E2,5.8739594E2,1.0555365E3,3.2741868E3,1.8674384E3,1.5541194E3,4.7248486E3,7.9839453E3,2.0093927E1,7.484612E2],"tree_param":{"num_deleted":"0","num_feature":"49","num_nodes":"127","size_leaf_vector":"0"}},{"base_weights":[-2.7074378E-3,-7.6879346E-1,4.845337E-1,-1.0991733E0,-3.0552447E-1,-1.6326223E-2,8.4124166E-1,-6.1451995E-1,-1.1762177E0,-6.077007E-1,4.0407896E-1,5.8661175E-1,-4.5821887E-1,9.759962E-1,7.595181E-2,-8.898912E-1,4.0377248E-2,-1.186961E0,-5.7539994E-1,-3.766268E-1,-1.114201E0,5.7593906E-1,-1.184605E0,-7.086303E-1,7.2587174E-1,-6.9971484E-1,3.0620685E-1,1.1148392E0,5.835416E-1,2.8492722E-1,-1.1226684E0,-1.0967991E0,-4.7235045E-1,-9.5663446E-1,2.8605375E-1,-7.525265E-1,-1.1972482E0,1.9871074E-1,-8.293633E-1,2.577999E-1,-5.7770956E-1,-8.407678E-1,-1.2668545E0,7.683294E-1,-3.6192977E-1,-9.063347E-1,-1.2581319E0,-1.0677173E0,-1.04697E-1,4.3471202E-1,9.972437E-1,-8.8649094E-1,-8.913287E-2,6.4627016E-1,-5.588658E-1,9.8309904E-1,1.207006E0,1.28272725E-2,9.2606145E-1,6.216552E-1,-2.2797018E-1,-8.007243E-1,-1.3638958E0,-2.3637961E-1,-1.1438748E0,2.5489396E-1,-7.1970075E-1,-1.252873E0,-3.6695054E-1,1.1681973E0,3.0802393E-2,-1.0954335E0,-1.9922835E-1,-1.20644E0,-9.673812E-1,-6.686971E-1,5.955913E-1,-1.0396575E0,-3.583976E-1,-3.3667356E-1,6.6528624E-1,-7.057898E-1,1.8621637E-1,-2.7732268E-1,-9.652772E-1,-1.2674611E0,1.4354441E0,3.775162E-1,1.0775574E0,1.1889927E-1,-6.8759817E-1,-1.0259418E0,-1.766661E-1,-1.2610831E0,1.6966442E0,-1.1245638E0,3.2145014E-1,-5.974654E-1,6.56397E-1,-3.1483084E-2,7.155647E-1,1.0208509E0,-8.006794E-1,-9.459666E-1,2.0472865E-1,-8.029036E-1,2.7089185E-1,7.376582E-1,-1.129835E0,-3.6889526E-1,-1.2871814E0,1.1030681E0,6.844513E-1,1.2160465E0,9.5424145E-1,-3.626142E-1,8.048846E-1,6.735592E-1,1.1527432E0,7.990925E-1,6.972479E-2,5.31758E-1,-7.6634145E-1,4.408329E-1,-9.398614E-1,-1.606055E0,-1.294816E0],"categories":[],"categories_nodes":[],"categories_segments":[],"categories_sizes":[],"default_left":[1,1,1,1,1,1,1,1,1,1,1,1,1,1,1,1,1,1,1,1,1,1,1,1,1,1,1,1,1,1,1,1,1,1,1,1,1,1,1,1,1,1,1,1,1,1,1,1,1,1,1,1,1,1,1,1,1,1,1,1,1,1,1,0,0,0,0,0,0,0,0,0,0,0,0,0,0,0,0,0,0,0,0,0,0,0,0,0,0,0,0,0,0,0,0,0,0,0,0,0,0,0,0,0,0,0,0,0,0,0,0,0,0,0,0,0,0,0,0,0,0,0,0,0,0,0,0],"id":6,"left_children":[1,3,5,7,9,11,13,15,17,19,21,23,25,27,29,31,33,35,37,39,41,43,45,47,49,51,53,55,57,59,61,63,65,67,69,71,73,75,77,79,81,83,85,87,89,91,93,95,97,99,101,103,105,107,109,111,113,115,117,119,121,123,125,-1,-1,-1,-1,-1,-1,-1,-1,-1,-1,-1,-1,-1,-1,-1,-1,-1,-1,-1,-1,-1,-1,-1,-1,-1,-1,-1,-1,-1,-1,-1,-1,-1,-1,-1,-1,-1,-1,-1,-1,-1,-1,-1,-1,-1,-1,-1,-1,-1,-1,-1,-1,-1,-1,-1,-1,-1,-1,-1,-1,-1,-1,-1,-1],"loss_changes":[2.455149E5,3.913622E4,7.182883E4,5.572578E3,2.2824826E4,4.4556227E4,2.4215047E4,3.692479E3,8.306094E2,8.737125E3,8.680725E3,1.2758057E4,1.781542E4,1.0878453E4,8.806486E3,1.2447549E3,1.4850631E3,5.6453125E2,4.4531927E2,6.5405127E3,9.75166E2,5.1767695E3,6.236377E1,1.4890298E3,5.0454766E3,8.363336E3,6.81616E3,1.7894844E3,1.0199689E4,5.170673E3,4.0427783E2,3.900869E2,8.596344E2,2.0892566E2,1.0952188E3,5.555663E2,2.5996875E2,1.9323618E2,1.6850854E2,2.9893135E3,3.8091455E3,5.877783E2,2.6414062E1,2.8765146E3,7.648714E2,5.6744324E1,2.3525879E1,3.4041504E2,9.6107605E2,4.0339883E3,1.4037344E3,3.644875E3,4.414961E3,2.7003813E3,9.0415247E2,2.1744531E3,1.9710156E2,5.8200894E3,1.8656094E3,1.7699067E3,4.8537847E3,3.8705713E2,4.78125E1,0E0,0E0,0E0,0E0,0E0,0E0,0E0,0E0,0E0,0E0,0E0,0E0,0E0,0E0,0E0,0E0,0E0,0E0,0E0,0E0,0E0,0E0,0E0,0E0,0E0,0E0,0E0,0E0,0E0,0E0,0E0,0E0,0E0,0E0,0E0,0E0,0E0,0E0,0E0,0E0,0E0,0E0,0E0,0E0,0E0,0E0,0E0,0E0,0E0,0E0,0E0,0E0,0E0,0E0,0E0,0E0,0E0,0E0,0E0,0E0,0E0,0E0,0E0,0E0],"parents":[2147483647,0,0,1,1,2,2,3,3,4,4,5,5,6,6,7,7,8,8,9,9,10,10,11,11,12,12,13,13,14,14,15,15,16,16,17,17,18,18,19,19,20,20,21,21,22,22,23,23,24,24,25,25,26,26,27,27,28,28,29,29,30,30,31,31,32,32,33,33,34,34,35,35,36,36,37,37,38,38,39,39,40,40,41,41,42,42,43,43,44,44,45,45,46,46,47,47,48,48,49,49,50,50,51,51,52,52,53,53,54,54,55,55,56,56,57,57,58,58,59,59,60,60,61,61,62,62],"right_children":[2,4,6,8,10,12,14,16,18,20,22,24,26,28,30,32,34,36,38,40,42,44,46,48,50,52,54,56,58,60,62,64,66,68,70,72,74,76,78,80,82,84,86,88,90,92,94,96,98,100,102,104,106,108,110,112,114,116,118,120,122,124,126,-1,-1,-1,-1,-1,-1,-1,-1,-1,-1,-1,-1,-1,-1,-1,-1,-1,-1,-1,-1,-1,-1,-1,-1,-1,-1,-1,-1,-1,-1,-1,-1,-1,-1,-1,-1,-1,-1,-1,-1,-1,-1,-1,-1,-1,-1,-1,-1,-1,-1,-1,-1,-1,-1,-1,-1,-1,-1,-1,-1,-1,-1,-1,-1],"split_conditions":[-2.3500988E-1,-3.222164E-1,-2.6676255E-1,2.3031361E-1,-8.983831E-2,-7.860541E-2,6.1478114E-1,-2.327204E-1,1.8407553E-1,1.1860902E0,2.1077995E0,-7.6225984E-1,-1.8860766E-1,5.0821483E-1,2.0458822E0,-6.273226E-1,-8.6966807E-1,-1.0567341E0,-2.7247146E-1,-5.1767564E-1,2.1181755E0,1.1029013E0,2.3655488E0,2.0220588E-1,-2.4942126E-2,-2.3589844E-1,1.2989812E0,-1.8083283E-1,1.3181731E-2,-6.998693E-1,2.6985848E0,-1.0947673E0,-8.169392E-1,-4.4266772E-1,-7.922226E-1,-6.0730976E-1,7.930206E-2,-6.318307E-1,-4.8332334E-1,-1.1151627E-1,4.70268E-1,-6.382943E-1,6.4163055E0,-1.1037956E-1,-4.694885E-2,4.3774927E-1,7.049672E0,4.692155E-3,-3.2154787E-1,-2.5377932E-1,2.2071564E0,6.911265E-1,-9.724671E-2,2.0011547E0,1.9729664E0,-1.3503836E-1,5.072995E-1,-1.84152E-2,5.568235E-1,2.1599727E0,6.9068104E-1,-2.5080374E-1,-6.224023E-1,-7.091389E-2,-3.4316245E-1,7.646819E-2,-2.1591024E-1,-3.758619E-1,-1.1008517E-1,3.504592E-1,9.240719E-3,-3.2863006E-1,-5.9768505E-2,-3.61932E-1,-2.9021436E-1,-2.0060915E-1,1.786774E-1,-3.1189725E-1,-1.07519284E-1,-1.01002075E-1,1.9958588E-1,-2.1173695E-1,5.586491E-2,-8.3196804E-2,-2.8958318E-1,-3.8023832E-1,4.3063325E-1,1.1325487E-1,3.2326725E-1,3.566978E-2,-2.0627946E-1,-3.0778256E-1,-5.299983E-2,-3.7832496E-1,5.0899327E-1,-3.3736914E-1,9.643505E-2,-1.7923963E-1,1.969191E-1,-9.444926E-3,2.1466942E-1,3.0625528E-1,-2.4020383E-1,-2.8379E-1,6.1418597E-2,-2.4087109E-1,8.126756E-2,2.2129747E-1,-3.389505E-1,-1.10668585E-1,-3.8615444E-1,3.3092046E-1,2.053354E-1,3.6481395E-1,2.8627244E-1,-1.08784266E-1,2.4146539E-1,2.0206776E-1,3.45823E-1,2.3972775E-1,2.0917438E-2,1.595274E-1,-2.2990245E-1,1.3224988E-1,-2.8195843E-1,-4.8181653E-1,-3.884448E-1],"split_indices":[6,3,41,28,42,0,3,41,38,12,5,17,38,29,5,3,3,30,30,30,5,28,5,6,34,31,0,38,34,30,5,28,6,6,6,3,32,3,3,34,35,30,5,31,30,31,12,38,31,17,5,35,34,5,5,29,28,38,35,0,6,0,8,0,0,0,0,0,0,0,0,0,0,0,0,0,0,0,0,0,0,0,0,0,0,0,0,0,0,0,0,0,0,0,0,0,0,0,0,0,0,0,0,0,0,0,0,0,0,0,0,0,0,0,0,0,0,0,0,0,0,0,0,0,0,0,0],"split_type":[0,0,0,0,0,0,0,0,0,0,0,0,0,0,0,0,0,0,0,0,0,0,0,0,0,0,0,0,0,0,0,0,0,0,0,0,0,0,0,0,0,0,0,0,0,0,0,0,0,0,0,0,0,0,0,0,0,0,0,0,0,0,0,0,0,0,0,0,0,0,0,0,0,0,0,0,0,0,0,0,0,0,0,0,0,0,0,0,0,0,0,0,0,0,0,0,0,0,0,0,0,0,0,0,0,0,0,0,0,0,0,0,0,0,0,0,0,0,0,0,0,0,0,0,0,0,0],"sum_hessian":[6.5774125E5,2.5570203E5,4.0203922E5,1.4925769E5,1.0644435E5,1.6722983E5,2.3480938E5,2.0473918E4,1.28783766E5,7.465398E4,3.1790375E4,7.0726766E4,9.650307E4,1.9965352E5,3.5155863E4,1.4413126E4,6.060792E3,1.2652045E5,2.263314E3,5.1266902E4,2.3387078E4,2.868765E4,3.1027253E3,6.8656855E3,6.3861082E4,7.333522E4,2.3167846E4,1.4747706E5,5.2176445E4,2.993718E4,5.218684E3,9.636322E3,4.7768037E3,1.197632E3,4.86316E3,2.9283474E3,1.235921E5,5.591563E2,1.7041576E3,1.2338382E4,3.892852E4,8.381189E3,1.5005889E4,2.3804648E4,4.883001E3,6.512658E2,2.4514595E3,4.305156E3,2.5605293E3,3.08086E4,3.305248E4,5.6156566E4,1.7178656E4,1.6630562E4,6.537284E3,6.0710727E4,8.676634E4,1.9569818E4,3.2606629E4,1.807219E4,1.1864988E4,2.2372075E3,2.9814766E3,5.0018994E2,9.136132E3,1.2123359E3,3.5644678E3,7.9641425E2,4.012178E2,1.0905757E3,3.7725845E3,1.8072952E3,1.1210522E3,1.18835914E5,4.7561875E3,1.753132E2,3.8384308E2,1.1772761E3,5.2688153E2,5.0179585E3,7.320423E3,3.3338965E4,5.5895537E3,1.5174525E3,6.8637363E3,1.5003053E4,2.8363104E0,1.051617E4,1.32884795E4,1.9720406E3,2.9109604E3,5.591964E2,9.206939E1,2.449586E3,1.8734828E0,4.1360923E3,1.6906363E2,1.5543708E3,1.00615857E3,1.158283E4,1.9225771E4,3.2624545E4,4.27936E2,5.3254145E4,2.9024219E3,5.7592886E3,1.1419367E4,1.5817281E4,8.1328033E2,5.186077E3,1.3512067E3,4.3310055E4,1.7400674E4,8.376651E4,2.9998372E3,1.3276971E4,6.2928477E3,1.5426698E4,1.717993E4,1.3675331E4,4.396859E3,4.9208677E3,6.9441206E3,2.252322E2,2.0119753E3,6.568038E2,2.3246726E3],"tree_param":{"num_deleted":"0","num_feature":"49","num_nodes":"127","size_leaf_vector":"0"}},{"base_weights":[2.7073813E-3,7.687934E-1,-4.8453373E-1,1.0991733E0,3.0552444E-1,1.6326245E-2,-8.412417E-1,6.1452E-1,1.1762177E0,6.077007E-1,-4.0407896E-1,-5.8661145E-1,4.582187E-1,-9.7599626E-1,-7.595199E-2,8.8989127E-1,-4.0377185E-2,1.186961E0,5.753999E-1,3.7662676E-1,1.114201E0,-5.7593906E-1,1.184605E0,7.086304E-1,-7.2587144E-1,6.9971436E-1,-3.062062E-1,-1.1148394E0,-5.8354074E-1,-2.849274E-1,1.1226684E0,1.0967991E0,4.723505E-1,9.566345E-1,-2.860537E-1,7.5252664E-1,1.1972482E0,-1.9871077E-1,8.293632E-1,-2.5779992E-1,5.7770956E-1,8.407678E-1,1.2668545E0,-7.683294E-1,3.6192977E-1,9.063347E-1,1.2581317E0,1.0677173E0,1.04697004E-1,-4.3471208E-1,-9.9724317E-1,8.8649046E-1,8.913232E-2,-6.4626926E-1,5.5886537E-1,-9.831004E-1,-1.2070059E0,-1.2827695E-2,-9.2606044E-1,-6.2165534E-1,2.2796988E-1,8.007242E-1,1.3638958E0,2.3637965E-1,1.1438748E0,-2.548939E-1,7.1970075E-1,1.252873E0,3.669506E-1,-1.1681972E0,-3.0802336E-2,1.0954355E0,1.9922079E-1,1.20644E0,9.673811E-1,6.686971E-1,-5.955913E-1,1.0396575E0,3.583976E-1,3.366735E-1,-6.652863E-1,7.057898E-1,-1.8621637E-1,2.7732265E-1,9.6527714E-1,1.267461E0,-1.4354442E0,-3.775162E-1,-1.0775574E0,-1.18899286E-1,6.875981E-1,1.0259418E0,1.7666608E-1,1.2610831E0,-1.6966443E0,1.1245638E0,-3.2145014E-1,5.974654E-1,-6.56397E-1,3.1483017E-2,-7.155647E-1,-1.0208503E0,8.0067927E-1,9.459661E-1,-2.047293E-1,8.0290353E-1,-2.708925E-1,-7.3765725E-1,1.1298349E0,3.688948E-1,1.2871813E0,-1.1030694E0,-6.844516E-1,-1.2160463E0,-9.542416E-1,3.6261383E-1,-8.0488497E-1,-6.735592E-1,-1.1527418E0,-7.990926E-1,-6.9724865E-2,-5.317584E-1,7.663414E-1,-4.4083315E-1,9.3986136E-1,1.606055E0,1.294816E0],"categories":[],"categories_nodes":[],"categories_segments":[],"categories_sizes":[],"default_left":[1,1,1,1,1,1,1,1,1,1,1,1,1,1,1,1,1,1,1,1,1,1,1,1,1,1,1,1,1,1,1,1,1,1,1,1,1,1,1,1,1,1,1,1,1,1,1,1,1,1,1,1,1,1,1,1,1,1,1,1,1,1,1,0,0,0,0,0,0,0,0,0,0,0,0,0,0,0,0,0,0,0,0,0,0,0,0,0,0,0,0,0,0,0,0,0,0,0,0,0,0,0,0,0,0,0,0,0,0,0,0,0,0,0,0,0,0,0,0,0,0,0,0,0,0,0,0],"id":7,"left_children":[1,3,5,7,9,11,13,15,17,19,21,23,25,27,29,31,33,35,37,39,41,43,45,47,49,51,53,55,57,59,61,63,65,67,69,71,73,75,77,79,81,83,85,87,89,91,93,95,97,99,101,103,105,107,109,111,113,115,117,119,121,123,125,-1,-1,-1,-1,-1,-1,-1,-1,-1,-1,-1,-1,-1,-1,-1,-1,-1,-1,-1,-1,-1,-1,-1,-1,-1,-1,-1,-1,-1,-1,-1,-1,-1,-1,-1,-1,-1,-1,-1,-1,-1,-1,-1,-1,-1,-1,-1,-1,-1,-1,-1,-1,-1,-1,-1,-1,-1,-1,-1,-1,-1,-1,-1,-1],"loss_changes":[2.4551489E5,3.9136234E4,7.182882E4,5.5725625E3,2.2824824E4,4.4556184E4,2.4215047E4,3.6924805E3,8.306094E2,8.737125E3,8.680726E3,1.27580625E4,1.781538E4,1.0878469E4,8.806489E3,1.2447539E3,1.4850631E3,5.6453125E2,4.4531927E2,6.540511E3,9.75166E2,5.1767686E3,6.236328E1,1.4890293E3,5.045461E3,8.36334E3,6.8161455E3,1.7895156E3,1.019965E4,5.1706714E3,4.0427783E2,3.900869E2,8.596343E2,2.089259E2,1.0952189E3,5.5557715E2,2.5998438E2,1.9323618E2,1.6850854E2,2.9893132E3,3.8091455E3,5.8777783E2,2.6414062E1,2.8765137E3,7.648715E2,5.6744263E1,2.3525635E1,3.404165E2,9.61076E2,4.0339888E3,1.4037305E3,3.644879E3,4.4149663E3,2.700377E3,9.041531E2,2.1744688E3,1.9710156E2,5.8200903E3,1.8655938E3,1.7699067E3,4.8537886E3,3.8705725E2,4.78125E1,0E0,0E0,0E0,0E0,0E0,0E0,0E0,0E0,0E0,0E0,0E0,0E0,0E0,0E0,0E0,0E0,0E0,0E0,0E0,0E0,0E0,0E0,0E0,0E0,0E0,0E0,0E0,0E0,0E0,0E0,0E0,0E0,0E0,0E0,0E0,0E0,0E0,0E0,0E0,0E0,0E0,0E0,0E0,0E0,0E0,0E0,0E0,0E0,0E0,0E0,0E0,0E0,0E0,0E0,0E0,0E0,0E0,0E0,0E0,0E0,0E0,0E0,0E0,0E0],"parents":[2147483647,0,0,1,1,2,2,3,3,4,4,5,5,6,6,7,7,8,8,9,9,10,10,11,11,12,12,13,13,14,14,15,15,16,16,17,17,18,18,19,19,20,20,21,21,22,22,23,23,24,24,25,25,26,26,27,27,28,28,29,29,30,30,31,31,32,32,33,33,34,34,35,35,36,36,37,37,38,38,39,39,40,40,41,41,42,42,43,43,44,44,45,45,46,46,47,47,48,48,49,49,50,50,51,51,52,52,53,53,54,54,55,55,56,56,57,57,58,58,59,59,60,60,61,61,62,62],"right_children":[2,4,6,8,10,12,14,16,18,20,22,24,26,28,30,32,34,36,38,40,42,44,46,48,50,52,54,56,58,60,62,64,66,68,70,72,74,76,78,80,82,84,86,88,90,92,94,96,98,100,102,104,106,108,110,112,114,116,118,120,122,124,126,-1,-1,-1,-1,-1,-1,-1,-1,-1,-1,-1,-1,-1,-1,-1,-1,-1,-1,-1,-1,-1,-1,-1,-1,-1,-1,-1,-1,-1,-1,-1,-1,-1,-1,-1,-1,-1,-1,-1,-1,-1,-1,-1,-1,-1,-1,-1,-1,-1,-1,-1,-1,-1,-1,-1,-1,-1,-1,-1,-1,-1,-1,-1,-1],"split_conditions":[-2.3500988E-1,-3.222164E-1,-2.6676255E-1,2.3031361E-1,-8.983831E-2,-7.860541E-2,6.1478114E-1,-2.327204E-1,1.8407553E-1,1.1860902E0,2.1077995E0,-7.6225984E-1,-1.8860766E-1,5.0821483E-1,2.0458822E0,-6.273226E-1,-8.6966807E-1,-1.0567341E0,-2.7247146E-1,-5.1767564E-1,2.1181755E0,1.1029013E0,2.3655488E0,2.0220588E-1,-2.4942126E-2,-2.3589844E-1,1.2989812E0,-1.8082903E-1,1.3181731E-2,-6.998693E-1,2.6985848E0,-1.0947673E0,-8.169392E-1,-4.4266772E-1,-7.922226E-1,-6.0730976E-1,7.930206E-2,-6.318307E-1,-4.8332334E-1,-1.1151627E-1,4.70268E-1,-6.382943E-1,6.4163055E0,-1.1037956E-1,-4.694885E-2,4.3774927E-1,7.049672E0,4.692155E-3,-3.2154787E-1,-2.5377932E-1,2.2071564E0,6.911265E-1,-9.724671E-2,2.0011547E0,1.9729664E0,-1.3503836E-1,5.072995E-1,-1.84152E-2,5.568235E-1,2.1599727E0,6.9068104E-1,-2.5080374E-1,-6.224023E-1,7.0913896E-2,3.4316245E-1,-7.646817E-2,2.1591024E-1,3.758619E-1,1.1008518E-1,-3.5045916E-1,-9.240701E-3,3.2863066E-1,5.976624E-2,3.61932E-1,2.9021436E-1,2.0060915E-1,-1.786774E-1,3.1189725E-1,1.07519284E-1,1.0100205E-1,-1.995859E-1,2.1173695E-1,-5.586491E-2,8.31968E-2,2.8958315E-1,3.802383E-1,-4.3063328E-1,-1.1325487E-1,-3.2326725E-1,-3.566979E-2,2.0627944E-1,3.0778256E-1,5.2999828E-2,3.7832496E-1,-5.089933E-1,3.3736914E-1,-9.643505E-2,1.7923963E-1,-1.969191E-1,9.444905E-3,-2.1466942E-1,-3.062551E-1,2.4020378E-1,2.8378984E-1,-6.1418794E-2,2.4087107E-1,-8.126775E-2,-2.2129719E-1,3.3895048E-1,1.1066844E-1,3.8615438E-1,-3.3092085E-1,-2.0533548E-1,-3.6481392E-1,-2.862725E-1,1.08784154E-1,-2.414655E-1,-2.0206776E-1,-3.4582254E-1,-2.3972778E-1,-2.091746E-2,-1.5952754E-1,2.2990243E-1,-1.3224995E-1,2.8195843E-1,4.8181653E-1,3.884448E-1],"split_indices":[6,3,41,28,42,0,3,41,38,12,5,17,38,29,5,3,3,30,30,30,5,28,5,6,34,31,0,38,34,30,5,28,6,6,6,3,32,3,3,34,35,30,5,31,30,31,12,38,31,17,5,35,34,5,5,29,28,38,35,0,6,0,8,0,0,0,0,0,0,0,0,0,0,0,0,0,0,0,0,0,0,0,0,0,0,0,0,0,0,0,0,0,0,0,0,0,0,0,0,0,0,0,0,0,0,0,0,0,0,0,0,0,0,0,0,0,0,0,0,0,0,0,0,0,0,0,0],"split_type":[0,0,0,0,0,0,0,0,0,0,0,0,0,0,0,0,0,0,0,0,0,0,0,0,0,0,0,0,0,0,0,0,0,0,0,0,0,0,0,0,0,0,0,0,0,0,0,0,0,0,0,0,0,0,0,0,0,0,0,0,0,0,0,0,0,0,0,0,0,0,0,0,0,0,0,0,0,0,0,0,0,0,0,0,0,0,0,0,0,0,0,0,0,0,0,0,0,0,0,0,0,0,0,0,0,0,0,0,0,0,0,0,0,0,0,0,0,0,0,0,0,0,0,0,0,0,0],"sum_hessian":[6.5774125E5,2.5570203E5,4.0203922E5,1.4925767E5,1.0644435E5,1.6722983E5,2.3480939E5,2.0473918E4,1.2878376E5,7.465398E4,3.1790375E4,7.0726766E4,9.650307E4,1.9965352E5,3.5155867E4,1.4413126E4,6.060792E3,1.2652044E5,2.263314E3,5.12669E4,2.3387078E4,2.868765E4,3.102725E3,6.8656855E3,6.386108E4,7.333523E4,2.3167842E4,1.4747712E5,5.21764E4,2.9937182E4,5.218684E3,9.636322E3,4.7768037E3,1.1976321E3,4.86316E3,2.928348E3,1.2359209E5,5.591563E2,1.7041576E3,1.2338381E4,3.892852E4,8.381188E3,1.5005889E4,2.3804648E4,4.883001E3,6.512658E2,2.4514592E3,4.3051562E3,2.5605293E3,3.0808602E4,3.3052477E4,5.615657E4,1.7178658E4,1.6630557E4,6.5372847E3,6.0710938E4,8.676618E4,1.9569822E4,3.2606578E4,1.8072191E4,1.186499E4,2.2372075E3,2.9814766E3,5.0018994E2,9.136133E3,1.2123359E3,3.564468E3,7.9641425E2,4.012178E2,1.0905757E3,3.7725845E3,1.8073011E3,1.1210466E3,1.1883591E5,4.7561875E3,1.7531319E2,3.8384308E2,1.177276E3,5.2688153E2,5.0179585E3,7.320423E3,3.3338965E4,5.5895537E3,1.5174524E3,6.8637363E3,1.5003053E4,2.8363104E0,1.051617E4,1.32884795E4,1.9720406E3,2.9109602E3,5.591964E2,9.206939E1,2.449586E3,1.8734827E0,4.1360923E3,1.6906363E2,1.5543708E3,1.00615857E3,1.158283E4,1.9225771E4,3.2624543E4,4.27936E2,5.325415E4,2.9024224E3,5.759288E3,1.1419371E4,1.5817276E4,8.1328033E2,5.186078E3,1.3512065E3,4.3310258E4,1.7400678E4,8.376634E4,2.999838E3,1.3276973E4,6.2928496E3,1.5426694E4,1.7179883E4,1.3675333E4,4.3968594E3,4.920869E3,6.944121E3,2.2523221E2,2.0119753E3,6.568038E2,2.3246726E3],"tree_param":{"num_deleted":"0","num_feature":"49","num_nodes":"127","size_leaf_vector":"0"}},{"base_weights":[-2.9472322E-3,3.8363945E-1,-7.410666E-1,2.7719853E-3,7.953533E-1,-1.0762208E0,-3.060995E-1,-2.732689E-1,5.323842E-1,9.4152474E-1,-2.401048E-2,-2.7623773E-1,-1.1021287E0,-5.184985E-1,4.0698296E-1,5.1553693E-2,-6.422853E-1,-3.827728E-1,7.220796E-1,7.1507907E-1,1.0753101E0,1.8664902E-1,-1.0422136E0,-6.5198094E-1,4.9320966E-1,-1.1156259E0,-3.900907E-1,-6.8388116E-1,-4.9970686E-2,4.9489814E-1,-1.070903E0,2.323E-1,-1.1379476E0,-7.482985E-1,4.984057E-1,-1.17985055E-1,-8.9103675E-1,8.265027E-1,-1.3893837E-1,9.4346875E-1,3.3804503E-1,4.747476E-1,1.0875131E0,5.7870746E-1,-2.9374212E-1,-7.7768195E-1,-1.2300711E0,-1.0243739E0,-2.1087094E-1,-5.2220637E-1,7.300815E-1,-1.1317492E0,-8.2888114E-1,-8.5083467E-1,1.2837472E-2,-5.8497274E-1,-1.1789072E0,1.0358175E-1,-1.1198933E0,7.04013E-1,1.4021274E-1,-8.6424416E-1,-1.2401444E0,-2.5107956E-1,4.670281E-1,-8.0180365E-1,-1.1912276E0,-8.2601327E-1,2.3700963E-1,-2.0488774E-2,9.9016404E-1,3.7838787E-1,-5.998327E-1,-1.0025038E0,-4.5692796E-1,-2.1043155E-1,9.0449256E-1,7.17582E-2,-1.0858212E0,9.7040945E-1,-7.3283184E-1,6.2325764E-2,8.352862E-1,8.882855E-1,-2.5536352E-1,1.1115819E0,8.939939E-1,6.612155E-1,-4.3622616E-1,2.2220577E-1,-5.84655E-1,-9.287151E-1,-3.0761418E-1,-1.2327123E0,1.0259802E0,-1.067738E0,2.2016671E-1,-5.4221517E-1,4.00725E-1,-7.531612E-1,1.0034499E-1,1.6108386E-1,8.840895E-1,-1.1470925E0,-9.7652125E-1,-1.0915874E0,-4.9814633E-1,-1.0751265E0,-5.830726E-1,5.1131994E-1,-4.360855E-1,-2.97132E-1,-7.999706E-1,-1.138827E0,-1.3895323E0,4.384103E-1,-3.29035E-1,-6.588094E-1,-1.1859635E0,8.549796E-1,2.2054082E-1,-1.8979451E-1,4.8024973E-1,-5.313219E-1,-1.0294243E0,-1.2429072E0,1.8593222E-1],"categories":[],"categories_nodes":[],"categories_segments":[],"categories_sizes":[],"default_left":[1,1,1,1,1,1,1,1,1,1,1,1,1,1,1,1,1,1,1,1,1,1,1,1,1,1,1,1,1,1,1,1,1,1,1,1,1,1,1,1,1,1,1,1,1,1,1,1,1,1,1,1,1,1,1,1,1,1,1,1,1,1,1,0,0,0,0,0,0,0,0,0,0,0,0,0,0,0,0,0,0,0,0,0,0,0,0,0,0,0,0,0,0,0,0,0,0,0,0,0,0,0,0,0,0,0,0,0,0,0,0,0,0,0,0,0,0,0,0,0,0,0,0,0,0,0,0],"id":8,"left_children":[1,3,5,7,9,11,13,15,17,19,21,23,25,27,29,31,33,35,37,39,41,43,45,47,49,51,53,55,57,59,61,63,65,67,69,71,73,75,77,79,81,83,85,87,89,91,93,95,97,99,101,103,105,107,109,111,113,115,117,119,121,123,125,-1,-1,-1,-1,-1,-1,-1,-1,-1,-1,-1,-1,-1,-1,-1,-1,-1,-1,-1,-1,-1,-1,-1,-1,-1,-1,-1,-1,-1,-1,-1,-1,-1,-1,-1,-1,-1,-1,-1,-1,-1,-1,-1,-1,-1,-1,-1,-1,-1,-1,-1,-1,-1,-1,-1,-1,-1,-1,-1,-1,-1,-1,-1,-1],"loss_changes":[1.6399367E5,5.9143965E4,2.8797672E4,2.8643666E4,2.1707547E4,2.3121328E3,1.3021268E4,1.5438315E4,1.1654273E4,4.6588906E3,5.885872E3,1.01260925E3,1.0382031E3,5.1327676E3,2.5641626E3,1.4727941E4,7.2919844E3,1.5511627E3,4.9996035E3,4.918799E3,7.0803906E2,4.2824404E3,2.328081E2,3.862959E2,2.7683337E2,4.8940625E2,3.7353192E2,2.3964688E3,2.8395203E3,1.3812373E3,3.76864E1,6.747343E3,1.608789E2,4.2247227E3,1.30852E3,1.8130867E3,1.9057886E2,4.0106445E3,1.2001375E3,1.6073047E3,2.9546428E3,5.8210034E2,4.40375E2,1.0486924E3,1.5338135E3,1.3858997E2,1.7644531E1,6.907715E1,2.1874583E2,3.1418324E1,8.156293E1,2.3803125E2,4.9036108E2,5.5746704E1,2.406363E2,2.5251758E3,6.723926E1,2.1895562E3,6.530029E1,8.549424E2,7.7537213E2,2.7071503E1,2.6224365E0,0E0,0E0,0E0,0E0,0E0,0E0,0E0,0E0,0E0,0E0,0E0,0E0,0E0,0E0,0E0,0E0,0E0,0E0,0E0,0E0,0E0,0E0,0E0,0E0,0E0,0E0,0E0,0E0,0E0,0E0,0E0,0E0,0E0,0E0,0E0,0E0,0E0,0E0,0E0,0E0,0E0,0E0,0E0,0E0,0E0,0E0,0E0,0E0,0E0,0E0,0E0,0E0,0E0,0E0,0E0,0E0,0E0,0E0,0E0,0E0,0E0,0E0,0E0,0E0],"parents":[2147483647,0,0,1,1,2,2,3,3,4,4,5,5,6,6,7,7,8,8,9,9,10,10,11,11,12,12,13,13,14,14,15,15,16,16,17,17,18,18,19,19,20,20,21,21,22,22,23,23,24,24,25,25,26,26,27,27,28,28,29,29,30,30,31,31,32,32,33,33,34,34,35,35,36,36,37,37,38,38,39,39,40,40,41,41,42,42,43,43,44,44,45,45,46,46,47,47,48,48,49,49,50,50,51,51,52,52,53,53,54,54,55,55,56,56,57,57,58,58,59,59,60,60,61,61,62,62],"right_children":[2,4,6,8,10,12,14,16,18,20,22,24,26,28,30,32,34,36,38,40,42,44,46,48,50,52,54,56,58,60,62,64,66,68,70,72,74,76,78,80,82,84,86,88,90,92,94,96,98,100,102,104,106,108,110,112,114,116,118,120,122,124,126,-1,-1,-1,-1,-1,-1,-1,-1,-1,-1,-1,-1,-1,-1,-1,-1,-1,-1,-1,-1,-1,-1,-1,-1,-1,-1,-1,-1,-1,-1,-1,-1,-1,-1,-1,-1,-1,-1,-1,-1,-1,-1,-1,-1,-1,-1,-1,-1,-1,-1,-1,-1,-1,-1,-1,-1,-1,-1,-1,-1,-1,-1,-1,-1],"split_conditions":[4.1821662E-1,-2.8312087E-1,-2.5907058E-1,-2.5265068E-1,7.067398E-1,-1.2348154E0,6.766082E-2,-1.5360533E-1,-9.934376E-2,7.528226E-2,2.1524E0,-1.7177951E-1,2.975753E-1,-1.5061651E-1,2.1530833E0,2.0181458E0,6.7451835E-1,4.8504812E-1,6.078688E-1,6.3384265E-2,-6.284456E-1,-9.0455145E-1,2.9053075E0,-5.0488865E-1,-5.9938055E-1,3.581156E-2,-5.0572467E-1,1.9784758E0,1.988584E0,-7.239844E-2,2.8849072E0,-5.2796297E-2,2.215999E0,2.3174897E-1,1.4601582E-1,-2.7487963E-1,2.4709415E0,-5.9631747E-1,2.1204014E0,2.0625339E0,5.674939E-1,-4.1827175E-1,3.176151E-1,4.7731476E0,6.415247E-1,4.7901547E-1,7.4156513E0,1.3275231E-1,-3.04923E-1,8.9513555E-2,-9.3572915E-2,-6.4847864E-2,-5.786562E-1,-5.743216E-2,1.3032832E-2,-2.2992112E-1,-1.8798453E-1,-4.2947657E-2,2.1395571E0,1.4711795E0,-4.8404843E-2,-5.4896003E-1,5.404688E0,-7.532387E-2,1.4010844E-1,-2.405411E-1,-3.573683E-1,-2.4780399E-1,7.1102895E-2,-6.1466326E-3,2.9704922E-1,1.1351637E-1,-1.7994982E-1,-3.0075115E-1,-1.3707839E-1,-6.312947E-2,2.713478E-1,2.1527462E-2,-3.2574636E-1,2.9112285E-1,-2.1984956E-1,1.869773E-2,2.5058588E-1,2.6648566E-1,-7.660906E-2,3.3347458E-1,2.681982E-1,1.9836466E-1,-1.3086785E-1,6.666174E-2,-1.753965E-1,-2.7861455E-1,-9.2284255E-2,-3.6981368E-1,3.077941E-1,-3.2032144E-1,6.6050015E-2,-1.6266456E-1,1.2021751E-1,-2.2594836E-1,3.01035E-2,4.8325162E-2,2.6522687E-1,-3.4412774E-1,-2.9295638E-1,-3.2747623E-1,-1.4944391E-1,-3.2253796E-1,-1.7492178E-1,1.5339598E-1,-1.3082565E-1,-8.9139596E-2,-2.399912E-1,-3.416481E-1,-4.1685972E-1,1.315231E-1,-9.871051E-2,-1.9764283E-1,-3.5578907E-1,2.564939E-1,6.616225E-2,-5.6938354E-2,1.4407493E-1,-1.5939657E-1,-3.088273E-1,-3.7287217E-1,5.577967E-2],"split_indices":[28,40,3,31,3,30,44,29,34,38,5,41,38,31,5,5,35,3,3,29,3,30,5,3,3,32,3,5,5,30,5,6,5,34,32,29,10,3,5,5,35,28,3,10,6,38,12,32,31,31,34,31,3,42,30,30,6,30,5,0,31,30,5,0,0,0,0,0,0,0,0,0,0,0,0,0,0,0,0,0,0,0,0,0,0,0,0,0,0,0,0,0,0,0,0,0,0,0,0,0,0,0,0,0,0,0,0,0,0,0,0,0,0,0,0,0,0,0,0,0,0,0,0,0,0,0,0],"split_type":[0,0,0,0,0,0,0,0,0,0,0,0,0,0,0,0,0,0,0,0,0,0,0,0,0,0,0,0,0,0,0,0,0,0,0,0,0,0,0,0,0,0,0,0,0,0,0,0,0,0,0,0,0,0,0,0,0,0,0,0,0,0,0,0,0,0,0,0,0,0,0,0,0,0,0,0,0,0,0,0,0,0,0,0,0,0,0,0,0,0,0,0,0,0,0,0,0,0,0,0,0,0,0,0,0,0,0,0,0,0,0,0,0,0,0,0,0,0,0,0,0,0,0,0,0,0,0],"sum_hessian":[5.747144E5,3.7717244E5,1.975419E5,1.9592631E5,1.8124614E5,1.115715E5,8.597041E4,1.2879641E5,6.712991E4,1.5380734E5,2.7438805E4,3.5003364E3,1.08071164E5,6.624031E4,1.973009E4,6.850048E4,6.0295934E4,1.1525556E4,5.5604348E4,5.7124508E4,9.668283E4,2.2735746E4,4.703059E3,2.3519597E3,1.1483768E3,1.06060164E5,2.0109987E3,4.8958355E4,1.7281959E4,1.862293E4,1.1071593E3,5.946543E4,9.035047E3,5.5168992E4,5.1269385E3,7.5786016E3,3.9469543E3,4.959016E4,6.0141875E3,3.5573957E4,2.1550549E4,1.9261888E3,9.475664E4,1.2518721E4,1.0217024E4,1.9551102E3,2.747949E3,1.2745986E3,1.0773611E3,2.1698907E2,9.313877E2,1.0041119E5,5.64898E3,9.376708E2,1.0733279E3,4.0807098E4,8.15126E3,1.5113774E4,2.1681853E3,1.1715022E4,6.9079087E3,5.0122537E2,6.059339E2,1.943746E4,4.0027965E4,1.2383481E3,7.7966987E3,5.1135887E4,4.033106E3,2.4951062E3,2.6318323E3,3.7331404E3,3.845461E3,3.1395073E3,8.0744696E2,3.4687556E3,4.6121406E4,4.9202725E3,1.0939152E3,3.5011688E4,5.6227014E2,1.3864073E4,7.686476E3,1.22955E3,6.9663885E2,8.4270766E4,1.0485873E4,1.1577858E4,9.408624E2,3.6838235E3,6.533201E3,1.4789474E3,4.7616284E2,2.7451887E3,2.7602518E0,1.2318198E3,4.2778843E1,6.9885565E2,3.785055E2,1.581198E2,5.8869274E1,1.9883148E2,7.325562E2,9.137314E4,9.038044E3,3.1469905E3,2.5019897E3,5.0861356E2,4.290572E2,5.0852478E2,5.648031E2,1.744884E4,2.3358256E4,6.8535034E3,1.2977562E3,8.519781E3,6.593993E3,2.7312177E2,1.8950636E3,8.9268125E3,2.78821E3,3.50588E3,3.4020288E3,1.6761414E2,3.3361124E2,6.0489044E2,1.0434383E0],"tree_param":{"num_deleted":"0","num_feature":"49","num_nodes":"127","size_leaf_vector":"0"}},{"base_weights":[2.9473174E-3,-3.836394E-1,7.410666E-1,-2.772121E-3,-7.953532E-1,1.0762208E0,3.0609939E-1,2.7326897E-1,-5.323846E-1,-9.415246E-1,2.4010384E-2,2.7623975E-1,1.1021287E0,5.184984E-1,-4.0698317E-1,-5.1553864E-2,6.422857E-1,3.8277286E-1,-7.2207993E-1,-7.1507895E-1,-1.07531E0,-1.8664911E-1,1.0422136E0,6.5198284E-1,-4.9320826E-1,1.1156259E0,3.900906E-1,6.838811E-1,4.9970597E-2,-4.9489832E-1,1.0709028E0,-2.3230016E-1,1.1379476E0,7.4829805E-1,-4.983996E-1,1.1798511E-1,8.910368E-1,-8.26503E-1,1.389382E-1,-9.434688E-1,-3.3804432E-1,-4.747477E-1,-1.087513E0,-5.7870746E-1,2.9374194E-1,7.776819E-1,1.2300711E0,1.0243757E0,2.1087162E-1,5.2220887E-1,-7.3008084E-1,1.1317493E0,8.288811E-1,8.508346E-1,-1.2837556E-2,5.849726E-1,1.1789072E0,-1.0358184E-1,1.1198933E0,-7.0401317E-1,-1.402129E-1,8.642441E-1,1.2401444E0,2.510796E-1,-4.670283E-1,8.018036E-1,1.1912276E0,8.2601285E-1,-2.370109E-1,2.0495234E-2,-9.901577E-1,-3.7838778E-1,5.998327E-1,1.0025038E0,4.5692798E-1,2.1043149E-1,-9.0449286E-1,-7.175837E-2,1.0858212E0,-9.704095E-1,7.328318E-1,-6.2324874E-2,-8.35286E-1,-8.8828564E-1,2.5536346E-1,-1.1115818E0,-8.939942E-1,-6.6121554E-1,4.3622625E-1,-2.222061E-1,5.846549E-1,9.287151E-1,3.0761415E-1,1.2327123E0,-1.0259802E0,1.0677397E0,-2.2016267E-1,5.422159E-1,-4.0072447E-1,7.531634E-1,-1.0034211E-1,-1.6108258E-1,-8.8408905E-1,1.1470925E0,9.765213E-1,1.0915874E0,4.9814627E-1,1.0751264E0,5.8307254E-1,-5.1132005E-1,4.3608546E-1,2.9713187E-1,7.9997057E-1,1.138827E0,1.3895323E0,-4.384104E-1,3.2903495E-1,6.5880936E-1,1.1859635E0,-8.549797E-1,-2.2054125E-1,1.8979433E-1,-4.8024985E-1,5.313219E-1,1.0294243E0,1.2429072E0,-1.8593223E-1],"categories":[],"categories_nodes":[],"categories_segments":[],"categories_sizes":[],"default_left":[1,1,1,1,1,1,1,1,1,1,1,1,1,1,1,1,1,1,1,1,1,1,1,1,1,1,1,1,1,1,1,1,1,1,1,1,1,1,1,1,1,1,1,1,1,1,1,1,1,1,1,1,1,1,1,1,1,1,1,1,1,1,1,0,0,0,0,0,0,0,0,0,0,0,0,0,0,0,0,0,0,0,0,0,0,0,0,0,0,0,0,0,0,0,0,0,0,0,0,0,0,0,0,0,0,0,0,0,0,0,0,0,0,0,0,0,0,0,0,0,0,0,0,0,0,0,0],"id":9,"left_children":[1,3,5,7,9,11,13,15,17,19,21,23,25,27,29,31,33,35,37,39,41,43,45,47,49,51,53,55,57,59,61,63,65,67,69,71,73,75,77,79,81,83,85,87,89,91,93,95,97,99,101,103,105,107,109,111,113,115,117,119,121,123,125,-1,-1,-1,-1,-1,-1,-1,-1,-1,-1,-1,-1,-1,-1,-1,-1,-1,-1,-1,-1,-1,-1,-1,-1,-1,-1,-1,-1,-1,-1,-1,-1,-1,-1,-1,-1,-1,-1,-1,-1,-1,-1,-1,-1,-1,-1,-1,-1,-1,-1,-1,-1,-1,-1,-1,-1,-1,-1,-1,-1,-1,-1,-1,-1],"loss_changes":[1.6399364E5,5.9143934E4,2.8797695E4,2.8643701E4,2.170754E4,2.3121406E3,1.3021271E4,1.5438341E4,1.1654283E4,4.6588594E3,5.8858726E3,1.0126116E3,1.0382031E3,5.1327676E3,2.564163E3,1.4727944E4,7.291879E3,1.5511627E3,4.9996055E3,4.9188105E3,7.0803906E2,4.2824395E3,2.328081E2,3.862976E2,2.7683472E2,4.8940625E2,3.7353192E2,2.3964707E3,2.8395205E3,1.3812383E3,3.768628E1,6.7473467E3,1.6087793E2,4.2247363E3,1.3085153E3,1.8130864E3,1.9057861E2,4.0106445E3,1.200138E3,1.6073008E3,2.9546472E3,5.8210034E2,4.403828E2,1.0486924E3,1.5338147E3,1.3858997E2,1.764502E1,6.907703E1,2.1874602E2,3.1418331E1,8.156317E1,2.3803906E2,4.9036108E2,5.5746643E1,2.4063637E2,2.5251787E3,6.723828E1,2.1895566E3,6.530054E1,8.549419E2,7.7537195E2,2.7071503E1,2.6223755E0,0E0,0E0,0E0,0E0,0E0,0E0,0E0,0E0,0E0,0E0,0E0,0E0,0E0,0E0,0E0,0E0,0E0,0E0,0E0,0E0,0E0,0E0,0E0,0E0,0E0,0E0,0E0,0E0,0E0,0E0,0E0,0E0,0E0,0E0,0E0,0E0,0E0,0E0,0E0,0E0,0E0,0E0,0E0,0E0,0E0,0E0,0E0,0E0,0E0,0E0,0E0,0E0,0E0,0E0,0E0,0E0,0E0,0E0,0E0,0E0,0E0,0E0,0E0,0E0],"parents":[2147483647,0,0,1,1,2,2,3,3,4,4,5,5,6,6,7,7,8,8,9,9,10,10,11,11,12,12,13,13,14,14,15,15,16,16,17,17,18,18,19,19,20,20,21,21,22,22,23,23,24,24,25,25,26,26,27,27,28,28,29,29,30,30,31,31,32,32,33,33,34,34,35,35,36,36,37,37,38,38,39,39,40,40,41,41,42,42,43,43,44,44,45,45,46,46,47,47,48,48,49,49,50,50,51,51,52,52,53,53,54,54,55,55,56,56,57,57,58,58,59,59,60,60,61,61,62,62],"right_children":[2,4,6,8,10,12,14,16,18,20,22,24,26,28,30,32,34,36,38,40,42,44,46,48,50,52,54,56,58,60,62,64,66,68,70,72,74,76,78,80,82,84,86,88,90,92,94,96,98,100,102,104,106,108,110,112,114,116,118,120,122,124,126,-1,-1,-1,-1,-1,-1,-1,-1,-1,-1,-1,-1,-1,-1,-1,-1,-1,-1,-1,-1,-1,-1,-1,-1,-1,-1,-1,-1,-1,-1,-1,-1,-1,-1,-1,-1,-1,-1,-1,-1,-1,-1,-1,-1,-1,-1,-1,-1,-1,-1,-1,-1,-1,-1,-1,-1,-1,-1,-1,-1,-1,-1,-1,-1],"split_conditions":[4.1821662E-1,-2.8312087E-1,-2.5907058E-1,-2.5265068E-1,7.067398E-1,-1.2348154E0,6.766082E-2,-1.5360533E-1,-9.934376E-2,7.528226E-2,2.1524E0,-1.7177951E-1,2.975753E-1,-1.5061651E-1,2.1530833E0,2.0181458E0,6.7451835E-1,4.8504812E-1,6.078688E-1,6.3384265E-2,-6.284456E-1,-9.0455145E-1,2.9053075E0,-5.0488865E-1,-5.9938055E-1,3.581156E-2,-5.0572467E-1,1.9784758E0,1.988584E0,-7.239844E-2,2.8849072E0,-5.2796297E-2,2.215999E0,2.3174897E-1,1.4601582E-1,-2.7487963E-1,2.4709415E0,-5.9631747E-1,2.1204014E0,2.0625339E0,5.674939E-1,-4.1827175E-1,3.176151E-1,4.7731476E0,6.415247E-1,4.7901547E-1,7.4156513E0,1.3275231E-1,-3.04923E-1,8.9513555E-2,-9.3572915E-2,-6.4847864E-2,-5.786562E-1,-5.743216E-2,1.3032832E-2,-2.2992112E-1,-1.8798453E-1,-4.2947657E-2,2.1395571E0,1.4711795E0,-4.8404843E-2,-5.4896003E-1,5.404688E0,7.532388E-2,-1.401085E-1,2.4054109E-1,3.573683E-1,2.4780387E-1,-7.1103275E-2,6.1485707E-3,-2.9704732E-1,-1.1351634E-1,1.7994982E-1,3.0075115E-1,1.370784E-1,6.312945E-2,-2.7134788E-1,-2.152751E-2,3.2574636E-1,-2.9112285E-1,2.1984954E-1,-1.8697463E-2,-2.5058582E-1,-2.664857E-1,7.6609045E-2,-3.3347455E-1,-2.6819828E-1,-1.9836468E-1,1.3086788E-1,-6.6661835E-2,1.7539649E-1,2.7861455E-1,9.228425E-2,3.6981368E-1,-3.077941E-1,3.2032192E-1,-6.604881E-2,1.6266477E-1,-1.20217346E-1,2.2594903E-1,-3.0102635E-2,-4.8324775E-2,-2.6522672E-1,3.4412774E-1,2.929564E-1,3.2747623E-1,1.4944388E-1,3.2253793E-1,1.7492177E-1,-1.5339603E-1,1.3082564E-1,8.9139566E-2,2.3999117E-1,3.416481E-1,4.1685972E-1,-1.3152313E-1,9.871049E-2,1.9764282E-1,3.5578907E-1,-2.5649393E-1,-6.616238E-2,5.69383E-2,-1.4407496E-1,1.5939657E-1,3.088273E-1,3.7287217E-1,-5.5779673E-2],"split_indices":[28,40,3,31,3,30,44,29,34,38,5,41,38,31,5,5,35,3,3,29,3,30,5,3,3,32,3,5,5,30,5,6,5,34,32,29,10,3,5,5,35,28,3,10,6,38,12,32,31,31,34,31,3,42,30,30,6,30,5,0,31,30,5,0,0,0,0,0,0,0,0,0,0,0,0,0,0,0,0,0,0,0,0,0,0,0,0,0,0,0,0,0,0,0,0,0,0,0,0,0,0,0,0,0,0,0,0,0,0,0,0,0,0,0,0,0,0,0,0,0,0,0,0,0,0,0,0],"split_type":[0,0,0,0,0,0,0,0,0,0,0,0,0,0,0,0,0,0,0,0,0,0,0,0,0,0,0,0,0,0,0,0,0,0,0,0,0,0,0,0,0,0,0,0,0,0,0,0,0,0,0,0,0,0,0,0,0,0,0,0,0,0,0,0,0,0,0,0,0,0,0,0,0,0,0,0,0,0,0,0,0,0,0,0,0,0,0,0,0,0,0,0,0,0,0,0,0,0,0,0,0,0,0,0,0,0,0,0,0,0,0,0,0,0,0,0,0,0,0,0,0,0,0,0,0,0,0],"sum_hessian":[5.747144E5,3.7717244E5,1.9754194E5,1.9592633E5,1.8124611E5,1.1157153E5,8.5970414E4,1.2879641E5,6.712993E4,1.538073E5,2.7438807E4,3.5003428E3,1.0807119E5,6.624032E4,1.9730094E4,6.8500484E4,6.029592E4,1.1525556E4,5.560437E4,5.7124508E4,9.66828E4,2.2735748E4,4.703059E3,2.3519648E3,1.1483778E3,1.0606019E5,2.0109987E3,4.8958355E4,1.728196E4,1.8622934E4,1.1071592E3,5.9465438E4,9.035046E3,5.5169004E4,5.1269185E3,7.5786016E3,3.9469543E3,4.9590184E4,6.014188E3,3.5573965E4,2.1550541E4,1.926189E3,9.475661E4,1.2518722E4,1.0217026E4,1.9551102E3,2.747949E3,1.2746031E3,1.0773617E3,2.1698964E2,9.3138824E2,1.004112E5,5.64898E3,9.376707E2,1.073328E3,4.0807098E4,8.1512593E3,1.5113775E4,2.1681853E3,1.1715024E4,6.907909E3,5.0122534E2,6.0593384E2,1.9437463E4,4.0027977E4,1.2383483E3,7.796698E3,5.1135895E4,4.0331084E3,2.4950952E3,2.6318235E3,3.7331404E3,3.845461E3,3.1395073E3,8.07447E2,3.4687559E3,4.612143E4,4.920273E3,1.0939152E3,3.5011695E4,5.6227014E2,1.3864069E4,7.686471E3,1.2295502E3,6.9663885E2,8.427073E4,1.0485877E4,1.1577859E4,9.408624E2,3.6838245E3,6.5332017E3,1.4789474E3,4.7616284E2,2.7451887E3,2.7602518E0,1.2318242E3,4.277894E1,6.988561E2,3.7850565E2,1.5812025E2,5.886938E1,1.9883159E2,7.3255664E2,9.137316E4,9.038046E3,3.1469902E3,2.5019897E3,5.0861356E2,4.290572E2,5.0852484E2,5.6480316E2,1.7448842E4,2.3358256E4,6.853503E3,1.2977562E3,8.519782E3,6.5939937E3,2.7312177E2,1.8950636E3,8.926813E3,2.7882107E3,3.5058801E3,3.402029E3,1.6761414E2,3.336112E2,6.048904E2,1.0434382E0],"tree_param":{"num_deleted":"0","num_feature":"49","num_nodes":"127","size_leaf_vector":"0"}},{"base_weights":[-3.13255E-3,3.4912536E-1,-5.7550037E-1,6.1459888E-2,7.875528E-1,-1.0147618E0,-2.1759777E-1,-2.0937134E-1,4.908727E-1,-2.5724024E-1,8.245601E-1,-4.9973768E-1,-1.0490723E0,-5.0577384E-1,1.8117943E-1,2.023465E-1,-4.4273397E-1,6.803686E-1,-7.059422E-2,3.301183E-1,-7.3436177E-1,8.5144967E-1,-7.37184E-1,-7.724353E-1,1.612366E-1,-1.0731308E0,-6.975419E-1,-5.910049E-1,1.2618461E-1,-3.6715412E-1,3.5299897E-1,-7.3132193E-1,3.960049E-1,-5.441436E-1,2.9834422E-1,8.7440515E-1,2.6924455E-1,-3.2560948E-1,4.246481E-1,-8.2387966E-1,5.3898257E-1,-1.11834906E-1,-8.6252946E-1,9.1766614E-1,3.340059E-1,-1.1111864E0,-3.1486636E-1,-9.875994E-1,-4.2611015E-1,-7.381533E-1,3.7336764E-1,-1.104431E0,-9.6453583E-1,-9.7284144E-1,-2.5603524E-1,-2.4118674E-1,-7.114721E-1,2.884657E-1,-5.3751713E-1,-2.0594263E-1,-8.0238783E-1,4.1491863E-1,-9.7166777E-1,-1.33894645E-2,-8.9832467E-1,5.1113707E-1,-9.6239907E-1,-2.6636758E-1,-8.287762E-1,-7.721656E-2,7.5888973E-1,-7.4486926E-2,9.095907E-1,-1.6777188E-2,7.775658E-1,7.6457933E-3,-5.542188E-1,5.33697E-1,-6.903566E-1,5.644442E-1,-8.885385E-1,-6.3572116E-2,8.039583E-1,-5.9780866E-1,3.6378095E-1,-1.0086458E0,-5.3975624E-1,1.001533E0,6.598018E-1,-4.8107773E-1,5.2202195E-1,-1.11677E0,1.4841863E0,7.8624743E-1,-7.868554E-1,-1.0161611E0,-1.9375816E-1,-5.794058E-1,3.7777698E-1,-8.27844E-1,8.085079E-1,-1.07331574E-1,6.4023864E-1,-1.0987461E0,-1.2985412E0,-1.016206E0,-6.036534E-1,-8.3254135E-1,-1.0685993E0,-2.2617623E-2,-8.229824E-1,1.5843697E-2,-7.350698E-1,-6.0044104E-1,-9.496644E-1,-2.860447E-1,4.9844047E-1,1.6664222E-1,-7.0304793E-1,-9.3180716E-1,-6.438307E-2,-9.512163E-1,-1.6805324E-1,5.795915E-1,6.2480997E-3,-6.916554E-1,-1.1276418E0],"categories":[],"categories_nodes":[],"categories_segments":[],"categories_sizes":[],"default_left":[1,1,1,1,1,1,1,1,1,1,1,1,1,1,1,1,1,1,1,1,1,1,1,1,1,1,1,1,1,1,1,1,1,1,1,1,1,1,1,1,1,1,1,1,1,1,1,1,1,1,1,1,1,1,1,1,1,1,1,1,1,1,1,0,0,0,0,0,0,0,0,0,0,0,0,0,0,0,0,0,0,0,0,0,0,0,0,0,0,0,0,0,0,0,0,0,0,0,0,0,0,0,0,0,0,0,0,0,0,0,0,0,0,0,0,0,0,0,0,0,0,0,0,0,0,0,0],"id":10,"left_children":[1,3,5,7,9,11,13,15,17,19,21,23,25,27,29,31,33,35,37,39,41,43,45,47,49,51,53,55,57,59,61,63,65,67,69,71,73,75,77,79,81,83,85,87,89,91,93,95,97,99,101,103,105,107,109,111,113,115,117,119,121,123,125,-1,-1,-1,-1,-1,-1,-1,-1,-1,-1,-1,-1,-1,-1,-1,-1,-1,-1,-1,-1,-1,-1,-1,-1,-1,-1,-1,-1,-1,-1,-1,-1,-1,-1,-1,-1,-1,-1,-1,-1,-1,-1,-1,-1,-1,-1,-1,-1,-1,-1,-1,-1,-1,-1,-1,-1,-1,-1,-1,-1,-1,-1,-1,-1],"loss_changes":[1.0180012E5,3.941908E4,3.024071E4,2.1948525E4,4.788E3,1.5255547E3,1.2180898E4,1.1119679E4,7.7661797E3,1.1875616E3,5.0228438E3,9.727201E2,6.840156E2,3.3142783E3,4.1894443E3,7.5705586E3,5.5513857E3,4.3533145E3,2.3264468E3,4.5832605E2,1.8645349E2,4.0279531E3,3.194585E2,2.8424146E2,3.011143E2,2.565078E2,6.304878E2,2.2846914E3,7.8782916E2,7.4424426E2,2.777477E3,8.6236523E2,5.4237354E3,5.13699E3,1.5380195E3,1.2379102E3,2.5443418E3,9.263689E2,7.616886E2,2.66716E1,2.5697433E2,9.274933E1,9.089136E1,2.2534297E3,2.0445424E3,1.7213013E1,4.9557184E2,5.3210205E1,1.8083273E2,4.2461502E1,1.638305E2,6.346875E1,3.1568945E2,4.2046875E1,2.6390662E2,1.763254E3,1.0660156E3,7.0910095E2,1.6763376E2,7.955784E2,2.7052905E2,2.1767866E3,6.526636E1,0E0,0E0,0E0,0E0,0E0,0E0,0E0,0E0,0E0,0E0,0E0,0E0,0E0,0E0,0E0,0E0,0E0,0E0,0E0,0E0,0E0,0E0,0E0,0E0,0E0,0E0,0E0,0E0,0E0,0E0,0E0,0E0,0E0,0E0,0E0,0E0,0E0,0E0,0E0,0E0,0E0,0E0,0E0,0E0,0E0,0E0,0E0,0E0,0E0,0E0,0E0,0E0,0E0,0E0,0E0,0E0,0E0,0E0,0E0,0E0,0E0,0E0,0E0,0E0],"parents":[2147483647,0,0,1,1,2,2,3,3,4,4,5,5,6,6,7,7,8,8,9,9,10,10,11,11,12,12,13,13,14,14,15,15,16,16,17,17,18,18,19,19,20,20,21,21,22,22,23,23,24,24,25,25,26,26,27,27,28,28,29,29,30,30,31,31,32,32,33,33,34,34,35,35,36,36,37,37,38,38,39,39,40,40,41,41,42,42,43,43,44,44,45,45,46,46,47,47,48,48,49,49,50,50,51,51,52,52,53,53,54,54,55,55,56,56,57,57,58,58,59,59,60,60,61,61,62,62],"right_children":[2,4,6,8,10,12,14,16,18,20,22,24,26,28,30,32,34,36,38,40,42,44,46,48,50,52,54,56,58,60,62,64,66,68,70,72,74,76,78,80,82,84,86,88,90,92,94,96,98,100,102,104,106,108,110,112,114,116,118,120,122,124,126,-1,-1,-1,-1,-1,-1,-1,-1,-1,-1,-1,-1,-1,-1,-1,-1,-1,-1,-1,-1,-1,-1,-1,-1,-1,-1,-1,-1,-1,-1,-1,-1,-1,-1,-1,-1,-1,-1,-1,-1,-1,-1,-1,-1,-1,-1,-1,-1,-1,-1,-1,-1,-1,-1,-1,-1,-1,-1,-1,-1,-1,-1,-1,-1],"split_conditions":[2.7844965E-1,5.3838685E-2,-3.4881634E-1,-1.9469944E-1,-6.7637247E-1,-8.6365294E-1,-2.2425647E-1,-2.5080374E-1,4.5040244E-1,-5.089427E-1,2.1045542E0,-1.9370759E-1,1.2893248E-1,5.303961E-1,-1.1584426E-1,-5.2752316E-1,5.934417E-1,1.8644133E-1,1.542084E-1,-4.1732615E-1,-3.4203267E-1,6.630252E-1,-6.173477E-1,-5.429363E-1,-7.183217E-1,-5.789349E-1,-5.9419143E-1,-7.750951E-1,1.0897609E0,1.1267829E0,2.1377382E0,-9.1371834E-1,2.0719903E0,2.8370421E-2,1.3372529E-1,-5.7470024E-1,5.583879E-1,7.823862E-1,2.189888E0,-6.533759E-1,-2.7518362E-1,-2.2856383E-1,-8.466092E-2,-3.752566E-1,-1.0693974E0,7.0845585E0,1.0968916E0,1.1386232E-1,4.6706492E-1,1.9374535E0,-3.316328E-1,-1.5095323E-1,-6.336084E-2,1.0170846E0,1.1490664E0,9.545845E-1,1.0976799E0,-1.0468215E-1,-6.8890643E-1,-1.1606998E0,4.283627E-1,1.922125E-1,2.5327077E0,-4.0168394E-3,-2.6949742E-1,1.5334113E-1,-2.8871974E-1,-7.991028E-2,-2.4863286E-1,-2.3164969E-2,2.2766693E-1,-2.234608E-2,2.7287722E-1,-5.0331564E-3,2.3326974E-1,2.293738E-3,-1.6626565E-1,1.601091E-1,-2.07107E-1,1.6933326E-1,-2.6656157E-1,-1.9071635E-2,2.411875E-1,-1.793426E-1,1.0913429E-1,-3.0259374E-1,-1.6192688E-1,3.0045992E-1,1.9794054E-1,-1.4432332E-1,1.5660658E-1,-3.3503103E-1,4.452559E-1,2.3587424E-1,-2.3605663E-1,-3.0484834E-1,-5.812745E-2,-1.7382175E-1,1.133331E-1,-2.4835321E-1,2.4255238E-1,-3.2199472E-2,1.920716E-1,-3.2962382E-1,-3.8956237E-1,-3.048618E-1,-1.8109602E-1,-2.4976242E-1,-3.2057983E-1,-6.785287E-3,-2.4689472E-1,4.753109E-3,-2.2052096E-1,-1.8013231E-1,-2.8489932E-1,-8.581341E-2,1.4953215E-1,4.999267E-2,-2.1091439E-1,-2.7954215E-1,-1.931492E-2,-2.853649E-1,-5.0415974E-2,1.7387746E-1,1.87443E-3,-2.0749663E-1,-3.3829254E-1],"split_indices":[28,34,3,41,3,30,41,0,3,28,5,41,44,35,34,3,35,29,38,6,30,6,8,3,3,3,3,30,28,0,5,28,5,8,32,3,35,0,5,8,31,31,31,28,28,12,3,32,35,23,31,6,31,28,28,0,28,34,30,23,47,30,5,0,0,0,0,0,0,0,0,0,0,0,0,0,0,0,0,0,0,0,0,0,0,0,0,0,0,0,0,0,0,0,0,0,0,0,0,0,0,0,0,0,0,0,0,0,0,0,0,0,0,0,0,0,0,0,0,0,0,0,0,0,0,0,0],"split_type":[0,0,0,0,0,0,0,0,0,0,0,0,0,0,0,0,0,0,0,0,0,0,0,0,0,0,0,0,0,0,0,0,0,0,0,0,0,0,0,0,0,0,0,0,0,0,0,0,0,0,0,0,0,0,0,0,0,0,0,0,0,0,0,0,0,0,0,0,0,0,0,0,0,0,0,0,0,0,0,0,0,0,0,0,0,0,0,0,0,0,0,0,0,0,0,0,0,0,0,0,0,0,0,0,0,0,0,0,0,0,0,0,0,0,0,0,0,0,0,0,0,0,0,0,0,0,0],"sum_hessian":[5.049061E5,3.125505E5,1.9235562E5,1.8872406E5,1.2382642E5,8.636104E4,1.0599458E5,1.1573216E5,7.2991914E4,4.2357734E3,1.1959065E5,5.394931E3,8.096611E4,6.152982E4,4.4464754E4,4.186701E4,7.386515E4,5.4573176E4,1.8418736E4,1.8986974E3,2.3370757E3,1.17566875E5,2.0237739E3,3.8191138E3,1.5758175E3,7.577785E4,5.1882583E3,5.4217652E4,7.3121704E3,1.0608464E4,3.385629E4,7.1916675E3,3.4675344E4,6.4974285E4,8.890857E3,3.707426E4,1.7498914E4,1.2158368E4,6.260369E3,2.9053195E2,1.6081655E3,3.9933368E2,1.9377421E3,1.0422819E5,1.3338688E4,1.0724164E3,9.513576E2,2.3544778E3,1.464636E3,3.0026767E2,1.2755498E3,5.881616E4,1.6961695E4,3.194893E3,1.9933651E3,1.3889033E4,4.0328617E4,5.8760005E3,1.4361699E3,7.7422075E3,2.8662563E3,3.2345053E4,1.5112369E3,1.357397E3,5.8342705E3,3.1966621E4,2.7087234E3,3.288419E4,3.2090098E4,4.8977363E3,3.9931216E3,1.3255459E3,3.5748715E4,1.1198641E4,6.300274E3,4.9473438E3,7.2110244E3,5.703118E3,5.572509E2,1.2584919E1,2.7794702E2,4.9142514E2,1.1167404E3,1.9738902E2,2.0194466E2,1.332436E3,6.05306E2,7.8646586E4,2.5581598E4,2.499846E3,1.0838843E4,1.0706826E3,1.7337371E0,2.8524268E2,6.661149E2,2.2724373E3,8.204041E1,1.2303047E3,2.3433128E2,2.8424887E2,1.60188E1,4.5556494E2,8.1998486E2,5.7149062E4,1.6670972E3,1.4835734E4,2.1259602E3,1.2999539E3,1.8949393E3,1.4127587E3,5.8060645E2,9.135588E3,4.753445E3,2.7509057E4,1.2819562E4,1.5726693E3,4.303331E3,2.733493E2,1.1628207E3,1.262581E3,6.4796265E3,2.3211626E3,5.450938E2,2.305477E4,9.290284E3,5.425886E2,9.6864825E2],"tree_param":{"num_deleted":"0","num_feature":"49","num_nodes":"127","size_leaf_vector":"0"}},{"base_weights":[3.1325358E-3,-3.4912536E-1,5.7550025E-1,-6.145989E-2,-7.875527E-1,1.0147618E0,2.1759763E-1,2.093712E-1,-4.9087256E-1,2.572402E-1,-8.2456005E-1,4.9973768E-1,1.0490723E0,5.057738E-1,-1.8117961E-1,-2.0234661E-1,4.427338E-1,-6.803685E-1,7.059419E-2,-3.3011836E-1,7.3436177E-1,-8.5144967E-1,7.371839E-1,7.724351E-1,-1.6123547E-1,1.0731308E0,6.975419E-1,5.9100485E-1,-1.2618479E-1,3.6715418E-1,-3.5299918E-1,7.3132193E-1,-3.96005E-1,5.441435E-1,-2.983448E-1,-8.744052E-1,-2.692436E-1,3.2560945E-1,-4.246481E-1,8.2387966E-1,-5.389826E-1,1.11834995E-1,8.625294E-1,-9.176661E-1,-3.3400613E-1,1.1111863E0,3.1486621E-1,9.876001E-1,4.2610663E-1,7.381543E-1,-3.733667E-1,1.104431E0,9.6453583E-1,9.728415E-1,2.5603515E-1,2.411866E-1,7.1147203E-1,-2.8846592E-1,5.3751713E-1,2.0594269E-1,8.023879E-1,-4.1491884E-1,9.7166777E-1,1.3389414E-2,8.9832467E-1,-5.111372E-1,9.62399E-1,2.6636755E-1,8.28776E-1,7.721592E-2,-7.5889015E-1,7.4486986E-2,-9.095908E-1,1.6776735E-2,-7.77564E-1,-7.6457895E-3,5.5421877E-1,-5.33697E-1,6.903567E-1,-5.644442E-1,8.885385E-1,6.3572E-2,-8.0395836E-1,5.978088E-1,-3.637809E-1,1.0086458E0,5.397561E-1,-1.001533E0,-6.598011E-1,4.810775E-1,-5.220221E-1,1.1167699E0,-1.4841863E0,-7.8624773E-1,7.8685534E-1,1.0161618E0,1.937598E-1,5.7940227E-1,-3.7777635E-1,8.2784486E-1,-8.085042E-1,1.0733251E-1,-6.4023775E-1,1.0987461E0,1.2985412E0,1.0162061E0,6.036534E-1,8.325414E-1,1.0685993E0,2.2617515E-2,8.229824E-1,-1.58438E-2,7.350697E-1,6.00441E-1,9.496644E-1,2.860447E-1,-4.9844074E-1,-1.6664231E-1,7.030479E-1,9.318072E-1,6.438313E-2,9.5121634E-1,1.6805334E-1,-5.795917E-1,-6.2482683E-3,6.9165534E-1,1.1276418E0],"categories":[],"categories_nodes":[],"categories_segments":[],"categories_sizes":[],"default_left":[1,1,1,1,1,1,1,1,1,1,1,1,1,1,1,1,1,1,1,1,1,1,1,1,1,1,1,1,1,1,1,1,1,1,1,1,1,1,1,1,1,1,1,1,1,1,1,1,1,1,1,1,1,1,1,1,1,1,1,1,1,1,1,0,0,0,0,0,0,0,0,0,0,0,0,0,0,0,0,0,0,0,0,0,0,0,0,0,0,0,0,0,0,0,0,0,0,0,0,0,0,0,0,0,0,0,0,0,0,0,0,0,0,0,0,0,0,0,0,0,0,0,0,0,0,0,0],"id":11,"left_children":[1,3,5,7,9,11,13,15,17,19,21,23,25,27,29,31,33,35,37,39,41,43,45,47,49,51,53,55,57,59,61,63,65,67,69,71,73,75,77,79,81,83,85,87,89,91,93,95,97,99,101,103,105,107,109,111,113,115,117,119,121,123,125,-1,-1,-1,-1,-1,-1,-1,-1,-1,-1,-1,-1,-1,-1,-1,-1,-1,-1,-1,-1,-1,-1,-1,-1,-1,-1,-1,-1,-1,-1,-1,-1,-1,-1,-1,-1,-1,-1,-1,-1,-1,-1,-1,-1,-1,-1,-1,-1,-1,-1,-1,-1,-1,-1,-1,-1,-1,-1,-1,-1,-1,-1,-1,-1],"loss_changes":[1.0180009E5,3.941908E4,3.0240719E4,2.1948508E4,4.787992E3,1.5255469E3,1.21809E4,1.111968E4,7.766172E3,1.1875618E3,5.022836E3,9.727179E2,6.840156E2,3.3142812E3,4.1894478E3,7.5705605E3,5.5513887E3,4.353326E3,2.326447E3,4.5832605E2,1.8645349E2,4.027961E3,3.1945886E2,2.842456E2,3.0111475E2,2.5651562E2,6.304878E2,2.2846895E3,7.878295E2,7.4424426E2,2.777478E3,8.623645E2,5.423735E3,5.136992E3,1.538019E3,1.2379141E3,2.5443228E3,9.263688E2,7.616886E2,2.66716E1,2.5697433E2,9.2749344E1,9.08916E1,2.2534453E3,2.0445428E3,1.7213013E1,4.9557208E2,5.3210205E1,1.8083112E2,4.246141E1,1.6383066E2,6.346875E1,3.1568848E2,4.2046875E1,2.6390668E2,1.7632537E3,1.0660156E3,7.0910144E2,1.6763379E2,7.9557825E2,2.7052942E2,2.1767876E3,6.526648E1,0E0,0E0,0E0,0E0,0E0,0E0,0E0,0E0,0E0,0E0,0E0,0E0,0E0,0E0,0E0,0E0,0E0,0E0,0E0,0E0,0E0,0E0,0E0,0E0,0E0,0E0,0E0,0E0,0E0,0E0,0E0,0E0,0E0,0E0,0E0,0E0,0E0,0E0,0E0,0E0,0E0,0E0,0E0,0E0,0E0,0E0,0E0,0E0,0E0,0E0,0E0,0E0,0E0,0E0,0E0,0E0,0E0,0E0,0E0,0E0,0E0,0E0,0E0,0E0],"parents":[2147483647,0,0,1,1,2,2,3,3,4,4,5,5,6,6,7,7,8,8,9,9,10,10,11,11,12,12,13,13,14,14,15,15,16,16,17,17,18,18,19,19,20,20,21,21,22,22,23,23,24,24,25,25,26,26,27,27,28,28,29,29,30,30,31,31,32,32,33,33,34,34,35,35,36,36,37,37,38,38,39,39,40,40,41,41,42,42,43,43,44,44,45,45,46,46,47,47,48,48,49,49,50,50,51,51,52,52,53,53,54,54,55,55,56,56,57,57,58,58,59,59,60,60,61,61,62,62],"right_children":[2,4,6,8,10,12,14,16,18,20,22,24,26,28,30,32,34,36,38,40,42,44,46,48,50,52,54,56,58,60,62,64,66,68,70,72,74,76,78,80,82,84,86,88,90,92,94,96,98,100,102,104,106,108,110,112,114,116,118,120,122,124,126,-1,-1,-1,-1,-1,-1,-1,-1,-1,-1,-1,-1,-1,-1,-1,-1,-1,-1,-1,-1,-1,-1,-1,-1,-1,-1,-1,-1,-1,-1,-1,-1,-1,-1,-1,-1,-1,-1,-1,-1,-1,-1,-1,-1,-1,-1,-1,-1,-1,-1,-1,-1,-1,-1,-1,-1,-1,-1,-1,-1,-1,-1,-1,-1],"split_conditions":[2.7844965E-1,5.3838685E-2,-3.4881634E-1,-1.9469944E-1,-6.7637247E-1,-8.6365294E-1,-2.2425647E-1,-2.5080374E-1,4.5040244E-1,-5.089427E-1,2.1045542E0,-1.9370759E-1,1.2893248E-1,5.303961E-1,-1.1584426E-1,-5.2752316E-1,5.934417E-1,1.8644133E-1,1.542084E-1,-4.1732615E-1,-3.4203267E-1,6.630252E-1,-6.173477E-1,-5.429363E-1,-7.183217E-1,-5.789349E-1,-5.9419143E-1,-7.750951E-1,1.0897609E0,1.1267829E0,2.1377382E0,-9.1371834E-1,2.0719903E0,2.8370421E-2,1.3372529E-1,-5.7470024E-1,5.583879E-1,7.823862E-1,2.189888E0,-6.533759E-1,-2.7518362E-1,-2.2856383E-1,-8.466092E-2,-3.752566E-1,-1.0693974E0,7.0845585E0,1.0968916E0,1.1386232E-1,4.6706492E-1,1.9374535E0,-3.316328E-1,-1.5095323E-1,-6.336084E-2,1.0170846E0,1.1490664E0,9.545845E-1,1.0976799E0,-1.0468215E-1,-6.8890643E-1,-1.1606998E0,4.283627E-1,1.922125E-1,2.5327077E0,4.0168245E-3,2.6949742E-1,-1.5334116E-1,2.887197E-1,7.991027E-2,2.486328E-1,2.3164775E-2,-2.2766705E-1,2.2346096E-2,-2.7287725E-1,5.033021E-3,-2.332692E-1,-2.293737E-3,1.6626564E-1,-1.601091E-1,2.0710701E-1,-1.6933326E-1,2.6656157E-1,1.90716E-2,-2.4118751E-1,1.7934264E-1,-1.0913427E-1,3.0259374E-1,1.6192684E-1,-3.0045992E-1,-1.9794035E-1,1.4432326E-1,-1.5660664E-1,3.3503097E-1,-4.452559E-1,-2.3587433E-1,2.3605661E-1,3.0484855E-1,5.8127943E-2,1.7382069E-1,-1.1333291E-1,2.4835347E-1,-2.4255128E-1,3.2199755E-2,-1.9207133E-1,3.2962382E-1,3.8956237E-1,3.0486184E-1,1.8109602E-1,2.4976243E-1,3.2057983E-1,6.785255E-3,2.4689472E-1,-4.75314E-3,2.2052091E-1,1.801323E-1,2.8489932E-1,8.581341E-2,-1.4953223E-1,-4.9992695E-2,2.1091437E-1,2.7954218E-1,1.931494E-2,2.8536493E-1,5.0416004E-2,-1.738775E-1,-1.8744805E-3,2.0749661E-1,3.3829254E-1],"split_indices":[28,34,3,41,3,30,41,0,3,28,5,41,44,35,34,3,35,29,38,6,30,6,8,3,3,3,3,30,28,0,5,28,5,8,32,3,35,0,5,8,31,31,31,28,28,12,3,32,35,23,31,6,31,28,28,0,28,34,30,23,47,30,5,0,0,0,0,0,0,0,0,0,0,0,0,0,0,0,0,0,0,0,0,0,0,0,0,0,0,0,0,0,0,0,0,0,0,0,0,0,0,0,0,0,0,0,0,0,0,0,0,0,0,0,0,0,0,0,0,0,0,0,0,0,0,0,0],"split_type":[0,0,0,0,0,0,0,0,0,0,0,0,0,0,0,0,0,0,0,0,0,0,0,0,0,0,0,0,0,0,0,0,0,0,0,0,0,0,0,0,0,0,0,0,0,0,0,0,0,0,0,0,0,0,0,0,0,0,0,0,0,0,0,0,0,0,0,0,0,0,0,0,0,0,0,0,0,0,0,0,0,0,0,0,0,0,0,0,0,0,0,0,0,0,0,0,0,0,0,0,0,0,0,0,0,0,0,0,0,0,0,0,0,0,0,0,0,0,0,0,0,0,0,0,0,0,0],"sum_hessian":[5.0490612E5,3.125505E5,1.9235562E5,1.8872406E5,1.2382642E5,8.636104E4,1.05994586E5,1.15732164E5,7.29919E4,4.2357734E3,1.1959065E5,5.3949316E3,8.096611E4,6.1529824E4,4.4464758E4,4.1867016E4,7.386515E4,5.4573164E4,1.8418738E4,1.8986975E3,2.337076E3,1.17566875E5,2.0237739E3,3.819113E3,1.5758187E3,7.577785E4,5.1882583E3,5.4217652E4,7.312171E3,1.0608464E4,3.3856297E4,7.191668E3,3.4675348E4,6.4974293E4,8.890859E3,3.7074266E4,1.7498898E4,1.2158368E4,6.260369E3,2.9053195E2,1.6081656E3,3.9933374E2,1.9377422E3,1.0422818E5,1.3338691E4,1.0724163E3,9.513576E2,2.3544822E3,1.4646309E3,3.0026816E2,1.2755505E3,5.8816152E4,1.6961697E4,3.1948933E3,1.9933651E3,1.3889034E4,4.032862E4,5.876001E3,1.43617E3,7.7422075E3,2.8662563E3,3.2345059E4,1.5112368E3,1.3573971E3,5.834271E3,3.1966623E4,2.7087231E3,3.288419E4,3.20901E4,4.897737E3,3.9931226E3,1.325546E3,3.574872E4,1.1198644E4,6.300255E3,4.9473438E3,7.2110244E3,5.703118E3,5.57251E2,1.2584919E1,2.7794702E2,4.914252E2,1.1167404E3,1.9738905E2,2.0194467E2,1.332436E3,6.05306E2,7.864659E4,2.5581582E4,2.4998462E3,1.0838845E4,1.0706825E3,1.7337371E0,2.852427E2,6.661149E2,2.2724417E3,8.204052E1,1.2302994E3,2.343314E2,2.8424933E2,1.601883E1,4.5556528E2,8.199853E2,5.7149055E4,1.6670973E3,1.4835736E4,2.1259604E3,1.2999539E3,1.8949393E3,1.4127587E3,5.8060645E2,9.135589E3,4.7534453E3,2.7509059E4,1.28195625E4,1.5726693E3,4.3033315E3,2.733493E2,1.1628207E3,1.262581E3,6.479626E3,2.3211626E3,5.450938E2,2.3054773E4,9.290285E3,5.425886E2,9.686482E2],"tree_param":{"num_deleted":"0","num_feature":"49","num_nodes":"127","size_leaf_vector":"0"}},{"base_weights":[-3.5053184E-3,-3.1309524E-1,5.0285184E-1,-9.138964E-1,-1.05696626E-1,6.6027325E-1,-6.3105435E-3,-1.9414705E-1,-1.0064341E0,5.881655E-2,-6.3213235E-1,8.65081E-1,2.1883264E-1,1.2301264E-1,-8.886847E-1,-3.8005766E-1,5.829541E-1,-6.567783E-1,-1.0327134E0,-8.0118245E-1,1.7137524E-1,-7.2696394E-1,6.2120263E-2,9.332255E-1,5.6232584E-1,-6.4203024E-1,3.7901816E-1,5.973959E-1,-6.1749358E-2,-5.907727E-1,-1.1062865E0,5.2775383E-1,-5.054946E-1,-5.7790285E-1,6.629312E-1,-8.5565454E-1,-6.4866684E-2,-1.0417054E0,-4.9229676E-1,-6.142081E-1,-1.0927398E0,-1.3289987E-1,4.3542665E-1,-7.887185E-1,-1.4108995E-1,-4.5200366E-1,4.2418504E-1,6.039366E-1,9.7723675E-1,6.451165E-1,-6.8785065E-1,-8.963067E-3,-8.0891454E-1,4.7274673E-1,-4.4589365E-1,7.078493E-1,-3.5412097E-1,-2.7167502E-1,3.5599202E-1,-6.4455676E-1,7.8436846E-1,-9.3129706E-1,-1.1326951E0,-7.690809E-1,8.2499593E-1,-6.6078174E-1,2.729081E-1,-4.3567862E-2,-8.627686E-1,-5.959533E-1,7.1081644E-1,-8.949838E-1,1.7698792E-1,-7.4596906E-1,2.583234E-1,-1.05725E0,-8.2670146E-1,1.4744128E-2,-9.428182E-1,2.5194627E-1,-6.8851924E-1,-1.1013899E0,-4.473313E-1,3.459802E-1,-3.4609336E-1,-5.422402E-1,5.039994E-1,-6.4868474E-1,-9.7206604E-1,-5.777412E-1,5.1354803E-2,-7.9752016E-1,-2.0629215E-1,5.4094577E-1,-5.261533E-1,9.58617E-1,3.9354125E-1,9.8385984E-1,-6.4633447E-1,3.7460947E-1,8.7938386E-1,-1.0240989E0,4.3650582E-1,-2.9758415E-1,3.804029E-1,-9.5665157E-1,-5.229917E-1,6.636334E-1,5.771629E-2,2.2101189E-1,-6.878568E-1,4.323384E-1,9.41008E-1,-6.507165E-1,1.3642682E-1,2.0865339E-1,-4.1545177E-1,-5.9508926E-1,4.1954654E-1,-1.612423E-1,-8.2417804E-1,1.5970762E0,-4.637135E-1,-1.0297568E0,-3.205742E-1,-1.134311E0,5.381778E-1],"categories":[],"categories_nodes":[],"categories_segments":[],"categories_sizes":[],"default_left":[1,1,1,1,1,1,1,1,1,1,1,1,1,1,1,1,1,1,1,1,1,1,1,1,1,1,1,1,1,1,1,1,1,1,1,1,1,1,1,1,1,1,1,1,1,1,1,1,1,1,1,1,1,1,1,1,1,1,1,1,1,1,1,0,0,0,0,0,0,0,0,0,0,0,0,0,0,0,0,0,0,0,0,0,0,0,0,0,0,0,0,0,0,0,0,0,0,0,0,0,0,0,0,0,0,0,0,0,0,0,0,0,0,0,0,0,0,0,0,0,0,0,0,0,0,0,0],"id":12,"left_children":[1,3,5,7,9,11,13,15,17,19,21,23,25,27,29,31,33,35,37,39,41,43,45,47,49,51,53,55,57,59,61,63,65,67,69,71,73,75,77,